{
    "version": "0.5.0",
    "architecture": "WaveNet",
    "config": {
        "layers": [
            {
                "input_size": 1,
                "condition_size": 1,
                "head_size": 8,
                "channels": 16,
                "kernel_size": 3,
                "dilations": [
                    1,
                    2,
                    4,
                    8,
                    16,
                    32,
                    64,
                    128,
                    256,
                    512
                ],
                "activation": "Tanh",
                "gated": false,
                "head_bias": false
            },
            {
                "input_size": 16,
                "condition_size": 1,
                "head_size": 1,
                "channels": 8,
                "kernel_size": 3,
                "dilations": [
                    1,
                    2,
                    4,
                    8,
                    16,
                    32,
                    64,
                    128,
                    256,
                    512
                ],
                "activation": "Tanh",
                "gated": false,
                "head_bias": true
            }
        ],
        "head": null,
        "head_scale": 0.02
    },
    "weights": [
        0.03609142079949379,
        0.6483786106109619,
        -0.8661030530929565,
        -0.7751101851463318,
        -0.4323495626449585,
        0.28454306721687317,
        -0.04748571291565895,
        0.8873834013938904,
        -0.22311314940452576,
        0.3502632677555084,
        -0.45366597175598145,
        -0.25237250328063965,
        -0.9964042901992798,
        -0.6279730200767517,
        -0.5193100571632385,
        0.15664756298065186,
        0.09434444457292557,
        0.095318503677845,
        -0.08761431276798248,
        -0.25351130962371826,
        0.17469574511051178,
        0.15719620883464813,
        0.1585407555103302,
        -0.014652195386588573,
        -0.06126388907432556,
        0.20354515314102173,
        0.007946711964905262,
        -0.17222608625888824,
        0.09906920790672302,
        -0.15848778188228607,
        -0.0936753898859024,
        -0.06188308820128441,
        0.028101785108447075,
        -0.028243863955140114,
        0.08956387639045715,
        -0.2483557164669037,
        -0.11469931900501251,
        -0.06518614292144775,
        0.18754909932613373,
        0.10835813730955124,
        0.20339779555797577,
        -0.2030261605978012,
        -0.01622854173183441,
        -0.3247985541820526,
        0.019244102761149406,
        -0.03583664447069168,
        0.2837563455104828,
        -0.039959587156772614,
        -0.10249747335910797,
        0.18433541059494019,
        -0.030652230605483055,
        0.10480809211730957,
        0.24572379887104034,
        -0.10285300761461258,
        0.058761969208717346,
        0.10203840583562851,
        -0.09450899064540863,
        -0.1497218757867813,
        0.09033339470624924,
        -0.19820266962051392,
        0.027102898806333542,
        -0.13600270450115204,
        0.04588128998875618,
        0.08684337884187698,
        0.027002420276403427,
        0.09476244449615479,
        -0.06366907060146332,
        0.12810513377189636,
        -0.04519345983862877,
        0.08396658301353455,
        -0.2025320678949356,
        0.08157895505428314,
        0.11251350492238998,
        0.02888305112719536,
        0.26026517152786255,
        0.18326912820339203,
        -0.068648561835289,
        0.009402064606547356,
        0.06553315371274948,
        0.0022047937382012606,
        -0.2712017297744751,
        0.07880818843841553,
        -0.010363984853029251,
        -0.013697074726223946,
        0.03907264769077301,
        0.06726672500371933,
        -0.15833286941051483,
        -0.12287601083517075,
        -0.060707658529281616,
        0.05765656381845474,
        0.08786271512508392,
        0.17161120474338531,
        -0.03750215470790863,
        0.004191444721072912,
        -0.24165934324264526,
        0.04394599422812462,
        0.12405329942703247,
        -0.07010427117347717,
        0.024785472080111504,
        -0.034855227917432785,
        0.045584794133901596,
        0.23167985677719116,
        -0.00576998945325613,
        -0.12479613721370697,
        -0.0026606274768710136,
        0.054460566490888596,
        -0.2071971446275711,
        0.026469428092241287,
        0.0421711802482605,
        0.170684352517128,
        -0.22251708805561066,
        0.0705132782459259,
        -0.05474972352385521,
        0.012485713697969913,
        0.06820298731327057,
        -0.09908756613731384,
        0.07915700227022171,
        0.0766807571053505,
        -0.0043353913351893425,
        -0.08054317533969879,
        -0.014886287041008472,
        -0.01636502891778946,
        -0.18550333380699158,
        -0.003184413304552436,
        -0.15805208683013916,
        -0.19998319447040558,
        -0.10475502163171768,
        -0.04980224370956421,
        0.06795978546142578,
        -0.05243754759430885,
        -0.014329230412840843,
        -0.08191703259944916,
        -0.131321981549263,
        0.01758202351629734,
        0.21832242608070374,
        0.056894659996032715,
        -0.0015079155564308167,
        -0.1335451751947403,
        -0.02661082334816456,
        0.10919971764087677,
        0.2554580867290497,
        0.157844677567482,
        0.11808125674724579,
        -0.12625178694725037,
        -0.1960565596818924,
        -0.08342133462429047,
        -0.019072117283940315,
        -0.06521438807249069,
        -0.09729311615228653,
        -0.22569909691810608,
        -0.20734454691410065,
        -0.1468883454799652,
        -0.14442698657512665,
        0.0078947888687253,
        0.05743427947163582,
        -0.25730302929878235,
        0.020648594945669174,
        -0.12921437621116638,
        0.11508090049028397,
        -0.0032724840566515923,
        -0.15769878029823303,
        0.0716419592499733,
        -0.13808244466781616,
        -0.22611571848392487,
        -0.07133413851261139,
        0.016099795699119568,
        0.0384574718773365,
        0.10358106344938278,
        -0.14211411774158478,
        0.09238588809967041,
        0.17649763822555542,
        -0.07100876420736313,
        0.22755615413188934,
        0.0993632823228836,
        -0.147299662232399,
        0.0008140054414980114,
        -0.06644915044307709,
        -0.04544562101364136,
        0.15396586060523987,
        -0.09247443825006485,
        -0.05492674931883812,
        -0.13382987678050995,
        0.05344844236969948,
        0.052105825394392014,
        0.15305979549884796,
        0.09223290532827377,
        -0.0808628723025322,
        -0.12197401374578476,
        -0.16680645942687988,
        0.10185687243938446,
        0.2129356414079666,
        0.14489631354808807,
        -0.12392488867044449,
        0.09383875876665115,
        -0.05507475137710571,
        -0.10366109013557434,
        0.01886804774403572,
        0.09934727102518082,
        -0.09668900817632675,
        0.09666531533002853,
        0.05605708435177803,
        0.0815892219543457,
        -0.010891295038163662,
        -0.049743618816137314,
        -0.10297859460115433,
        0.04679059982299805,
        -0.10144729167222977,
        0.19260627031326294,
        0.04933702573180199,
        0.14525803923606873,
        0.021595953032374382,
        0.036823417991399765,
        -0.21368475258350372,
        -0.12464859336614609,
        -0.06405279785394669,
        0.24959826469421387,
        -0.020743252709507942,
        -0.13773448765277863,
        0.3479488492012024,
        -0.024352673441171646,
        -0.0781722292304039,
        0.37381869554519653,
        0.14213071763515472,
        0.06496451050043106,
        -0.35945942997932434,
        -0.019921347498893738,
        -0.19026343524456024,
        0.18462145328521729,
        0.018184147775173187,
        0.04146226495504379,
        -0.23020252585411072,
        0.025754142552614212,
        -0.05996435135602951,
        0.3739340603351593,
        0.17485250532627106,
        -0.024321772158145905,
        -0.17182327806949615,
        -0.19300685822963715,
        -0.1291961371898651,
        0.2781440019607544,
        0.13894851505756378,
        0.04138714447617531,
        0.18918156623840332,
        0.09136459976434708,
        0.01232136134058237,
        0.09135063737630844,
        0.1975371539592743,
        -0.1799725592136383,
        0.23247255384922028,
        0.06856198608875275,
        -0.14264443516731262,
        0.2542485296726227,
        0.21070517599582672,
        0.0556996688246727,
        -0.3437078595161438,
        -0.13559696078300476,
        -0.12334087491035461,
        -0.08200833946466446,
        -0.0808035135269165,
        -0.10133128613233566,
        -0.010341320186853409,
        0.14545685052871704,
        0.07846138626337051,
        0.038095973432064056,
        -0.011397628113627434,
        -0.046112701296806335,
        -0.11397115141153336,
        -0.021001480519771576,
        0.12662045657634735,
        -0.033533211797475815,
        -0.12932322919368744,
        -0.0735044851899147,
        -0.058176007121801376,
        0.0891527608036995,
        -0.03914053365588188,
        -0.20639276504516602,
        0.1028246209025383,
        -0.09609515219926834,
        0.05657241493463516,
        0.10528568178415298,
        0.030521653592586517,
        -0.17451009154319763,
        -0.16149038076400757,
        0.10440991818904877,
        0.10089782625436783,
        0.1776622235774994,
        -0.03880563750863075,
        -0.03021848574280739,
        -0.09143189340829849,
        0.0058198049664497375,
        -0.16442815959453583,
        -0.007266052067279816,
        0.04705686494708061,
        -0.076561838388443,
        -0.09701631963253021,
        -0.0878608450293541,
        0.02502255327999592,
        -0.17123106122016907,
        0.06720981001853943,
        -0.12423018366098404,
        -0.1302247941493988,
        -0.026803797110915184,
        0.03137582167983055,
        0.07152662426233292,
        0.0215400792658329,
        -0.27267083525657654,
        0.016723066568374634,
        -0.003852307330816984,
        0.1492416262626648,
        0.05662146583199501,
        -0.05591897293925285,
        -0.1141253188252449,
        -0.02542964369058609,
        0.008916112594306469,
        -0.03792461007833481,
        0.02055792510509491,
        -0.007477284409105778,
        -0.09099545329809189,
        -0.01367696188390255,
        -0.050940535962581635,
        0.1101626306772232,
        0.08851843327283859,
        -0.018947353586554527,
        -0.08378803730010986,
        0.060589149594306946,
        0.06761129945516586,
        0.17693302035331726,
        0.09547211229801178,
        0.15482822060585022,
        -0.16713418066501617,
        -0.17859391868114471,
        -0.193900927901268,
        0.24111449718475342,
        0.16181711852550507,
        -0.029056698083877563,
        -0.03583703935146332,
        0.03774271905422211,
        0.21402312815189362,
        0.029497351497411728,
        0.042197395116090775,
        0.02788546308875084,
        -0.1433144211769104,
        0.0419161394238472,
        0.14037011563777924,
        -0.18065980076789856,
        0.05403127893805504,
        0.13770630955696106,
        -0.017008982598781586,
        -0.16354911029338837,
        -0.06887040287256241,
        0.07428354769945145,
        0.166824609041214,
        -0.1521477848291397,
        -0.11503276228904724,
        -0.07481192797422409,
        -0.031777530908584595,
        0.17668554186820984,
        0.19630743563175201,
        -0.009014248847961426,
        -0.1912296861410141,
        -0.22234131395816803,
        -0.05241932347416878,
        -0.34129077196121216,
        -0.012165899388492107,
        0.17154483497142792,
        -0.09116280823945999,
        -0.010636349208652973,
        -0.21156756579875946,
        0.13123178482055664,
        0.10603483766317368,
        -0.009586961008608341,
        -0.13719381392002106,
        -0.23704186081886292,
        -0.16196468472480774,
        0.08599632233381271,
        0.04432467743754387,
        0.21544648706912994,
        -0.12666092813014984,
        -0.03234564885497093,
        0.020815303549170494,
        0.36055511236190796,
        0.09288045018911362,
        0.15814997255802155,
        -0.10197161138057709,
        -0.08081690222024918,
        0.23212359845638275,
        -0.15854381024837494,
        -0.04195018857717514,
        0.03976929932832718,
        -0.15531904995441437,
        -0.10926851630210876,
        0.052628062665462494,
        -0.3061305284500122,
        -0.2074338048696518,
        -0.018061667680740356,
        -0.13254453241825104,
        -0.024878032505512238,
        -0.1255350261926651,
        0.17550310492515564,
        0.25524118542671204,
        0.2078041434288025,
        -0.10026735067367554,
        -0.08797243982553482,
        0.24954302608966827,
        0.059731122106313705,
        -0.12277498096227646,
        0.01962585560977459,
        0.10828198492527008,
        -0.04158015549182892,
        -0.035396937280893326,
        -0.08403332531452179,
        -0.011564052663743496,
        0.009140591137111187,
        0.006061496213078499,
        -0.08743207901716232,
        0.05628006160259247,
        -0.03677583485841751,
        -0.04716722294688225,
        -0.05606493353843689,
        0.13948090374469757,
        0.059058621525764465,
        0.028778569772839546,
        0.008770349435508251,
        0.05790683999657631,
        -0.028621230274438858,
        -0.1209278404712677,
        0.017061952501535416,
        0.002389473607763648,
        -0.05995583161711693,
        0.03242077678442001,
        -0.2184353768825531,
        0.05591341108083725,
        0.14207342267036438,
        -0.09344638884067535,
        -0.09510225057601929,
        -0.028833897784352303,
        -0.08565706759691238,
        -0.11268866062164307,
        0.08164243400096893,
        -0.24552075564861298,
        -0.14281059801578522,
        -0.13042409718036652,
        -0.14305904507637024,
        0.09675127267837524,
        -0.11956968158483505,
        0.18583384156227112,
        -0.05030062422156334,
        -0.01927727833390236,
        0.11211951076984406,
        -0.23709537088871002,
        0.10382620245218277,
        0.2979964315891266,
        0.1312171220779419,
        0.08342240005731583,
        -0.3171745538711548,
        0.13184864819049835,
        -0.004482876975089312,
        -0.15118543803691864,
        -0.10429849475622177,
        -0.052937865257263184,
        -0.3597477972507477,
        -0.04345950484275818,
        0.021694807335734367,
        0.09261506050825119,
        0.031984761357307434,
        0.08046144247055054,
        -0.1581612378358841,
        -0.06655282527208328,
        -0.08444246649742126,
        0.17647157609462738,
        0.051616791635751724,
        0.1539623886346817,
        -0.12688590586185455,
        0.010432356037199497,
        0.06433989107608795,
        0.0715210884809494,
        -0.13748642802238464,
        0.07107464969158173,
        -0.3011895716190338,
        0.0856383666396141,
        -0.10670725256204605,
        -0.2774725556373596,
        -0.10210727155208588,
        0.0747789591550827,
        -0.2347160130739212,
        0.12186142057180405,
        0.07684393972158432,
        -0.1361459344625473,
        0.01504514366388321,
        -0.056184377521276474,
        -0.2507259249687195,
        0.03187146037817001,
        0.0638422891497612,
        0.08030150830745697,
        0.10008662194013596,
        -0.04231856390833855,
        -0.17012834548950195,
        -0.19498243927955627,
        0.07010327279567719,
        0.04184175655245781,
        0.09065282344818115,
        0.20932674407958984,
        0.15990714728832245,
        -0.13802401721477509,
        0.014262774027884007,
        0.008772061206400394,
        -0.1786022037267685,
        -0.04967949911952019,
        0.04924769327044487,
        -0.17455676198005676,
        -0.14735962450504303,
        0.00671364227309823,
        0.18677616119384766,
        0.05579766631126404,
        0.13825686275959015,
        -0.16171146929264069,
        -0.15896716713905334,
        -0.07489009201526642,
        0.3081773519515991,
        0.09459760040044785,
        0.1428605616092682,
        -0.273924857378006,
        -0.05871099978685379,
        -0.19488544762134552,
        0.1444685161113739,
        0.03541707992553711,
        0.22520285844802856,
        -0.26748186349868774,
        -0.10880833119153976,
        0.01876765675842762,
        -0.08414877951145172,
        0.031867094337940216,
        -0.022121137008070946,
        -0.34048300981521606,
        -0.21802937984466553,
        0.08394849300384521,
        -0.25947055220603943,
        -0.2030075639486313,
        0.03896700218319893,
        -0.20108121633529663,
        -0.18393941223621368,
        -0.08695340901613235,
        0.2128007411956787,
        0.033484771847724915,
        0.07172836363315582,
        0.14782527089118958,
        -0.07511743158102036,
        -0.10342191159725189,
        0.04380127787590027,
        0.0654943510890007,
        -0.02815733477473259,
        -0.23289333283901215,
        0.21899408102035522,
        0.01666475273668766,
        -0.06750983744859695,
        0.06260289996862411,
        0.07922177016735077,
        -0.12844470143318176,
        0.16794408857822418,
        -0.09710874408483505,
        -0.04148998111486435,
        -0.15533249080181122,
        0.03164010867476463,
        -0.035273101180791855,
        -0.037086740136146545,
        0.02719184383749962,
        0.06420785933732986,
        -0.10093831270933151,
        0.22216391563415527,
        -0.036083731800317764,
        0.1976989358663559,
        -0.02628258988261223,
        0.055960483849048615,
        -0.17081423103809357,
        0.09897305071353912,
        0.017712706699967384,
        0.02645876072347164,
        -0.02525627240538597,
        -0.04117901995778084,
        0.21223197877407074,
        0.06737153977155685,
        -0.21471254527568817,
        -0.055896930396556854,
        0.1421651840209961,
        -0.10669165849685669,
        -0.0006525794742628932,
        0.14117683470249176,
        -0.04154016450047493,
        0.1934681236743927,
        -0.020065078511834145,
        0.08378536999225616,
        -0.21795813739299774,
        -0.11553971469402313,
        -0.014267605729401112,
        0.00534185441210866,
        0.06201214715838432,
        0.023523526266217232,
        0.2106519192457199,
        0.1355886608362198,
        -0.017718015238642693,
        -0.19887597858905792,
        -0.055638186633586884,
        -0.24782074987888336,
        0.05909137427806854,
        -0.05873214453458786,
        -0.21352152526378632,
        2.5873116101138294e-05,
        -0.06707149744033813,
        0.08111507445573807,
        0.0645209327340126,
        0.019319256767630577,
        -0.24879157543182373,
        0.07048288732767105,
        -0.0626969262957573,
        0.19969815015792847,
        0.20355132222175598,
        0.08593297749757767,
        -0.13268856704235077,
        0.05281432718038559,
        0.014879084192216396,
        0.08442579954862595,
        0.21165037155151367,
        0.03817230463027954,
        -0.2899017035961151,
        -0.11598765105009079,
        -0.09328474849462509,
        -0.02465876005589962,
        -0.09995277971029282,
        -0.13303358852863312,
        -0.15747395157814026,
        0.012497683987021446,
        0.03617453947663307,
        -0.10260072350502014,
        -0.064254529774189,
        0.055657148361206055,
        -0.18660759925842285,
        -0.1346270889043808,
        -0.16449229419231415,
        0.05579514801502228,
        0.13192464411258698,
        -0.17141561210155487,
        0.1321883201599121,
        0.0463816337287426,
        0.005465659778565168,
        -0.1655767410993576,
        0.16655543446540833,
        -0.07633412629365921,
        0.19027850031852722,
        -0.14138886332511902,
        -0.02739527076482773,
        0.15084032714366913,
        -0.08477863669395447,
        0.12177643924951553,
        -0.028188431635499,
        -0.15198685228824615,
        -0.06599394232034683,
        -0.05188881233334541,
        0.16451527178287506,
        -0.0974489152431488,
        0.12610363960266113,
        -0.09672877937555313,
        -0.039006419479846954,
        0.03394576162099838,
        -0.08599819242954254,
        -0.001649472862482071,
        0.20964929461479187,
        -0.07638314366340637,
        0.11390909552574158,
        -0.12131605297327042,
        0.14985519647598267,
        -0.1377646028995514,
        0.05247626081109047,
        -0.059137433767318726,
        0.04138729348778725,
        0.13026367127895355,
        0.07475756108760834,
        -0.013355165719985962,
        0.06677453964948654,
        0.07427336275577545,
        -0.030871212482452393,
        0.20026010274887085,
        -0.11955425888299942,
        -0.015987161546945572,
        0.06529808044433594,
        0.030651019886136055,
        0.15512216091156006,
        -0.11754558980464935,
        -0.04187838360667229,
        0.1141660213470459,
        -0.08353736251592636,
        -0.004308495670557022,
        -0.08816146105527878,
        0.2512850761413574,
        0.10205423086881638,
        0.009086706675589085,
        -0.2919870615005493,
        0.13400974869728088,
        -0.11049984395503998,
        -0.12414292246103287,
        0.0525805726647377,
        -0.06458953768014908,
        -0.10740435868501663,
        -0.09247884154319763,
        0.034201089292764664,
        0.06956220418214798,
        -0.049661602824926376,
        0.048188913613557816,
        -0.0367039330303669,
        -0.002418329706415534,
        0.09591558575630188,
        0.13932758569717407,
        -0.10068869590759277,
        -0.10981472581624985,
        -0.3051340579986572,
        0.19948968291282654,
        -0.040198396891355515,
        0.17167501151561737,
        0.000712068285793066,
        0.1002902090549469,
        -0.03867485001683235,
        0.15740548074245453,
        -0.10135380178689957,
        -0.18480335175991058,
        -0.04614483192563057,
        -0.086448073387146,
        -0.1227819174528122,
        0.1662166565656662,
        -0.11992356181144714,
        -0.0694560557603836,
        -0.045348700135946274,
        -0.025230174884200096,
        -0.047380782663822174,
        0.005629858002066612,
        -0.03262176737189293,
        0.1033179834485054,
        0.053819455206394196,
        -0.06843100488185883,
        -0.24517285823822021,
        0.08492671698331833,
        -0.2413233071565628,
        0.12185714393854141,
        0.07704397290945053,
        0.2505359947681427,
        -0.2756348252296448,
        -0.0009039525175467134,
        0.25811734795570374,
        -0.139504075050354,
        -0.14502069354057312,
        0.12489163130521774,
        -0.2814881205558777,
        -0.1820649355649948,
        -0.12971186637878418,
        0.3468799591064453,
        0.18660344183444977,
        0.15766018629074097,
        -0.20232965052127838,
        -0.09290449321269989,
        -0.026621783152222633,
        0.1756325513124466,
        -0.029931150376796722,
        0.1752910614013672,
        -0.1668521910905838,
        -0.18385225534439087,
        -0.008779923431575298,
        0.29535478353500366,
        -0.03647235408425331,
        0.11079666763544083,
        -0.11633577197790146,
        -0.17728015780448914,
        0.09526970982551575,
        -0.19388389587402344,
        -0.19095581769943237,
        0.21322381496429443,
        -0.15960954129695892,
        0.01906268112361431,
        0.03871513158082962,
        -0.09056837111711502,
        -0.15588657557964325,
        0.2848115563392639,
        -0.37919872999191284,
        -0.1936221569776535,
        -0.09017684310674667,
        0.29140710830688477,
        0.04903239756822586,
        -0.0556941032409668,
        -0.06461837887763977,
        -0.12179006636142731,
        -0.12047556787729263,
        0.06876340508460999,
        -0.015562376007437706,
        -0.06728003919124603,
        -0.04046311229467392,
        0.11874240636825562,
        0.0817018374800682,
        -0.07344045490026474,
        -0.006416850257664919,
        -0.08257704228162766,
        -0.05281134322285652,
        -0.025984426960349083,
        -0.04658691585063934,
        0.48308032751083374,
        -0.4881695806980133,
        0.8716312646865845,
        -0.6954658031463623,
        -0.09172637015581131,
        0.9661586284637451,
        1.0734601020812988,
        -0.45492297410964966,
        0.1714348942041397,
        0.13359388709068298,
        -0.35990291833877563,
        -0.42021074891090393,
        0.34990593791007996,
        -0.6744581460952759,
        0.13709649443626404,
        0.5061364769935608,
        -0.08651802688837051,
        0.10246720165014267,
        0.04358690232038498,
        0.08457473665475845,
        0.07835115492343903,
        0.10667933523654938,
        0.26201924681663513,
        0.14149881899356842,
        0.005218073725700378,
        -0.00566381961107254,
        0.10203557461500168,
        -0.034550741314888,
        0.0955023393034935,
        -0.08711645007133484,
        0.2626807987689972,
        0.16535358130931854,
        0.0747377872467041,
        -0.19710791110992432,
        -0.20787687599658966,
        0.02640892192721367,
        0.04286713898181915,
        0.01415152195841074,
        -0.05362440645694733,
        0.06028186157345772,
        0.03149257227778435,
        0.19552405178546906,
        -0.03840057924389839,
        -0.0013781312154605985,
        0.08144719898700714,
        -0.15187327563762665,
        0.07302699238061905,
        0.2493969053030014,
        0.161559596657753,
        0.008651470765471458,
        -0.06956511735916138,
        0.22926391661167145,
        -0.0513555072247982,
        -0.14383327960968018,
        0.04836691543459892,
        -0.18189676105976105,
        -0.03761359676718712,
        -0.2626986801624298,
        0.14730218052864075,
        -0.14614273607730865,
        0.11840948462486267,
        0.2409059703350067,
        -0.013797404244542122,
        0.041267577558755875,
        0.18866397440433502,
        -0.20586122572422028,
        -0.03914150968194008,
        -0.20061643421649933,
        -0.09293675422668457,
        0.12990012764930725,
        0.0637720376253128,
        0.10935850441455841,
        -0.1604638248682022,
        0.09423170983791351,
        0.020686712116003036,
        0.03880409896373749,
        0.1503458470106125,
        0.1431727409362793,
        -0.12781324982643127,
        0.03489331156015396,
        -0.16891363263130188,
        -0.2629626989364624,
        -0.13937678933143616,
        0.15408873558044434,
        0.18288953602313995,
        0.163410022854805,
        0.15852199494838715,
        -0.3418947458267212,
        0.10746170580387115,
        0.3286452293395996,
        -0.22521962225437164,
        0.1290920227766037,
        0.054061174392700195,
        0.11995648592710495,
        -0.0981299951672554,
        0.06175501272082329,
        -0.28930342197418213,
        -0.004173817113041878,
        0.10057651996612549,
        0.03991866856813431,
        0.2596450448036194,
        0.2313939332962036,
        0.22743740677833557,
        0.03779670596122742,
        0.2040122002363205,
        0.03773918375372887,
        -0.2371690720319748,
        -0.09480743855237961,
        -0.01834785006940365,
        -0.12837578356266022,
        0.1131666973233223,
        0.002354368567466736,
        0.10047587007284164,
        0.12389743328094482,
        0.2566544711589813,
        0.16429412364959717,
        -0.2831762135028839,
        -0.224924236536026,
        0.11679164320230484,
        0.07595226913690567,
        0.0493868887424469,
        -0.33971846103668213,
        -0.13040471076965332,
        0.28017520904541016,
        0.22994743287563324,
        -0.18206001818180084,
        0.09559068083763123,
        -0.10221775621175766,
        0.20916670560836792,
        0.010038659907877445,
        0.3663216829299927,
        -0.31765633821487427,
        -0.35741567611694336,
        0.24015654623508453,
        0.32025477290153503,
        0.1378379911184311,
        0.23756015300750732,
        -0.07310611754655838,
        0.2538182735443115,
        -0.32663220167160034,
        0.17507076263427734,
        -0.2392871379852295,
        0.024895241484045982,
        0.15193217992782593,
        -0.03542445972561836,
        0.03512801602482796,
        -0.3091423809528351,
        -0.13201498985290527,
        0.15770652890205383,
        -0.20601001381874084,
        -0.23756562173366547,
        -0.1301686316728592,
        -0.3034918010234833,
        -0.37268587946891785,
        0.1084265187382698,
        0.28022968769073486,
        -0.009022464044392109,
        -0.058438267558813095,
        -0.021098637953400612,
        -0.015184005722403526,
        -0.1842133104801178,
        -0.0013990628067404032,
        0.2930237352848053,
        -0.28632014989852905,
        -0.27685824036598206,
        0.10713568329811096,
        0.2502351403236389,
        -0.24111181497573853,
        0.10459737479686737,
        0.2648943364620209,
        0.07745855301618576,
        0.0527365617454052,
        0.2919880449771881,
        0.10383133590221405,
        -0.10725364089012146,
        0.05495264753699303,
        0.18452902138233185,
        0.23516666889190674,
        -0.3442205786705017,
        0.18713566660881042,
        -0.028673658147454262,
        -0.2892025113105774,
        -0.008123436942696571,
        -0.02292979508638382,
        -0.03288593888282776,
        -0.27077317237854004,
        -0.1534537672996521,
        0.0637843906879425,
        -0.14553406834602356,
        0.18582427501678467,
        -0.0253974087536335,
        0.19876132905483246,
        0.11382288485765457,
        -0.028438327834010124,
        0.04269371181726456,
        0.07754545658826828,
        0.18301939964294434,
        -0.14248770475387573,
        -0.10874952375888824,
        -0.052706167101860046,
        -0.07784474641084671,
        -0.3407544195652008,
        -0.06055319681763649,
        -0.17335662245750427,
        -0.13962626457214355,
        0.20923522114753723,
        -0.334010511636734,
        -0.2492268681526184,
        -0.007732189726084471,
        -0.021968886256217957,
        0.006885576527565718,
        0.10350767523050308,
        0.10164600610733032,
        -0.19301027059555054,
        -0.043787822127342224,
        0.22354814410209656,
        0.148607537150383,
        -0.09155850112438202,
        -0.0756269171833992,
        0.07257550954818726,
        0.13732129335403442,
        -0.10414387285709381,
        -0.1350753754377365,
        0.1436212956905365,
        0.0545765683054924,
        -0.2655453681945801,
        -0.059256184846162796,
        0.12360929697751999,
        -0.2693282663822174,
        0.28370457887649536,
        0.29786673188209534,
        0.25034987926483154,
        -0.03195340558886528,
        -0.10961632430553436,
        0.1375347524881363,
        0.04401314631104469,
        -0.11950245499610901,
        -0.08981835842132568,
        -0.12486402690410614,
        0.3715844750404358,
        -0.1374768763780594,
        0.28139474987983704,
        -0.18036606907844543,
        -0.09722435474395752,
        0.2609727084636688,
        -0.06604022532701492,
        0.05078159645199776,
        0.09769614040851593,
        -0.2825223505496979,
        0.08763032406568527,
        -0.10128579288721085,
        -0.13303284347057343,
        0.09165450930595398,
        0.24794510006904602,
        -0.30371564626693726,
        -0.1463930904865265,
        0.2479359358549118,
        0.061589308083057404,
        0.3097328841686249,
        -0.07574828714132309,
        -0.25623592734336853,
        0.30675724148750305,
        0.20162196457386017,
        0.30336207151412964,
        -0.10043751448392868,
        -0.13893361389636993,
        0.06208781898021698,
        -0.15451009571552277,
        0.17937017977237701,
        0.13267755508422852,
        0.14145493507385254,
        0.13399669528007507,
        0.11607396602630615,
        -0.06389713287353516,
        0.2357238382101059,
        -0.18938042223453522,
        -0.17074964940547943,
        -0.04739975556731224,
        0.12400060147047043,
        0.04591378569602966,
        0.04027119278907776,
        -0.17968232929706573,
        0.05464491248130798,
        -0.042363692075014114,
        0.02237478829920292,
        0.1235542893409729,
        0.09344607591629028,
        -0.058746613562107086,
        0.12215467542409897,
        -0.015069350600242615,
        0.022500718012452126,
        0.030653951689600945,
        -0.15325996279716492,
        0.09873756766319275,
        0.12767739593982697,
        0.11426333338022232,
        0.024395804852247238,
        -0.028938645496964455,
        0.07607385516166687,
        0.026212258264422417,
        -0.03801483288407326,
        -0.0265217125415802,
        0.12302551418542862,
        -0.1616661250591278,
        -0.3448243737220764,
        0.08765003830194473,
        -0.10705053061246872,
        -0.1812325119972229,
        0.02162810228765011,
        -0.21948927640914917,
        -0.31459948420524597,
        -0.09981496632099152,
        0.1114947646856308,
        0.19105835258960724,
        -0.15478302538394928,
        -0.29973363876342773,
        -0.113095223903656,
        -0.12456386536359787,
        0.13262806832790375,
        0.19901369512081146,
        -0.02287343330681324,
        0.08753731846809387,
        0.13957048952579498,
        -0.036088064312934875,
        0.0297248475253582,
        0.11643936485052109,
        -0.11006034910678864,
        -0.028125761076807976,
        0.07204587012529373,
        -0.0792011171579361,
        0.07389090210199356,
        0.28214460611343384,
        0.0005542974686250091,
        0.07245846837759018,
        -0.12768402695655823,
        -0.07328268140554428,
        -0.03970035910606384,
        0.03755136579275131,
        0.18992729485034943,
        -0.1733928620815277,
        -0.004290715791285038,
        -0.07266375422477722,
        -0.09480491280555725,
        -0.07736194133758545,
        0.2787857949733734,
        -0.1886603832244873,
        0.009479662403464317,
        -0.05874437093734741,
        0.09771835058927536,
        -0.12759080529212952,
        0.06971705704927444,
        -0.07243074476718903,
        -0.08109518885612488,
        -0.26682963967323303,
        0.03599357232451439,
        -0.09268543869256973,
        -0.07593490928411484,
        0.1520279347896576,
        0.017701176926493645,
        -0.19521978497505188,
        -0.17389659583568573,
        -0.06741393357515335,
        0.13656122982501984,
        0.12940974533557892,
        0.05682210251688957,
        -0.30415964126586914,
        -0.03117973357439041,
        -0.05454079806804657,
        0.19127486646175385,
        -0.13900208473205566,
        -0.12214390188455582,
        0.3547901213169098,
        -0.1229182705283165,
        -0.09809041023254395,
        0.17401322722434998,
        -0.01681579276919365,
        0.10584315657615662,
        0.0694175735116005,
        -0.03018786571919918,
        -0.12220992892980576,
        0.2167254388332367,
        -0.10133864730596542,
        0.1168675571680069,
        -0.2761172354221344,
        -0.1505124568939209,
        -0.23228996992111206,
        -0.0956658199429512,
        0.22094854712486267,
        0.19876129925251007,
        -0.10622575134038925,
        -0.19284676015377045,
        -0.010173938237130642,
        0.04193465784192085,
        0.1365814059972763,
        0.01590154320001602,
        -0.03333870694041252,
        0.13181625306606293,
        0.01408459898084402,
        0.10525015741586685,
        0.14142407476902008,
        0.15619418025016785,
        0.0501323901116848,
        0.1709691435098648,
        -0.22117960453033447,
        -0.070030577480793,
        0.14119037985801697,
        -0.08498834818601608,
        0.07341339439153671,
        -0.20042254030704498,
        -0.16113105416297913,
        -0.04568898677825928,
        0.10220124572515488,
        0.13563913106918335,
        -0.09294018149375916,
        -0.35383832454681396,
        -0.16787105798721313,
        0.12488044798374176,
        -0.08846384286880493,
        -0.008111502975225449,
        0.14051087200641632,
        -0.034504588693380356,
        -0.10144771635532379,
        0.018748527392745018,
        -0.044832538813352585,
        -0.15159271657466888,
        -0.004341566003859043,
        -0.3450552821159363,
        0.059728048741817474,
        0.11116348206996918,
        0.11422399431467056,
        0.20077478885650635,
        0.19878025352954865,
        0.01960442028939724,
        -0.0970827043056488,
        -0.059529852122068405,
        -0.09276594966650009,
        0.061152707785367966,
        0.17385552823543549,
        0.17516839504241943,
        -0.142974853515625,
        -0.32783469557762146,
        0.15500636398792267,
        0.08893542736768723,
        -0.20446275174617767,
        -0.10391601175069809,
        -0.10040326416492462,
        -0.033516790717840195,
        -0.27136555314064026,
        0.052001021802425385,
        0.16254904866218567,
        0.1499931514263153,
        0.0876510813832283,
        0.01855636015534401,
        -0.31520718336105347,
        -0.008149110712110996,
        0.22431011497974396,
        0.1783452183008194,
        -0.16021133959293365,
        -0.12473200261592865,
        0.04901789501309395,
        -0.12316729128360748,
        0.19890640676021576,
        0.3252088129520416,
        -0.041295766830444336,
        -0.14015226066112518,
        0.23917628824710846,
        0.11185197532176971,
        -0.030669987201690674,
        0.189537912607193,
        0.11192813515663147,
        -0.23967215418815613,
        0.1788722723722458,
        -0.19045419991016388,
        -0.16475315392017365,
        0.019087716937065125,
        -0.06171446666121483,
        -0.10598307847976685,
        0.10221176594495773,
        0.08739624172449112,
        0.21269968152046204,
        -0.1440279185771942,
        -0.0979590117931366,
        -0.011758829466998577,
        0.08755724132061005,
        0.11695107072591782,
        -0.06841413676738739,
        -0.11014823615550995,
        0.13718552887439728,
        -0.0021043976303189993,
        -0.15728847682476044,
        0.02819114364683628,
        0.06975535303354263,
        -0.08582305163145065,
        -0.04389381408691406,
        -0.14663733541965485,
        -0.009544765576720238,
        0.07744070142507553,
        -0.11522924900054932,
        0.21027520298957825,
        -0.14019696414470673,
        0.03097420744597912,
        0.14603756368160248,
        0.02937060035765171,
        0.05359667167067528,
        0.014841432683169842,
        0.07930963486433029,
        -0.03241266310214996,
        -0.026490066200494766,
        -0.15253008902072906,
        -0.007418112363666296,
        -0.00013676406524609774,
        0.03892475366592407,
        0.0557570680975914,
        -0.26730090379714966,
        0.1556013971567154,
        0.1608743667602539,
        -0.17749662697315216,
        -0.16736850142478943,
        0.16276566684246063,
        0.030247651040554047,
        -0.07977786660194397,
        -0.01581115461885929,
        -0.15833015739917755,
        -0.010474256239831448,
        -0.05697418376803398,
        0.16303935647010803,
        -0.04016152769327164,
        -0.07340973615646362,
        0.07083209604024887,
        -0.018299708142876625,
        0.050510019063949585,
        -0.19005097448825836,
        -0.009059547446668148,
        0.0969470664858818,
        0.07285157591104507,
        0.07052217423915863,
        0.02774449996650219,
        0.026172446087002754,
        0.09064073115587234,
        0.057576440274715424,
        -0.10263818502426147,
        0.05161474645137787,
        0.013250812888145447,
        -0.07373064756393433,
        -0.2091345340013504,
        0.06602039188146591,
        0.12074463069438934,
        -0.19651083648204803,
        0.012511766515672207,
        -0.027979904785752296,
        -0.23909816145896912,
        0.2603776156902313,
        0.26268425583839417,
        0.2497088462114334,
        -0.10798520594835281,
        -0.0002729100815486163,
        -0.17145758867263794,
        -0.01046421192586422,
        0.2503946125507355,
        0.21249283850193024,
        -0.02445174567401409,
        0.3060990571975708,
        0.06860487163066864,
        -0.05898120626807213,
        0.18276917934417725,
        0.19102829694747925,
        -0.019937777891755104,
        0.03508954122662544,
        -0.09380863606929779,
        0.18427158892154694,
        0.046902306377887726,
        0.2536688446998596,
        -0.25524359941482544,
        -0.10976044833660126,
        -0.1220334991812706,
        0.05482074245810509,
        -0.06655500084161758,
        0.03505749627947807,
        -0.03974270820617676,
        0.0957157239317894,
        0.24033235013484955,
        -0.14657865464687347,
        -0.13734303414821625,
        -0.1604943573474884,
        0.21365030109882355,
        0.04315539076924324,
        -0.0511510856449604,
        -0.040301788598299026,
        -0.06925768405199051,
        0.08951326459646225,
        -0.022194353863596916,
        0.3712613582611084,
        0.2628577947616577,
        -0.029128868132829666,
        0.08107545226812363,
        -0.015782974660396576,
        0.03319826349616051,
        0.14006038010120392,
        0.26991915702819824,
        -0.1721036434173584,
        -0.12274771928787231,
        -0.21479278802871704,
        -0.008132539689540863,
        0.17221581935882568,
        0.1378348022699356,
        -0.06316441297531128,
        -0.12627384066581726,
        -0.2676360011100769,
        0.18672072887420654,
        -0.2678913474082947,
        -0.1646554172039032,
        0.15111882984638214,
        -0.05881539359688759,
        0.0140753835439682,
        0.23141063749790192,
        -0.06837941706180573,
        0.09322725981473923,
        -0.16948433220386505,
        -0.20674702525138855,
        -0.13311269879341125,
        0.14247660338878632,
        -0.04563884437084198,
        0.04945182427763939,
        -0.10914942622184753,
        -0.08470219373703003,
        0.02800346538424492,
        0.09761933982372284,
        0.11854138225317001,
        0.0056809550151228905,
        -0.12448258697986603,
        -0.09349305182695389,
        0.014862955547869205,
        0.11574606597423553,
        0.040875811129808426,
        0.0011770639102905989,
        0.006217663642019033,
        0.0010033372091129422,
        -0.09816058725118637,
        -0.08092402666807175,
        0.04801569879055023,
        -0.10206971317529678,
        -0.10708150267601013,
        -0.05751955136656761,
        -0.2070331573486328,
        -0.08902980387210846,
        -0.018223034217953682,
        -0.1146417111158371,
        -0.11646132916212082,
        -0.027203885838389397,
        -0.1788281947374344,
        0.11051066219806671,
        0.11985927075147629,
        0.10253195464611053,
        -0.044085897505283356,
        0.15115851163864136,
        -0.05784938856959343,
        0.05026857554912567,
        0.006258208770304918,
        0.03984528034925461,
        0.12724736332893372,
        -0.051173217594623566,
        -0.08025600016117096,
        -0.014846928417682648,
        -0.14683164656162262,
        -0.0661034882068634,
        -0.18185149133205414,
        0.08972294628620148,
        0.09442052245140076,
        0.1766686737537384,
        0.010224982164800167,
        0.05928356200456619,
        0.04849529266357422,
        0.13990691304206848,
        0.12935972213745117,
        -0.04673951491713524,
        -0.1635514199733734,
        -0.19644075632095337,
        -0.12730611860752106,
        0.08039034903049469,
        0.08317021280527115,
        0.16484154760837555,
        0.06813649088144302,
        -0.019298316910862923,
        -0.10091689229011536,
        0.11981033533811569,
        0.09125547856092453,
        0.023368557915091515,
        0.04292037710547447,
        0.05696311220526695,
        -0.05888255685567856,
        0.09599632769823074,
        0.035411737859249115,
        0.10010085999965668,
        -0.04608956351876259,
        -0.1771581768989563,
        0.03140462562441826,
        -0.058845154941082,
        -0.0819496214389801,
        0.1450820416212082,
        0.034953147172927856,
        0.08825289458036423,
        -0.12076595425605774,
        -0.0755811557173729,
        0.0007746279588900506,
        -0.030111948028206825,
        -0.14653071761131287,
        0.03874436765909195,
        0.119074746966362,
        -0.05597187951207161,
        0.11784200370311737,
        0.05417788773775101,
        -0.029525386169552803,
        -0.10297692567110062,
        -0.12593421339988708,
        -0.07468340545892715,
        -0.04322080314159393,
        0.018680231645703316,
        -0.007516445592045784,
        -0.05016055703163147,
        -0.07996796071529388,
        0.11241938918828964,
        0.06815643608570099,
        -0.11069986969232559,
        -0.06644267588853836,
        0.09286484867334366,
        0.13492119312286377,
        -0.13222377002239227,
        -0.10266280919313431,
        -0.057632047683000565,
        -0.004046659450978041,
        0.17592141032218933,
        0.0009755477658472955,
        0.1648920476436615,
        0.03933819383382797,
        0.056017447263002396,
        -0.13146810233592987,
        0.01351205538958311,
        0.08962514251470566,
        -0.0354539155960083,
        -0.0013428149977698922,
        0.035771265625953674,
        -0.16160066425800323,
        0.1400672197341919,
        0.1395222693681717,
        -0.022998100146651268,
        0.053178898990154266,
        -0.008065483532845974,
        -0.10592299699783325,
        -0.0060458858497440815,
        0.07302802801132202,
        -0.009291653521358967,
        -0.09657883644104004,
        0.08784365653991699,
        0.1304330676794052,
        -0.12367106229066849,
        0.021242709830403328,
        -0.10209532827138901,
        -0.11904433369636536,
        -0.14022165536880493,
        -0.15912270545959473,
        0.042896438390016556,
        -0.0126455407589674,
        0.001082691946066916,
        -0.2513209283351898,
        0.0441320426762104,
        -0.06657028943300247,
        0.03175300359725952,
        -0.12538795173168182,
        -0.029772896319627762,
        0.12550681829452515,
        -0.06998857855796814,
        -0.1584022343158722,
        0.033851467072963715,
        -0.017824379727244377,
        0.10719173401594162,
        0.052686095237731934,
        -0.0022423327900469303,
        -0.10899122059345245,
        -0.026229212060570717,
        -0.037936385720968246,
        -0.06729309260845184,
        -0.028649460524320602,
        -0.1608913093805313,
        -0.1804642230272293,
        -0.058100003749132156,
        0.19753260910511017,
        -0.026155875995755196,
        0.12153925001621246,
        0.156285360455513,
        -0.22594527900218964,
        -0.007186850067228079,
        0.31558647751808167,
        0.11801362782716751,
        0.07240813970565796,
        0.0517219677567482,
        -0.1711960881948471,
        -0.20573444664478302,
        0.034359391778707504,
        0.344298779964447,
        0.0820988193154335,
        -0.25626540184020996,
        0.2952432632446289,
        0.09956534206867218,
        -0.3097274601459503,
        0.18078996241092682,
        0.10105548799037933,
        -0.07049836963415146,
        0.11948518455028534,
        -0.008807344362139702,
        0.1170780137181282,
        0.15326492488384247,
        0.09945613145828247,
        -0.1847972869873047,
        -0.09229319542646408,
        -0.21946004033088684,
        0.06368700414896011,
        0.11583005636930466,
        0.08043263852596283,
        -0.09837900847196579,
        0.027841221541166306,
        0.05186272785067558,
        -0.10030998289585114,
        -0.10150618851184845,
        0.14987926185131073,
        0.11483457684516907,
        -0.022868160158395767,
        0.021035509184002876,
        -0.04992346465587616,
        -0.009062984958291054,
        -0.04092201963067055,
        -0.1259068101644516,
        0.07289382815361023,
        0.08323930948972702,
        0.06108808144927025,
        -0.0317697711288929,
        0.029350003227591515,
        0.13565726578235626,
        0.1975351870059967,
        0.18378055095672607,
        0.06431187689304352,
        0.08590082079172134,
        -0.1438809186220169,
        -0.10239341109991074,
        -0.14223314821720123,
        0.10581309348344803,
        -0.018180515617132187,
        -0.12236882746219635,
        0.019909529015421867,
        -0.07344628870487213,
        -0.18527327477931976,
        -0.06036793068051338,
        -0.04027039185166359,
        -0.15115362405776978,
        -0.07456742972135544,
        0.03614640235900879,
        0.11445534229278564,
        0.09219285845756531,
        -0.06868176907300949,
        0.033226870000362396,
        -0.023125572130084038,
        -0.13591262698173523,
        -0.09939783066511154,
        0.0586957186460495,
        0.07050711661577225,
        0.002802893053740263,
        0.15208449959754944,
        -0.05384323000907898,
        0.0706126019358635,
        0.036822907626628876,
        0.024814365431666374,
        0.1832684576511383,
        0.08797956258058548,
        -0.09980547428131104,
        0.0012877413537353277,
        0.03663073480129242,
        -0.07952891290187836,
        0.12069196254014969,
        -0.08504986763000488,
        -0.1332477331161499,
        -0.18140298128128052,
        -0.13572590053081512,
        0.24074481427669525,
        -0.04549318179488182,
        -0.030477574095129967,
        -0.030114445835351944,
        -0.1947472244501114,
        -0.03422456607222557,
        0.18298010528087616,
        -0.0020922841504216194,
        0.08844394981861115,
        0.07486511766910553,
        -0.11812766641378403,
        0.035611819475889206,
        -0.08689523488283157,
        0.2508203089237213,
        0.0932231917977333,
        -0.06855174899101257,
        0.2393532693386078,
        -0.2848135232925415,
        -0.16009275615215302,
        0.09884725511074066,
        -0.03415687754750252,
        0.01732509210705757,
        0.04396580532193184,
        0.05785919353365898,
        -0.0444924533367157,
        0.15787523984909058,
        -0.1375330090522766,
        -0.09963672608137131,
        -0.02681516297161579,
        0.05583234876394272,
        -0.0047635543160140514,
        -0.019704733043909073,
        -0.04438921436667442,
        0.10120479762554169,
        0.018521293997764587,
        0.10029058903455734,
        0.09813202917575836,
        0.1621827781200409,
        -0.09144224971532822,
        0.06869266927242279,
        0.028672097250819206,
        0.043766479939222336,
        0.056426748633384705,
        -0.0164886936545372,
        0.046219099313020706,
        0.14769268035888672,
        -0.2400977462530136,
        -0.071225605905056,
        -0.06654640287160873,
        0.026545444503426552,
        0.102847620844841,
        0.0819162055850029,
        -0.024267857894301414,
        -0.048788223415613174,
        0.042517803609371185,
        0.08499819785356522,
        -0.02868182770907879,
        0.07489362359046936,
        0.028207195922732353,
        -0.13092093169689178,
        0.15655295550823212,
        0.14579030871391296,
        0.10497811436653137,
        -0.06921900808811188,
        0.13048486411571503,
        0.1415587067604065,
        -0.11149835586547852,
        -0.06840099394321442,
        -0.015271985903382301,
        -0.06716173142194748,
        0.1237226203083992,
        0.0892757847905159,
        -0.096046082675457,
        0.028470706194639206,
        -0.004121040925383568,
        -0.15212324261665344,
        -0.027688665315508842,
        -0.06415530294179916,
        0.12034405022859573,
        -0.098680779337883,
        0.049395859241485596,
        -0.05829985812306404,
        -0.005431851837784052,
        0.19232682883739471,
        -0.11490883678197861,
        -0.09799285233020782,
        0.06402900815010071,
        0.12750814855098724,
        -0.11320443451404572,
        -0.0982980728149414,
        7.5707225732912775e-06,
        -0.03642772138118744,
        0.03552863374352455,
        -0.04599656164646149,
        0.2807480990886688,
        -0.011641674675047398,
        -0.21238979697227478,
        -0.003875460708513856,
        0.1591264307498932,
        0.12111317366361618,
        0.17366883158683777,
        0.08771200478076935,
        -0.24683405458927155,
        -0.00789368525147438,
        -0.16217610239982605,
        0.040408819913864136,
        -0.03995812311768532,
        -0.0701771080493927,
        0.015206043608486652,
        -0.14832423627376556,
        0.0161895714700222,
        0.2517186105251312,
        -0.06232341006398201,
        0.0037238893564790487,
        0.17225807905197144,
        -0.027909666299819946,
        -0.0227931197732687,
        0.1286119520664215,
        -0.07645054161548615,
        0.043760839849710464,
        -0.010029511526226997,
        -0.18166176974773407,
        -0.06374017894268036,
        -0.0019367265049368143,
        0.12354027479887009,
        0.018445033580064774,
        -0.0657176524400711,
        -0.02367914654314518,
        0.12460975348949432,
        -0.10304214060306549,
        0.07163730263710022,
        0.06549038738012314,
        0.06358987838029861,
        0.04408153519034386,
        0.06408871710300446,
        0.15746533870697021,
        0.045257214456796646,
        0.0578080490231514,
        -0.09193728864192963,
        -0.03384143114089966,
        0.028062570840120316,
        0.03482889384031296,
        -0.08382056653499603,
        -0.1155930832028389,
        -0.11680416762828827,
        -0.01453102845698595,
        0.09012174606323242,
        -0.17265808582305908,
        0.021573776379227638,
        -0.11366970092058182,
        -0.22074481844902039,
        -0.11084724962711334,
        -0.04952080547809601,
        0.0865321159362793,
        -0.11780234426259995,
        0.11823476105928421,
        0.08484102785587311,
        0.030674941837787628,
        0.06943347305059433,
        -0.008494485169649124,
        -0.003022940829396248,
        -0.04110201448202133,
        0.09267700463533401,
        -0.1183696761727333,
        -0.13278593122959137,
        0.11212357878684998,
        0.015856431797146797,
        0.1325415074825287,
        -0.06589846312999725,
        0.09762145578861237,
        -0.08352210372686386,
        0.1368238627910614,
        -0.008892816491425037,
        0.1118994951248169,
        0.036144278943538666,
        0.10012038797140121,
        0.1018417626619339,
        -0.05727676302194595,
        0.09396477788686752,
        -0.056483183056116104,
        0.1265077292919159,
        0.15620273351669312,
        0.07166627794504166,
        -0.04581933841109276,
        -0.1131303459405899,
        0.06730449199676514,
        0.13016997277736664,
        0.11072882264852524,
        0.01331097912043333,
        0.12354708462953568,
        -0.035476453602313995,
        -0.3036864697933197,
        0.08731962740421295,
        0.25762122869491577,
        -0.39926788210868835,
        0.08177307993173599,
        -0.6977490186691284,
        -0.4149757921695709,
        -0.49024468660354614,
        0.816805899143219,
        -0.9371850490570068,
        -0.3870967924594879,
        -0.8745659589767456,
        0.298194944858551,
        -0.7093556523323059,
        0.19264689087867737,
        -0.815820574760437,
        -0.168035089969635,
        -0.21592605113983154,
        0.05526362359523773,
        0.42265811562538147,
        0.21849627792835236,
        -0.031138703227043152,
        -0.21825511753559113,
        -0.23785671591758728,
        -0.08913928270339966,
        -0.030261646956205368,
        0.1359223574399948,
        0.18012458086013794,
        0.158248171210289,
        0.08813045173883438,
        -0.1367804855108261,
        -0.13647089898586273,
        0.08629144728183746,
        -0.009389993734657764,
        -0.03060280717909336,
        -0.045947421342134476,
        -0.2601639926433563,
        0.19202841818332672,
        -0.09915516525506973,
        -0.11841534078121185,
        0.15071605145931244,
        -0.20183460414409637,
        0.12391665577888489,
        0.1753011792898178,
        0.02644643932580948,
        0.14162763953208923,
        0.08452225476503372,
        0.14591747522354126,
        -0.12240514159202576,
        -0.2475341260433197,
        -0.08428028225898743,
        0.35288119316101074,
        -0.05791635438799858,
        0.1849624067544937,
        -0.12396630644798279,
        -0.018037086352705956,
        -0.045091189444065094,
        0.10979527980089188,
        -0.1367873251438141,
        -0.2291816920042038,
        0.18871358036994934,
        0.08858776837587357,
        0.020438237115740776,
        0.04954640939831734,
        0.12549246847629547,
        0.10898090898990631,
        -0.2935374975204468,
        -0.13470646739006042,
        -0.27322375774383545,
        0.052328456193208694,
        -0.028856515884399414,
        -0.13430483639240265,
        -0.10775130987167358,
        0.20381581783294678,
        0.14090467989444733,
        0.2827502489089966,
        0.29280462861061096,
        -0.11004906892776489,
        -0.010873796418309212,
        0.005294979549944401,
        0.13349509239196777,
        -0.03297435864806175,
        -0.053912390023469925,
        -0.06172200292348862,
        0.20022214949131012,
        -0.10525686293840408,
        -0.1535537987947464,
        0.20068250596523285,
        0.24009917676448822,
        -0.02884371019899845,
        -0.18282374739646912,
        0.139938086271286,
        -0.07177050411701202,
        -0.08056372404098511,
        -0.16919276118278503,
        -0.0730079934000969,
        -0.145664244890213,
        0.0436011366546154,
        -0.19160276651382446,
        -0.3261207938194275,
        0.11177664250135422,
        -0.1900479942560196,
        -0.06347938627004623,
        0.08196950703859329,
        0.1858263462781906,
        0.053344082087278366,
        -0.11976724863052368,
        -0.24417082965373993,
        -0.2979796230792999,
        -0.07308293879032135,
        0.25269630551338196,
        0.09264075756072998,
        0.16323970258235931,
        -0.17938446998596191,
        0.03953264281153679,
        -0.07847466319799423,
        -0.010472426190972328,
        0.32698342204093933,
        -0.5147964954376221,
        -0.11451707035303116,
        0.08399470895528793,
        0.04727573320269585,
        -0.0348169170320034,
        0.0476851724088192,
        0.15213598310947418,
        0.028754865750670433,
        -0.2659112811088562,
        0.34665799140930176,
        0.12392713129520416,
        0.0729171484708786,
        0.06745944172143936,
        0.12448065727949142,
        0.1824343353509903,
        -0.13827303051948547,
        -0.15090394020080566,
        0.11885231733322144,
        -0.11244644969701767,
        0.2019149661064148,
        -0.23969146609306335,
        0.014590386301279068,
        -0.1565588414669037,
        0.06041004881262779,
        0.15017685294151306,
        0.0936991274356842,
        -0.01878085732460022,
        0.08811257779598236,
        -0.2038934975862503,
        -0.070186547935009,
        -0.24633125960826874,
        -0.13220447301864624,
        -0.06960754096508026,
        -0.03212714195251465,
        0.12594464421272278,
        0.10052081197500229,
        0.24073603749275208,
        -0.12786290049552917,
        -0.01661139354109764,
        0.23284389078617096,
        -0.1359400749206543,
        0.33346444368362427,
        -0.05918802693486214,
        0.09200369566679001,
        -0.05761892348527908,
        0.11849690228700638,
        0.07994607090950012,
        -0.1577048897743225,
        0.08208983391523361,
        -0.07024471461772919,
        -0.0731613039970398,
        -0.004500926472246647,
        0.11948709189891815,
        0.16200415790081024,
        0.16733597218990326,
        0.051169563084840775,
        0.15123508870601654,
        -0.07993142306804657,
        -0.16374534368515015,
        -0.09638560563325882,
        -0.1663263887166977,
        0.08909856528043747,
        0.01956956647336483,
        -0.09960126876831055,
        0.12908175587654114,
        -0.049632150679826736,
        0.1929905116558075,
        0.24972696602344513,
        -0.17902125418186188,
        0.2125815600156784,
        0.07058336585760117,
        0.020637745037674904,
        -0.05110153183341026,
        -0.0018113463884219527,
        0.07004640996456146,
        0.1658383309841156,
        -0.2953586280345917,
        0.017868654802441597,
        -0.19421760737895966,
        -0.08181334286928177,
        0.1437133252620697,
        0.10450027137994766,
        -0.21667443215847015,
        0.25884729623794556,
        0.2813783288002014,
        -0.03324423357844353,
        0.07823258638381958,
        -0.1061733067035675,
        -0.026050487533211708,
        -0.15753377974033356,
        -0.055656563490629196,
        -0.35360369086265564,
        -0.2755056619644165,
        0.3691959083080292,
        -0.05966779217123985,
        0.06689229607582092,
        -0.2365475744009018,
        0.12432114779949188,
        -0.2505967319011688,
        0.034093841910362244,
        -0.11603828519582748,
        -0.18794630467891693,
        0.3260294795036316,
        -0.24465058743953705,
        -0.18876297771930695,
        -0.019445959478616714,
        0.1442420929670334,
        -0.08287225663661957,
        -0.2743815779685974,
        0.42183730006217957,
        -0.3162950873374939,
        0.12059205770492554,
        -0.13689646124839783,
        -0.1423087865114212,
        0.04746651649475098,
        0.3010128438472748,
        0.15628105401992798,
        -0.08041676878929138,
        0.3222503066062927,
        0.15834777057170868,
        -0.0837092325091362,
        -0.06144121289253235,
        -0.04061708226799965,
        0.25860118865966797,
        0.023955145850777626,
        -0.1442621648311615,
        -0.18371182680130005,
        -0.17708781361579895,
        0.2816900908946991,
        -0.02698102593421936,
        -0.019422220066189766,
        0.13273940980434418,
        -0.21078339219093323,
        0.009778337553143501,
        -0.08586741238832474,
        0.04472736641764641,
        0.21461789309978485,
        0.15210121870040894,
        0.24168512225151062,
        -0.348453551530838,
        -0.18688924610614777,
        0.22154022753238678,
        -0.2918327748775482,
        0.14877071976661682,
        -0.3343501389026642,
        0.026602203026413918,
        0.07037236541509628,
        -0.021569374948740005,
        0.2860259413719177,
        0.047857850790023804,
        -0.017221912741661072,
        0.20543360710144043,
        -0.3761148154735565,
        -0.017029505223035812,
        -0.1143445074558258,
        0.061913833022117615,
        0.038201142102479935,
        -0.07136446982622147,
        -0.210820734500885,
        0.01409539207816124,
        0.13043156266212463,
        0.178000807762146,
        0.07213520258665085,
        0.02452022396028042,
        0.039745938032865524,
        -0.2498006671667099,
        0.00923238042742014,
        -0.2725655138492584,
        -0.10448955744504929,
        -0.17382007837295532,
        0.04470599815249443,
        -0.014402215369045734,
        -0.03199050948023796,
        -0.06418261677026749,
        -0.14418600499629974,
        -0.10184498131275177,
        -0.1427084058523178,
        0.07960357517004013,
        -0.0035249190405011177,
        0.007252588868141174,
        -0.06802258640527725,
        -0.009884466417133808,
        0.16448667645454407,
        0.07290580123662949,
        -0.020110074430704117,
        0.2377450168132782,
        0.00464309798553586,
        -0.08219949156045914,
        -0.13783974945545197,
        0.042158305644989014,
        0.0433565154671669,
        0.14617052674293518,
        0.05037745088338852,
        -0.09786257892847061,
        -0.16453790664672852,
        0.12154943495988846,
        0.006971051916480064,
        0.12933604419231415,
        0.04639308154582977,
        0.014969070442020893,
        -0.1124991849064827,
        0.02576630748808384,
        0.03997750207781792,
        -0.17706917226314545,
        0.0795547217130661,
        0.10857075452804565,
        -0.16040191054344177,
        0.06454569846391678,
        0.047349486500024796,
        -0.22470183670520782,
        0.12845303118228912,
        0.007923359982669353,
        0.26040971279144287,
        0.07631043344736099,
        -0.039308540523052216,
        0.0640297457575798,
        0.05034290626645088,
        0.14893139898777008,
        0.06479588150978088,
        -0.05811109021306038,
        0.17030754685401917,
        -0.1311713606119156,
        -0.015523781068623066,
        -0.194716215133667,
        0.16961480677127838,
        0.034139033406972885,
        0.14558111131191254,
        0.06759940832853317,
        -0.08361752331256866,
        -0.008014843799173832,
        0.12383992969989777,
        -0.04318462312221527,
        -0.004295728635042906,
        -0.05896909162402153,
        0.10373928397893906,
        -0.14496764540672302,
        0.10096604377031326,
        -0.20265501737594604,
        0.11176931858062744,
        -0.14976617693901062,
        -0.18262270092964172,
        -0.09022519737482071,
        0.07062238454818726,
        -0.02750575542449951,
        -0.14680111408233643,
        0.04933120682835579,
        0.10548727959394455,
        0.06557171046733856,
        0.2423679530620575,
        0.28832384943962097,
        0.054221365600824356,
        -0.01530071534216404,
        -0.0740494504570961,
        -0.017618458718061447,
        0.013914364390075207,
        -0.006330217234790325,
        -0.028486495837569237,
        0.08997157961130142,
        -0.08511074632406235,
        -0.03247411549091339,
        -0.056704744696617126,
        0.5656648874282837,
        0.04796178638935089,
        0.23572787642478943,
        -0.08898512274026871,
        0.12307856976985931,
        0.0884377583861351,
        -0.0831432119011879,
        -0.06000543013215065,
        0.190089151263237,
        -0.07887595146894455,
        -0.19635966420173645,
        0.16685019433498383,
        0.05932183936238289,
        0.15679307281970978,
        -0.17653802037239075,
        -0.15516960620880127,
        0.08962538838386536,
        -0.0728720873594284,
        -0.08654463291168213,
        0.05430184304714203,
        0.05826937407255173,
        0.07142190635204315,
        -0.03868512809276581,
        0.097577303647995,
        0.08136047422885895,
        0.00705800112336874,
        0.027410317212343216,
        0.08704614639282227,
        0.03420023247599602,
        0.07614865899085999,
        -0.010724146850407124,
        0.043783508241176605,
        0.015682432800531387,
        0.06208272650837898,
        -0.14002364873886108,
        -0.09302768856287003,
        0.030287370085716248,
        0.059348855167627335,
        -0.08291700482368469,
        -0.08147678524255753,
        0.03919065371155739,
        0.13370943069458008,
        0.04636245220899582,
        0.10279931873083115,
        -0.037935201078653336,
        -0.125160813331604,
        0.03808598220348358,
        0.05248456820845604,
        -0.21258798241615295,
        0.06797777116298676,
        -0.032141346484422684,
        -0.22017377614974976,
        0.028454003855586052,
        -0.03506011143326759,
        -0.19287098944187164,
        0.03567648306488991,
        0.039811912924051285,
        0.026997363194823265,
        0.010370043106377125,
        0.15427763760089874,
        -0.016730383038520813,
        -0.07603597640991211,
        0.21853193640708923,
        -0.1186303049325943,
        -0.044690780341625214,
        0.003507012967020273,
        0.02077452465891838,
        -0.055608876049518585,
        -0.12343957275152206,
        0.09095460176467896,
        0.06967553496360779,
        0.29311564564704895,
        -0.1382901817560196,
        -0.11716189980506897,
        0.04897996783256531,
        0.07164768129587173,
        0.030502017587423325,
        0.013913547620177269,
        -0.07596894353628159,
        0.051649998873472214,
        -0.007820003665983677,
        0.06289749592542648,
        -0.12366823107004166,
        -0.1954033374786377,
        -0.011371908709406853,
        0.1454307585954666,
        0.1747593730688095,
        -0.22595247626304626,
        -0.02110331505537033,
        0.1782437562942505,
        -0.21400949358940125,
        -0.0312592014670372,
        0.2953026592731476,
        -0.3208715319633484,
        0.033538877964019775,
        -0.445993572473526,
        -0.019870730116963387,
        0.29110443592071533,
        0.2661843001842499,
        -0.20913448929786682,
        0.03741586208343506,
        0.04511769488453865,
        -0.04738115891814232,
        0.0764293223619461,
        -0.15804187953472137,
        0.0644976943731308,
        0.025320623070001602,
        -0.06864271312952042,
        0.16279569268226624,
        -0.01792638748884201,
        -0.06892383098602295,
        0.19798611104488373,
        -0.0707552582025528,
        -0.044668614864349365,
        0.02186756394803524,
        -0.03831874579191208,
        0.1093951016664505,
        0.012489255517721176,
        -0.04938765987753868,
        -0.3099980056285858,
        -0.053068600594997406,
        0.10034450888633728,
        0.0242693442851305,
        -0.1521548181772232,
        -0.006248256657272577,
        -0.06319313496351242,
        -0.08555880188941956,
        0.14412985742092133,
        0.11437322944402695,
        0.04013332724571228,
        -0.003172536613419652,
        -0.02023211680352688,
        0.051231615245342255,
        0.21142558753490448,
        -0.08494502305984497,
        0.14226259291172028,
        -0.05958458036184311,
        -0.17109031975269318,
        0.19692234694957733,
        0.04985032603144646,
        -0.1600160002708435,
        0.021541008725762367,
        0.18887843191623688,
        0.22065839171409607,
        -0.12958189845085144,
        0.3011692464351654,
        -0.15005400776863098,
        0.04424695670604706,
        -0.054763466119766235,
        0.03349679708480835,
        -0.050177816301584244,
        -0.19429177045822144,
        0.022565992549061775,
        0.023189948871731758,
        0.07058022171258926,
        -0.10354963690042496,
        -0.14989128708839417,
        -0.17376205325126648,
        -0.07501990348100662,
        -0.04946591705083847,
        0.008495722897350788,
        0.029261227697134018,
        -0.08211921155452728,
        0.07883007079362869,
        -0.10779158025979996,
        -0.0662015974521637,
        0.1309516578912735,
        -0.1483483761548996,
        0.05029790848493576,
        -0.022734010592103004,
        -0.18772046267986298,
        -0.13361050188541412,
        0.11866279691457748,
        0.08021801710128784,
        -0.017176182940602303,
        -0.14551563560962677,
        -0.08998077362775803,
        0.026086360216140747,
        0.036194298416376114,
        0.03029622510075569,
        0.1827569454908371,
        -0.03831394016742706,
        0.06361442804336548,
        0.17130479216575623,
        0.0005727745010517538,
        0.06265318393707275,
        -0.08602384477853775,
        -0.13436105847358704,
        -0.08801805227994919,
        0.10651054978370667,
        0.015423811040818691,
        0.10806446522474289,
        0.07087384164333344,
        -0.11961150169372559,
        -0.0095986844971776,
        -0.028462573885917664,
        -0.14670240879058838,
        0.031374964863061905,
        -0.1141846776008606,
        0.03837182745337486,
        0.196345254778862,
        -0.10548680275678635,
        -0.04826889932155609,
        0.3320610821247101,
        -0.11782053112983704,
        -0.05152544751763344,
        0.09939005225896835,
        0.021629663184285164,
        0.02651730366051197,
        -0.08528424054384232,
        -0.03057737462222576,
        0.027417916804552078,
        -0.2961384952068329,
        0.16226516664028168,
        -0.026085611432790756,
        0.23635946214199066,
        -0.035883545875549316,
        -0.02421395108103752,
        0.09060344099998474,
        0.12495936453342438,
        -0.06802510470151901,
        0.00742089981213212,
        -0.05410159006714821,
        0.1327236294746399,
        -0.1492403745651245,
        0.17002946138381958,
        -0.07206443697214127,
        -0.15830901265144348,
        0.033385537564754486,
        -0.14352737367153168,
        0.06451216340065002,
        -0.17517513036727905,
        -0.04655702784657478,
        0.12688028812408447,
        -0.20953163504600525,
        0.09368692338466644,
        0.22077776491641998,
        -0.254569947719574,
        -0.032753583043813705,
        -0.5403818488121033,
        0.11258769780397415,
        -0.06041570007801056,
        0.41682660579681396,
        -0.283163458108902,
        -0.03580290451645851,
        0.02666906639933586,
        0.08544521033763885,
        -0.19033174216747284,
        0.10714525729417801,
        0.129349946975708,
        0.1495683640241623,
        -0.13877859711647034,
        0.093769870698452,
        -0.066842220723629,
        -0.18433882296085358,
        -0.07535631209611893,
        0.05454264208674431,
        -0.11944428086280823,
        0.058876629918813705,
        -0.03449767455458641,
        0.04769924655556679,
        0.10131798684597015,
        0.014883184805512428,
        -0.13106003403663635,
        -0.03557341918349266,
        0.02845357358455658,
        0.02858996018767357,
        0.15016289055347443,
        -0.0032146687153726816,
        -0.06718744337558746,
        0.029763823375105858,
        -0.12754400074481964,
        -0.033320192247629166,
        0.11284547299146652,
        -0.12175286561250687,
        -0.1260911077260971,
        -0.2673005163669586,
        -0.1183018684387207,
        -0.07914882153272629,
        -0.045203618705272675,
        -0.14051993191242218,
        -0.015203109011054039,
        0.05749179795384407,
        0.11101952940225601,
        -0.15175597369670868,
        -0.09624826908111572,
        0.023103579878807068,
        -0.10101403295993805,
        -0.2873080372810364,
        -0.07551146298646927,
        -0.21832743287086487,
        -0.15865284204483032,
        -0.15307235717773438,
        -0.22448231279850006,
        -0.14590425789356232,
        -0.12378668040037155,
        0.10411352664232254,
        0.03554472699761391,
        0.1513759344816208,
        -0.023500775918364525,
        0.13707764446735382,
        -0.09656458348035812,
        -0.08961422741413116,
        0.18328449130058289,
        -0.002380545251071453,
        -0.2003144919872284,
        -0.18521513044834137,
        -0.08242901414632797,
        -0.008334624581038952,
        -0.18710339069366455,
        -0.09570669382810593,
        0.054438430815935135,
        -0.006620186381042004,
        0.04560363292694092,
        -0.03897403925657272,
        -0.010072127915918827,
        0.029114242643117905,
        0.157570943236351,
        0.029404224827885628,
        0.1254768818616867,
        -0.08192158490419388,
        0.02518739365041256,
        0.0016582770040258765,
        0.06972892582416534,
        0.1065317690372467,
        -0.2670835554599762,
        -0.00831885077059269,
        0.14258015155792236,
        -0.20257551968097687,
        -0.21243995428085327,
        0.1586030274629593,
        -0.05776011943817139,
        -0.10213564336299896,
        0.11783616989850998,
        0.07059245556592941,
        0.18299776315689087,
        0.1303071677684784,
        -0.19291405379772186,
        -0.23790475726127625,
        0.01701740361750126,
        -0.20027367770671844,
        -0.11587262898683548,
        0.0594775415956974,
        -0.002227735472843051,
        -0.005823331419378519,
        0.13548186421394348,
        0.04395705834031105,
        0.038085877895355225,
        0.1410212367773056,
        0.10744372010231018,
        -0.03623928874731064,
        0.1748715490102768,
        -0.11456149816513062,
        0.013595609925687313,
        -0.011353016830980778,
        0.04358438774943352,
        -0.07632030546665192,
        -0.144099622964859,
        -0.08712565153837204,
        -0.1538510024547577,
        0.12357905507087708,
        -0.11789646744728088,
        -0.10251959413290024,
        -0.19062551856040955,
        -0.01958976872265339,
        -0.0022513261064887047,
        -0.07319693267345428,
        0.09967028349637985,
        0.04051073640584946,
        -0.16522115468978882,
        0.03817083314061165,
        0.2955455780029297,
        -0.006831946782767773,
        -0.16466733813285828,
        -0.03515966981649399,
        0.2913445234298706,
        -0.17477332055568695,
        -0.014335179701447487,
        0.18423143029212952,
        -0.014871612191200256,
        -0.04252740368247032,
        0.1528073400259018,
        0.10284033417701721,
        0.27525436878204346,
        -0.08426380902528763,
        -0.36651819944381714,
        0.030344517901539803,
        0.29679715633392334,
        0.08359917253255844,
        0.05771222710609436,
        -0.03916854038834572,
        0.08921652287244797,
        0.03757064789533615,
        -0.027984289452433586,
        0.08553341776132584,
        0.05429850146174431,
        -0.024957209825515747,
        0.12208522856235504,
        0.07160746306180954,
        -0.0014845599653199315,
        0.11117222905158997,
        0.13873304426670074,
        -0.07922874391078949,
        0.05914021283388138,
        -0.013281076215207577,
        0.08483978360891342,
        -0.07503919303417206,
        0.15718519687652588,
        0.06906387209892273,
        -0.09982234984636307,
        0.1321725994348526,
        0.12870259582996368,
        0.05481002479791641,
        -0.030903726816177368,
        0.038242120295763016,
        -0.034365784376859665,
        0.03306187689304352,
        0.04715889319777489,
        0.09311811625957489,
        -0.05627429485321045,
        -0.057532209903001785,
        0.05741206184029579,
        0.04448061063885689,
        -0.19245699048042297,
        0.07974156737327576,
        0.13928937911987305,
        -0.09059156477451324,
        0.00988577026873827,
        0.17475415766239166,
        -0.295933336019516,
        -0.05963129177689552,
        -0.29503533244132996,
        0.24763403832912445,
        -0.2431691437959671,
        0.2602788805961609,
        -0.17893745005130768,
        0.12147363275289536,
        -0.01543707586824894,
        -0.0033580907620489597,
        0.12088373303413391,
        -0.0774245411157608,
        -0.037953633815050125,
        0.030207563191652298,
        0.06361200660467148,
        0.1005200669169426,
        0.1168067529797554,
        -0.1583603471517563,
        0.13346993923187256,
        0.010215265676379204,
        0.08932715654373169,
        -0.0293588824570179,
        0.052342429757118225,
        -0.09361515939235687,
        -0.1941768378019333,
        0.03570544347167015,
        -0.0674608051776886,
        0.17339067161083221,
        0.10797961056232452,
        0.04501434788107872,
        -0.0856461450457573,
        -0.11674188077449799,
        -0.10338648408651352,
        0.1287272572517395,
        -0.09919063001871109,
        -0.21680137515068054,
        -0.15413127839565277,
        -0.1691957265138626,
        0.10140152275562286,
        0.06336452811956406,
        -0.05242721736431122,
        0.12247269600629807,
        0.08702246099710464,
        0.0419895239174366,
        -0.022199705243110657,
        0.09967082738876343,
        -0.023076556622982025,
        -0.1560305655002594,
        0.08490937948226929,
        0.13256259262561798,
        0.22605301439762115,
        -0.1930823177099228,
        0.08152362704277039,
        -0.26530542969703674,
        0.042176153510808945,
        -0.21039345860481262,
        -0.1150805652141571,
        -0.12917567789554596,
        0.16482995450496674,
        0.11483743786811829,
        -0.03770982474088669,
        -0.20018409192562103,
        -0.10031941533088684,
        -0.1645374447107315,
        0.0695238932967186,
        -0.08279769122600555,
        -0.1615068018436432,
        -0.0190459955483675,
        0.045362964272499084,
        0.10152671486139297,
        0.00021107954671606421,
        0.039081647992134094,
        0.025401955470442772,
        -0.04694635421037674,
        -0.08888682723045349,
        0.161164328455925,
        -0.045802101492881775,
        0.24621351063251495,
        -0.05538327619433403,
        0.045945096760988235,
        0.0066384621895849705,
        -0.1763056069612503,
        0.07458467781543732,
        -0.014337905682623386,
        0.08211517333984375,
        -0.02390286512672901,
        0.11138205230236053,
        -0.04671483859419823,
        0.1366247534751892,
        -0.11079637706279755,
        -0.2167225331068039,
        0.1361657679080963,
        -0.1152540072798729,
        0.05463061481714249,
        -0.048429809510707855,
        0.06526287645101547,
        -0.03957970067858696,
        0.0848323330283165,
        -0.10781793296337128,
        -0.11232855916023254,
        0.05619677156209946,
        0.1981765180826187,
        -0.07819714397192001,
        0.10239775478839874,
        0.039343349635601044,
        -0.04078055918216705,
        -0.0031695233192294836,
        0.12352712452411652,
        -0.14212960004806519,
        -0.07535436749458313,
        0.059685878455638885,
        -0.021558593958616257,
        -0.08793473243713379,
        -0.10868013650178909,
        -0.11995822191238403,
        0.23981676995754242,
        -0.10750552266836166,
        0.11449122428894043,
        0.10099388659000397,
        -0.034425750374794006,
        -0.020175369456410408,
        -0.14290514588356018,
        0.04200005903840065,
        -0.030285246670246124,
        0.024064240977168083,
        0.12216871976852417,
        0.044723208993673325,
        -0.0699191763997078,
        -0.018603214994072914,
        -0.010116532444953918,
        -0.01848229020833969,
        0.096433125436306,
        -0.014065537601709366,
        0.14106978476047516,
        0.010051320306956768,
        -0.14008720219135284,
        -0.0923352986574173,
        -0.12099234014749527,
        -0.04540453851222992,
        0.10574739426374435,
        -0.0753268226981163,
        0.042207807302474976,
        0.005429272074252367,
        0.06350132077932358,
        0.0197527464479208,
        -0.047139525413513184,
        -0.16393326222896576,
        -0.03348541632294655,
        0.06786084920167923,
        0.10428699851036072,
        -0.025832319632172585,
        0.16629937291145325,
        0.06198613718152046,
        0.029536474496126175,
        0.015894899144768715,
        -0.054309625178575516,
        -0.09078923612833023,
        -0.006516993511468172,
        -0.12285218387842178,
        -0.01809047721326351,
        0.07339838147163391,
        -0.10668867826461792,
        -0.1801067739725113,
        0.08562810719013214,
        -0.007795687764883041,
        0.03062668815255165,
        -0.07074188441038132,
        0.20046661794185638,
        0.05126285180449486,
        -0.08935294300317764,
        -0.12303898483514786,
        -0.013389461673796177,
        -0.13535453379154205,
        0.11834640055894852,
        -0.13425466418266296,
        -0.04805772006511688,
        -0.0028739660046994686,
        -0.11910582333803177,
        0.05204194411635399,
        0.20997431874275208,
        0.022208604961633682,
        0.09322281926870346,
        0.06786707043647766,
        0.16396458446979523,
        0.20163628458976746,
        -0.09603172540664673,
        0.16261115670204163,
        0.06171901151537895,
        -0.11617709696292877,
        -0.03568394109606743,
        -0.0074699572287499905,
        -0.13725709915161133,
        -0.2838166356086731,
        0.06414573639631271,
        0.033577606081962585,
        0.07207181304693222,
        0.2552690804004669,
        0.07411424815654755,
        0.0495738722383976,
        -0.02322319522500038,
        -0.07309120893478394,
        -0.019044941291213036,
        0.009977704845368862,
        -0.11588770151138306,
        0.032606340944767,
        0.17276042699813843,
        -0.19440841674804688,
        0.08740509301424026,
        0.17759782075881958,
        -0.2697959840297699,
        0.009973306208848953,
        0.10533923655748367,
        0.0023068750742822886,
        0.06191098317503929,
        -0.009725579991936684,
        0.19261619448661804,
        -0.01176621112972498,
        -0.17552702128887177,
        -0.07333273440599442,
        -0.013102111406624317,
        0.13445177674293518,
        0.09119255095720291,
        0.035210393369197845,
        -0.0046281046234071255,
        -0.034128494560718536,
        0.022226601839065552,
        0.1321645975112915,
        -0.07770534604787827,
        -0.07035910338163376,
        -0.157134547829628,
        -0.06911095976829529,
        0.04290264844894409,
        0.05083785578608513,
        -0.26059743762016296,
        0.08465035259723663,
        0.13458584249019623,
        -0.27794545888900757,
        0.11274128407239914,
        -0.04661213979125023,
        -0.20252911746501923,
        0.06841879338026047,
        0.01765969954431057,
        0.4242578148841858,
        0.2631542682647705,
        0.08260812610387802,
        -0.42710620164871216,
        -0.23933005332946777,
        0.06879813224077225,
        0.0674830824136734,
        -0.045530565083026886,
        0.04680461809039116,
        -0.13516469299793243,
        0.0768992155790329,
        -0.005005549173802137,
        -0.0213919710367918,
        -0.061477020382881165,
        0.24639573693275452,
        0.03200194984674454,
        0.04480583593249321,
        0.025211334228515625,
        -0.08431834727525711,
        0.032537247985601425,
        -0.05693814530968666,
        0.08843259513378143,
        -0.1610376089811325,
        -0.4222167730331421,
        0.8438147306442261,
        0.3518039286136627,
        -0.5450800657272339,
        0.039597924798727036,
        -0.06532982736825943,
        -0.10858836024999619,
        0.4713689982891083,
        -0.6628891825675964,
        1.0843822956085205,
        0.5238161087036133,
        0.12457573413848877,
        -0.2811715006828308,
        0.2181105762720108,
        -0.8690510988235474,
        -0.03885039687156677,
        -0.058559589087963104,
        -0.09784641861915588,
        -0.2674090266227722,
        -0.06630347669124603,
        0.7432377934455872,
        0.0931333675980568,
        -0.13667906820774078,
        0.27247607707977295,
        0.1496564745903015,
        0.270973801612854,
        0.2159697264432907,
        -0.30969277024269104,
        -0.2376576066017151,
        -0.22058846056461334,
        -0.09532272070646286,
        0.2205786108970642,
        -0.014228809624910355,
        0.13253039121627808,
        0.2382131963968277,
        0.2456589639186859,
        0.026046015322208405,
        0.04583423584699631,
        -0.24369001388549805,
        -0.2437519133090973,
        0.04502026364207268,
        0.1544349193572998,
        -0.16759072244167328,
        0.09890951961278915,
        0.23531311750411987,
        0.20265153050422668,
        -0.03984205797314644,
        -0.18109814822673798,
        -0.23158086836338043,
        -0.08006744831800461,
        -0.3012876510620117,
        0.08165832608938217,
        0.3071916401386261,
        -0.16323044896125793,
        -0.09956859797239304,
        0.04965909942984581,
        0.003575829556211829,
        -0.3546479046344757,
        0.2971886098384857,
        -0.024935055524110794,
        -0.4891095459461212,
        -0.12194078415632248,
        0.2246880978345871,
        0.21056775748729706,
        -0.10540331155061722,
        0.09292981773614883,
        -0.1546330451965332,
        -0.04457083344459534,
        0.21156945824623108,
        -0.3894695043563843,
        0.22387602925300598,
        0.30627623200416565,
        -0.021701553836464882,
        -0.0693003311753273,
        0.2744031548500061,
        -0.008939642459154129,
        0.0951818972826004,
        0.1439487636089325,
        0.04232332855463028,
        0.1131543293595314,
        0.02514948509633541,
        0.28067508339881897,
        0.10009945183992386,
        0.09654588997364044,
        -0.047324296087026596,
        0.26440179347991943,
        -0.06880394369363785,
        0.04692981764674187,
        -0.08571111410856247,
        -0.09938705712556839,
        -0.0016949049895629287,
        -0.10664498805999756,
        -0.271567165851593,
        0.18462567031383514,
        -0.18288646638393402,
        0.24103114008903503,
        -0.16654475033283234,
        0.3372243344783783,
        0.08505209535360336,
        0.03278031945228577,
        -0.727904200553894,
        0.3295575678348541,
        0.16728253662586212,
        -0.3294731676578522,
        -0.2207307517528534,
        0.1697542816400528,
        -0.04039374366402626,
        0.25033363699913025,
        0.5056357979774475,
        0.41783440113067627,
        -0.07665477693080902,
        0.10856224596500397,
        0.019980808719992638,
        -0.0812760666012764,
        -0.10515984892845154,
        0.38184159994125366,
        -0.3729842007160187,
        -0.17481693625450134,
        0.07343000918626785,
        -0.2389148771762848,
        0.04141246899962425,
        -0.07759752869606018,
        -0.17001110315322876,
        0.18138040602207184,
        0.20167796313762665,
        0.13761624693870544,
        0.26274973154067993,
        0.2015370875597,
        0.1368289738893509,
        -0.23067589104175568,
        -0.30627748370170593,
        0.13739195466041565,
        -0.09625443816184998,
        -0.03908507525920868,
        -0.1296333372592926,
        0.07447745651006699,
        0.11759945005178452,
        -0.07360157370567322,
        0.2671896517276764,
        -0.031634651124477386,
        0.040899138897657394,
        0.03380763530731201,
        -0.0835219994187355,
        -0.232065811753273,
        0.17152225971221924,
        -0.16303399205207825,
        0.04800449311733246,
        0.16559851169586182,
        0.002780152950435877,
        -0.37808793783187866,
        0.09368778020143509,
        -0.06949503719806671,
        0.1172182634472847,
        -0.32730966806411743,
        0.2591054439544678,
        -0.2742219865322113,
        -0.10951917618513107,
        0.01321381889283657,
        0.10516813397407532,
        0.2742774784564972,
        -0.21941809356212616,
        -0.17792916297912598,
        -0.11806359887123108,
        0.1921362578868866,
        0.08178234100341797,
        -0.2977585196495056,
        -0.17302294075489044,
        -0.10202056169509888,
        0.12319834530353546,
        -0.12515021860599518,
        -0.0571213960647583,
        0.012963675893843174,
        -0.029476599767804146,
        0.23641987144947052,
        -0.12502044439315796,
        0.1967163383960724,
        -0.14562958478927612,
        -0.24153652787208557,
        -0.35875204205513,
        0.19008846580982208,
        -0.013327653519809246,
        -0.06698672473430634,
        -0.05155088007450104,
        0.2795182168483734,
        0.09531432390213013,
        -0.28922024369239807,
        0.040887441486120224,
        -0.018684204667806625,
        -0.23380093276500702,
        0.04382150247693062,
        0.37527579069137573,
        -0.04150781407952309,
        0.12998062372207642,
        -0.20971322059631348,
        0.1301790028810501,
        -0.1117895320057869,
        0.5375661849975586,
        0.1613248884677887,
        0.094392329454422,
        -0.033192556351423264,
        -0.2809298038482666,
        -0.02984457276761532,
        0.1381595879793167,
        -0.3360770642757416,
        -0.23719404637813568,
        -0.030374078080058098,
        0.23617041110992432,
        -0.35702452063560486,
        -0.1062663123011589,
        -0.1516185700893402,
        0.03059236705303192,
        0.06313351541757584,
        0.30895647406578064,
        -0.1458369940519333,
        -0.21856236457824707,
        0.1514267474412918,
        -0.09217600524425507,
        0.0007217857055366039,
        -0.002625908236950636,
        -0.05605454370379448,
        0.07953157275915146,
        0.022984031587839127,
        -0.0052259815856814384,
        -0.3067213296890259,
        0.2738705277442932,
        -0.21428970992565155,
        0.17551568150520325,
        -0.09984984993934631,
        0.012052642181515694,
        0.24985550343990326,
        -0.22572995722293854,
        0.08241377025842667,
        -0.0006703778635710478,
        0.3475458025932312,
        -0.2873566746711731,
        -0.021996255964040756,
        0.07138453423976898,
        -0.21416842937469482,
        0.1385977864265442,
        -0.0013065885286778212,
        0.2367236167192459,
        -0.10275442153215408,
        -0.01251435000449419,
        -0.048542555421590805,
        0.11503496766090393,
        0.07430095970630646,
        -0.2079637050628662,
        0.19138507544994354,
        0.12456993013620377,
        0.17216888070106506,
        0.1704546958208084,
        -0.08775078505277634,
        -0.012746438384056091,
        0.030817652121186256,
        -0.07419883459806442,
        -0.33895424008369446,
        -0.046241626143455505,
        -0.27995485067367554,
        -0.2968604862689972,
        -0.3218499720096588,
        0.34925684332847595,
        -0.17868345975875854,
        -0.24192707240581512,
        0.18876127898693085,
        0.14018800854682922,
        0.05740198493003845,
        0.33504074811935425,
        -0.3376491367816925,
        -0.31114330887794495,
        -0.29441219568252563,
        0.10811825841665268,
        0.049903832376003265,
        0.11785489320755005,
        0.1685808300971985,
        0.15292762219905853,
        -0.1384640783071518,
        0.21924324333667755,
        0.17265628278255463,
        0.04796756058931351,
        -0.2578289806842804,
        -0.1447872817516327,
        0.02830427512526512,
        0.010498600080609322,
        0.0790177434682846,
        0.0936741828918457,
        0.06482674181461334,
        -0.11592333018779755,
        0.02630714327096939,
        -0.004127279855310917,
        0.04127742722630501,
        -0.035563983023166656,
        -0.1129596084356308,
        0.045115623623132706,
        0.017564918845891953,
        0.01503333542495966,
        -0.008506092242896557,
        -0.16101567447185516,
        0.08136603236198425,
        0.0736551359295845,
        0.02643321268260479,
        -0.18872828781604767,
        -0.13047389686107635,
        0.19250142574310303,
        -0.027886830270290375,
        0.09656861424446106,
        0.16575004160404205,
        0.01332666352391243,
        -0.01143026165664196,
        -0.06725376844406128,
        0.06539717316627502,
        0.07118197530508041,
        -0.054415229707956314,
        -0.08825280517339706,
        -0.005521137733012438,
        0.049462225288152695,
        0.03253823518753052,
        -0.02957572229206562,
        -0.19995521008968353,
        -0.06881260871887207,
        0.10888463258743286,
        -0.029593560844659805,
        -0.08346649259328842,
        -0.06112847104668617,
        -0.1835659146308899,
        0.036667488515377045,
        -0.06574730575084686,
        -0.07084710150957108,
        0.01832563988864422,
        -0.10915287584066391,
        -0.2592148184776306,
        -0.06088053807616234,
        -0.07062970101833344,
        -0.05514359101653099,
        -0.06065330654382706,
        -0.01912311278283596,
        0.06162680312991142,
        0.11020205169916153,
        -0.20128493010997772,
        0.17129993438720703,
        -0.050936199724674225,
        -0.1193491518497467,
        -0.027560537680983543,
        -0.16590087115764618,
        0.013641929253935814,
        -0.11106362193822861,
        0.12641718983650208,
        0.2032734453678131,
        0.0873766839504242,
        0.11064434796571732,
        0.22697484493255615,
        0.00748401926830411,
        -0.15706205368041992,
        -0.01117347925901413,
        -0.18984068930149078,
        0.04614569619297981,
        -0.1456308215856552,
        -0.11152974516153336,
        -0.22335471212863922,
        -0.2589770555496216,
        0.0072461143136024475,
        0.1324138641357422,
        -0.058737095445394516,
        -0.03802560269832611,
        0.12271896004676819,
        0.10812665522098541,
        -0.13753682374954224,
        0.08853492885828018,
        0.03673956170678139,
        0.20625418424606323,
        0.05653562769293785,
        -0.10479995608329773,
        -0.04703209549188614,
        -0.009586923755705357,
        -0.024591151624917984,
        0.032621514052152634,
        0.1614895761013031,
        -0.16039642691612244,
        0.007649489212781191,
        0.10184621810913086,
        -0.008070437237620354,
        0.03759964555501938,
        0.0906582772731781,
        -0.11575127393007278,
        -0.16547508537769318,
        0.11319594085216522,
        0.23061875998973846,
        0.13653504848480225,
        -0.1683710217475891,
        -0.2233228236436844,
        -0.1477901190519333,
        0.0944487601518631,
        0.04476672410964966,
        -0.09704197943210602,
        0.1400938183069229,
        -0.14442354440689087,
        0.13829706609249115,
        -0.08079981803894043,
        -0.01759963482618332,
        -0.08511825650930405,
        -0.26084253191947937,
