{
    "version": "0.5.0",
    "architecture": "WaveNet",
    "config": {
        "layers": [
            {
                "input_size": 1,
                "condition_size": 1,
                "head_size": 8,
                "channels": 16,
                "kernel_size": 3,
                "dilations": [
                    1,
                    2,
                    4,
                    8,
                    16,
                    32,
                    64,
                    128,
                    256,
                    512
                ],
                "activation": "Tanh",
                "gated": false,
                "head_bias": false
            },
            {
                "input_size": 16,
                "condition_size": 1,
                "head_size": 1,
                "channels": 8,
                "kernel_size": 3,
                "dilations": [
                    1,
                    2,
                    4,
                    8,
                    16,
                    32,
                    64,
                    128,
                    256,
                    512
                ],
                "activation": "Tanh",
                "gated": false,
                "head_bias": true
            }
        ],
        "head": null,
        "head_scale": 0.02
    },
    "weights": [
        0.14465837180614471,
        0.639761745929718,
        -0.9154210090637207,
        -0.8427560329437256,
        -0.4224626421928406,
        0.38573840260505676,
        -0.1566406637430191,
        0.8313910365104675,
        -0.18202151358127594,
        0.33011922240257263,
        -0.4097966253757477,
        -0.31755971908569336,
        -1.0365099906921387,
        -0.7291069030761719,
        -0.4104202389717102,
        0.18547265231609344,
        -0.04319637268781662,
        0.048691365867853165,
        -0.12810464203357697,
        -0.09233123064041138,
        0.07832098752260208,
        0.12702254951000214,
        0.003676825435832143,
        0.08762533217668533,
        -0.018024619668722153,
        0.049465857446193695,
        0.11033356189727783,
        -0.13016915321350098,
        -0.054190490394830704,
        -0.052246615290641785,
        -0.04609423875808716,
        0.08594341576099396,
        -0.07314229011535645,
        -0.07250887155532837,
        -0.050210095942020416,
        -0.14464257657527924,
        -0.07891281694173813,
        0.08980463445186615,
        0.08481410145759583,
        0.06442508846521378,
        0.05068741738796234,
        -0.08598565310239792,
        0.029868226498365402,
        -0.17299328744411469,
        -0.09095308184623718,
        -0.08011851459741592,
        0.12453452497720718,
        0.06365800648927689,
        -0.06249518319964409,
        0.028240861371159554,
        0.06754055619239807,
        0.13254080712795258,
        0.08993038535118103,
        -0.0019966394174844027,
        0.09934774041175842,
        -0.050655439496040344,
        0.00799634214490652,
        -0.10576990246772766,
        -0.06699098646640778,
        -0.09155872464179993,
        0.0749417245388031,
        0.013438637368381023,
        -0.06458771973848343,
        0.03499138355255127,
        0.1333661824464798,
        0.20446713268756866,
        -0.029594862833619118,
        0.02930155023932457,
        0.2552447021007538,
        0.10057734698057175,
        -0.11256508529186249,
        -0.2186334878206253,
        0.08329106867313385,
        0.11799729615449905,
        -0.04266633838415146,
        0.1557885855436325,
        0.02588517591357231,
        -0.29366838932037354,
        0.03882765769958496,
        -0.08871114253997803,
        0.03483334928750992,
        0.09995085000991821,
        0.08517986536026001,
        -0.3396635353565216,
        0.05099858343601227,
        -0.024476001039147377,
        0.14090146124362946,
        -0.09343449771404266,
        0.04516180604696274,
        -0.26982513070106506,
        0.0873001217842102,
        0.07909594476222992,
        0.28104275465011597,
        0.022169362753629684,
        -0.1470233052968979,
        -0.26553598046302795,
        0.09953650087118149,
        0.03130656108260155,
        -0.28544408082962036,
        -0.041834667325019836,
        0.13527706265449524,
        -0.06905536353588104,
        -0.03400846943259239,
        -0.038484953343868256,
        -0.30508309602737427,
        0.02430069074034691,
        -0.11148044466972351,
        -0.2766072154045105,
        0.015601077117025852,
        0.0331706777215004,
        0.12361252307891846,
        0.06520915031433105,
        -0.2934871017932892,
        0.2905274033546448,
        -0.08244478702545166,
        -0.22347234189510345,
        0.10587294399738312,
        -0.07376514375209808,
        0.11122160404920578,
        -0.10909873992204666,
        0.13129279017448425,
        0.10393951088190079,
        -0.2152860462665558,
        0.14718244969844818,
        -0.04733958840370178,
        -0.22996282577514648,
        0.041382912546396255,
        -0.17512445151805878,
        0.09491407871246338,
        -0.2038269340991974,
        0.12903599441051483,
        -0.11566361039876938,
        0.0358906015753746,
        -0.09742661565542221,
        0.24617153406143188,
        -0.08914200961589813,
        0.13469818234443665,
        -0.1556767374277115,
        0.14033569395542145,
        -0.013803298585116863,
        0.28592830896377563,
        -0.000139172887429595,
        0.2388211488723755,
        -0.15597595274448395,
        -0.04577690735459328,
        0.051806334406137466,
        -0.045361362397670746,
        0.09484970569610596,
        0.021009569987654686,
        -0.2541939318180084,
        -0.05880790203809738,
        -0.029574807733297348,
        -0.17324073612689972,
        0.1562933623790741,
        0.16339635848999023,
        -0.28045591711997986,
        0.16231141984462738,
        -0.2529662251472473,
        0.11853913217782974,
        -0.16792002320289612,
        0.13109643757343292,
        -0.21134793758392334,
        0.06033928319811821,
        -0.07102209329605103,
        -0.21576392650604248,
        0.06718146055936813,
        -0.11088544875383377,
        0.24980220198631287,
        -0.18977177143096924,
        -0.05867490917444229,
        0.3242611885070801,
        -0.1226077601313591,
        0.08229103684425354,
        0.24863310158252716,
        -0.19437164068222046,
        0.14623580873012543,
        -0.21515564620494843,
        0.004247034899890423,
        0.018658874556422234,
        0.08282480388879776,
        -0.0997910425066948,
        0.01490863598883152,
        -0.09145195782184601,
        0.09946013242006302,
        -0.006287652067840099,
        0.25022679567337036,
        -0.13008521497249603,
        0.028569219633936882,
        -0.32161253690719604,
        0.15660424530506134,
        0.061742350459098816,
        0.2975985109806061,
        -0.1700175702571869,
        -0.058430541306734085,
        0.09521426260471344,
        -0.15813347697257996,
        -0.13099777698516846,
        0.2449313998222351,
        -0.14710430800914764,
        -0.05060109496116638,
        0.20229949057102203,
        0.03034280799329281,
        -0.15292544662952423,
        0.09361054003238678,
        -0.14307133853435516,
        0.18193751573562622,
        -0.2549436092376709,
        0.2123510092496872,
        -0.011646300554275513,
        0.08612002432346344,
        -0.14588285982608795,
        0.026409978047013283,
        0.11017762869596481,
        -0.03801523149013519,
        -0.052672404795885086,
        -0.07240591198205948,
        -0.10591795295476913,
        -0.1259993463754654,
        0.024403179064393044,
        -0.10779157280921936,
        -0.0596478208899498,
        0.049405790865421295,
        0.061204537749290466,
        0.05140003189444542,
        -0.03410797938704491,
        0.05837583914399147,
        -0.12315183877944946,
        -0.1360231637954712,
        0.0029524557758122683,
        0.0313464030623436,
        0.09238169342279434,
        0.11364953964948654,
        -0.017766015604138374,
        0.035613276064395905,
        0.11885346472263336,
        -0.04761090502142906,
        0.16302631795406342,
        -0.12109792232513428,
        -0.10872767865657806,
        -0.04929620772600174,
        0.061877552419900894,
        0.06040565297007561,
        -0.13768143951892853,
        0.016342367976903915,
        0.022142253816127777,
        -0.23079179227352142,
        0.11126989871263504,
        -0.16981922090053558,
        -0.09003644436597824,
        -0.016005802899599075,
        -0.1275606006383896,
        -0.07207971066236496,
        0.12503734230995178,
        -0.01138942688703537,
        0.0063856313936412334,
        -0.08677630871534348,
        -0.2184896320104599,
        0.10878681391477585,
        -0.05613799765706062,
        -0.10121142864227295,
        -0.030827511101961136,
        0.13948394358158112,
        0.08010093867778778,
        0.05414504185318947,
        -0.000490395410452038,
        -0.04222235828638077,
        -0.09631780534982681,
        -0.009339953772723675,
        0.12486342340707779,
        -0.019108368083834648,
        -0.11810308694839478,
        -0.07706170529127121,
        -0.08216793835163116,
        0.08565288037061691,
        -0.044316068291664124,
        -0.17282716929912567,
        0.08467524498701096,
        -0.0971592515707016,
        0.03992212563753128,
        0.0947752594947815,
        0.028347870334982872,
        -0.14476624131202698,
        -0.16236065328121185,
        0.10129997879266739,
        0.08057969808578491,
        0.16500604152679443,
        -0.03956092149019241,
        -0.011434555985033512,
        -0.08392167836427689,
        0.007566596381366253,
        -0.13434861600399017,
        -0.005563253071159124,
        0.04993007704615593,
        -0.05863117426633835,
        -0.08557000011205673,
        -0.08373462408781052,
        0.042986031621694565,
        -0.15891070663928986,
        0.062218859791755676,
        -0.10652634501457214,
        -0.12057139724493027,
        -0.0006476157577708364,
        -0.026936203241348267,
        0.08700107783079147,
        -0.05024029314517975,
        0.07985876500606537,
        -0.11472593247890472,
        -0.021836381405591965,
        0.1977306604385376,
        -0.14548815786838531,
        -0.040835168212652206,
        -0.16265635192394257,
        0.17079052329063416,
        0.02708633430302143,
        -0.08724623918533325,
        0.21972250938415527,
        0.0022032614797353745,
        -0.1411440223455429,
        0.18172048032283783,
        -0.07364137470722198,
        0.15198370814323425,
        -0.10954710096120834,
        -0.018954342231154442,
        -0.1371946930885315,
        0.2427351325750351,
        0.051359038800001144,
        0.22396691143512726,
        -0.10191302746534348,
        0.15888677537441254,
        -0.21519835293293,
        0.02431156300008297,
        -0.20614346861839294,
        0.2930728495121002,
        -0.04035400599241257,
        -0.019120516255497932,
        -0.08652421087026596,
        0.2343944013118744,
        0.23430338501930237,
        -0.015490957535803318,
        0.24893119931221008,
        0.045890580862760544,
        -0.19131618738174438,
        0.24107451736927032,
        0.15899468958377838,
        -0.22860728204250336,
        0.25197654962539673,
        0.14421403408050537,
        -0.0611395388841629,
        0.028151366859674454,
        -0.05310303717851639,
        0.09387820959091187,
        -0.01980188675224781,
        -0.002218840178102255,
        0.21219773590564728,
        0.027506796643137932,
        0.11811693757772446,
        0.07576802372932434,
        0.11385289579629898,
        -0.15690626204013824,
        -0.09289278090000153,
        -0.14118434488773346,
        -0.19795331358909607,
        -0.2430885285139084,
        0.07162421941757202,
        0.022531168535351753,
        0.006785274483263493,
        0.07324887067079544,
        -0.07487809658050537,
        0.02857005037367344,
        0.017248142510652542,
        -0.14308692514896393,
        -0.046857547014951706,
        -0.14301104843616486,
        -0.014374327845871449,
        -0.01501526776701212,
        -0.038717903196811676,
        0.06900746375322342,
        -0.016679733991622925,
        0.07154781371355057,
        0.1664162278175354,
        0.26481232047080994,
        0.0015285495901480317,
        0.008718309924006462,
        -0.00035825453232973814,
        0.006311521865427494,
        0.08920799195766449,
        -0.05326501652598381,
        0.05056648701429367,
        -0.1067403107881546,
        -0.056365717202425,
        -0.0267046969383955,
        -0.09022342413663864,
        -0.20849841833114624,
        -0.1237754374742508,
        -0.16755910217761993,
        -0.02941359020769596,
        0.05801588296890259,
        0.02705882303416729,
        0.048730574548244476,
        0.14459502696990967,
        -0.012011299841105938,
        0.17788444459438324,
        -0.2591736912727356,
        0.11993331462144852,
        0.2305622398853302,
        -0.18590308725833893,
        0.14928865432739258,
        -0.06093067303299904,
        0.020138217136263847,
        0.09433603286743164,
        -0.2548302710056305,
        0.05353666469454765,
        0.13779133558273315,
        -0.16449877619743347,
        -0.025397878140211105,
        -0.0669504702091217,
        0.1338210552930832,
        -0.11033185571432114,
        0.06202390044927597,
        -0.04164569824934006,
        0.13274379074573517,
        -0.10046883672475815,
        0.17726756632328033,
        -0.0030750753358006477,
        0.10479582101106644,
        -0.30506429076194763,
        0.07959496974945068,
        -0.1291603147983551,
        0.11536942422389984,
        -0.03714383766055107,
        -0.08776898682117462,
        -0.12078969925642014,
        0.2025897353887558,
        0.029236290603876114,
        -0.2719069719314575,
        0.03688335791230202,
        0.042765360325574875,
        -0.2815583050251007,
        0.14526775479316711,
        -0.11802107840776443,
        -0.30992332100868225,
        -0.06501825898885727,
        -0.017709430307149887,
        -0.06996005773544312,
        -0.06466731429100037,
        0.08251040428876877,
        0.11990952491760254,
        -0.06229264661669731,
        0.07640841603279114,
        -0.3536599576473236,
        0.36658206582069397,
        0.08131714165210724,
        -0.06096208468079567,
        0.20505215227603912,
        -0.10075850039720535,
        0.3258149027824402,
        -0.1274530440568924,
        0.062729611992836,
        0.09182284772396088,
        -0.17793114483356476,
        -0.14834658801555634,
        0.15329736471176147,
        -0.10811664909124374,
        -0.10395713895559311,
        -0.162941575050354,
        0.21982699632644653,
        0.00400890177115798,
        0.1536872833967209,
        -0.29114487767219543,
        -0.03882448375225067,
        -0.13791750371456146,
        0.274297297000885,
        0.07465063035488129,
        0.21191030740737915,
        -0.10806408524513245,
        -0.13492128252983093,
        -0.34433814883232117,
        0.2151232361793518,
        -0.08689294010400772,
        0.2827601432800293,
        -0.24224057793617249,
        -0.07602672278881073,
        0.09510175883769989,
        -0.06515046209096909,
        -0.019358742982149124,
        0.315298467874527,
        -0.043869610875844955,
        0.07438260316848755,
        0.21214114129543304,
        -0.1813652515411377,
        -0.03525359556078911,
        0.22457535564899445,
        -0.06306842714548111,
        -0.08161575347185135,
        -0.11023496091365814,
        0.15117903053760529,
        -0.014508337713778019,
        -0.13921616971492767,
        0.40666648745536804,
        0.1494685858488083,
        -0.23089800775051117,
        0.25770026445388794,
        0.0520528219640255,
        0.17639172077178955,
        -0.027412114664912224,
        -0.09925129264593124,
        0.13906575739383698,
        -0.09442407637834549,
        -0.06672407686710358,
        0.13956484198570251,
        -0.1936272382736206,
        0.11492515355348587,
        -0.12903936207294464,
        0.10514114052057266,
        -0.0065050506964325905,
        0.1396956741809845,
        -0.26700422167778015,
        0.03281479328870773,
        -0.006765998899936676,
        0.13398779928684235,
        0.01130653452128172,
        0.05803699791431427,
        -0.12994349002838135,
        -0.076356902718544,
        -0.18438856303691864,
        0.09334510564804077,
        0.11066798865795135,
        0.05521306395530701,
        -0.15816612541675568,
        -0.09107312560081482,
        0.24363523721694946,
        -0.027644338086247444,
        -0.12831620872020721,
        -0.024052798748016357,
        -0.2603999972343445,
        -0.022385798394680023,
        0.05524406209588051,
        -0.24644680321216583,
        -0.0725703164935112,
        0.11570295691490173,
        -0.22261370718479156,
        0.0696989968419075,
        -0.11667533963918686,
        0.10700437426567078,
        0.22651407122612,
        -0.09874290972948074,
        -0.049225904047489166,
        0.09510190039873123,
        -0.2722359597682953,
        0.10588790476322174,
        -0.21572738885879517,
        0.07788418233394623,
        0.17727015912532806,
        -0.1741786003112793,
        0.24672257900238037,
        0.02079477533698082,
        -0.10929597169160843,
        0.18355520069599152,
        0.12223999202251434,
        0.10121648758649826,
        -0.3625597357749939,
        -0.1173148825764656,
        -0.19110389053821564,
        0.30422964692115784,
        -0.07987914234399796,
        0.21525073051452637,
        -0.24791905283927917,
        -0.0609898641705513,
        -0.0009656496113166213,
        0.29603150486946106,
        0.13805530965328217,
        0.1723133772611618,
        -0.26734092831611633,
        -0.11840640008449554,
        -0.09884195774793625,
        0.3410077393054962,
        -0.01598133146762848,
        -0.23861953616142273,
        0.2847323715686798,
        0.1709754317998886,
        -0.12173795700073242,
        0.09802869707345963,
        -0.09595292806625366,
        -0.04385318234562874,
        0.20593446493148804,
        -0.039990510791540146,
        -0.044180728495121,
        0.2664690315723419,
        0.14833667874336243,
        0.24148915708065033,
        -0.25292912125587463,
        -0.15249989926815033,
        -0.07902877032756805,
        0.06771310418844223,
        0.21264903247356415,
        0.004886569920927286,
        -0.24454323947429657,
        0.16193120181560516,
        0.18628622591495514,
        0.2446846067905426,
        -0.15501123666763306,
        -0.005520721431821585,
        0.016730286180973053,
        0.10173296928405762,
        -0.018732832744717598,
        0.048589739948511124,
        0.03870202600955963,
        -0.11306611448526382,
        -0.18533094227313995,
        0.026710903272032738,
        0.014588411897420883,
        -0.00010996308265021071,
        0.05212537199258804,
        -0.11339713633060455,
        -0.0625302791595459,
        0.1574036031961441,
        0.10695844888687134,
        0.13312283158302307,
        0.06661348789930344,
        -0.020260512828826904,
        -0.18645061552524567,
        0.18138517439365387,
        0.08317669481039047,
        -0.02460247464478016,
        -0.07937087118625641,
        -0.04445245862007141,
        0.24444274604320526,
        -0.061440419405698776,
        -0.08037133514881134,
        0.10634209960699081,
        0.05831926688551903,
        0.0849260464310646,
        0.16053037345409393,
        -0.02167358808219433,
        0.1001131609082222,
        0.07724897563457489,
        -0.09099090844392776,
        -0.17139582335948944,
        -0.2246168553829193,
        0.1175246462225914,
        0.07051893323659897,
        -0.14534834027290344,
        0.24676863849163055,
        0.04521486908197403,
        -0.2758941054344177,
        0.210055872797966,
        -0.11506734788417816,
        0.2976014316082001,
        -0.18357399106025696,
        -0.06911470741033554,
        0.26003146171569824,
        -0.13144655525684357,
        0.08735392242670059,
        0.08083722740411758,
        -0.19270974397659302,
        -0.02413714863359928,
        -0.15745824575424194,
        0.21031199395656586,
        -0.14556029438972473,
        0.2413509339094162,
        -0.15149664878845215,
        -0.00041151585173793137,
        -0.0720568373799324,
        -0.04394647851586342,
        -0.044986266642808914,
        0.31952381134033203,
        -0.11972754448652267,
        0.15582258999347687,
        -0.23316825926303864,
        0.20085325837135315,
        -0.17773890495300293,
        0.1621573269367218,
        -0.10256175696849823,
        -0.0006903101457282901,
        0.24192553758621216,
        0.024724503979086876,
        -0.0536092072725296,
        0.17438854277133942,
        0.02892790362238884,
        -0.07218922674655914,
        0.3066495358943939,
        -0.16713689267635345,
        -0.04493057355284691,
        0.1688353270292282,
        -0.0022004658821970224,
        0.16464753448963165,
        -0.20823006331920624,
        -0.021922407671809196,
        -0.037185948342084885,
        0.13648885488510132,
        -0.11720354110002518,
        -0.09544902294874191,
        0.2243853360414505,
        0.07457424700260162,
        0.016693955287337303,
        -0.26621925830841064,
        0.16209597885608673,
        -0.10020658373832703,
        -0.0995413139462471,
        0.08480983227491379,
        -0.05985081195831299,
        -0.0824023187160492,
        -0.06543073803186417,
        0.021037297323346138,
        0.03836707025766373,
        -0.08573481440544128,
        0.056140393018722534,
        -0.0038201892748475075,
        0.02919800393283367,
        0.08811450749635696,
        0.11259538680315018,
        -0.1293405443429947,
        -0.09838872402906418,
        -0.25968945026397705,
        0.22822454571723938,
        -0.05188082158565521,
        0.14385925233364105,
        -0.03468123450875282,
        0.10667121410369873,
        -0.009514294564723969,
        0.18364889919757843,
        -0.09050948172807693,
        -0.1521904468536377,
        -0.010858303867280483,
        -0.07760761678218842,
        -0.09766538441181183,
        0.19700323045253754,
        -0.10952583700418472,
        -0.04486974701285362,
        -0.01219092682003975,
        -0.024754641577601433,
        -0.01618601381778717,
        0.02591288462281227,
        -0.014037054032087326,
        0.030242806300520897,
        0.036830123513936996,
        0.10226624459028244,
        -0.2640243470668793,
        0.19712041318416595,
        -0.07917400449514389,
        -0.2839741110801697,
        0.05122697353363037,
        0.09374888986349106,
        0.1264781504869461,
        0.02565738745033741,
        0.10054284334182739,
        0.26558437943458557,
        -0.12091217190027237,
        -0.03820333257317543,
        0.12489745020866394,
        -0.16152682900428772,
        0.02909761108458042,
        -0.058992378413677216,
        0.1710205227136612,
        -0.04095441475510597,
        0.2087385505437851,
        -0.14043232798576355,
        0.12970632314682007,
        -0.22673258185386658,
        -0.058506399393081665,
        -0.019740331918001175,
        0.2593649625778198,
        -0.19828933477401733,
        0.15990108251571655,
        -0.12794546782970428,
        -0.04509880393743515,
        -0.057375017553567886,
        0.2956342101097107,
        -0.15919090807437897,
        -0.07512416690587997,
        0.21895495057106018,
        -0.1802370548248291,
        0.05764021724462509,
        0.24354234337806702,
        0.04667261242866516,
        -0.1140572652220726,
        0.31295642256736755,
        -0.12989583611488342,
        0.12605378031730652,
        0.028332293033599854,
        -0.16949909925460815,
        0.13922256231307983,
        -0.1509847790002823,
        0.071881003677845,
        -0.0024315749760717154,
        -0.1829882562160492,
        0.008067356422543526,
        -0.1623688042163849,
        -0.07479900121688843,
        0.08646810799837112,
        -0.04517604038119316,
        -0.008657339960336685,
        0.1079135537147522,
        0.12059888988733292,
        -0.02889350801706314,
        -0.051734406501054764,
        -0.028356682509183884,
        -0.03267613798379898,
        -0.034723345190286636,
        -0.0017140648560598493,
        0.4406628906726837,
        -0.4533936083316803,
        0.7269094586372375,
        -0.6456217169761658,
        -0.000886341615114361,
        0.9519966840744019,
        0.8767890334129333,
        -0.5339696407318115,
        0.1092439517378807,
        0.24849724769592285,
        -0.3231443166732788,
        -0.38258498907089233,
        0.30045047402381897,
        -0.6306723356246948,
        0.10814499109983444,
        0.4712708294391632,
        -0.010582239367067814,
        0.21530428528785706,
        0.08208411186933517,
        0.08915213495492935,
        0.2862929403781891,
        -0.05455022305250168,
        0.21238099038600922,
        -0.11282554268836975,
        -0.008206723257899284,
        -0.10770807415246964,
        -0.02590259537100792,
        -0.12654955685138702,
        0.039536770433187485,
        -0.03323955833911896,
        0.26129642128944397,
        -0.1361844837665558,
        -0.02768007107079029,
        -0.17591066658496857,
        -0.29782330989837646,
        0.17087271809577942,
        -0.011992968618869781,
        -0.06945241242647171,
        -0.1965130716562271,
        0.052867040038108826,
        -0.10997217893600464,
        0.4178626537322998,
        0.09385524690151215,
        0.1259586662054062,
        0.15772512555122375,
        -0.00047431711573153734,
        -0.02438647858798504,
        0.3812151253223419,
        0.019913753494620323,
        0.1262107789516449,
        0.006384361069649458,
        0.2590794563293457,
        -0.1704377979040146,
        -0.1696910709142685,
        0.11320817470550537,
        -0.21193961799144745,
        -0.08834012597799301,
        -0.15547607839107513,
        0.2358628660440445,
        -0.20002716779708862,
        0.2315363734960556,
        0.3138076663017273,
        0.027962220832705498,
        0.06711598485708237,
        0.1826869547367096,
        -0.21174749732017517,
        -0.14560732245445251,
        -0.02448950707912445,
        -0.16602496802806854,
        0.002452282002195716,
        -0.09197736531496048,
        -0.1944982260465622,
        -0.3467640280723572,
        0.22186799347400665,
        0.023353395983576775,
        0.15190204977989197,
        0.28875288367271423,
        0.34979939460754395,
        -0.31859806180000305,
        0.17030338943004608,
        -0.1460157185792923,
        -0.2948448061943054,
        -0.3241886496543884,
        0.3623751401901245,
        0.04679236561059952,
        0.08231496065855026,
        -0.007597975432872772,
        -0.21753646433353424,
        -0.09568330645561218,
        0.39657726883888245,
        -0.03376303240656853,
        0.34247222542762756,
        0.13564150035381317,
        0.32089704275131226,
        -0.26006022095680237,
        0.29224061965942383,
        -0.17401176691055298,
        -0.040690790861845016,
        0.1464850902557373,
        0.02444511279463768,
        0.2714675962924957,
        0.31513410806655884,
        0.2711523473262787,
        0.14257954061031342,
        0.23027271032333374,
        0.0058051845990121365,
        -0.21219667792320251,
        -0.1667850911617279,
        -0.04188686981797218,
        -0.19489052891731262,
        0.1848672330379486,
        0.022874603047966957,
        0.002234022133052349,
        0.3001125752925873,
        0.25363993644714355,
        0.15259483456611633,
        -0.2952013313770294,
        -0.36738914251327515,
        0.17294979095458984,
        0.16326333582401276,
        0.05366040766239166,
        -0.7097939848899841,
        -0.2133721262216568,
        0.2201223373413086,
        0.11895556002855301,
        -0.1461697816848755,
        0.1891881674528122,
        -0.31794092059135437,
        0.18400254845619202,
        0.15931032598018646,
        0.3193631172180176,
        -0.3321520984172821,
        -0.16773517429828644,
        0.22133973240852356,
        0.2821497917175293,
        0.2531973719596863,
        0.2629522681236267,
        -0.2966354191303253,
        0.16291998326778412,
        -0.3562265634536743,
        -0.02141839824616909,
        -0.258899062871933,
        -0.027454210445284843,
        -0.10861727595329285,
        -0.036351528018713,
        0.05592023953795433,
        -0.17806990444660187,
        -0.19972166419029236,
        0.07653474062681198,
        -0.15406252443790436,
        -0.0924280434846878,
        -0.026509229093790054,
        -0.24606497585773468,
        -0.3941248953342438,
        0.1823475956916809,
        0.1420746147632599,
        0.058231331408023834,
        -0.09962517768144608,
        0.16586141288280487,
        -0.02229885570704937,
        -0.17585188150405884,
        0.0437178798019886,
        0.306524395942688,
        -0.3265053927898407,
        -0.1709834486246109,
        0.05667433142662048,
        0.26138588786125183,
        -0.04140464588999748,
        0.1309412270784378,
        0.014504272490739822,
        -0.01944165863096714,
        -0.02985566295683384,
        0.11455251276493073,
        0.07077144086360931,
        -0.05038592591881752,
        -0.12482236325740814,
        0.12021968513727188,
        0.27030348777770996,
        -0.26361653208732605,
        0.19077157974243164,
        -0.11540187895298004,
        -0.2758009433746338,
        0.04000644385814667,
        -0.08633168041706085,
        -0.02977767027914524,
        -0.19341453909873962,
        -0.1303889900445938,
        0.02453364059329033,
        -0.04790873825550079,
        0.19584143161773682,
        0.009702379815280437,
        0.2598324418067932,
        8.257778245024383e-05,
        0.02715068869292736,
        0.2518227994441986,
        -0.06539338827133179,
        0.07059891521930695,
        -0.11225388199090958,
        0.13795095682144165,
        0.047486767172813416,
        0.04362710565328598,
        -0.39518114924430847,
        -0.07802953571081161,
        -0.2754945456981659,
        -0.12129255384206772,
        0.07388313114643097,
        -0.06533298641443253,
        -0.3442688286304474,
        -0.014760293997824192,
        0.06598668545484543,
        0.14283296465873718,
        0.003975447732955217,
        0.16889837384223938,
        -0.19065774977207184,
        0.11700020730495453,
        0.15711063146591187,
        0.21954849362373352,
        -0.24713240563869476,
        -0.17709824442863464,
        0.09637201577425003,
        0.17950475215911865,
        -0.19781537353992462,
        0.002733553061261773,
        -0.002279634354636073,
        0.026109972968697548,
        -0.169951930642128,
        -0.18545784056186676,
        0.216197207570076,
        -0.1889699101448059,
        0.11173606663942337,
        0.13446570932865143,
        0.007702436298131943,
        -0.1432744413614273,
        -0.058613698929548264,
        0.10481090843677521,
        0.15034320950508118,
        -0.04232507571578026,
        0.05844118073582649,
        -0.2563190460205078,
        0.31345781683921814,
        -0.06821819394826889,
        0.32090726494789124,
        -0.02788986824452877,
        -0.10771097242832184,
        0.12946592271327972,
        0.05376916378736496,
        0.2018536925315857,
        0.2040952891111374,
        -0.2750709354877472,
        0.07705023884773254,
        0.07379762083292007,
        -0.14544613659381866,
        0.21339461207389832,
        0.20735999941825867,
        -0.17047414183616638,
        -0.028341690078377724,
        0.24266251921653748,
        -0.01981382630765438,
        0.26132068037986755,
        -0.17265333235263824,
        -0.04404844343662262,
        0.32833370566368103,
        0.14281655848026276,
        0.18649297952651978,
        -0.00980842113494873,
        -0.012678409926593304,
        -0.08599364012479782,
        -0.3083226978778839,
        0.0720285028219223,
        0.0886736661195755,
        0.0915025994181633,
        -0.0668284222483635,
        0.07671899348497391,
        -0.09994082152843475,
        0.16758006811141968,
        -0.14218556880950928,
        -0.18619075417518616,
        -0.06834196299314499,
        0.0755678117275238,
        0.0008907814044505358,
        0.01333923451602459,
        -0.20343653857707977,
        0.05831865593791008,
        -0.027523022145032883,
        0.013452300801873207,
        0.10095268487930298,
        0.020334044471383095,
        0.018472278490662575,
        0.09766285121440887,
        0.06511586159467697,
        -0.18019157648086548,
        0.042622726410627365,
        -0.20536594092845917,
        0.2318524420261383,
        -0.20253629982471466,
        -0.07754487544298172,
        0.2153393179178238,
        -0.22278693318367004,
        -0.09269566833972931,
        0.1111273393034935,
        -0.12880371510982513,
        -0.1741371750831604,
        0.25045493245124817,
        0.2883305847644806,
        0.044752538204193115,
        -0.15822090208530426,
        -0.19086378812789917,
        0.04550543054938316,
        0.04702743887901306,
        0.16716380417346954,
        0.03643222153186798,
        -0.35092854499816895,
        -0.17786340415477753,
        0.06841231137514114,
        0.01904432289302349,
        -0.11288245022296906,
        0.02785881981253624,
        -0.16534225642681122,
        -0.30064642429351807,
        -0.15528026223182678,
        0.22816376388072968,
        -0.11849024891853333,
        0.20464906096458435,
        -0.2430688887834549,
        -0.24815887212753296,
        0.07803625613451004,
        0.0067020440474152565,
        -0.18471290171146393,
        -0.001462899730540812,
        0.058390192687511444,
        -0.2884371280670166,
        0.08499752730131149,
        0.18795569241046906,
        0.25369152426719666,
        0.04588615894317627,
        -0.3349859118461609,
        -0.07536835968494415,
        -0.03385520353913307,
        -0.01622774265706539,
        -0.1205219179391861,
        -0.04136242717504501,
        0.1198917031288147,
        -0.03273841738700867,
        0.013957307673990726,
        0.2434069812297821,
        -0.11206503957509995,
        0.04386680945754051,
        -0.02251552790403366,
        0.08489169180393219,
        -0.13536596298217773,
        0.17674115300178528,
        -0.20100951194763184,
        -0.20335818827152252,
        -0.19298040866851807,
        0.005925336852669716,
        -0.08300670236349106,
        -0.039556197822093964,
        0.09279939532279968,
        -0.07058640569448471,
        -0.098810113966465,
        -0.20302167534828186,
        -0.019623370841145515,
        -0.014304771088063717,
        0.09648185968399048,
        0.04635263979434967,
        -0.14127714931964874,
        0.025298206135630608,
        0.07265426963567734,
        0.1268756091594696,
        -0.09360260516405106,
        0.04152460768818855,
        0.08177366852760315,
        -0.13124483823776245,
        -0.011757804080843925,
        0.04941244795918465,
        0.03477900102734566,
        0.07878506183624268,
        0.12139614671468735,
        -0.04890269413590431,
        -0.053417522460222244,
        0.04367115721106529,
        -0.04258669540286064,
        0.09722062200307846,
        -0.27617505192756653,
        -0.10545668751001358,
        -0.25309452414512634,
        0.14707514643669128,
        0.08324480801820755,
        0.27846381068229675,
        -0.3203715980052948,
        0.082199826836586,
        0.11385849863290787,
        -0.07965389639139175,
        0.13354945182800293,
        0.08942771703004837,
        -0.21135252714157104,
        0.12838728725910187,
        0.08608453720808029,
        -0.06900070607662201,
        -0.1384534239768982,
        -0.053901005536317825,
        0.286815345287323,
        0.24012306332588196,
        -0.35706955194473267,
        -0.08042705804109573,
        -0.1194600909948349,
        -0.1713353544473648,
        0.2707969844341278,
        0.1027635857462883,
        -0.14380279183387756,
        -0.15254592895507812,
        -0.03413926810026169,
        0.0521533340215683,
        -0.07634180784225464,
        -0.028229763731360435,
        -0.08044716715812683,
        -0.09990189969539642,
        0.1492118090391159,
        -0.35165897011756897,
        0.29751813411712646,
        0.20178280770778656,
        -0.10239924490451813,
        -0.042679283767938614,
        0.03225075453519821,
        0.028243087232112885,
        -0.07801205664873123,
        0.09131643921136856,
        0.06334847956895828,
        0.019870275631546974,
        -0.1510460525751114,
        0.048011720180511475,
        0.3434365689754486,
        -0.15405383706092834,
        -0.23407001793384552,
        0.1176125779747963,
        -0.0715501606464386,
        0.23414532840251923,
        -0.05167863890528679,
        0.16075485944747925,
        -0.12098917365074158,
        -0.25994712114334106,
        0.15215353667736053,
        0.19664084911346436,
        -0.16085036098957062,
        0.018010204657912254,
        0.04759825021028519,
        -0.1563652753829956,
        -0.17409813404083252,
        0.03679897263646126,
        0.12701541185379028,
        0.14544592797756195,
        -0.09040774405002594,
        0.04499877616763115,
        -0.2325611263513565,
        0.0010713139781728387,
        0.1844802051782608,
        0.17488247156143188,
        -0.22484040260314941,
        -0.028058098629117012,
        0.14733748137950897,
        -0.15121427178382874,
        0.03736497834324837,
        0.2216751128435135,
        -0.07137893885374069,
        -0.12113801389932632,
        0.10973204672336578,
        -0.25702381134033203,
        0.4090390205383301,
        0.1639290302991867,
        -0.009542799554765224,
        -0.06634574383497238,
        0.1435224562883377,
        -0.10096067190170288,
        -0.1928398609161377,
        0.06801530718803406,
        -0.14243292808532715,
        -0.0043878136202692986,
        0.010609355755150318,
        0.040055450052022934,
        0.2709052562713623,
        -0.12159991264343262,
        -0.13554978370666504,
        -0.005523360334336758,
        0.008002053946256638,
        0.16047395765781403,
        -0.07071635127067566,
        -0.04881542921066284,
        0.15265631675720215,
        -0.03734692186117172,
        -0.09788679331541061,
        0.17364591360092163,
        0.11241661757230759,
        -0.042325764894485474,
        0.0645163506269455,
        -0.08772304654121399,
        -0.12340543419122696,
        -0.03376329317688942,
        -0.07665615528821945,
        0.22638459503650665,
        -0.14901238679885864,
        0.0479406863451004,
        0.00313147553242743,
        0.0010806627105921507,
        0.10846150666475296,
        0.1219651848077774,
        0.06459778547286987,
        -0.0551389679312706,
        -0.09997697174549103,
        -0.15232108533382416,
        0.01001338753849268,
        0.1376727968454361,
        0.02491544373333454,
        -0.003751206211745739,
        -0.02157560922205448,
        -0.13697701692581177,
        0.13202527165412903,
        -0.09271497279405594,
        -0.14281398057937622,
        0.13187731802463531,
        0.02516227960586548,
        0.03506648167967796,
        0.022858954966068268,
        -0.01780717261135578,
        -0.12566646933555603,
        -0.13304640352725983,
        0.10663901269435883,
        -0.09204220771789551,
        -0.052857741713523865,
        0.007951849140226841,
        0.04965098202228546,
        -0.10152777284383774,
        -0.1244686171412468,
        -0.004674568772315979,
        0.12942972779273987,
        -0.12109673023223877,
        -0.06755105406045914,
        0.15391375124454498,
        -0.07768432050943375,
        -0.024024102836847305,
        0.10039451718330383,
        -0.12387139350175858,
        -0.058766525238752365,
        0.07483043521642685,
        0.18230511248111725,
        0.027305003255605698,
        -0.12244834750890732,
        0.03150217980146408,
        -0.05058829113841057,
        -0.048707135021686554,
        0.18031050264835358,
        -0.00930093415081501,
        0.05399211868643761,
        0.05633080005645752,
        0.1455598920583725,
        0.03560776636004448,
        0.1614583134651184,
        -0.025661826133728027,
        -0.05744894966483116,
        0.0027605192735791206,
        -0.010618622414767742,
        0.18137601017951965,
        0.10962323099374771,
        0.13330939412117004,
        -0.018000701442360878,
        -0.029630353674292564,
        0.15424667298793793,
        0.10964177548885345,
        -0.11023567616939545,
        -0.17774152755737305,
        0.18674850463867188,
        -0.14268717169761658,
        0.12178488075733185,
        -0.07776445150375366,
        0.016527550294995308,
        0.07388021796941757,
        -0.08270759135484695,
        -0.007600624114274979,
        -0.07656919956207275,
        0.07399412989616394,
        0.028872231021523476,
        0.25191551446914673,
        -0.1981411576271057,
        0.024104679003357887,
        -0.022598622366786003,
        0.06516554951667786,
        0.1495012491941452,
        0.08476454019546509,
        -0.09156285971403122,
        -0.0579940602183342,
        0.21779510378837585,
        -0.06492780894041061,
        0.08786017447710037,
        -0.0184240210801363,
        0.19472643733024597,
        0.14813637733459473,
        -0.23282867670059204,
        0.04178440198302269,
        -0.09499336034059525,
        -0.011871983297169209,
        0.04229600355029106,
        0.07404952496290207,
        -0.09482225030660629,
        -0.14402775466442108,
        0.08434897661209106,
        0.022460877895355225,
        0.051242679357528687,
        0.14217311143875122,
        -0.007048982661217451,
        -0.021899474784731865,
        0.017605220898985863,
        -0.11946868151426315,
        0.15168306231498718,
        0.1680266559123993,
        0.07335685193538666,
        0.14114487171173096,
        0.008519201539456844,
        0.12816958129405975,
        -0.22198304533958435,
        0.02141456864774227,
        0.06126882880926132,
        0.01092513371258974,
        -0.11940168589353561,
        -0.129694402217865,
        0.04451418295502663,
        -0.14730337262153625,
        0.1018214300274849,
        -0.00894839409738779,
        0.09336261451244354,
        -0.1386411488056183,
        -0.01638389192521572,
        -0.167469322681427,
        -0.04005202651023865,
        0.15486295521259308,
        -0.06352154910564423,
        -0.14029547572135925,
        -0.011085540987551212,
        -0.023008078336715698,
        -0.22744059562683105,
        -0.05516109988093376,
        0.18274469673633575,
        0.02480810508131981,
        -0.10276342183351517,
        -0.08930115401744843,
        0.01120460219681263,
        -0.006802401505410671,
        0.06797979772090912,
        0.017940552905201912,
        -0.06912633776664734,
        -0.08535794913768768,
        -0.16038841009140015,
        0.12647655606269836,
        0.1154390424489975,
        0.1348571628332138,
        -0.05378539115190506,
        0.03451245650649071,
        -0.18198052048683167,
        0.05198746174573898,
        -0.12115389853715897,
        0.11866555362939835,
        -0.09578835219144821,
        -0.1577700823545456,
        0.005375773645937443,
        -0.0547109916806221,
        -0.1656634360551834,
        -0.08625099807977676,
        -0.0661812424659729,
        -0.04052365571260452,
        0.027600757777690887,
        0.12864549458026886,
        -0.041575390845537186,
        0.06849804520606995,
        -0.09219229221343994,
        0.1573217511177063,
        0.1259446144104004,
        -0.04519044980406761,
        -0.11882714182138443,
        -0.09452858567237854,
        -0.08667422086000443,
        0.10927526652812958,
        0.08912471681833267,
        0.2015462964773178,
        0.10880701243877411,
        0.019116465002298355,
        -0.09621796011924744,
        0.14835600554943085,
        0.145607128739357,
        0.06266437470912933,
        -0.07962310314178467,
        0.07316728681325912,
        -0.02131146937608719,
        0.02120933309197426,
        -0.03731672838330269,
        0.13712775707244873,
        -0.14946343004703522,
        -0.13512644171714783,
        0.04898129776120186,
        -0.048921968787908554,
        -0.08850384503602982,
        0.25795093178749084,
        -0.07162000983953476,
        0.05311790481209755,
        -0.1548558473587036,
        0.014940714463591576,
        -0.041262343525886536,
        -0.002713164547458291,
        -0.07826033979654312,
        -0.1366763412952423,
        0.1695612072944641,
        -0.059632543474435806,
        0.08574118465185165,
        0.12942534685134888,
        0.006545104086399078,
        -0.024222182109951973,
        -0.06830864399671555,
        -0.03078104555606842,
        -0.05081862956285477,
        0.12448377162218094,
        -0.008941364474594593,
        -0.06352831423282623,
        -0.1342916339635849,
        0.06361968070268631,
        0.062264248728752136,
        0.04780944809317589,
        -0.05096658319234848,
        0.08727332949638367,
        0.031317707151174545,
        -0.1085633933544159,
        -0.04488228261470795,
        -0.07353393733501434,
        -0.0049415407702326775,
        0.15071508288383484,
        -0.059161227196455,
        0.1686767041683197,
        0.025044025853276253,
        -0.07521246373653412,
        -0.15052400529384613,
        -0.0742497369647026,
        0.10787493735551834,
        -0.025532227009534836,
        -0.10559320449829102,
        0.11087819933891296,
        -0.1458662748336792,
        0.048851948231458664,
        0.20040345191955566,
        -0.03110337071120739,
        0.08503013849258423,
        -0.029673773795366287,
        -0.11709935963153839,
        -0.07944776862859726,
        0.08324568718671799,
        -0.03708462789654732,
        0.014346299692988396,
        0.06155313178896904,
        0.041645750403404236,
        -0.04513675346970558,
        0.19717246294021606,
        -0.0794723704457283,
        -0.12918435037136078,
        -0.08658916503190994,
        -0.10819683223962784,
        0.020615749061107635,
        -0.0358748659491539,
        -0.03358342498540878,
        -0.13331833481788635,
        0.07993482053279877,
        -0.07203444093465805,
        0.020316675305366516,
        0.013427406549453735,
        -0.01356001291424036,
        0.10332856327295303,
        -0.14820705354213715,
        -0.14369896054267883,
        0.06995180994272232,
        -0.06417958438396454,
        0.0004207872843835503,
        0.005995901767164469,
        0.09187280386686325,
        -0.16905418038368225,
        -0.03528480976819992,
        0.0333389937877655,
        -0.07905931770801544,
        -0.013925653882324696,
        -0.12062598764896393,
        0.11606120318174362,
        0.08737660199403763,
        -0.0020765261724591255,
        -0.005257335491478443,
        0.11559513956308365,
        0.09768889844417572,
        0.012105822563171387,
        0.07333509624004364,
        0.048051755875349045,
        0.024403303861618042,
        0.027572359889745712,
        0.14740031957626343,
        -0.02547619305551052,
        -0.16868019104003906,
        -0.07955724000930786,
        0.08259904384613037,
        -0.04284631460905075,
        -0.09307457506656647,
        0.14025121927261353,
        0.007424135692417622,
        -0.21150420606136322,
        0.08226905018091202,
        0.0007455721497535706,
        0.010961256921291351,
        0.052865657955408096,
        -0.03547042980790138,
        0.08848807215690613,
        0.06336280703544617,
        0.005899449344724417,
        -0.08668313920497894,
        -0.01758408173918724,
        -0.17292213439941406,
        -0.02370176650583744,
        0.1259792000055313,
        -0.028719093650579453,
        0.015535252168774605,
        -0.061697278171777725,
        0.021128708496689796,
        -0.2571239471435547,
        -0.08718986809253693,
        0.13444741070270538,
        0.07205766439437866,
        0.07551104575395584,
        0.1336231231689453,
        -0.0032335110008716583,
        0.07736510038375854,
        0.1391369253396988,
        -0.10185351222753525,
        -0.02959367074072361,
        0.07302786409854889,
        0.051831066608428955,
        -0.11972755193710327,
        -0.281074196100235,
        0.08114693313837051,
        0.10780433565378189,
        0.07908623665571213,
        0.06300866603851318,
        0.12620936334133148,
        -0.1548483669757843,
        -0.0842183455824852,
        -0.14600582420825958,
        0.07230114936828613,
        -0.004592535551637411,
        -0.05944310501217842,
        0.03916862607002258,
        -0.1069524735212326,
        -0.019876185804605484,
        -0.028681663796305656,
        0.17106930911540985,
        -0.07315365225076675,
        -0.16259153187274933,
        0.09718684107065201,
        0.11622841656208038,
        0.03440172225236893,
        -0.11358746886253357,
        0.132282555103302,
        0.05047524347901344,
        -0.08013313263654709,
        -0.07912277430295944,
        0.027470501139760017,
        0.1636332869529724,
        -0.07729717344045639,
        -0.05460639297962189,
        0.013388657942414284,
        0.13645853102207184,
        0.2298404425382614,
        -0.09882953017950058,
        0.12522079050540924,
        0.07024116069078445,
        -0.20111346244812012,
        0.023023948073387146,
        0.11379605531692505,
        -0.11945510655641556,
        0.17082054913043976,
        0.051863446831703186,
        -0.23092485964298248,
        -0.12377677112817764,
        -0.21397903561592102,
        0.24434171617031097,
        0.012727797031402588,
        -0.3024454116821289,
        0.03929988667368889,
        -0.13420478999614716,
        -0.13437320291996002,
        0.18640722334384918,
        -0.043562617152929306,
        4.10044813179411e-05,
        0.013705499470233917,
        0.01316372025758028,
        0.05042225867509842,
        -0.04454881325364113,
        0.16279293596744537,
        0.1717129647731781,
        -0.10187589377164841,
        0.17711617052555084,
        -0.4015792906284332,
        0.17633281648159027,
        0.09997663646936417,
        -0.2455170899629593,
        0.057854168117046356,
        -0.012185035273432732,
        -0.00856030359864235,
        -0.23945645987987518,
        0.17015567421913147,
        -0.13469266891479492,
        -0.0752258151769638,
        0.03318240866065025,
        0.054453130811452866,
        0.19042611122131348,
        -0.02964804507791996,
        -0.029145535081624985,
        0.16673947870731354,
        -0.003994577098637819,
        0.09503434598445892,
        -0.015527935698628426,
        0.16188693046569824,
        -0.11264576017856598,
        0.06160600855946541,
        -0.06250850856304169,
        -0.04684668406844139,
        -0.05910145863890648,
        -0.021697552874684334,
        0.021090656518936157,
        0.06475742906332016,
        -0.11091888695955276,
        0.0523654967546463,
        -0.04199986532330513,
        0.0036595731507986784,
        0.05474483221769333,
        0.012330446392297745,
        0.09148573130369186,
        0.06890576332807541,
        0.045148491859436035,
        0.07010052353143692,
        -0.06630103290081024,
        0.07254035770893097,
        0.057363346219062805,
        -0.1345670223236084,
        0.1268511563539505,
        0.037990059703588486,
        -0.016507236286997795,
        -0.11896070837974548,
        -0.017514023929834366,
        0.024991901591420174,
        -0.04116852208971977,
        -0.08885210752487183,
        -0.0813436433672905,
        -0.05958639830350876,
        0.1326921135187149,
        0.10906136780977249,
        -0.1418396681547165,
        0.05372481793165207,
        -0.017331447452306747,
        -0.08174730092287064,
        -0.0494597889482975,
        -0.040052663534879684,
        0.16272082924842834,
        -0.07812435179948807,
        -0.10511603206396103,
        -0.042043428868055344,
        -0.07076507806777954,
        0.21762025356292725,
        -0.11671508103609085,
        0.047648146748542786,
        0.22716781497001648,
        0.03973719850182533,
        -0.04949769005179405,
        0.017504828050732613,
        -0.0463053435087204,
        -0.02041364461183548,
        0.19039008021354675,
        -0.03129084035754204,
        0.06820730119943619,
        -0.22046005725860596,
        -0.0312412828207016,
        0.1299947202205658,
        0.00436625350266695,
        0.07354020327329636,
        -0.02006404474377632,
        -0.11976676434278488,
        -0.06634379178285599,
        0.1976836919784546,
        -0.030668653547763824,
        -0.04973767697811127,
        -0.09355784952640533,
        -0.1616920530796051,
        0.11237803101539612,
        0.07433004677295685,
        0.21861867606639862,
        0.08470799028873444,
        0.21805843710899353,
        -0.10695042461156845,
        0.0849500447511673,
        0.2257271111011505,
        0.07180684059858322,
        0.06785396486520767,
        0.010580794885754585,
        0.10658907890319824,
        -0.044086847454309464,
        0.02580048330128193,
        0.10076726227998734,
        -0.06906718760728836,
        0.046177204698324203,
        -0.20704405009746552,
        0.023427145555615425,
        -0.07886118441820145,
        0.0750628262758255,
        -0.029852429404854774,
        0.08103692531585693,
        0.1017099991440773,
        0.03450563922524452,
        0.05153507739305496,
        0.06447155028581619,
        0.06471223384141922,
        0.06239987909793854,
        0.09070975333452225,
        -0.13009785115718842,
        -0.0025204061530530453,
        0.05819864943623543,
        -0.011202164925634861,
        -0.0983991026878357,
        -0.17395275831222534,
        0.0010123851243406534,
        0.01987806335091591,
        0.07524257153272629,
        -0.16624391078948975,
        0.04609450325369835,
        -0.14789552986621857,
        -0.10381266474723816,
        -0.07065937668085098,
        -0.01604333147406578,
        0.0183903556317091,
        -0.0787426009774208,
        0.12718020379543304,
        0.16267584264278412,
        0.03828873485326767,
        0.12067696452140808,
        -0.11673839390277863,
        -0.0012030689977109432,
        -0.01026662066578865,
        0.1690714806318283,
        -0.08041322976350784,
        -0.10735461860895157,
        0.06821883469820023,
        0.031051451340317726,
        0.1285822093486786,
        -0.12493670731782913,
        0.109011210501194,
        -0.028424639254808426,
        0.07486379146575928,
        0.003992361947894096,
        0.1203068420290947,
        0.16864073276519775,
        0.12456317245960236,
        0.099934421479702,
        -0.02135338820517063,
        0.07055433094501495,
        -0.08756417781114578,
        0.12927372753620148,
        0.10143408924341202,
        0.13981574773788452,
        -0.055779073387384415,
        -0.09727507084608078,
        0.07237343490123749,
        0.037271954119205475,
        0.060741811990737915,
        0.056326981633901596,
        0.08722209185361862,
        -0.08050602674484253,
        -0.445063978433609,
        0.1325586885213852,
        0.28853222727775574,
        -0.5261112451553345,
        0.04623757675290108,
        -0.7899008393287659,
        -0.3301593065261841,
        -0.36558350920677185,
        0.8098025918006897,
        -0.91201251745224,
        -0.5159120559692383,
        -0.9980804324150085,
        0.2551059424877167,
        -0.7285882234573364,
        0.2486700862646103,
        -0.7151641845703125,
        -0.2843703627586365,
        -0.018452037125825882,
        0.1204327642917633,
        0.23333638906478882,
        0.2780420184135437,
        0.017487000674009323,
        -0.22314150631427765,
        -0.11430837213993073,
        0.021586894989013672,
        -0.09499945491552353,
        0.08918370306491852,
        0.08825336396694183,
        0.24051345884799957,
        0.08207009732723236,
        -0.01955203153192997,
        -0.004015514627099037,
        0.04851421341300011,
        -0.2684718370437622,
        -0.054093603044748306,
        -0.019922159612178802,
        -0.2851041555404663,
        0.15455597639083862,
        -0.015146399848163128,
        -0.18555277585983276,
        0.02217341773211956,
        -0.09391310065984726,
        0.05011207237839699,
        0.25877007842063904,
        -0.0502849817276001,
        0.027855290099978447,
        0.04955339431762695,
        0.18310841917991638,
        0.08237957209348679,
        -0.25812384486198425,
        -0.15380515158176422,
        0.16377227008342743,
        0.019662003964185715,
        0.17518825829029083,
        -0.042818326503038406,
        0.12435256689786911,
        -0.1260492205619812,
        -0.0037700249813497066,
        -0.15571096539497375,
        -0.2194492220878601,
        -0.1743074357509613,
        0.0756298080086708,
        0.06995867937803268,
        -0.009265451692044735,
        0.27176064252853394,
        0.12762032449245453,
        -0.32412251830101013,
        -0.2709485590457916,
        -0.25903138518333435,
        0.024780523031949997,
        -0.18850311636924744,
        0.000615220342297107,
        -0.07500232011079788,
        0.08948355168104172,
        0.05818988382816315,
        0.2258552461862564,
        0.07852266728878021,
        -0.17759855091571808,
        -0.02624461054801941,
        -0.02387576550245285,
        0.4713285267353058,
        -0.05437719076871872,
        -0.3171444833278656,
        -0.22914037108421326,
        0.16400454938411713,
        0.011343831196427345,
        -0.18546602129936218,
        0.28543952107429504,
        0.10092322528362274,
        -0.049202609807252884,
        -0.09290273487567902,
        0.13310880959033966,
        -0.32618799805641174,
        -0.19928297400474548,
        -0.215090811252594,
        -0.19957640767097473,
        -0.35172736644744873,
        -0.07918363064527512,
        -0.13665886223316193,
        -0.012195142917335033,
        0.12165242433547974,
        -0.20692281424999237,
        0.03528311476111412,
        -0.1491508185863495,
        0.2411629557609558,
        0.20975305140018463,
        -0.06812666356563568,
        -0.1352376639842987,
        -0.031424250453710556,
        -0.11127953231334686,
        0.13334645330905914,
        0.07770862430334091,
        0.03968418389558792,
        -0.24442118406295776,
        0.02738836035132408,
        -0.13085992634296417,
        -0.010237522423267365,
        0.27861014008522034,
        -0.35200035572052,
        -0.0886613056063652,
        0.053308434784412384,
        -0.11656805127859116,
        -0.013895045034587383,
        0.12741634249687195,
        -0.06003871187567711,
        0.09468235075473785,
        -0.25133422017097473,
        0.1824524998664856,
        0.08546017855405807,
        -0.06169067695736885,
        0.0035311232786625624,
        0.14337150752544403,
        0.12776270508766174,
        0.012623097747564316,
        -0.060275569558143616,
        0.10293693095445633,
        -0.1563275307416916,
        0.23401719331741333,
        -0.10809347033500671,
        0.0825379490852356,
        -0.21189762651920319,
        0.13634712994098663,
        0.17430758476257324,
        0.09107763320207596,
        -0.08285017311573029,
        0.07460109889507294,
        -0.20629046857357025,
        -0.1327410638332367,
        -0.12966735661029816,
        -0.23106808960437775,
        -0.03436749801039696,
        -0.1377016305923462,
        0.03918929025530815,
        0.022080637514591217,
        0.1584225744009018,
        -0.12614668905735016,
        -0.08015121519565582,
        0.15841920673847198,
        -0.14027749001979828,
        0.26375770568847656,
        -0.3742220103740692,
        -0.04785434529185295,
        0.15815876424312592,
        0.1873621791601181,
        0.13203692436218262,
        -0.2028549462556839,
        0.22958871722221375,
        -0.09633876383304596,
        0.013037462718784809,
        0.034188419580459595,
        0.13682082295417786,
        0.3025576174259186,
        0.36267271637916565,
        0.07608471810817719,
        0.18446160852909088,
        -0.05577131360769272,
        -0.1339251697063446,
        -0.23948659002780914,
        -0.09701512008905411,
        0.24159350991249084,
        0.10737244039773941,
        -0.18837326765060425,
        -0.013844143599271774,
        -0.016393030062317848,
        0.163982093334198,
        0.29082122445106506,
        -0.2349969744682312,
        0.11835727095603943,
        0.10220029950141907,
        0.11704691499471664,
        -0.1407572329044342,
        0.07919865101575851,
        0.11394103616476059,
        0.2967974543571472,
        -0.2962270975112915,
        -0.10508792102336884,
        -0.20386330783367157,
        -0.05905356630682945,
        0.0308336541056633,
        0.17088887095451355,
        -0.1626410335302353,
        0.09951198101043701,
        0.24207265675067902,
        -0.15768566727638245,
        0.001600240939296782,
        -0.12339040637016296,
        0.0783323273062706,
        -0.13976535201072693,
        -0.005668908357620239,
        -0.02844015136361122,
        -0.3101174533367157,
        0.012005224823951721,
        0.02116830088198185,
        0.013038490898907185,
        -0.2128198891878128,
        0.11374804377555847,
        -0.021125324070453644,
        -0.12205249071121216,
        -0.2884548604488373,
        -0.3027249574661255,
        0.16096772253513336,
        -0.19896867871284485,
        -0.05299592390656471,
        -0.06842267513275146,
        0.24913820624351501,
        0.04806903749704361,
        -0.24495771527290344,
        0.18893232941627502,
        -0.2250283807516098,
        -0.029254650697112083,
        -0.03978901356458664,
        -0.005753881763666868,
        0.11157531291246414,
        0.21549490094184875,
        0.0165653545409441,
        -0.07147485017776489,
        0.06432420015335083,
        0.1107420027256012,
        -0.010860534384846687,
        -0.10479074716567993,
        0.052469320595264435,
        0.10381018370389938,
        -0.14038895070552826,
        -0.07887645065784454,
        -0.21851809322834015,
        -0.14625179767608643,
        0.12575384974479675,
        -0.0019895988516509533,
        -0.1103966236114502,
        0.07528205215930939,
        -0.14098221063613892,
        -0.05360479652881622,
        -0.15278008580207825,
        0.10919488221406937,
        0.12747658789157867,
        0.16013965010643005,
        0.44028612971305847,
        -0.13864877820014954,
        -0.2825360894203186,
        -0.10229802876710892,
        -0.17956918478012085,
        0.11636263132095337,
        -0.2822786271572113,
        0.19195115566253662,
        0.16271597146987915,
        -0.30392104387283325,
        0.2788488566875458,
        0.0060376669280231,
        -0.3341175615787506,
        0.11414674669504166,
        -0.2561700940132141,
        -0.25433894991874695,
        -0.11390352249145508,
        -0.00577710522338748,
        0.005905788391828537,
        -0.011099056340754032,
        -0.19457073509693146,
        -0.028652558103203773,
        0.13178381323814392,
        0.09488935023546219,
        0.067667156457901,
        0.008520396426320076,
        0.005680904258042574,
        -0.16377046704292297,
        0.04260677844285965,
        -0.22007311880588531,
        -0.12694524228572845,
        -0.0388580821454525,
        -0.002376984339207411,
        0.07394593209028244,
        0.018032405525445938,
        0.06190237030386925,
        -0.0924932062625885,
        -0.044421564787626266,
        0.05692154914140701,
        -0.04069564864039421,
        -0.06210556998848915,
        0.21829330921173096,
        -0.12022881209850311,
        -0.051846910268068314,
        0.32597461342811584,
        0.04904821515083313,
        0.0843348428606987,
        0.018600614741444588,
        0.1685943603515625,
        0.037712324410676956,
        -0.094244584441185,
        -0.029168354347348213,
        -0.020131651312112808,
        -0.11784494668245316,
        0.09212470799684525,
        -0.16030244529247284,
        -0.048640575259923935,
        0.11288701742887497,
        -0.011418001726269722,
        -0.21589981019496918,
        0.11693999916315079,
        -0.13407008349895477,
        -0.03441954031586647,
        0.06498540937900543,
        -0.038946930319070816,
        0.04124262183904648,
        0.011519589461386204,
        0.07581975311040878,
        0.04512334242463112,
        -0.05681971088051796,
        0.0513451062142849,
        0.014554922468960285,
        0.057447340339422226,
        -0.11267683655023575,
        0.13170604407787323,
        0.08996865898370743,
        -0.13862507045269012,
        0.16241900622844696,
        -0.166554257273674,
        0.0475052073597908,
        -0.14782465994358063,
        -0.13005375862121582,
        0.07526914775371552,
        -0.08881475776433945,
        0.14510852098464966,
        -0.11225729435682297,
        0.07986622303724289,
        0.08113598823547363,
        0.0897960290312767,
        0.050247590988874435,
        -0.06800589710474014,
        -0.04068046808242798,
        0.2539922893047333,
        -0.03703010827302933,
        0.0648951381444931,
        -0.06903921067714691,
        0.07217936962842941,
        -0.06850297003984451,
        0.02795851044356823,
        -0.07975760847330093,
        0.019327687099575996,
        -0.14910279214382172,
        -0.032915204763412476,
        -0.0759783685207367,
        0.019114119932055473,
        -0.010250775143504143,
        -0.1739925593137741,
        -0.05429552495479584,
        0.1435747891664505,
        -0.010114695876836777,
        0.1573704481124878,
        0.09431358426809311,
        -0.02398228831589222,
        -0.009285425767302513,
        -0.11504686623811722,
        -0.053792115300893784,
        0.009612270630896091,
        0.07098788768053055,
        -0.023984495550394058,
        0.07368265092372894,
        0.006779858842492104,
        -0.08710095286369324,
        -0.04780920594930649,
        0.21397578716278076,
        0.0939064770936966,
        0.19631770253181458,
        -0.06504446268081665,
        0.04401150718331337,
        0.08058159798383713,
        0.28552329540252686,
        -0.11084802448749542,
        0.23887252807617188,
        -0.022999851033091545,
        -0.05541165545582771,
        0.22650766372680664,
        -0.19455377757549286,
        0.12833347916603088,
        -0.01752316951751709,
        -0.17355212569236755,
        0.14205685257911682,
        -0.06894338876008987,
        -0.27717962861061096,
        0.17603068053722382,
        0.14551743865013123,
        0.35821622610092163,
        -0.052093256264925,
        0.006466510705649853,
        -0.05406542122364044,
        0.0428028404712677,
        -0.11694460362195969,
        0.10251464694738388,
        0.03707257658243179,
        0.1585671454668045,
        -0.08148280531167984,
        0.005053273867815733,
        0.13172096014022827,
        0.28263336420059204,
        -0.14430563151836395,
        -0.0449039563536644,
        0.04422617703676224,
        -0.02372027188539505,
        -0.05612576752901077,
        -0.06594820320606232,
        0.14824248850345612,
        0.013015923090279102,
        0.03319939970970154,
        0.010276314802467823,
        0.14892791211605072,
        -0.1711387038230896,
        0.1547028124332428,
        0.2745218575000763,
        -0.15254148840904236,
        -0.0016844619531184435,
        -0.28066614270210266,
        -0.10658353567123413,
        0.11518102139234543,
        -0.19363081455230713,
        -0.16113300621509552,
        0.1409468799829483,
        -0.10938999056816101,
        0.14887766540050507,
        0.027155723422765732,
        0.019863147288560867,
        0.13400933146476746,
        -0.15057682991027832,
        0.206562802195549,
        0.06547880917787552,
        -0.061248380690813065,
        0.1679740846157074,
        -0.015382946468889713,
        0.02007046900689602,
        -0.0892276018857956,
        -0.0337892584502697,
        0.13494302332401276,
        0.041866693645715714,
        -0.02420644834637642,
        -0.23713526129722595,
        -0.15635281801223755,
        0.0862727090716362,
        0.04260380566120148,
        0.022837277501821518,
        0.06988322734832764,
        0.029706254601478577,
        -0.2537202537059784,
        -0.11346246302127838,
        -0.2703098654747009,
        0.07796559482812881,
        0.06394049525260925,
        -0.0493607260286808,
        0.17677992582321167,
        -0.04469841718673706,
        -0.060914527624845505,
        0.09108426421880722,
        -0.06168530881404877,
        0.060237009078264236,
        0.22157028317451477,
        -0.011308879591524601,
        0.12512503564357758,
        0.008472747169435024,
        0.036464180797338486,
        0.08489800244569778,
        -0.06469235569238663,
        -0.040036313235759735,
        0.0947250947356224,
        0.09806912392377853,
        -0.09579846262931824,
        0.08930767327547073,
        -0.0007558289798907936,
        0.1510288417339325,
        0.0639491006731987,
        0.019733453169465065,
        0.09009315073490143,
        -0.031937189400196075,
        0.03494969382882118,
        0.15221428871154785,
        -0.09671854972839355,
        -0.014376353472471237,
        0.05751001834869385,
        0.007983806543052197,
        0.039937954396009445,
        0.11765656620264053,
        -0.025303851813077927,
        -0.19085916876792908,
        -0.10811400413513184,
        0.10281000286340714,
        -0.12468582391738892,
        -0.12402275204658508,
        0.013638113625347614,
        -0.026154646649956703,
        -0.1746429204940796,
        0.06610549986362457,
        0.08134831488132477,
        0.19743312895298004,
        0.07516899704933167,
        0.02072031795978546,
        -0.02423558197915554,
        0.06186261400580406,
        -0.07918728142976761,
        -0.013884995132684708,
        -0.11273591220378876,
        -0.09244363754987717,
        0.0004238231049384922,
        -0.001946434611454606,
        -0.032475683838129044,
        -0.10254646837711334,
        0.08721402287483215,
        -0.008795104920864105,
        -0.12781362235546112,
        0.13535942137241364,
        0.032018423080444336,
        -0.0927453339099884,
        -0.04647460952401161,
        0.18638266623020172,
        -0.0017805680399760604,
        -0.18678657710552216,
        -0.005073810461908579,
        -0.12488580495119095,
        0.00016433645214419812,
        -0.10682448744773865,
        -0.11517980694770813,
        -0.03475530818104744,
        -0.1478949338197708,
        -0.1532292515039444,
        0.08272624015808105,
        -0.1446543186903,
        -0.1467381715774536,
        -0.1075444370508194,
        -0.06605961918830872,
        -0.11118222028017044,
        0.03700249642133713,
        0.00900510884821415,
        0.15788045525550842,
        0.17926904559135437,
        0.018526723608374596,
        -0.14715449512004852,
        0.10068555921316147,
        0.08259622752666473,
        0.0206478051841259,
        -0.0010142856044694781,
        -0.07079198211431503,
        -0.021358545869588852,
        0.09486941248178482,
        -0.014406178146600723,
        -0.02932417020201683,
        0.043770186603069305,
        0.05969894304871559,
        0.1699856072664261,
        0.0458056777715683,
        0.18958084285259247,
        0.03836898133158684,
        -0.06859596818685532,
        -0.11557468771934509,
        0.019292594864964485,
        0.08576223254203796,
        0.00859743170440197,
        -0.11887650936841965,
        0.0016741484869271517,
        0.1170312911272049,
        -0.016419410705566406,
        -0.13274937868118286,
        -0.06227143481373787,
        0.012824797071516514,
        -0.03672732785344124,
        0.03234068676829338,
        -0.11676240712404251,
        -0.04509124904870987,
        0.06156978756189346,
        -0.17555271089076996,
        -0.10285911709070206,
        -0.04778360202908516,
        0.06578294187784195,
        0.06201637163758278,
        0.024238845333456993,
        -0.05768374726176262,
        0.12850770354270935,
        -0.009503581561148167,
        0.23855042457580566,
        0.07129254192113876,
        0.023426538333296776,
        0.07163345813751221,
        -0.11277922987937927,
        0.1584302932024002,
        0.15906262397766113,
        -0.10716476291418076,
        -0.15006913244724274,
        -0.0384097620844841,
        0.13602282106876373,
        -0.09578977525234222,
        0.16665121912956238,
        -0.14479245245456696,
        -0.20489858090877533,
        0.044021327048540115,
        -0.10279972851276398,
        0.05508209764957428,
        0.05119963735342026,
        0.056466009467840195,
        -0.09756068140268326,
        -0.07529782503843307,
        0.07464173436164856,
        -0.06777564436197281,
        -0.15332511067390442,
        0.03055894561111927,
        -0.175822451710701,
        0.018396515399217606,
        0.08763410896062851,
        0.22366032004356384,
        -0.0682251900434494,
        0.008859023451805115,
        0.23739203810691833,
        0.1487194001674652,
        -0.17818263173103333,
        0.05122297257184982,
        -0.013446412980556488,
        0.0947912260890007,
        -0.139205664396286,
        0.09101453423500061,
        -0.009042513556778431,
        -0.2857549488544464,
        0.016018742695450783,
        0.07193651795387268,
        -0.34102940559387207,
        0.07802186161279678,
        -0.1338125318288803,
        0.18133938312530518,
        0.0735626220703125,
        -0.012700156308710575,
        -0.018566090613603592,
        -0.07973257452249527,
        0.20621196925640106,
        0.0709170326590538,
        -0.0013393746921792626,
        0.023150328546762466,
        -0.0489172637462616,
        0.00013815284182783216,
        -0.0710274875164032,
        0.16449713706970215,
        0.010376130230724812,
        -0.06058814004063606,
        0.07036347687244415,
        -0.18096928298473358,
        0.020092563703656197,
        -0.10231659561395645,
        0.1341848373413086,
        -0.12481261044740677,
        -0.04551457241177559,
        0.09774679690599442,
        0.056814759969711304,
        -0.2527472972869873,
        -0.078493632376194,
        0.049716517329216,
        0.03125675022602081,
        -0.1792711317539215,
        -0.060901541262865067,
        -0.21629461646080017,
        -0.003469078103080392,
        -0.10531975328922272,
        -0.05853984132409096,
        0.024501347914338112,
        -0.10598515719175339,
        0.10570333153009415,
        -0.15927885472774506,
        0.051982246339321136,
        0.01930118538439274,
        -0.010343310423195362,
        -0.00505935400724411,
        -0.0830177441239357,
        0.052040282636880875,
        0.1410340666770935,
        -0.3200250267982483,
        -0.08458005636930466,
        0.019081633538007736,
        0.005346964113414288,
        -0.03885194659233093,
        -0.20867416262626648,
        0.20420698821544647,
        -0.11609914153814316,
        0.1322127729654312,
        0.2063734531402588,
        -0.14022018015384674,
        0.033484719693660736,
        0.06402537971735,
        -0.1764458864927292,
        0.07510162144899368,
        0.18630409240722656,
        0.1492689549922943,
        0.10379244387149811,
        -0.016970887780189514,
        -0.06581971049308777,
        -0.053816135972738266,
        0.013121387921273708,
        0.08206727355718613,
        -0.042589910328388214,
        -0.23371435701847076,
        0.1728018969297409,
        -0.12771166861057281,
        -0.030051058158278465,
        -0.12488087266683578,
        0.17002828419208527,
        0.17412807047367096,
        -0.05384332314133644,
        -0.013911450281739235,
        0.04345095902681351,
        0.12209463119506836,
        -0.01785956509411335,
        -0.2140749990940094,
        -0.05087558180093765,
        -0.026349205523729324,
        0.12287577241659164,
        0.21339274942874908,
        0.05783180519938469,
        0.03952990472316742,
        0.0021133816335350275,
        0.028634872287511826,
        0.05073438212275505,
        -0.05851984769105911,
        -0.13466328382492065,
        0.11944941431283951,
        -0.0013588699512183666,
        0.08571261167526245,
        -0.15149889886379242,
        0.08300270140171051,
        0.00478145619854331,
        -0.1986013799905777,
        0.046186838299036026,
        -0.293425589799881,
        -0.09720773994922638,
        -0.060639638453722,
        -0.11919865012168884,
        -0.008113381452858448,
        -0.10726393759250641,
        0.05885180085897446,
        -0.030288703739643097,
        0.023470988497138023,
        -0.00943777710199356,
        0.1489381492137909,
        0.12246792018413544,
        -0.06769298017024994,
        -0.05914398282766342,
        0.08124438673257828,
        -0.06860341876745224,
        -0.00861657876521349,
        -0.041533492505550385,
        0.007752239238470793,
        0.07891514897346497,
        -0.1227823868393898,
        -0.048746734857559204,
        0.005606083199381828,
        0.2560187578201294,
        -0.08403360098600388,
        0.13005895912647247,
        -0.11066358536481857,
        -0.007836760953068733,
        -0.1533549427986145,
        -0.08936057239770889,
        0.08419837802648544,
        -0.08171810209751129,
        0.10218854993581772,
        0.07841184735298157,
        0.021362198516726494,
        0.08169479668140411,
        0.006098294630646706,
        0.1335698664188385,
        0.1087702065706253,
        0.10018555819988251,
        0.2841378152370453,
        -0.10835621505975723,
        0.08742906898260117,
        -0.0966048464179039,
        -0.03717045485973358,
        0.04026838764548302,
        -0.0019239396788179874,
        0.17069607973098755,
        -0.28582462668418884,
        -0.03619401901960373,
        0.10248074680566788,
        -0.038068532943725586,
        0.0064290668815374374,
        0.16851772367954254,
        -0.06031091883778572,
        -0.27111563086509705,
        -0.029444025829434395,
        -0.00947270356118679,
        0.005785040557384491,
        0.06655071675777435,
        -0.01776687614619732,
        0.19722118973731995,
        -0.13501441478729248,
        0.07348345220088959,
        0.19227968156337738,
        -0.001120263710618019,
        0.041757095605134964,
        0.2159026712179184,
        -0.08196800947189331,
        -0.11623017489910126,
        -0.13808439671993256,
        0.20933914184570312,
        -0.22995096445083618,
        0.14052797853946686,
        -0.20991268754005432,
        0.04412098973989487,
        -0.03548998013138771,
        -0.03248494118452072,
        0.033686596900224686,
        -0.07686442881822586,
        -0.17379309237003326,
        0.02203468792140484,
        0.14827336370944977,
        0.031736940145492554,
        0.18695828318595886,
        -0.11102087795734406,
        0.02380499057471752,
        0.1012255921959877,
        0.02286505699157715,
        -0.04044134542346001,
        0.00868297554552555,
        -0.17890554666519165,
        -0.17107132077217102,
        -0.08850967139005661,
        0.045015983283519745,
        0.09413736313581467,
        0.09186503291130066,
        0.22629979252815247,
        -0.06252337247133255,
        -0.11418118327856064,
        -0.08900166302919388,
        0.10506743937730789,
        -0.0651860162615776,
        -0.2623961865901947,
        -0.18277014791965485,
        -0.17203761637210846,
        -0.21867671608924866,
        -0.15130887925624847,
        -0.03110470063984394,
        0.3355447053909302,
        0.05768590420484543,
        0.0890173688530922,
        0.08765077590942383,
        0.11362583935260773,
        -0.06697697192430496,
        -0.10168587416410446,
        -0.11707466840744019,
        0.18178142607212067,
        -0.08372396975755692,
        -0.21701312065124512,
        0.13000638782978058,
        0.15174640715122223,
        -0.032907526940107346,
        -0.14652863144874573,
        -0.2068190574645996,
        -0.16332094371318817,
        0.2292664647102356,
        0.12149903178215027,
        0.07276023179292679,
        -0.15042315423488617,
        -0.03837372735142708,
        -0.11458101123571396,
        -0.03398410975933075,
        0.11555056273937225,
        0.0157476793974638,
        -0.05842304602265358,
        0.23284094035625458,
        0.12372715026140213,
        0.09840473532676697,
        -0.08704962581396103,
        0.016753986477851868,
        0.062337715178728104,
        -0.19887185096740723,
        0.11352820694446564,
        -0.15787746012210846,
        -0.09897488355636597,
        -0.04898717254400253,
        -0.016361571848392487,
        0.09354226291179657,
        -0.09422016143798828,
        0.03242630884051323,
        -0.29491689801216125,
        -0.003433127887547016,
        -0.1369730532169342,
        0.1690189391374588,
        0.17958685755729675,
        0.004530836828052998,
        0.027321452274918556,
        -0.11754398047924042,
        0.07739240676164627,
        -0.037581589072942734,
        0.038947511464357376,
        0.015815407037734985,
        0.2217872589826584,
        0.1370975822210312,
        0.03683812543749809,
        0.007268636021763086,
        0.13390986621379852,
        -0.17969585955142975,
        0.13130640983581543,
        -0.07765986770391464,
        0.1155640259385109,
        -0.0838811993598938,
        -0.07530782371759415,
        0.0098700150847435,
        0.11451919376850128,
        -0.0013104397803544998,
        -0.06985931098461151,
        0.07376192510128021,
        0.01752009615302086,
        -0.17113204300403595,
        -0.07490984350442886,
        -0.08758797496557236,
        0.14724737405776978,
        -0.04026061296463013,
        0.02194782719016075,
        0.12672635912895203,
        -0.13586491346359253,
        -0.009653246961534023,
        -0.06268063187599182,
        -0.03479330614209175,
        -0.0155114084482193,
        -0.0904945507645607,
        -0.06317157298326492,
        0.13671225309371948,
        -0.062499161809682846,
        0.05107447877526283,
        0.08171173185110092,
        -0.03099990449845791,
        -0.0686788260936737,
        0.040868911892175674,
        0.04332318156957626,
        0.12087671458721161,
        0.07561245560646057,
        -0.17800650000572205,
        -0.13142147660255432,
        -0.09401547163724899,
        0.01469675824046135,
        -0.08808846026659012,
        -0.02420944720506668,
        0.047581955790519714,
        0.14984022080898285,
        0.10938559472560883,
        -0.10009415447711945,
        -0.03860931843519211,
        0.11117774993181229,
        -0.051944032311439514,
        -0.11098343878984451,
        -0.18070092797279358,
        0.052031684666872025,
        0.15940694510936737,
        0.18022148311138153,
        0.10293499380350113,
        0.052147239446640015,
        0.04531368240714073,
        0.1379004716873169,
        0.055606819689273834,
        -0.005863332189619541,
        0.11918134242296219,
        -0.0896952822804451,
        -0.06427600234746933,
        0.002583904890343547,
        -0.05212107300758362,
        -0.04053119942545891,
        -0.186506450176239,
        0.06637633591890335,
        -0.04724838212132454,
        -0.12711746990680695,
        -0.07094058394432068,
        -0.008068889379501343,
        -0.02421356923878193,
        -0.032116375863552094,
        -0.13661977648735046,
        0.02795383892953396,
        0.03321374952793121,
        -0.10008919984102249,
        0.12215196341276169,
        0.18645843863487244,
        -0.012960449792444706,
        0.17092834413051605,
        -0.0004894405137747526,
        0.12587617337703705,
        0.19314934313297272,
        -0.08507523685693741,
        0.04281030222773552,
        -0.2685694098472595,
        -0.054718658328056335,
        -0.10730595886707306,
        -0.1531974971294403,
        -0.03317912667989731,
        -0.0276945848017931,
        0.1255958378314972,
        0.05372817814350128,
        -0.05084722116589546,
        0.18005414307117462,
        -0.06810911744832993,
        0.021418634802103043,
        -0.23678258061408997,
        -0.09445969015359879,
        -0.0628126859664917,
        0.22127127647399902,
        0.06825756281614304,
        0.11676361411809921,
        0.1019512489438057,
        -0.02416236139833927,
        0.21764421463012695,
        0.10468552261590958,
        -0.08027651160955429,
        0.13024936616420746,
        0.03579126298427582,
        0.06915836036205292,
        0.21712028980255127,
        0.024664169177412987,
        0.06085226684808731,
        -0.1618661880493164,
        -0.07385373115539551,
        0.003254591254517436,
        -0.01902027614414692,
        0.0701301246881485,
        -0.009668774902820587,
        0.0067138951271772385,
        0.12145503610372543,
        -0.011775804683566093,
        -0.055253639817237854,
        -0.09588510543107986,
        -0.12317727506160736,
        -0.041863881051540375,
        0.01951553486287594,
        0.021002089604735374,
        -0.12798325717449188,
        0.03892217203974724,
        -0.14403600990772247,
        0.07626737654209137,
        0.1509407013654709,
        -0.17490527033805847,
        0.10252346843481064,
        -0.06559769809246063,
        0.009166352450847626,
        0.15909408032894135,
        -0.12777699530124664,
        0.15042760968208313,
        -0.0989287793636322,
        -0.11053795367479324,
        -0.03626495972275734,
        0.04078327491879463,
        0.298510879278183,
        0.05615739896893501,
        -0.018369002267718315,
        -0.03568989410996437,
        -0.1308506429195404,
        0.04710780829191208,
        0.03756247088313103,
        -0.05834585055708885,
        -0.07752204686403275,
        0.12889041006565094,
        0.030882110819220543,
        0.08734554797410965,
        0.09191302210092545,
        -0.09460622817277908,
        0.05834230035543442,
        -0.01834631711244583,
        -0.006847695913165808,
        -0.18426504731178284,
        -0.42198267579078674,
        0.7431666254997253,
        0.43764713406562805,
        -0.4503207206726074,
        -0.01423669420182705,
        -0.18530955910682678,
        -0.14555150270462036,
        0.37162917852401733,
        -0.6722961068153381,
        1.0254422426223755,
        0.6030887365341187,
        0.1492195874452591,
        -0.28908225893974304,
        0.01536060031503439,
        -0.6716984510421753,
        0.07256579399108887,
        -0.17417308688163757,
        -0.10005276650190353,
        -0.3177224397659302,
        0.14753760397434235,
        0.3123581111431122,
        0.19968630373477936,
        0.10569588840007782,
        0.2583875060081482,
        0.12712737917900085,
        0.0851476863026619,
        0.21721471846103668,
        -0.3107573390007019,
        0.027550453320145607,
        0.053396083414554596,
        -0.1516564041376114,
        0.2214762568473816,
        -0.042344797402620316,
        0.13388334214687347,
        0.2120359241962433,
        0.09542936086654663,
        0.016606643795967102,
        -0.022356737405061722,
        -0.20953629910945892,
        -0.3293490409851074,
        0.041198715567588806,
        0.08187418431043625,
        -0.21950910985469818,
        0.19189339876174927,
        0.19871532917022705,
        -0.02609248459339142,
        -0.06776688992977142,
        0.028216488659381866,
        -0.12924835085868835,
        0.022201694548130035,
        -0.05830385163426399,
        0.015286208130419254,
        -0.015685269609093666,
        -0.06612174212932587,
        -0.34621208906173706,
        -0.1954856961965561,
        -0.049826379865407944,
        0.02625494822859764,
        0.17164760828018188,
        0.2990153431892395,
        -0.32034218311309814,
        -0.3240642845630646,
        0.37702471017837524,
        0.36906078457832336,
        -0.02683101035654545,
        0.3261081278324127,
        0.0009048281353898346,
        -0.07703342288732529,
        0.14064066112041473,
        -0.3028024137020111,
        0.10742597281932831,
        0.24509258568286896,
        -0.09212949126958847,
        0.1802951693534851,
        0.23911349475383759,
        0.10377705842256546,
        0.06250469386577606,
        0.06575346738100052,
        0.07206898182630539,
        0.040885377675294876,
        -0.1520204395055771,
        0.1919742077589035,
        -0.23231574892997742,
        0.13646528124809265,
        0.08874422311782837,
        0.05932886153459549,
        0.052083346992731094,
        0.2070072889328003,
        -0.09583563357591629,
        -0.27007049322128296,
        0.14643922448158264,
        -0.23577392101287842,
        -0.38582906126976013,
        0.2423451840877533,
        -0.08533471077680588,
        -0.06659451127052307,
        -0.014602693729102612,
        -0.09934291243553162,
        -0.06531549990177155,
        -0.06922818720340729,
        0.02244194969534874,
        0.25674983859062195,
        0.01655247062444687,
        -0.09853535145521164,
        -0.11810678243637085,
        0.022587565705180168,
        0.09251903742551804,
        0.0021603060886263847,
        0.18485619127750397,
        0.2049848884344101,
        0.010632599703967571,
        0.16235730051994324,
        0.1608307659626007,
        -0.06558120250701904,
        0.19359208643436432,
        0.1414240449666977,
        -0.18332594633102417,
        0.13082773983478546,
        -0.1436259150505066,
        -0.33092400431632996,
        0.14728859066963196,
        0.3105917274951935,
        -0.23617729544639587,
        0.25551095604896545,
        0.06999838352203369,
        -0.10864465683698654,
        0.13832063972949982,
        0.21143198013305664,
        0.15716959536075592,
        -0.31029844284057617,
        -0.05471404641866684,
        0.058807920664548874,
        -0.12191935628652573,
        0.1172800064086914,
        -0.06258298456668854,
        -0.01840309053659439,
        0.12530556321144104,
        0.10150337964296341,
        0.14247551560401917,
        0.0437505804002285,
        0.0646190196275711,
        -0.016868561506271362,
        -0.18097549676895142,
        -0.29293176531791687,
        0.17779062688350677,
        -0.20776885747909546,
        0.21518735587596893,
        0.1369483768939972,
        0.031202901154756546,
        -0.23837442696094513,
        0.058302298188209534,
        -0.10712956637144089,
        0.05831528827548027,
        -0.11874175816774368,
        0.22144782543182373,
        -0.25041383504867554,
        -0.06997396051883698,
        0.052725937217473984,
        0.0650271475315094,
        0.19795043766498566,
        -0.01638544537127018,
        -0.23552872240543365,
        0.2554866671562195,
        0.03838420286774635,
        0.08702097088098526,
        -0.15221388638019562,
        -0.13319939374923706,
        -0.20643532276153564,
        0.08218168467283249,
        0.09939033538103104,
        -0.3402642607688904,
        0.05319070816040039,
        0.040354155004024506,
        0.172307088971138,
        -0.20406308770179749,
        0.27606481313705444,
        -0.11375486850738525,
        -0.16456206142902374,
        -0.11259254068136215,
        0.15698157250881195,
        -0.20891016721725464,
        -0.006297706160694361,
        -0.13174186646938324,
        0.19766655564308167,
        0.052304383367300034,
        -0.15468648076057434,
        -0.02488292194902897,
        0.10065644234418869,
        -0.19193854928016663,
        -0.043351802974939346,
        0.4497116804122925,
        0.15281274914741516,
        0.0614989772439003,
        -0.07932213693857193,
        0.12539179623126984,
        -0.11010105907917023,
        0.2850323021411896,
        0.36248350143432617,
        -0.004581937100738287,
        -0.12397246062755585,
        -0.1907891035079956,
        -0.033776357769966125,
        0.2592866122722626,
        -0.19235368072986603,
        -0.2933104932308197,
        -0.13110199570655823,
        0.11891762167215347,
        -0.15154772996902466,
        -0.1580105572938919,
        0.039976514875888824,
        -0.08439791202545166,
        0.19800548255443573,
        0.110159732401371,
        -0.20910890400409698,
        -0.29577797651290894,
        0.1528424322605133,
        -0.00918336771428585,
        -0.08202102780342102,
        0.01173388585448265,
        -0.02607336826622486,
        0.1930365115404129,
        0.10788992792367935,
        -0.008250596933066845,
        -0.22161820530891418,
        0.05954026058316231,
        -0.14582066237926483,
        -0.006605630740523338,
        0.03915175050497055,
        -0.2014419436454773,
        0.0008230431703850627,
        -0.14304253458976746,
        0.12486641108989716,
        -0.04282885789871216,
        0.1420513093471527,
        -0.2380119264125824,
        -0.013939923606812954,
        0.1584857553243637,
        -0.09702767431735992,
        0.15127824246883392,
        0.1655244380235672,
        0.29795241355895996,
        -0.06640299409627914,
        0.1681964099407196,
        -0.16079546511173248,
        -0.14552175998687744,
        0.13775265216827393,
        -0.3460415303707123,
        0.03449801728129387,
        0.24667823314666748,
        0.2875576913356781,
        0.16707836091518402,
        0.10803499817848206,
        0.08766252547502518,
        -0.19672909379005432,
        -0.13105379045009613,
        -0.15081922709941864,
        -0.17319528758525848,
        0.002822623588144779,
        -0.27959969639778137,
        -0.22319476306438446,
        0.03977419063448906,
        -0.017903435975313187,
        -0.1820945143699646,
        0.14164091646671295,
        0.05777259171009064,
        0.2169465869665146,
        0.27998560667037964,
        -0.22635507583618164,
        -0.19031678140163422,
        -0.10602834075689316,
        0.03848981112241745,
        0.02598215453326702,
        0.04958809167146683,
        0.10689340531826019,
        0.16135859489440918,
        -0.16010984778404236,
        0.18276436626911163,
        0.1134389191865921,
        -0.011998116038739681,
        -0.23347553610801697,
        -0.17099109292030334,
        0.03198442980647087,
        0.08609774708747864,
        0.1636129766702652,
        0.18544405698776245,
        0.10188455879688263,
        0.01471668016165495,
        0.1272650808095932,
        0.021137883886694908,
        -0.03687421232461929,
        -0.058051906526088715,
        -0.007621947675943375,
        0.21719855070114136,
        0.028428029268980026,
        -0.12432067841291428,
        0.05378757417201996,
        -0.12031200528144836,
        -0.1367332935333252,
        0.1541181355714798,
        0.14142490923404694,
        -0.15692919492721558,
        -0.16039957106113434,
        0.06139054149389267,
        0.022129183635115623,
        -0.00025665073189884424,
        0.10386909544467926,
        -0.01284535601735115,
        0.027903307229280472,
        -0.15022540092468262,
        0.09828906506299973,
        0.08800476044416428,
        -0.11123546212911606,
        -0.0537966750562191,
        -0.012547681108117104,
        0.008018230088055134,
        0.14974547922611237,
        0.07926541566848755,
        -0.22652561962604523,
        -0.09055198729038239,
        0.23152673244476318,
        0.0434374138712883,
        -0.12229631841182709,
        -0.18079812824726105,
        -0.159526988863945,
        -0.009346110746264458,
        -0.11677373945713043,
        -0.11731918156147003,
        -0.00879602413624525,
        -0.03489063307642937,
        -0.17865149676799774,
        -0.1347665935754776,
        0.026974115520715714,
        0.11764553934335709,
        -0.08826851844787598,
        -0.11847492307424545,
        -0.15607328712940216,
        0.18492022156715393,
        0.024545524269342422,
        0.2572258412837982,
        -0.10916709154844284,
        -0.16537703573703766,
        -0.005496381316334009,
        -0.27410468459129333,
        0.004967670422047377,
        0.04266937077045441,
        -0.14135199785232544,
        0.08814332634210587,
        0.16405320167541504,
        -0.08995050936937332,
        0.19120119512081146,
        -0.013468371704220772,
        -0.07315068691968918,
        0.023010633885860443,
        -0.1356896311044693,
        0.18356570601463318,
        -0.00806453451514244,
        -0.13968990743160248,
        0.12278067320585251,
        -0.03380056470632553,
        0.058776918798685074,
        0.04859372600913048,
        -0.16792994737625122,
        0.12262729555368423,
        0.3077109456062317,
        0.18660172820091248,
        -0.0020506130531430244,
        -0.027756810188293457,
        -0.05948399752378464,
        -0.051208026707172394,
        -0.007236394565552473,
        0.016153432428836823,
        -0.135427325963974,
        -0.05610016733407974,
        0.05775992572307587,
        -0.12908720970153809,
        0.0734935998916626,
        -0.2609073221683502,
        0.09939239919185638,
        0.14081411063671112,
        0.0022148159332573414,
        -0.185466468334198,
        0.12424204498529434,
        0.03608477860689163,
        -0.03567984700202942,
        -0.03322061523795128,
        0.08728016912937164,
        0.02191684953868389,
        -0.04875025898218155,
        -0.21852506697177887,
        -0.19631808996200562,
        -0.12856951355934143,
        0.06523460149765015,
        -0.1109178215265274,
        -0.03568135201931,
        0.11453285068273544,
        0.11759556084871292,
        -0.12611834704875946,
        0.07832980155944824,
