{
    "version": "0.5.0",
    "architecture": "WaveNet",
    "config": {
        "layers": [
            {
                "input_size": 1,
                "condition_size": 1,
                "head_size": 8,
                "channels": 16,
                "kernel_size": 3,
                "dilations": [
                    1,
                    2,
                    4,
                    8,
                    16,
                    32,
                    64,
                    128,
                    256,
                    512
                ],
                "activation": "Tanh",
                "gated": false,
                "head_bias": false
            },
            {
                "input_size": 16,
                "condition_size": 1,
                "head_size": 1,
                "channels": 8,
                "kernel_size": 3,
                "dilations": [
                    1,
                    2,
                    4,
                    8,
                    16,
                    32,
                    64,
                    128,
                    256,
                    512
                ],
                "activation": "Tanh",
                "gated": false,
                "head_bias": true
            }
        ],
        "head": null,
        "head_scale": 0.02
    },
    "weights": [
        -0.0038542146794497967,
        0.35104265809059143,
        -0.149624302983284,
        -0.45965856313705444,
        0.001442998880520463,
        0.05794878676533699,
        0.00330679421313107,
        0.5740458369255066,
        0.0002836380444932729,
        0.03199539706110954,
        -0.05600031465291977,
        -0.0014059164095669985,
        -0.7579206228256226,
        -0.32250121235847473,
        -0.12272902578115463,
        0.014874974265694618,
        0.15145741403102875,
        0.09952934831380844,
        -0.0880649983882904,
        -0.11212677508592606,
        -0.21844935417175293,
        0.09546921402215958,
        0.029130253940820694,
        0.3421960175037384,
        -0.012674851343035698,
        0.07226001471281052,
        0.39480915665626526,
        -0.1248423159122467,
        -0.032554637640714645,
        0.14064674079418182,
        -0.04076800122857094,
        0.03830413147807121,
        -0.3459484577178955,
        0.0006835174281150103,
        -0.08039522171020508,
        -0.0312720350921154,
        -0.15256047248840332,
        0.05603020265698433,
        -0.21506960690021515,
        0.07647652924060822,
        0.0912812128663063,
        0.05065302923321724,
        0.05176021531224251,
        -0.16849949955940247,
        -0.30772852897644043,
        -0.020792704075574875,
        0.11702114343643188,
        0.2962772250175476,
        -0.0742868110537529,
        0.12069044262170792,
        0.17341698706150055,
        0.0922144427895546,
        0.11837905645370483,
        0.3009660542011261,
        0.09324651211500168,
        -0.0302821546792984,
        0.2862430810928345,
        -0.11296331882476807,
        -0.043498456478118896,
        0.16220331192016602,
        0.12911632657051086,
        -0.041803959757089615,
        -0.10454301536083221,
        0.11808903515338898,
        0.11429624259471893,
        -0.06621302664279938,
        -0.12080409377813339,
        -0.05079760402441025,
        0.3371094763278961,
        0.20762068033218384,
        -0.04096860811114311,
        -0.28021007776260376,
        -0.0006376908277161419,
        0.19218328595161438,
        -0.13101781904697418,
        0.06589866429567337,
        0.0911559909582138,
        -0.2684171795845032,
        -0.014812802895903587,
        -0.1120651587843895,
        0.10827125608921051,
        0.11543810367584229,
        0.18719318509101868,
        -0.1845351755619049,
        0.08135932683944702,
        -0.08009850233793259,
        0.24311745166778564,
        -0.02493145875632763,
        0.07651061564683914,
        -0.13829807937145233,
        0.06583507359027863,
        0.0013401433825492859,
        0.31378960609436035,
        0.06258513033390045,
        -0.05353807657957077,
        -0.30196964740753174,
        0.01542259007692337,
        0.007076820358633995,
        -0.2337971329689026,
        -0.13910852372646332,
        0.19901466369628906,
        -0.1738901138305664,
        -0.10740732401609421,
        0.03508259728550911,
        -0.3906113803386688,
        -0.05370120704174042,
        -0.019730545580387115,
        -0.31965163350105286,
        -0.10614043474197388,
        0.0895279049873352,
        -0.16097384691238403,
        -0.1097312793135643,
        -0.0467643178999424,
        0.20380015671253204,
        0.2291094958782196,
        -0.18577510118484497,
        0.12948741018772125,
        -0.1553407609462738,
        0.0590193048119545,
        -0.11812683194875717,
        0.20753473043441772,
        0.06127360090613365,
        -0.23593026399612427,
        0.24032749235630035,
        -0.10346337407827377,
        -0.1423010230064392,
        0.11241833120584488,
        -0.07415551692247391,
        0.1042252779006958,
        -0.3500215411186218,
        -0.05120597407221794,
        0.021409843116998672,
        0.11122114956378937,
        -0.046440284699201584,
        0.2819156050682068,
        -0.20346111059188843,
        -0.006227608770132065,
        -0.008659339509904385,
        0.17961320281028748,
        0.04503297433257103,
        0.25586047768592834,
        -0.12377434223890305,
        0.2070952206850052,
        -0.126120924949646,
        0.04979255422949791,
        -0.10869979858398438,
        0.08791786432266235,
        0.1664753258228302,
        -0.025342097505927086,
        -0.29123130440711975,
        0.05292683094739914,
        -0.07032322883605957,
        -0.19121478497982025,
        0.2601276636123657,
        0.1456066220998764,
        -0.267220675945282,
        0.2077265977859497,
        -0.08799376338720322,
        0.030957143753767014,
        -0.1912292093038559,
        -0.059201352298259735,
        -0.06508251279592514,
        -0.1548500806093216,
        -0.06591980159282684,
        -0.19556501507759094,
        0.09636248648166656,
        -0.11051233857870102,
        0.20710019767284393,
        -0.22390183806419373,
        -0.05871785432100296,
        0.3029100000858307,
        -0.16178666055202484,
        0.10100233554840088,
        0.12322615087032318,
        -0.2197449952363968,
        0.08989252150058746,
        -0.18222907185554504,
        0.09390808641910553,
        0.1209927499294281,
        -0.11192694306373596,
        -0.1196119487285614,
        0.004238802008330822,
        -0.08699046820402145,
        0.16075293719768524,
        0.06851542741060257,
        0.04811820760369301,
        -0.13566267490386963,
        0.012432281859219074,
        -0.24549755454063416,
        0.2204699069261551,
        0.04891795292496681,
        0.2245805263519287,
        -0.20733806490898132,
        0.0282408706843853,
        -0.08199276030063629,
        -0.17904111742973328,
        -0.12503685057163239,
        0.242300346493721,
        -0.20510472357273102,
        -0.050471484661102295,
        0.17936748266220093,
        -0.01816096529364586,
        -0.1767018735408783,
        0.03526327759027481,
        -0.14076490700244904,
        0.09969588369131088,
        -0.08192121982574463,
        0.3248405456542969,
        -0.015194625593721867,
        0.016931958496570587,
        0.03988318890333176,
        -0.013774365186691284,
        0.22347067296504974,
        -0.08390172570943832,
        -0.02953535132110119,
        -0.15300804376602173,
        -0.044764067977666855,
        -0.09708577394485474,
        -0.07909023761749268,
        -0.048810847103595734,
        -0.04956626147031784,
        0.0008187552448362112,
        0.09879498928785324,
        0.04589909315109253,
        0.062038954347372055,
        -0.061477839946746826,
        -0.08559504896402359,
        -0.13776066899299622,
        0.02156352438032627,
        0.00654166005551815,
        0.21122999489307404,
        0.036616820842027664,
        -0.026143286377191544,
        0.017341796308755875,
        0.08476804196834564,
        -0.09240946173667908,
        0.20625068247318268,
        -0.2235725224018097,
        -0.05570854991674423,
        -0.10748530179262161,
        0.13273069262504578,
        0.018305175006389618,
        -0.08852230757474899,
        0.12953384220600128,
        0.05255993455648422,
        -0.35059991478919983,
        0.18396182358264923,
        -0.13785284757614136,
        -0.1888102889060974,
        0.05281488224864006,
        -0.10577628016471863,
        -0.15992394089698792,
        0.13569539785385132,
        0.006564376410096884,
        -0.06615620851516724,
        -0.1542252004146576,
        -0.0794667974114418,
        0.07092131674289703,
        0.05876811966300011,
        -0.11816433817148209,
        0.13307714462280273,
        -0.09477593004703522,
        0.07552843540906906,
        -0.09225703775882721,
        0.20844349265098572,
        -0.03775857388973236,
        -0.25771692395210266,
        0.22544333338737488,
        0.12202204018831253,
        -0.06421416252851486,
        0.07503553479909897,
        -0.031050261110067368,
        0.06110948696732521,
        -0.19110281765460968,
        -0.14295494556427002,
        -0.16794219613075256,
        0.2918260991573334,
        -0.08908428251743317,
        0.21247455477714539,
        -0.15609875321388245,
        -0.015235159546136856,
        -0.13263824582099915,
        0.011038616299629211,
        0.11737756431102753,
        0.19380609691143036,
        -0.09164941310882568,
        -0.023513318970799446,
        -0.12715284526348114,
        0.15226677060127258,
        -0.045913394540548325,
        -0.15581518411636353,
        0.19600237905979156,
        0.046949487179517746,
        -0.23416776955127716,
        0.16613656282424927,
        -0.08151499927043915,
        -0.1137523502111435,
        0.08088432252407074,
        0.09173772484064102,
        -0.23161253333091736,
        0.06382857263088226,
        0.009449582546949387,
        0.020780926570296288,
        -0.13748352229595184,
        0.09566635638475418,
        -0.0543333925306797,
        0.12215140461921692,
        -0.021383583545684814,
        0.22551003098487854,
        -0.17255017161369324,
        -0.06368918716907501,
        -0.17699004709720612,
        0.1929633617401123,
        0.017438583076000214,
        -0.11407078057527542,
        0.26013708114624023,
        -0.027444152161478996,
        -0.07647200673818588,
        0.18489468097686768,
        -0.008883429691195488,
        0.1719064563512802,
        -0.2018403708934784,
        -0.10364197194576263,
        -0.02400166541337967,
        0.25856277346611023,
        0.0747302770614624,
        0.26720231771469116,
        -0.1618480682373047,
        0.06629351526498795,
        -0.09529601782560349,
        -0.013870078139007092,
        -0.18867450952529907,
        0.267460435628891,
        -0.10995147377252579,
        -0.012920582666993141,
        -0.0656970888376236,
        0.27513161301612854,
        0.1223190575838089,
        0.09878532588481903,
        0.258725106716156,
        0.030212530866265297,
        -0.2348523586988449,
        0.29910001158714294,
        0.1483440101146698,
        -0.2535093426704407,
        0.3010575473308563,
        0.15083491802215576,
        -0.05530134588479996,
        0.016775989904999733,
        0.039604220539331436,
        -0.034247174859046936,
        -0.07603751122951508,
        -0.1147933304309845,
        0.028131049126386642,
        -0.007975513115525246,
        0.1688401699066162,
        0.15444573760032654,
        0.12884806096553802,
        -0.20935006439685822,
        -0.13422299921512604,
        -0.12563295662403107,
        -0.25193390250205994,
        -0.3064734637737274,
        0.07614787667989731,
        -0.007530251517891884,
        -0.022458823397755623,
        0.04853624477982521,
        -0.030514376237988472,
        0.08573774993419647,
        -0.038680579513311386,
        -0.03550613299012184,
        -0.014452332630753517,
        -0.15457367897033691,
        0.04167880490422249,
        0.06412804871797562,
        -0.052462346851825714,
        0.10261982679367065,
        -0.013795609585940838,
        -0.037785980850458145,
        0.17203101515769958,
        0.2640285789966583,
        -0.05287714675068855,
        -0.010900103487074375,
        -0.019637107849121094,
        0.03378034010529518,
        0.03089216910302639,
        0.019999098032712936,
        0.15755324065685272,
        -0.15854698419570923,
        -0.13502831757068634,
        -0.01653727889060974,
        -0.1364961862564087,
        -0.26627424359321594,
        -0.11109136044979095,
        -0.23768697679042816,
        -0.08735384047031403,
        0.023236744105815887,
        0.07904805988073349,
        -0.033215418457984924,
        0.1566443145275116,
        -0.04399449750781059,
        0.11653625965118408,
        0.07532311230897903,
        0.23302249610424042,
        -0.031153863295912743,
        -0.1366632878780365,
        0.025301191955804825,
        0.21050278842449188,
        -0.005058889277279377,
        -0.020398514345288277,
        0.021550606936216354,
        0.014442451298236847,
        -0.0016658463282510638,
        0.08837303519248962,
        -0.09025567024946213,
        0.028127845376729965,
        -0.14168360829353333,
        -0.03459026291966438,
        -0.04864756762981415,
        0.1422872543334961,
        -0.09470830112695694,
        -0.001087302342057228,
        -0.09041564911603928,
        0.04638727754354477,
        0.07885468751192093,
        -0.010982856154441833,
        -0.06627767533063889,
        -0.02476758137345314,
        -0.1818537414073944,
        0.023912107571959496,
        -0.20320609211921692,
        0.16232655942440033,
        0.16776041686534882,
        -0.1126590222120285,
        0.051515910774469376,
        0.09871368110179901,
        -0.05698379874229431,
        -0.010367666371166706,
        0.09399732947349548,
        -0.2264876663684845,
        -0.03201856091618538,
        -0.10609716922044754,
        -0.155533567070961,
        0.18045030534267426,
        -0.09216304868459702,
        0.052139390259981155,
        -0.08461809158325195,
        0.1642940789461136,
        0.06257101893424988,
        -0.09045276045799255,
        0.18990369141101837,
        0.033626802265644073,
        0.20499637722969055,
        0.03430740162730217,
        -0.0725877657532692,
        0.05518374219536781,
        0.03134363889694214,
        0.10345092415809631,
        -0.17563581466674805,
        0.0009914219845086336,
        -0.14104235172271729,
        -0.13708080351352692,
        0.056665852665901184,
        -0.09913036227226257,
        0.12343168258666992,
        -0.00951298326253891,
        0.0004859553591813892,
        -0.14786751568317413,
        -0.010297348722815514,
        -0.06711887568235397,
        0.12964771687984467,
        0.08834007382392883,
        0.059817682951688766,
        -0.07806532829999924,
        0.10420910269021988,
        -0.15682019293308258,
        -0.058345045894384384,
        -0.00387088512070477,
        -0.04071575030684471,
        0.01442744955420494,
        -0.05336721986532211,
        -0.08685141801834106,
        -0.16162748634815216,
        0.1098642498254776,
        0.0135932182893157,
        0.044110145419836044,
        0.1434173732995987,
        0.10914387553930283,
        -0.057810939848423004,
        0.004139887634664774,
        0.01333735603839159,
        -0.026897504925727844,
        0.06620831042528152,
        -0.13402707874774933,
        0.12860220670700073,
        -0.19017288088798523,
        -0.16993579268455505,
        -0.08185874670743942,
        0.10554514080286026,
        0.12754064798355103,
        0.0648159459233284,
        0.14452321827411652,
        0.05938513204455376,
        -0.08868416398763657,
        0.09195602685213089,
        -0.08211445808410645,
        -0.1480448842048645,
        0.030679011717438698,
        -0.04578836262226105,
        -0.060571253299713135,
        -0.06376353651285172,
        0.12415967136621475,
        0.14485689997673035,
        -0.0947711169719696,
        0.04192536324262619,
        -0.019578436389565468,
        -0.016051040962338448,
        0.026108358055353165,
        0.2898085415363312,
        -8.093267388176173e-05,
        0.026534946635365486,
        -0.09431304037570953,
        0.03858031705021858,
        -0.1116531491279602,
        0.057668790221214294,
        -0.1045108512043953,
        0.15155892074108124,
        -0.18463221192359924,
        -0.006614222656935453,
        -0.1490933746099472,
        0.09979110956192017,
        0.17901331186294556,
        -0.11549744755029678,
        -0.32477566599845886,
        -0.1264237016439438,
        -0.0023866707924753428,
        -0.225275456905365,
        -0.11146841943264008,
        -0.047507524490356445,
        -0.13547706604003906,
        -0.14900004863739014,
        0.09967215359210968,
        0.032477185130119324,
        -0.1013798788189888,
        -0.2552298605442047,
        0.0875113233923912,
        0.032731980085372925,
        0.3146751821041107,
        -0.3421922028064728,
        0.023836620151996613,
        -0.4131373465061188,
        0.15786151587963104,
        0.2673085331916809,
        -0.3833347260951996,
        0.33653926849365234,
        0.1043560653924942,
        -0.305921733379364,
        0.1102510541677475,
        0.1514597088098526,
        0.2225552797317505,
        -0.4385342299938202,
        -0.12634435296058655,
        -0.1498921513557434,
        0.06311861425638199,
        -0.16048115491867065,
        0.4087415337562561,
        -0.349250853061676,
        -0.12354452162981033,
        -0.05092731490731239,
        0.03756394237279892,
        0.005586614366620779,
        0.3364335000514984,
        -0.3226098120212555,
        -0.15507997572422028,
        -0.3015153706073761,
        0.3870293200016022,
        0.061778806149959564,
        -0.31058961153030396,
        0.2168574184179306,
        0.2861650884151459,
        -0.3217203915119171,
        0.20103313028812408,
        -0.03241268917918205,
        -0.24746866524219513,
        0.2981874644756317,
        0.029786784201860428,
        -0.2996876537799835,
        0.3041510581970215,
        0.2742605209350586,
        0.20161007344722748,
        0.09714259952306747,
        0.13396960496902466,
        -0.14008910953998566,
        0.10009992867708206,
        0.12440259754657745,
        0.022097524255514145,
        -0.12363441288471222,
        0.06699312478303909,
        0.16511908173561096,
        0.10451199114322662,
        -0.07764043658971786,
        -0.017567738890647888,
        -0.1033896654844284,
        0.2031911164522171,
        -0.026387309655547142,
        -0.12396270781755447,
        0.12331199645996094,
        -0.07621635496616364,
        -0.020615100860595703,
        -0.11251199245452881,
        -0.04061490297317505,
        -0.2168320119380951,
        0.2065884917974472,
        -0.08873555064201355,
        0.056085940450429916,
        0.04596686363220215,
        0.07921862602233887,
        -0.07261146605014801,
        0.16478747129440308,
        -0.00874768290668726,
        -0.02683533914387226,
        0.05325430631637573,
        0.07853437960147858,
        -0.1605837047100067,
        0.025178218260407448,
        -0.08738106489181519,
        0.06708064675331116,
        0.023854460567235947,
        -0.102668896317482,
        -0.01321563683450222,
        0.16950958967208862,
        0.07102510333061218,
        0.03399346396327019,
        0.0841156393289566,
        0.09804023057222366,
        -0.020125748589634895,
        -0.024257635697722435,
        -0.13794109225273132,
        -0.13701987266540527,
        -0.07791455090045929,
        0.07995212078094482,
        -0.017270822077989578,
        -0.06522838026285172,
        -0.20499026775360107,
        0.12573173642158508,
        0.260398268699646,
        0.10436597466468811,
        -0.10638612508773804,
        -0.24680542945861816,
        0.1705886572599411,
        -0.15718865394592285,
        -0.18035708367824554,
        0.28423237800598145,
        -0.22902706265449524,
        -0.19014941155910492,
        -0.20079505443572998,
        0.25660794973373413,
        0.18596124649047852,
        0.025572501122951508,
        0.02664954774081707,
        0.03264050930738449,
        -0.21746116876602173,
        0.34758028388023376,
        -0.009093905799090862,
        0.059464264661073685,
        0.05569027364253998,
        -0.0027977891732007265,
        -0.05589904263615608,
        0.18103857338428497,
        0.19082729518413544,
        0.06110901013016701,
        -0.22994135320186615,
        -0.14397898316383362,
        0.13908015191555023,
        -0.104972243309021,
        -0.04737845063209534,
        0.17196689546108246,
        -0.2508139908313751,
        -0.005047256592661142,
        0.1582241654396057,
        -0.11115708202123642,
        -0.2077925205230713,
        0.2107260525226593,
        -0.19261369109153748,
        -0.09454188495874405,
        0.16254550218582153,
        -0.04743353649973869,
        -0.26642584800720215,
        0.10792174190282822,
        -0.0014390780124813318,
        0.03757547587156296,
        -0.03712717443704605,
        -0.10239052772521973,
        0.14374874532222748,
        -0.026247963309288025,
        0.0383177250623703,
        0.09016413241624832,
        -0.15141580998897552,
        0.22908905148506165,
        0.0025754377711564302,
        -0.0701243132352829,
        0.16292500495910645,
        -0.15416467189788818,
        0.025032319128513336,
        -0.2819007337093353,
        0.07369227707386017,
        0.026140732690691948,
        0.1266154795885086,
        -0.21376176178455353,
        0.12355154007673264,
        -0.22869789600372314,
        -0.03307662531733513,
        -0.03786375746130943,
        -0.05737260356545448,
        0.10467621684074402,
        0.005232730880379677,
        -0.14345496892929077,
        0.11142147332429886,
        0.03542105481028557,
        0.26863542199134827,
        0.08690100163221359,
        -0.03338751196861267,
        0.03758522495627403,
        -0.1120038703083992,
        -0.12071117013692856,
        0.24755209684371948,
        0.10242977738380432,
        -0.15813088417053223,
        0.28077253699302673,
        -0.10291095823049545,
        -0.08291569352149963,
        0.27516838908195496,
        0.0005059214890934527,
        -0.09575389325618744,
        -0.11833585798740387,
        0.19808624684810638,
        -0.05679599940776825,
        -0.11963941156864166,
        0.16494908928871155,
        -0.08308760821819305,
        -0.07382579147815704,
        -0.06421809643507004,
        0.066437728703022,
        -0.08434394747018814,
        0.12958812713623047,
        0.09410952776670456,
        0.05203937366604805,
        -0.006988565903156996,
        -0.07293128967285156,
        -0.07186666131019592,
        -0.0812310129404068,
        0.03755136579275131,
        0.13526125252246857,
        0.08446993678808212,
        -0.01608024351298809,
        0.005347340367734432,
        -0.15825380384922028,
        0.1368730664253235,
        -0.014760679565370083,
        -0.16419965028762817,
        0.04410446435213089,
        0.14193324744701385,
        -0.15407556295394897,
        0.17556007206439972,
        0.08566129207611084,
        -0.14200089871883392,
        -0.076354019343853,
        0.08337058871984482,
        -0.05381906405091286,
        -0.11229237914085388,
        0.03429373726248741,
        -0.05207610875368118,
        0.05284500867128372,
        0.029731307178735733,
        0.15518607199192047,
        -0.12167206406593323,
        0.10256655514240265,
        -0.02345837652683258,
        0.11285340040922165,
        -0.18765118718147278,
        -0.05582738667726517,
        0.028593000024557114,
        -0.028363393619656563,
        -0.07670806348323822,
        -0.08208320289850235,
        -0.18204031884670258,
        0.001851943088695407,
        -0.16171416640281677,
        -0.009116481989622116,
        0.215143084526062,
        0.030330214649438858,
        0.031172027811408043,
        0.0998891070485115,
        0.15013867616653442,
        -0.10857733339071274,
        -0.05467541143298149,
        -0.0422043576836586,
        -0.033902671188116074,
        -0.06690527498722076,
        -0.017524560913443565,
        0.4385601282119751,
        -0.38191378116607666,
        0.6180279850959778,
        -0.5869673490524292,
        -0.06742215901613235,
        0.706922709941864,
        0.8203290104866028,
        -0.5343484282493591,
        0.1654457151889801,
        0.07176906615495682,
        -0.43936169147491455,
        -0.45107004046440125,
        0.19468729197978973,
        -0.5904260873794556,
        0.1917390674352646,
        0.36557167768478394,
        -0.09593800455331802,
        0.2138187736272812,
        -0.06861989945173264,
        0.1483951210975647,
        0.1438940316438675,
        -0.13319483399391174,
        0.051267530769109726,
        -0.023252787068486214,
        0.06297829002141953,
        -0.05789849907159805,
        -0.012975244782865047,
        -0.13506734371185303,
        0.05695198476314545,
        -0.12728188931941986,
        0.24605418741703033,
        0.16520628333091736,
        0.40071776509284973,
        -0.27824831008911133,
        -0.17442920804023743,
        0.011182716116309166,
        -0.2139153629541397,
        0.09610610455274582,
        -0.02006029710173607,
        -0.37077614665031433,
        0.06686604768037796,
        0.19273170828819275,
        -0.2983156144618988,
        -0.1361485719680786,
        0.15743498504161835,
        -0.23487485945224762,
        0.24827609956264496,
        0.15920569002628326,
        0.05046706274151802,
        0.060680732131004333,
        0.1480964720249176,
        0.24175631999969482,
        -0.04799371585249901,
        -0.046076223254203796,
        0.21790356934070587,
        -0.3999658524990082,
        0.05605629086494446,
        -0.08947866410017014,
        0.18245375156402588,
        -0.4082091748714447,
        0.19473187625408173,
        0.19828805327415466,
        0.07561834901571274,
        0.2893938422203064,
        0.35501429438591003,
        -0.04144751653075218,
        -0.062445346266031265,
        -0.2479315549135208,
        -0.34183788299560547,
        0.14281463623046875,
        -0.003751222277060151,
        -0.331674188375473,
        -0.250860333442688,
        0.1001545861363411,
        -0.29911959171295166,
        -0.23755817115306854,
        0.1332835555076599,
        0.3065726161003113,
        -0.1433676928281784,
        -0.047190118581056595,
        -0.031249497085809708,
        -0.2542803883552551,
        -0.11119232326745987,
        0.06111431494355202,
        0.1322098970413208,
        0.30063045024871826,
        0.2170311063528061,
        -0.14499126374721527,
        -0.03413689509034157,
        0.31776997447013855,
        -0.20692139863967896,
        0.31971484422683716,
        0.08170708268880844,
        0.251145601272583,
        -0.13440905511379242,
        0.0792456865310669,
        -0.30238789319992065,
        -0.0221016276627779,
        0.12841251492500305,
        0.1208755224943161,
        0.30791202187538147,
        0.21889472007751465,
        0.2603875994682312,
        0.1632082462310791,
        0.13704915344715118,
        -0.07248953729867935,
        -0.11017181724309921,
        -0.21075204014778137,
        -0.0017259209416806698,
        -0.06327291578054428,
        0.08840363472700119,
        0.12871642410755157,
        0.18122783303260803,
        -0.023452218621969223,
        0.2287466675043106,
        0.12649355828762054,
        -0.24555271863937378,
        -0.12178096175193787,
        0.11885543912649155,
        0.0875709280371666,
        0.03566913679242134,
        -0.2298373281955719,
        -0.14146637916564941,
        0.47611451148986816,
        0.3090460002422333,
        -0.22519923746585846,
        0.19326251745224,
        -0.17703768610954285,
        0.12070697546005249,
        0.042235810309648514,
        0.2990846335887909,
        -0.20131413638591766,
        -0.09352759271860123,
        0.1539342999458313,
        0.2851213812828064,
        0.27297845482826233,
        0.1973164826631546,
        -0.22246278822422028,
        0.3049571216106415,
        -0.20113414525985718,
        0.09912124276161194,
        -0.17361336946487427,
        -0.11356586962938309,
        0.12319470942020416,
        -0.056777406483888626,
        0.03071318194270134,
        -0.15447092056274414,
        -0.285291463136673,
        0.03676043823361397,
        0.03510809689760208,
        -0.06216868758201599,
        -0.07103711366653442,
        -0.25664961338043213,
        -0.10276955366134644,
        0.21609626710414886,
        0.19562505185604095,
        0.13960126042366028,
        -0.048308227211236954,
        0.08640224486589432,
        0.04975610971450806,
        -0.28435346484184265,
        0.04459378868341446,
        0.2466035634279251,
        -0.20170268416404724,
        -0.15488889813423157,
        -0.008220839314162731,
        0.16064611077308655,
        -0.07834329456090927,
        0.09904071688652039,
        0.15625648200511932,
        0.16189344227313995,
        -0.027240457013249397,
        0.1654137372970581,
        0.18484610319137573,
        -0.18006792664527893,
        0.012163045816123486,
        0.17118807137012482,
        0.23856404423713684,
        -0.22079171240329742,
        0.08576977252960205,
        -0.12224476784467697,
        -0.1747838854789734,
        0.07669820636510849,
        -0.08582834899425507,
        0.10640634596347809,
        -0.12201511114835739,
        -0.15544648468494415,
        0.012114647775888443,
        -0.06613289564847946,
        0.1046123206615448,
        0.034690011292696,
        0.19826515018939972,
        0.08640741556882858,
        -0.007777451537549496,
        0.08953177183866501,
        -0.010011295787990093,
        -0.10923644155263901,
        -0.12090487033128738,
        -0.09964610636234283,
        -0.20236752927303314,
        0.01490864623337984,
        -0.16798338294029236,
        -0.21220345795154572,
        -0.3502269685268402,
        -0.11699697375297546,
        0.1794041097164154,
        -0.1852377951145172,
        -0.23239284753799438,
        0.027720052748918533,
        0.06087478622794151,
        -0.010469445027410984,
        0.04862837865948677,
        0.045045673847198486,
        -0.18446096777915955,
        -0.057437554001808167,
        0.20769691467285156,
        0.1258569210767746,
        -0.027893543243408203,
        -0.10412800312042236,
        0.2643847167491913,
        0.13490433990955353,
        -0.06702885031700134,
        -0.053546126931905746,
        0.09444491565227509,
        0.12097769975662231,
        -0.18375460803508759,
        -0.17797157168388367,
        0.10870806872844696,
        -0.23458105325698853,
        0.20629242062568665,
        0.16814497113227844,
        -0.005614988971501589,
        -0.049391280859708786,
        -0.11062686145305634,
        -0.04512259364128113,
        0.24394848942756653,
        -0.11746783554553986,
        -0.07283667474985123,
        -0.0750683918595314,
        0.15088795125484467,
        -0.37304291129112244,
        0.31922125816345215,
        0.00698018679395318,
        -0.03784593567252159,
        0.3397342562675476,
        -0.07580264657735825,
        0.17075496912002563,
        0.25290268659591675,
        -0.19851794838905334,
        0.11990969628095627,
        0.11622726172208786,
        -0.09869547188282013,
        0.08962807804346085,
        0.2283955216407776,
        -0.31637561321258545,
        0.038603197783231735,
        0.05500442162156105,
        0.24243171513080597,
        0.27043861150741577,
        -0.08773695677518845,
        -0.13019998371601105,
        0.18478906154632568,
        0.11136734485626221,
        0.10887692868709564,
        -0.13223765790462494,
        -0.146090567111969,
        -0.07707764208316803,
        -0.5692753791809082,
        0.0542525090277195,
        0.3267885148525238,
        -0.0930635929107666,
        -0.07946912944316864,
        0.09753202646970749,
        -0.06838622689247131,
        0.14547760784626007,
        -0.13956435024738312,
        -0.14745208621025085,
        -0.010518968105316162,
        0.06981801241636276,
        -0.01844213902950287,
        0.056855324655771255,
        -0.15268933773040771,
        0.06976328045129776,
        0.04866335168480873,
        0.03687423840165138,
        0.12202971428632736,
        0.036427415907382965,
        -0.011154275387525558,
        -0.07080549001693726,
        -0.03928695619106293,
        -0.08892741799354553,
        0.23524443805217743,
        -0.3021053373813629,
        0.24598178267478943,
        -0.04750267416238785,
        -0.18805275857448578,
        0.13032491505146027,
        -0.28290191292762756,
        -0.08527020364999771,
        0.024850724264979362,
        -0.08982136845588684,
        0.04446755722165108,
        0.05374455079436302,
        0.26374009251594543,
        -0.17945940792560577,
        -0.03704341873526573,
        -0.1409745067358017,
        0.10449381172657013,
        0.11445382237434387,
        0.2794284224510193,
        -0.2262536734342575,
        -0.12284020334482193,
        -0.053892239928245544,
        0.17472441494464874,
        -0.13609609007835388,
        -0.05984592065215111,
        -0.06355950236320496,
        -0.17048710584640503,
        -0.2710433006286621,
        -0.02703642100095749,
        0.1225074976682663,
        -0.20977352559566498,
        -0.3735402226448059,
        0.06135862320661545,
        -0.3866835832595825,
        0.2962026298046112,
        -0.13674794137477875,
        -0.2117786556482315,
        0.1775948405265808,
        -0.11057037860155106,
        -0.06836594641208649,
        0.10114932060241699,
        -0.1274995058774948,
        0.2328687459230423,
        -0.36738279461860657,
        -0.07128527760505676,
        -0.06198221445083618,
        0.04339900612831116,
        0.1870153397321701,
        0.10049611330032349,
        0.18175959587097168,
        -0.062397927045822144,
        -0.25826647877693176,
        -0.09865894168615341,
        0.1437259167432785,
        -0.2838292717933655,
        0.1186370849609375,
        -0.080952949821949,
        0.07253215461969376,
        -0.22941496968269348,
        -0.031912654638290405,
        -0.04923403635621071,
        -0.16893534362316132,
        -0.047103915363550186,
        0.26416537165641785,
        0.012932726182043552,
        -0.030508799478411674,
        0.2968136668205261,
        -0.049932610243558884,
        -0.016172019764780998,
        -0.08937058597803116,
        -0.04535573348402977,
        0.026831647381186485,
        0.11735817790031433,
        -0.023661978542804718,
        -0.15656019747257233,
        -0.047697268426418304,
        0.06511581689119339,
        0.0628661960363388,
        -0.20667940378189087,
        0.017447372898459435,
        0.1789202243089676,
        -0.1987127959728241,
        -0.05964164063334465,
        0.12724551558494568,
        -0.009764865040779114,
        0.09354130923748016,
        0.06332635879516602,
        -0.14802442491054535,
        -0.22845320403575897,
        0.03042878396809101,
        -0.18762025237083435,
        -0.00242135813459754,
        -0.18205076456069946,
        -0.0472617968916893,
        -0.008219207637012005,
        -0.017057271674275398,
        0.3716041147708893,
        0.172529399394989,
        -0.09302090108394623,
        0.061440493911504745,
        0.10781750082969666,
        -0.08266130089759827,
        0.2738294005393982,
        -0.12610432505607605,
        -0.10070670396089554,
        0.04875391349196434,
        -0.08300425857305527,
        0.08964242041110992,
        -0.2493562400341034,
        0.32077422738075256,
        0.07512582838535309,
        0.23484252393245697,
        -0.3099123537540436,
        -0.05144212022423744,
        -0.22989396750926971,
        0.2342616766691208,
        0.004330814816057682,
        -0.011948158964514732,
        -0.19780217111110687,
        0.14264844357967377,
        -0.24551603198051453,
        0.2365049123764038,
        -0.17769794166088104,
        0.09354040026664734,
        -0.2937643229961395,
        0.10668978840112686,
        0.28380680084228516,
        -0.08952537178993225,
        0.12587864696979523,
        0.1089911162853241,
        -0.3267568349838257,
        0.10991422086954117,
        0.13091324269771576,
        -0.2151423543691635,
        0.19349656999111176,
        -0.41153383255004883,
        0.22668105363845825,
        0.05803677439689636,
        -0.2043597400188446,
        0.42625692486763,
        0.046785712242126465,
        -0.16881580650806427,
        -0.1660405844449997,
        -0.012817461043596268,
        -0.19865259528160095,
        -0.14793600142002106,
        0.1580057442188263,
        0.15974991023540497,
        -0.18500591814517975,
        -0.2082812339067459,
        0.1521024852991104,
        0.003793279407545924,
        -0.1655474454164505,
        0.041866451501846313,
        0.06633690744638443,
        0.062064070254564285,
        -0.03921656310558319,
        0.165528804063797,
        0.009234822355210781,
        -0.04567563533782959,
        0.04481837525963783,
        0.04304249957203865,
        -0.1764320284128189,
        0.020623579621315002,
        0.09436827152967453,
        0.06281013041734695,
        -0.14864163100719452,
        0.04324403405189514,
        0.1625809669494629,
        -0.060588568449020386,
        0.05650933086872101,
        0.09659647941589355,
        -0.1906578093767166,
        -0.020061276853084564,
        0.1213180422782898,
        -0.07409857213497162,
        0.06920900195837021,
        0.09215167909860611,
        0.17484678328037262,
        -0.15989293158054352,
        0.0937846377491951,
        -0.1565643697977066,
        -0.13726064562797546,
        0.03907240927219391,
        0.06769584864377975,
        0.05621933192014694,
        0.2294224351644516,
        0.12453301250934601,
        0.1113070398569107,
        -0.05049820989370346,
        -0.006179522257298231,
        -0.017912404611706734,
        0.05409097298979759,
        0.19467459619045258,
        -0.09369424730539322,
        -0.10313351452350616,
        0.29413196444511414,
        -0.116519033908844,
        0.022101813927292824,
        0.06801111996173859,
        0.10035862028598785,
        0.058278802782297134,
        -0.12317647784948349,
        -0.10434836149215698,
        -0.3532528877258301,
        0.21710877120494843,
        -0.023645244538784027,
        0.25078919529914856,
        -0.3924635350704193,
        -0.0927416980266571,
        -0.269430547952652,
        0.3232903778553009,
        0.07138887792825699,
        0.1353074461221695,
        -0.06207897514104843,
        0.002126348204910755,
        -0.24939140677452087,
        0.05626669153571129,
        0.04651564732193947,
        0.3222009837627411,
        -0.1211077943444252,
        -0.0830928310751915,
        -0.037154894322156906,
        0.1673664003610611,
        0.127568781375885,
        0.04290459677577019,
        -0.4900501072406769,
        0.12958860397338867,
        0.17995955049991608,
        -0.23311731219291687,
        0.05615546554327011,
        -0.1747080385684967,
        0.03824878856539726,
        -0.010245274752378464,
        -0.11323820054531097,
        0.3835780620574951,
        -0.011333274655044079,
        0.08014855533838272,
        -0.10149409621953964,
        -0.17234255373477936,
        -0.3235965073108673,
        -0.08337134122848511,
        0.26716047525405884,
        0.14432448148727417,
        -0.002288004383444786,
        0.019191604107618332,
        0.12636758387088776,
        0.02427048049867153,
        0.003340913448482752,
        -0.15455695986747742,
        0.11900848150253296,
        0.17134130001068115,
        0.07237070798873901,
        0.0061562214978039265,
        0.0828782469034195,
        -0.04545511305332184,
        -0.25663653016090393,
        -0.08994945138692856,
        -0.006469483487308025,
        -0.10588858276605606,
        0.2961239516735077,
        0.11113432049751282,
        0.1478281468153,
        -0.19215355813503265,
        0.12835811078548431,
        -0.001083381474018097,
        0.06855196505784988,
        0.13327814638614655,
        -0.022123945876955986,
        -0.060950443148612976,
        0.33817288279533386,
        -0.1554032564163208,
        -0.057882051914930344,
        0.1733841896057129,
        0.17206871509552002,
        -0.19186857342720032,
        -0.07171022891998291,
        -0.15144482254981995,
        -0.07872804254293442,
        0.021402990445494652,
        0.25670626759529114,
        -0.15763171017169952,
        0.09311345219612122,
        0.05148781090974808,
        0.11955288052558899,
        0.01894702948629856,
        0.15285247564315796,
        0.02784271351993084,
        0.23412543535232544,
        0.36940765380859375,
        -0.09122329950332642,
        -0.2360198050737381,
        -0.11605712026357651,
        0.09277872741222382,
        -0.006682396866381168,
        0.047155801206827164,
        -0.016308056190609932,
        -0.03356217220425606,
        -0.0032893153838813305,
        -0.09504453092813492,
        0.22041186690330505,
        0.06624437123537064,
        0.10032598674297333,
        0.2040204256772995,
        -0.03267723321914673,
        0.023585401475429535,
        0.09977533668279648,
        0.13481846451759338,
        -0.02377977967262268,
        0.018555935472249985,
        -0.17613229155540466,
        -0.06424998492002487,
        0.11211135983467102,
        0.021714739501476288,
        0.011626092717051506,
        0.003850662149488926,
        -0.040706221014261246,
        0.11078062653541565,
        -0.21363447606563568,
        0.09524577111005783,
        0.08909854292869568,
        -0.033060599118471146,
        0.010218619368970394,
        0.17011182010173798,
        -0.05691830813884735,
        0.034182559698820114,
        -0.14182831346988678,
        -0.20756997168064117,
        -0.14472761750221252,
        -0.06082869693636894,
        -0.18990962207317352,
        -0.08271090686321259,
        -0.055595703423023224,
        -0.20967082679271698,
        0.05548571050167084,
        0.16044725477695465,
        0.25599250197410583,
        -0.13673655688762665,
        -0.14389488101005554,
        -0.19877637922763824,
        0.18992897868156433,
        0.1604861319065094,
        -0.1195235401391983,
        0.005492424126714468,
        0.020165571942925453,
        0.05631231889128685,
        -0.1648545116186142,
        -0.08558716624975204,
        0.2459912896156311,
        -0.07297549396753311,
        -0.14426641166210175,
        -0.018607039004564285,
        -0.17809748649597168,
        0.024124059826135635,
        0.21312837302684784,
        -0.10150361061096191,
        -0.1288987100124359,
        0.07961472868919373,
        -0.148432657122612,
        0.34462305903434753,
        0.16352245211601257,
        0.15167078375816345,
        -0.0913408026099205,
        0.006587129086256027,
        -0.1148257926106453,
        0.15313567221164703,
        -0.012294851243495941,
        0.06647185236215591,
        0.2146492302417755,
        -0.23528608679771423,
        0.023443853482604027,
        0.09455931931734085,
        -0.16798797249794006,
        -0.023500923067331314,
        -0.04007803648710251,
        0.03846682608127594,
        0.16605010628700256,
        0.05980318784713745,
        -0.011711650528013706,
        0.08634210377931595,
        0.007820800878107548,
        0.27801513671875,
        0.1892920285463333,
        -0.02616611123085022,
        -0.16287994384765625,
        -0.15355412662029266,
        -0.008940896019339561,
        0.14432163536548615,
        -0.18173761665821075,
        -0.13990868628025055,
        0.139261394739151,
        -0.1075345054268837,
        -0.1440562605857849,
        -0.03628680109977722,
        0.03302597999572754,
        -0.019053656607866287,
        -0.13612787425518036,
        0.10103791952133179,
        -0.028191296383738518,
        0.040702689439058304,
        0.1201467216014862,
        0.22101937234401703,
        -0.16659845411777496,
        -0.04725710302591324,
        0.060316964983940125,
        -0.14081518352031708,
        -0.11439873278141022,
        0.0987619087100029,
        -0.0020321644842624664,
        0.10512268543243408,
        -0.1564628928899765,
        0.09554193913936615,
        -0.06056128069758415,
        -0.08414772152900696,
        0.05407946929335594,
        -0.1470704823732376,
        -0.03618938848376274,
        -0.04991849511861801,
        0.08990173786878586,
        0.05085979402065277,
        -0.0884961187839508,
        -0.13913650810718536,
        -0.14093314111232758,
        -0.08126073330640793,
        -0.22998955845832825,
        -0.14371037483215332,
        0.019511373713612556,
        -0.10433431714773178,
        -0.24190688133239746,
        0.0409080795943737,
        0.059043269604444504,
        -0.05649930238723755,
        -0.1411459892988205,
        0.1385601907968521,
        0.01981481909751892,
        -0.13321548700332642,
        0.003115111729130149,
        -0.02936200238764286,
        -0.1052679792046547,
        0.16738179326057434,
        -0.10790884494781494,
        0.13266830146312714,
        -0.046126414090394974,
        -0.0014252356486395001,
        -0.022807052358984947,
        -0.07410445064306259,
        0.18259766697883606,
        0.09668108075857162,
        0.07637854665517807,
        0.12008779495954514,
        -0.001725281123071909,
        0.026278486475348473,
        0.2719576954841614,
        -0.022039320319890976,
        0.10281773656606674,
        -0.1286390721797943,
        -0.07669343799352646,
        -0.1618100255727768,
        0.09454741328954697,
        -0.14800521731376648,
        0.007896310649812222,
        0.018308991566300392,
        -0.0380663238465786,
        -0.009056148119270802,
        -0.08943645656108856,
        -0.09605521708726883,
        -0.062398869544267654,
        -0.17219272255897522,
        -0.14037185907363892,
        0.11209489405155182,
        -0.0453629307448864,
        -0.04433128237724304,
        -0.300194650888443,
        0.060867391526699066,
        -0.040118686854839325,
        -0.09995273500680923,
        -0.05852988362312317,
        -0.1520332247018814,
        -0.03176464885473251,
        -0.17201445996761322,
        -0.21830660104751587,
        0.2163877785205841,
        0.029656019061803818,
        -0.06178499385714531,
        0.009480981156229973,
        0.21863090991973877,
        -0.2510071396827698,
        0.1001025065779686,
        0.0238598994910717,
        -0.00852776039391756,
        0.004284650553017855,
        -0.1878226399421692,
        0.3491731584072113,
        -0.006086348555982113,
        -0.004582144320011139,
        -0.15272212028503418,
        0.23622068762779236,
        0.10383311659097672,
        0.21500808000564575,
        -0.05203336104750633,
        0.1569817066192627,
        -0.05331483110785484,
        0.02381935529410839,
        0.06936511397361755,
        0.11146672070026398,
        -0.25363245606422424,
        -0.037019554525613785,
        -0.17424315214157104,
        0.0016449778340756893,
        -0.040072690695524216,
        -0.048866283148527145,
        0.08871868252754211,
        -0.020027607679367065,
        -0.043555110692977905,
        0.1596270352602005,
        -0.04565197229385376,
        -0.04778270050883293,
        0.08600717782974243,
        0.007501131854951382,
        0.22339779138565063,
        -0.10784109681844711,
        -0.08987510949373245,
        0.10298633575439453,
        -0.28455859422683716,
        0.06235036998987198,
        0.17295290529727936,
        0.04713375121355057,
        -0.08472397178411484,
        0.06749898940324783,
        -0.0013979733921587467,
        0.20846587419509888,
        -0.19577643275260925,
        0.167611762881279,
        0.1782531589269638,
        -0.03212596848607063,
        0.06815095990896225,
        0.08496616035699844,
        -0.004892171360552311,
        -0.006304886192083359,
        -0.19463153183460236,
        0.10561654716730118,
        0.17704641819000244,
        0.00862003955990076,
        -0.05293123424053192,
        -0.14885015785694122,
        0.1098453626036644,
        0.22723965346813202,
        0.16763465106487274,
        0.06493965536355972,
        0.0663144439458847,
        -0.08269550651311874,
        -0.058557525277137756,
        -0.13799941539764404,
        0.14851532876491547,
        -0.04673052951693535,
        -0.16403713822364807,
        0.029496481642127037,
        -0.0018253446323797107,
        -0.1889723688364029,
        0.11820482462644577,
        0.24559319019317627,
        -0.17980104684829712,
        -0.1533871293067932,
        -0.040133338421583176,
        0.12118890136480331,
        0.03632856905460358,
        0.009112914092838764,
        0.07362671196460724,
        0.11559749394655228,
        -0.22925640642642975,
        -0.1354081779718399,
        0.1403261423110962,
        0.13719825446605682,
        -0.03518074005842209,
        -0.010495947673916817,
        -0.07161776721477509,
        -0.3298615515232086,
        -0.0488327220082283,
        0.021607812494039536,
        0.13829445838928223,
        0.12846739590168,
        -0.03311219438910484,
        -0.03403264284133911,
        0.14541415870189667,
        -0.09862756729125977,
        0.16283917427062988,
        -0.05488938093185425,
        -0.11498887091875076,
        0.07686112821102142,
        -0.2661135196685791,
        0.16954056918621063,
        -0.17911534011363983,
        -0.014228053390979767,
        0.018250759690999985,
        -0.09851548820734024,
        -0.3155984580516815,
        0.15664242208003998,
        -0.1773628294467926,
        0.11246765404939651,
        -0.09814155101776123,
        0.11195843666791916,
        -0.058099303394556046,
        -0.04798909276723862,
        -0.004809316713362932,
        0.2367185652256012,
        -0.022985568270087242,
        -0.03201424330472946,
        -0.16490395367145538,
        -0.2296651303768158,
        0.22778300940990448,
        0.15763957798480988,
        0.001068927813321352,
        -0.08584212511777878,
        0.1394682675600052,
        -0.21131235361099243,
        0.3818233609199524,
        -0.07270973920822144,
        -0.02195524238049984,
        0.1517481952905655,
        -0.00035089728771708906,
        0.0191208403557539,
        -0.07723026722669601,
        -0.07388380169868469,
        -0.005972470156848431,
        0.16531698405742645,
        0.07078346610069275,
        0.04639970883727074,
        -0.09473013132810593,
        -0.17445878684520721,
        0.028244301676750183,
        -0.24164432287216187,
        -0.08185134083032608,
        0.02660786546766758,
        0.007745030336081982,
        -0.03290444612503052,
        0.15573431551456451,
        0.03529924154281616,
        0.08681462705135345,
        -0.09270164370536804,
        0.10296843200922012,
        0.16724970936775208,
        0.17245499789714813,
        0.35878750681877136,
        0.1098862960934639,
        0.02029522880911827,
        0.056831516325473785,
        -0.11284767836332321,
        0.17458395659923553,
        0.11783991008996964,
        -0.0888177901506424,
        0.09292036294937134,
        -0.11623547971248627,
        -0.08063416928052902,
        -0.03531979024410248,
        -0.20741862058639526,
        -0.10231293737888336,
        -0.035851527005434036,
        -0.35890817642211914,
        -0.0625656470656395,
        -0.006800996605306864,
        0.017738746479153633,
        0.0686301663517952,
        -0.07249949872493744,
        -0.14487484097480774,
        -0.11822520196437836,
        -0.1726245880126953,
        -0.09875370562076569,
        -0.16541016101837158,
        0.019273649901151657,
        -0.12429796904325485,
        0.006644030101597309,
        -0.15187039971351624,
        -0.003920590505003929,
        0.23842240869998932,
        -0.07709131389856339,
        -0.16186675429344177,
        0.08028217405080795,
        -8.8332082668785e-05,
        -0.08672624826431274,
        -0.014646746218204498,
        0.0015148716047406197,
        -0.023610727861523628,
        -0.02875540778040886,
        -0.08495950698852539,
        0.11127184331417084,
        -0.08231429755687714,
        -0.037466950714588165,
        0.10868509858846664,
        0.14101766049861908,
        0.11493917554616928,
        0.04854230210185051,
        0.013303980231285095,
        -0.07188739627599716,
        0.050509653985500336,
        -0.1620563566684723,
        -0.09153478592634201,
        -0.090314581990242,
        -0.13580642640590668,
        0.10157523304224014,
        -0.037828750908374786,
        0.051395952701568604,
        0.060510095208883286,
        -0.0034353474620729685,
        0.12181533128023148,
        0.036602724343538284,
        0.016541704535484314,
        0.0013455123407766223,
        0.03927959129214287,
        -0.0630914717912674,
        -0.030595188960433006,
        -0.04414966329932213,
        -0.24714036285877228,
        -0.1391487419605255,
        -0.1692361980676651,
        -0.0068271467462182045,
        -0.11633429676294327,
        -0.02270299755036831,
        -0.012746713124215603,
        0.028728162869811058,
        -0.13804252445697784,
        -0.3671085238456726,
        0.24759164452552795,
        0.07289306819438934,
        0.1674087792634964,
        0.10262666642665863,
        -0.06710684299468994,
        0.2274719923734665,
        0.11342787742614746,
        -0.21804048120975494,
        -0.08321249485015869,
        -0.028638627380132675,
        0.10353372991085052,
        -0.16941969096660614,
        -0.16296350955963135,
        0.1556062549352646,
        -0.06343679875135422,
        0.04244176298379898,
        -0.2594183385372162,
        -0.18178711831569672,
        -0.13700582087039948,
        0.018317632377147675,
        -0.15947605669498444,
        -0.09934940189123154,
        -0.2136480063199997,
        -0.11052142083644867,
        0.13324223458766937,
        0.29426929354667664,
        0.10560396313667297,
        0.13676005601882935,
        -0.30324748158454895,
        0.017751727253198624,
        0.04700590670108795,
        -0.27019602060317993,
        0.16080494225025177,
        -0.20416581630706787,
        -0.08188868314027786,
        0.060287099331617355,
        0.07562509179115295,
        -0.22244606912136078,
        0.2025952935218811,
        -0.15450307726860046,
        0.1691625565290451,
        0.0515630804002285,
        0.2122589349746704,
        0.1606369912624359,
        0.11494699865579605,
        0.07275083661079407,
        0.05087758228182793,
        0.10015509277582169,
        -0.0732155442237854,
        0.05018306523561478,
        0.1286657750606537,
        0.10009691119194031,
        -0.08402757346630096,
        -0.0464470349252224,
        0.02920536696910858,
        0.09925129264593124,
        0.024445848539471626,
        0.04418545216321945,
        0.0840192586183548,
        -0.0913546159863472,
        -0.3002760410308838,
        0.24618461728096008,
        0.24826087057590485,
        -0.5211809873580933,
        0.09317131340503693,
        -0.614241898059845,
        -0.22426928579807281,
        -0.49339139461517334,
        0.9106576442718506,
        -0.8080569505691528,
        -0.5041877031326294,
        -0.8001752495765686,
        0.1873994767665863,
        -0.6479796767234802,
        0.3746088743209839,
        -0.5939366221427917,
        -0.16728255152702332,
        -0.08929417282342911,
        -0.10553678125143051,
        0.12249884754419327,
        0.1266012191772461,
        0.18230275809764862,
        -0.15799419581890106,
        -0.06822416931390762,
        -0.08906283229589462,
        -0.004995943978428841,
        0.35717344284057617,
        0.09831517189741135,
        0.36713898181915283,
        0.05911951884627342,
        -0.08133351802825928,
        0.22847197949886322,
        0.059929318726062775,
        0.07785174250602722,
        -0.1709500551223755,
        -0.12697570025920868,
        -0.32953858375549316,
        0.05282682925462723,
        0.020311908796429634,
        -0.29859891533851624,
        0.3038286566734314,
        -0.21341708302497864,
        0.05656298249959946,
        0.05132508650422096,
        0.11219725757837296,
        -0.0025246553122997284,
        0.2310366928577423,
        -0.03181453421711922,
        -0.016482345759868622,
        -0.1798938810825348,
        0.00801777746528387,
        0.203804612159729,
        -0.0719144195318222,
        0.07861404120922089,
        0.03412160649895668,
        0.08393238484859467,
        0.020764300599694252,
        -0.0371040403842926,
        -0.27550384402275085,
        -0.12546074390411377,
        0.004706730134785175,
        -0.11177649348974228,
        -0.08998791128396988,
        0.04237813130021095,
        0.10567038506269455,
        0.08127967268228531,
        -0.47781720757484436,
        -0.18432174623012543,
        -0.28766927123069763,
        0.05462625250220299,
        -0.10719737410545349,
        -0.12500403821468353,
        -0.11205420643091202,
        0.11141595989465714,
        0.014286457560956478,
        0.39514920115470886,
        0.21712157130241394,
        -0.1984516680240631,
        0.03680740296840668,
        0.16702429950237274,
        0.2209538370370865,
        0.04544040188193321,
        -0.15625324845314026,
        -0.13772465288639069,
        0.17896179854869843,
        -0.11608611047267914,
        -0.20213867723941803,
        0.2988262474536896,
        0.20944590866565704,
        -0.035090506076812744,
        -0.07063900679349899,
        0.17702032625675201,
        -0.06081105023622513,
        0.023553214967250824,
        0.030391639098525047,
        -0.3845551311969757,
        -0.021452097222208977,
        -0.010541395284235477,
        -0.03733242303133011,
        -0.07679440826177597,
        0.09347998350858688,
        -0.3258476257324219,
        0.06482163816690445,
        -0.1476205289363861,
        0.05203523859381676,
        0.36401885747909546,
        -0.02480311132967472,
        -0.21720163524150848,
        -0.10350976139307022,
        0.04089904576539993,
        0.16393424570560455,
        0.03777095675468445,
        -0.11950923502445221,
        -0.09341924637556076,
        0.27901408076286316,
        -0.235210120677948,
        0.3710535764694214,
        0.18891052901744843,
        -0.2747128903865814,
        -0.18121568858623505,
        0.25367629528045654,
        -0.036111511290073395,
        -0.13065919280052185,
        0.173958882689476,
        0.04676595702767372,
        -0.1881282925605774,
        -0.1014278456568718,
        0.2344333678483963,
        0.0692727342247963,
        0.048695918172597885,
        0.25718656182289124,
        0.15131768584251404,
        0.3549903929233551,
        -0.04780983924865723,
        -0.09442716091871262,
        0.08636006712913513,
        -0.05738750472664833,
        0.2854202687740326,
        -0.09148558974266052,
        0.09542280435562134,
        0.0007372967666015029,
        0.05228954926133156,
        0.0704425647854805,
        -0.03462224826216698,
        -0.11054482311010361,
        0.22444528341293335,
        -0.16609279811382294,
        -0.34541675448417664,
        -0.15618567168712616,
        -0.3388198912143707,
        0.22873827815055847,
        -0.28883785009384155,
        0.15261335670948029,
        0.2515583038330078,
        0.22483353316783905,
        -0.18460065126419067,
        -0.05054715275764465,
        0.29630768299102783,
        0.14812567830085754,
        0.42945826053619385,
        -0.08285555988550186,
        0.09666349738836288,
        0.06197725608944893,
        0.024852076545357704,
        0.18338868021965027,
        -0.02602267824113369,
        0.05613478645682335,
        -0.09948357194662094,
        -0.13562913239002228,
        0.11081676185131073,
        0.23287932574748993,
        0.2560424506664276,
        0.4284745454788208,
        -0.07056836038827896,
        0.16674046218395233,
        -0.059091340750455856,
        -0.1458202749490738,
        -0.14425382018089294,
        -0.3435578942298889,
        0.12049081921577454,
        -0.05288863182067871,
        -0.049325451254844666,
        -0.012495506554841995,
        -0.023626159876585007,
        0.25616371631622314,
        0.1259670853614807,
        -0.173573300242424,
        0.0684904009103775,
        0.08289584517478943,
        0.0010691627394407988,
        -0.06644731014966965,
        0.17025034129619598,
        0.17302493751049042,
        0.22595056891441345,
        -0.5563591718673706,
        -0.07343649119138718,
        -0.3611462414264679,
        -0.07075446099042892,
        0.08317187428474426,
        0.14448148012161255,
        -0.25481805205345154,
        0.16221505403518677,
        0.2024102509021759,
        -0.09385275840759277,
        0.05037665739655495,
        -0.10283118486404419,
        0.057060521095991135,
        -0.08203236013650894,
        -0.13282623887062073,
        -0.342023640871048,
        -0.4134428799152374,
        0.24866542220115662,
        -0.1324232816696167,
        0.05279123783111572,
        -0.19804376363754272,
        0.12391039729118347,
        -0.19475936889648438,
        -0.06347779184579849,
        -0.17351949214935303,
        -0.20466679334640503,
        0.14371539652347565,
        -0.3078814446926117,
        -0.013777408748865128,
        0.16240645945072174,
        0.13959068059921265,
        0.0673237144947052,
        -0.4995434284210205,
        0.11004343628883362,
        -0.42810848355293274,
        -0.050748586654663086,
        0.05375693365931511,
        -0.1002228707075119,
        0.15302947163581848,
        0.26625722646713257,
        0.10614177584648132,
        -0.0780608281493187,
        0.17150959372520447,
        0.17937339842319489,
        0.1019335463643074,
        0.018546780571341515,
        0.21208834648132324,
        0.29251429438591003,
        0.25954392552375793,
        -0.12941326200962067,
        -0.23370443284511566,
        -0.25213316082954407,
        0.2966639995574951,
        -0.0032427944242954254,
        -0.06801848858594894,
        0.12983438372612,
        -0.24714575707912445,
        -0.04593615606427193,
        -0.20071081817150116,
        0.4090517461299896,
        0.21566611528396606,
        0.05438444763422012,
        0.4112163484096527,
        -0.23695328831672668,
        -0.2638005316257477,
        0.027848677709698677,
        -0.4557044506072998,
        0.12319114059209824,
        -0.15604203939437866,
        0.118179552257061,
        0.1745813935995102,
        -0.18575946986675262,
        0.1500769853591919,
        0.1274850219488144,
        -0.1747889667749405,
        0.3997078239917755,
        -0.2591642439365387,
        -0.15456794202327728,
        -0.06918901950120926,
        0.019057830795645714,
        -0.015628615394234657,
        -0.035569898784160614,
        -0.16501520574092865,
        0.0014817971969023347,
        0.13728782534599304,
        0.06932605057954788,
        0.1606898307800293,
        0.05719596520066261,
        0.06976738572120667,
        -0.17959344387054443,
        0.09771481156349182,
        -0.23361560702323914,
        -0.11004927009344101,
        -0.058714643120765686,
        0.04419547691941261,
        -0.12225162237882614,
        -0.14417360723018646,
        0.0464213602244854,
        -0.3063136041164398,
        0.006985264830291271,
        -0.029592664912343025,
        -0.2546086609363556,
        -0.04625394195318222,
        -0.028444835916161537,
        -0.011489530093967915,
        -0.05113926902413368,
        0.10772129148244858,
        0.1439521312713623,
        0.033229388296604156,
        0.12961336970329285,
        0.014707868918776512,
        0.11592278629541397,
        -0.0895732045173645,
        -0.15596893429756165,
        -0.04414527490735054,
        0.029209140688180923,
        -0.03701265901327133,
        -0.02648007869720459,
        -0.0032791325356811285,
        0.26895177364349365,
        -0.027218203991651535,
        -0.01658599078655243,
        -0.056967124342918396,
        0.05435272678732872,
        -0.13109566271305084,
        0.05450120195746422,
        -0.17156699299812317,
        -0.07544229179620743,
        0.26013296842575073,
        0.09325917065143585,
        -0.0017945567378774285,
        -0.021654587239027023,
        -0.1326366364955902,
        -0.00831050518900156,
        0.32005369663238525,
        -0.13026997447013855,
        0.24340198934078217,
        0.12867912650108337,
        -0.12224128097295761,
        0.12300904840230942,
        -0.13990247249603271,
        -0.11176217347383499,
        0.023652559146285057,
        -0.08117562532424927,
        0.03564000129699707,
        0.08109050244092941,
        0.044991351664066315,
        0.024337753653526306,
        -0.032944146543741226,
        0.15812690556049347,
        -0.028852906078100204,
        0.06451063603162766,
        -0.2688755989074707,
        -0.1496342271566391,
        0.10576280951499939,
        -0.15921618044376373,
        -0.03107505291700363,
        -0.06714045256376266,
        0.15046902000904083,
        -0.09527622908353806,
        0.16059063374996185,
        0.049724776297807693,
        0.11231452971696854,
        -0.21063365042209625,
        0.07420653849840164,
        -0.03157438337802887,
        0.16605673730373383,
        -0.031756673008203506,
        -0.039641764014959335,
        0.05200212821364403,
        0.2395230531692505,
        0.10205792635679245,
        0.25008702278137207,
        0.034603655338287354,
        0.038793519139289856,
        -0.02372613549232483,
        -0.4151279926300049,
        -0.09108403325080872,
        0.08212456852197647,
        -0.02478957176208496,
        -0.03870547562837601,
        0.08022066950798035,
        -0.21236251294612885,
        -0.013157707639038563,
        -0.17476454377174377,
        0.20466460287570953,
        0.11336354166269302,
        -0.092487633228302,
        -0.2706602215766907,
        0.01660813018679619,
        -0.09281125664710999,
        0.2201031595468521,
        -0.10621815919876099,
        -0.16239836812019348,
        -0.10801795870065689,
        -0.16971904039382935,
        -0.03493623062968254,
        -0.06581570208072662,
        -0.18963497877120972,
        -0.08592422306537628,
        -0.15447531640529633,
        0.0453413724899292,
        -0.09601856768131256,
        -0.315581738948822,
        0.21680612862110138,
        0.11949185281991959,
        0.34355467557907104,
        -0.051823001354932785,
        -0.19657383859157562,
        0.35742074251174927,
        -0.05156558007001877,
        -0.2647334337234497,
        0.21376149356365204,
        0.008984548971056938,
        0.3283979296684265,
        0.21241086721420288,
        0.004020010586827993,
        -0.06861867010593414,
        0.3469843566417694,
        -0.08920582383871078,
        -0.08749622106552124,
        0.061369627714157104,
        -0.07266110926866531,
        0.04645339027047157,
        -0.2786676585674286,
        0.042178623378276825,
        0.2715543806552887,
        -0.020831001922488213,
        0.04392947629094124,
        0.14320987462997437,
        -0.12214194983243942,
        0.103093221783638,
        0.5000267624855042,
        -0.06328687071800232,
        0.014234170317649841,
        -0.24051102995872498,
        -0.5269403457641602,
        0.09709230810403824,
        -0.019271843135356903,
        -0.1934090405702591,
        0.13710922002792358,
        0.0609632171690464,
        -0.12526871263980865,
        -0.024871034547686577,
        0.06637325137853622,
        0.12786613404750824,
        -0.03708686679601669,
        0.14488348364830017,
        -0.19744326174259186,
        -0.1562230885028839,
        -0.003401799825951457,
        0.003378134686499834,
        -0.08038133382797241,
        -0.12338781356811523,
        0.032172463834285736,
        0.041691988706588745,
        0.2990483343601227,
        0.09744870662689209,
        -0.0563419833779335,
        -0.11701908707618713,
        0.1725422888994217,
        0.07774128764867783,
        -0.039674799889326096,
        -0.11982755362987518,
        -0.041467927396297455,
        -0.18481822311878204,
        0.034625157713890076,
        -0.16090768575668335,
        0.143060564994812,
        -0.1157519593834877,
        0.06969663500785828,
        0.10495249927043915,
        -0.3628619313240051,
        -0.1334056854248047,
        0.15638823807239532,
        -0.1905944049358368,
        0.018827376887202263,
        0.18503303825855255,
        -0.29142412543296814,
        0.097388356924057,
        -0.27842947840690613,
        0.04110967740416527,
        0.04652315005660057,
        -0.22466236352920532,
        -0.12679708003997803,
        0.044440459460020065,
        0.037157636135816574,
        -0.08231526613235474,
        -0.03425179049372673,
        -0.028788669034838676,
        0.16436223685741425,
        0.15012027323246002,
        0.11380475014448166,
        0.005420962814241648,
        0.0038808188401162624,
        -0.10970277339220047,
        0.33238616585731506,
        -0.05442918464541435,
        -0.07972444593906403,
        -0.012351159006357193,
        0.024717165157198906,
        0.15328294038772583,
        0.07236777245998383,
        0.009989118203520775,
        -0.18130084872245789,
        -0.248786062002182,
        0.023319626227021217,
        0.10387745499610901,
        -0.19011826813220978,
        0.10786746442317963,
        -0.03827768564224243,
        0.03463463485240936,
        -0.08759381622076035,
        0.1486835479736328,
        0.04435467720031738,
        0.08624359220266342,
        -0.1513427346944809,
        0.060799047350883484,
        -0.040192607790231705,
        -0.06850376725196838,
        0.3651036322116852,
        -0.07256521284580231,
        -0.1986922323703766,
        0.16728517413139343,
        -0.07207121700048447,
        -0.15960073471069336,
        0.1260707825422287,
        0.0810968428850174,
        0.08365181088447571,
        -0.16295190155506134,
        0.014135275036096573,
        0.16818122565746307,
        0.09387606382369995,
        -0.02128688618540764,
        0.21464316546916962,
        0.020102793350815773,
        -0.13715876638889313,
        -0.003039734438061714,
        -0.2866840064525604,
        -0.12981903553009033,
        -0.19722779095172882,
        -0.10421354323625565,
        -0.09957270324230194,
        -0.048887088894844055,
        -0.36610567569732666,
        0.026467058807611465,
        -0.07026790082454681,
        -0.05977104231715202,
        0.10478126257658005,
        -0.11202281713485718,
        0.02974245697259903,
        0.01798577792942524,
        -0.0008603362366557121,
        0.34501320123672485,
        0.08890171349048615,
        -0.1827331781387329,
        0.0684618130326271,
        0.04924015700817108,
        0.1707214117050171,
        -0.10550444573163986,
        -0.09141279011964798,
        -0.11337294429540634,
        0.19318507611751556,
        -0.03898588567972183,
        0.12792907655239105,
        -0.13871757686138153,
        0.05890423059463501,
        -0.00877748616039753,
        -0.24774113297462463,
        0.02158001996576786,
        0.25622597336769104,
        -0.23272456228733063,
        -0.06334436684846878,
        0.0811169445514679,
        -0.2572101950645447,
        0.08236292004585266,
        -0.018937241286039352,
        0.07826333492994308,
        0.019386284053325653,
        -0.08832434564828873,
        -0.3082157373428345,
        -0.04233522340655327,
        0.44686198234558105,
        -0.009415923617780209,
        -0.06152912601828575,
        -0.38964399695396423,
        -0.03661433979868889,
        0.1570998728275299,
        0.19556866586208344,
        0.10472007840871811,
        -0.18470464646816254,
        0.1067618578672409,
        0.15925632417201996,
        -0.121926449239254,
        -0.13097979128360748,
        -0.14201180636882782,
        0.10943233221769333,
        -0.17959101498126984,
        0.16052764654159546,
        0.06352681666612625,
        -0.05890759453177452,
        -0.09607688337564468,
        -0.01640971750020981,
        -0.15521422028541565,
        0.11939511448144913,
        0.05310660973191261,
        -0.025644270703196526,
        -0.1148393377661705,
        -0.014403386041522026,
        -0.07283920794725418,
        0.2899659276008606,
        0.053997840732336044,
        0.04922051727771759,
        0.02066604606807232,
        -0.28176331520080566,
        0.11609742790460587,
        -0.01793850213289261,
        -0.14538787305355072,
        0.38623517751693726,
        -0.13014090061187744,
        -0.14058977365493774,
        0.1471298485994339,
        -0.13967753946781158,
        -0.18173250555992126,
        -0.3792136609554291,
        0.010080121457576752,
        -0.06936822831630707,
        0.014332843944430351,
        0.09109420329332352,
        -0.05671830102801323,
        -0.15957173705101013,
        0.19776490330696106,
        -0.18098190426826477,
        -0.09587012976408005,
        -0.08961069583892822,
        -0.00495667802169919,
        -0.231236070394516,
        0.20959581434726715,
        -0.06382106989622116,
        -0.04995879530906677,
        -0.23944561183452606,
        -0.041827909648418427,
        -0.18834984302520752,
        -0.14131471514701843,
        -0.06558100879192352,
        0.0013751172227784991,
        0.2683054506778717,
        0.0037441072054207325,
        -0.21201074123382568,
        0.22159290313720703,
        0.011197511106729507,
        -0.24550184607505798,
        0.25286242365837097,
        -0.016194485127925873,
        0.20442357659339905,
        0.15235349535942078,
        -0.028644118458032608,
        -0.1582120656967163,
        0.2697712779045105,
        -0.11811855435371399,
        0.1473507583141327,
        -0.1664668619632721,
        0.045277222990989685,
        0.06954075396060944,
        -0.3192455470561981,
        -0.2017509788274765,
        0.1807669997215271,
        -0.0530545599758625,
        0.10207896679639816,
        0.04236828163266182,
        -0.27511298656463623,
        0.06627392023801804,
        0.2442130744457245,
        0.12184615433216095,
        0.09420063346624374,
        -0.24567076563835144,
        -0.37406349182128906,
        0.04854836314916611,
        -0.20362935960292816,
        -0.08199626952409744,
        -0.04386540874838829,
        -0.21271613240242004,
        0.032752715051174164,
        -0.13406914472579956,
        -0.016177553683519363,
        -0.01749997027218342,
        -0.20479217171669006,
        -0.057583678513765335,
        0.3331034481525421,
        0.14396969974040985,
        -0.1764911264181137,
        -0.10457815229892731,
        0.00515823345631361,
        -0.0024019505362957716,
        -0.10975927859544754,
        -0.1111830547451973,
        -0.05961974337697029,
        -0.14568600058555603,
        -0.06529798358678818,
        0.1536504477262497,
        -0.21886314451694489,
        0.03412935510277748,
        0.13880856335163116,
        0.19973017275333405,
        0.11272215843200684,
        0.10064541548490524,
        -0.0004421587800607085,
        0.11987603455781937,
        -0.14277562499046326,
        0.1790614277124405,
        -0.21787968277931213,
        0.05198086053133011,
        0.3743540644645691,
        -0.04755348339676857,
        -0.19364140927791595,
        0.3042016625404358,
        -0.008739045821130276,
        -0.048919323831796646,
        0.282363623380661,
        0.09572646766901016,
        0.4942273795604706,
        0.03637868911027908,
        0.026399921625852585,
        0.21121421456336975,
        0.1229727640748024,
        -0.013113207183778286,
        0.2771752178668976,
        -0.45684343576431274,
        -0.07346310466527939,
        0.5187801718711853,
        0.11390216648578644,
        0.12398765981197357,
        0.06970289349555969,
        0.10974928736686707,
        0.23511600494384766,
        -0.08861369639635086,
        0.06755729019641876,
        -0.10511588305234909,
        -0.004052163101732731,
        0.2839467525482178,
        -0.03547678142786026,
        -0.1360720992088318,
        -0.21096956729888916,
        0.04358530789613724,
        0.1255224198102951,
        -0.2679661214351654,
        -0.19219133257865906,
        0.12834307551383972,
        -0.21183721721172333,
        -0.02940479665994644,
        -0.14360855519771576,
        -0.44346922636032104,
        0.014056830666959286,
        0.07153382897377014,
        -0.3246237635612488,
        0.1124010756611824,
        0.2082328349351883,
        -0.08057612180709839,
        -0.15700317919254303,
        -0.1581713706254959,
        0.34229472279548645,
        -0.09428278356790543,
        -0.070428766310215,
        -0.030227459967136383,
        -0.0665234848856926,
        -0.07919193804264069,
        -0.09759379923343658,
        -0.11859044432640076,
        -0.5841861367225647,
        0.16347108781337738,
        -0.1474912166595459,
        0.06069375202059746,
        0.44347867369651794,
        -0.04934079945087433,
        0.03808445855975151,
        -0.061233628541231155,
        -0.04920319840312004,
        0.043843742460012436,
        0.006845348514616489,
        -0.06924960762262344,
        -0.006441239733248949,
        0.04202791675925255,
        -0.09648915380239487,
        0.10038384050130844,
        -0.1351245790719986,
        0.03065892681479454,
        0.03550882637500763,
        -0.12730289995670319,
        0.09935461729764938,
        -0.032862499356269836,
        0.09179805219173431,
        -0.11904419958591461,
        0.15151584148406982,
        0.2889980673789978,
        -0.12545210123062134,
        -0.07093869149684906,
        0.2290187031030655,
        -0.08049382269382477,
        0.062037304043769836,
        -0.02600417658686638,
        0.09384510666131973,
        -0.11377745866775513,
        0.14122168719768524,
        0.00945295486599207,
        0.21562813222408295,
        -0.14611682295799255,
        0.11045454442501068,
        0.05740169435739517,
        -0.42459818720817566,
        0.04098038002848625,
        0.2427016943693161,
        -0.13882166147232056,
        0.07164707779884338,
        0.22199080884456635,
        -0.3975646197795868,
        -0.008070353418588638,
        -0.22998899221420288,
        0.17790597677230835,
        -0.05437999591231346,
        -0.1515200436115265,
        -0.31180858612060547,
        -0.049388762563467026,
        0.0983593687415123,
        -0.21792715787887573,
        0.1954045593738556,
        0.3696645498275757,
        -0.044360458850860596,
        -0.11086426675319672,
        0.32579952478408813,
        0.138996884226799,
        0.17480218410491943,
        0.07799163460731506,
        -0.1778767853975296,
        0.0566629059612751,
        -0.0008963675936684012,
        0.09899836778640747,
        -0.010431747883558273,
        -0.21292243897914886,
        -0.12686997652053833,
        -0.06609775125980377,
        0.13766732811927795,
        0.16695329546928406,
        0.18121236562728882,
        0.06469085812568665,
        0.055003196001052856,
        -0.17599725723266602,
        -0.22800397872924805,
        -0.2068304568529129,
        -0.036415889859199524,
        -0.21274131536483765,
        -0.08516000211238861,
        -0.1556493639945984,
        0.16630569100379944,
        -0.27199244499206543,
        0.03975146636366844,
        0.1581605225801468,
        -0.33380401134490967,
        0.06819610297679901,
        0.01184413954615593,
        -0.14857354760169983,
        0.056676462292671204,
        -0.02779194712638855,
        -0.3650341033935547,
        0.13966971635818481,
        -0.40082088112831116,
        0.0068285465240478516,
        0.25208136439323425,
        -0.0835099145770073,
        -0.0735263004899025,
        -0.15835589170455933,
        -0.07423713058233261,
        0.014950774610042572,
        0.16410771012306213,
        0.18127113580703735,
        -0.26238250732421875,
        -0.04001564905047417,
        -0.1903206706047058,
        -0.2457505762577057,
        0.041287001222372055,
        0.012687008827924728,
        -0.17468705773353577,
        -0.043364278972148895,
        0.1390608698129654,
        0.15252837538719177,
        0.11585661768913269,
        -0.01129660103470087,
        0.042686816304922104,
        0.08789637684822083,
        -0.0711972787976265,
        0.3776762783527374,
        -0.11692465841770172,
        -0.08979853242635727,
        -0.00861373357474804,
        0.004284983966499567,
        0.08251024782657623,
        -0.17765556275844574,
        0.04372117668390274,
        -0.21815083920955658,
        0.11804011464118958,
        -0.00045917401439510286,
        0.2598125636577606,
        0.0559980571269989,
        0.12003286927938461,
        -0.014449195936322212,
        -0.3704030215740204,
        0.08824684470891953,
        0.03388729318976402,
        -0.04982001334428787,
        -0.179827019572258,
        0.2827383577823639,
        -0.2319149374961853,
        0.06106874346733093,
        -0.021641584113240242,
        0.07505159080028534,
        -0.0492292195558548,
        -0.16244179010391235,
        -0.4776373505592346,
        0.09745020419359207,
        0.07576584070920944,
        -0.12960489094257355,
        -0.09247121959924698,
        0.46937817335128784,
        -0.2934756577014923,
        0.11411850154399872,
        0.3123023808002472,
        0.08154871314764023,
        0.03391730412840843,
        0.010364986956119537,
        -0.3110945522785187,
        0.09116622805595398,
        -0.14639964699745178,
        0.1596725583076477,
        0.03688112273812294,
        -0.2184198796749115,
        -0.1375170797109604,
        -0.02019103802740574,
        0.14602625370025635,
        0.09788985550403595,
        -0.01861119084060192,
        -0.042773012071847916,
        0.13652403652668,
        -0.015684381127357483,
        -0.14714734256267548,
        -0.22238540649414062,
        0.0449971929192543,
        -0.09481409937143326,
        -0.13603074848651886,
        0.13422180712223053,
        0.18546058237552643,
        -0.15993936359882355,
        -0.03945973142981529,
        -0.026739804074168205,
        -0.31259047985076904,
        -0.035373687744140625,
        -0.0306023471057415,
        -0.026513703167438507,
        -0.1110389456152916,
        0.08556066453456879,
        -0.1809491068124771,
        -0.08270446211099625,
        -0.5375893712043762,
        -0.026096390560269356,
        0.04239090532064438,
        -0.12251188606023788,
        -0.13385172188282013,
        -0.0023446024861186743,
        0.1632768213748932,
        0.06626300513744354,
        0.1697435826063156,
        0.1083059310913086,
        -0.07014327496290207,
        0.2603708505630493,
        0.03380700573325157,
        -0.244190514087677,
        0.2685355246067047,
        -0.23569121956825256,
        -0.16074134409427643,
        0.12859971821308136,
        0.03359244018793106,
        0.004723474849015474,
        -0.2047351896762848,
        -0.03108873777091503,
        -0.14389394223690033,
        -0.27213287353515625,
        -0.03304344788193703,
        0.04290875047445297,
        -0.02103065513074398,
        0.1263938993215561,
        -0.07016769796609879,
        -0.09843146800994873,
        -0.2052295058965683,
        -0.009963876567780972,
        0.056206513196229935,
        0.1396334022283554,
        -0.09624028950929642,
        -0.134127676486969,
        -0.17536099255084991,
        -0.03142077103257179,
        0.3101314306259155,
        -0.16246439516544342,
        0.07590562105178833,
        -0.01965135708451271,
        -0.12856847047805786,
        -0.09097135812044144,
        0.0389971099793911,
        -0.11766668409109116,
        -0.08197036385536194,
        0.21987827122211456,
        -0.24411222338676453,
        -0.08193322271108627,
        -0.3162405490875244,
        0.12014926224946976,
        -0.14356572926044464,
        -0.2738827168941498,
        0.07005714625120163,
        0.17638856172561646,
        0.0957445502281189,
        -0.10671940445899963,
        0.14688147604465485,
        0.11352235823869705,
        -0.146183580160141,
        0.008901511318981647,
        0.11428990960121155,
        -0.17139099538326263,
        0.2818662226200104,
        0.053932514041662216,
        -0.0028817022684961557,
        -0.017316484823822975,
        0.04781491681933403,
        0.18647564947605133,
        -0.024979008361697197,
        0.017023488879203796,
        -0.09795968979597092,
        -0.08072827011346817,
        0.029162252321839333,
        0.09427487105131149,
        -0.0491793267428875,
        0.20768952369689941,
        0.08458373695611954,
        0.19618389010429382,
        -0.0453798845410347,
        -0.02941015176475048,
        -0.031948771327733994,
        0.042041171342134476,
        -0.0686606839299202,
        0.0054279956966638565,
        -0.06537964940071106,
        -0.0822310745716095,
        0.41047921776771545,
        0.0436258390545845,
        -0.15264935791492462,
        0.2316424548625946,
        -0.21516162157058716,
        0.010081897489726543,
        0.310871958732605,
        -0.13007096946239471,
        0.30338314175605774,
        -0.07902805507183075,
        0.020244551822543144,
        0.054523810744285583,
        0.02584606409072876,
        0.18697041273117065,
        0.06627368181943893,
        0.036324288696050644,
        0.022405119612812996,
        -0.11888830363750458,
        0.08258786797523499,
        -0.03391312062740326,
        -0.0399150513112545,
        -0.02545342594385147,
        0.1722060590982437,
        0.06485246866941452,
        0.09359273314476013,
        0.00847887434065342,
        -0.21046218276023865,
        0.05520514398813248,
        -0.00623150123283267,
        0.0454489067196846,
        -0.09133007377386093,
        -0.4862651228904724,
        0.678581178188324,
        0.23635904490947723,
        -0.2538502812385559,
        -0.11353738605976105,
        0.14663533866405487,
        -0.24008464813232422,
        0.5344321727752686,
        -0.5073477029800415,
        0.7121687531471252,
        0.4588046371936798,
        -0.056411560624837875,
        -0.4391908347606659,
        0.05737106874585152,
        -0.5355744361877441,
        0.23533321917057037,
        -0.12058950960636139,
        -0.1648937165737152,
        -0.4264204502105713,
        0.2996668219566345,
        0.06567324697971344,
        0.28380465507507324,
        -0.13920333981513977,
        0.2796354293823242,
        0.31975868344306946,
        -0.0851021483540535,
        -0.12995560467243195,
        -0.2541621923446655,
        -0.10819339007139206,
        -0.14810539782047272,
        0.11806534975767136,
        0.19801531732082367,
        -0.24610470235347748,
        0.09878873825073242,
        0.06954119354486465,
        0.28527116775512695,
        0.06200477108359337,
        0.05197791010141373,
        -0.4100661873817444,
        -0.20750422775745392,
        0.15173742175102234,
        -0.05355609580874443,
        0.053381938487291336,
        0.03390725702047348,
        0.21412643790245056,
        0.33176833391189575,
        -0.07434824854135513,
        0.08271034806966782,
        -0.26804623007774353,
        0.02344677224755287,
        -0.2360859513282776,
        0.3032262325286865,
        -0.16078485548496246,
        -0.1417980194091797,
        -0.36264586448669434,
        -0.03899271786212921,
        0.0761142373085022,
        -0.27143004536628723,
        0.12515729665756226,
        0.07265225797891617,
        -0.31179529428482056,
        -0.1431741565465927,
        0.18967171013355255,
        0.4248233139514923,
        0.06489657610654831,
        0.17409394681453705,
        0.08126655220985413,
        -0.22689718008041382,
        0.15852105617523193,
        -0.3781077563762665,
        0.30408456921577454,
        0.06614222377538681,
        -0.05610425025224686,
        0.1418895572423935,
        0.3477776050567627,
        0.1728106290102005,
        0.2964148223400116,
        0.10988456755876541,
        -0.06343063712120056,
        0.011994687840342522,
        0.020563608035445213,
        0.5926734805107117,
        0.14606058597564697,
        -0.27416837215423584,
        0.18453606963157654,
        0.15489766001701355,
        0.3200744390487671,
        0.14048048853874207,
        -0.5199273228645325,
        0.2801155745983124,
        0.17546333372592926,
        0.09056435525417328,
        -0.055040888488292694,
        0.17631953954696655,
        -0.44130513072013855,
        -0.4752490222454071,
        -0.14594662189483643,
        -0.042582232505083084,
        -0.1070399209856987,
        -0.019495785236358643,
        -0.07835029065608978,
        0.3784271478652954,
        0.06868591159582138,
        -0.2232581526041031,
        -0.21296483278274536,
        -0.13058361411094666,
        0.39925092458724976,
        -0.18673327565193176,
        0.2131422758102417,
        0.32738766074180603,
        -0.07568718492984772,
        0.08641429990530014,
        -0.014969383366405964,
        -0.2081131786108017,
        0.0011219785083085299,
        0.0961599349975586,
        -0.05802033469080925,
        0.04939108341932297,
        -0.221882626414299,
        -0.21320722997188568,
        0.3912442624568939,
        0.09309583902359009,
        -0.1969253569841385,
        0.10542657226324081,
        0.05272611230611801,
        0.04573914781212807,
        0.20570077002048492,
        -0.06188594177365303,
        -0.03682982921600342,
        -0.35468965768814087,
        -0.10187675803899765,
        0.0849115252494812,
        -0.1744096428155899,
        0.053890835493803024,
        -0.1799355298280716,
        0.16209504008293152,
        0.12018951773643494,
        -0.03543175756931305,
        0.05131828412413597,
        -0.11773430556058884,
        -0.22058799862861633,
        -0.14923395216464996,
        -0.2532424330711365,
        0.08996458351612091,
        0.24128840863704681,
        0.019396886229515076,
        0.2584707736968994,
        0.260295033454895,
        -0.06780172139406204,
        -0.2426164150238037,
        0.03973911330103874,
        -0.20214425027370453,
        0.2284020185470581,
        -0.09819153696298599,
        0.29170897603034973,
        -0.18503227829933167,
        -0.027525030076503754,
        -0.2038784772157669,
        0.021566227078437805,
        0.0914684385061264,
        -0.06501750648021698,
        0.005527300760149956,
        0.3824293613433838,
        -0.08070357888936996,
        0.3011315166950226,
        -0.1965094953775406,
        0.15480293333530426,
        -0.3423800468444824,
        -0.21679507195949554,
        0.2268090546131134,
        0.18534569442272186,
        0.18260759115219116,
        0.23399029672145844,
        0.19912847876548767,
        -0.2948799431324005,
        0.36706623435020447,
        -0.2606254816055298,
        -0.41370701789855957,
        -0.4692147374153137,
        0.4175494611263275,
        -0.3496633470058441,
        0.05216677114367485,
        -0.39813560247421265,
        0.5211782455444336,
        0.38103047013282776,
        -0.4995114505290985,
        -0.256584107875824,
        -0.13847582042217255,
        -0.4833846092224121,
        0.009743990376591682,
        0.5491517782211304,
        0.07726839929819107,
        0.03851724788546562,
        0.05416537821292877,
        0.10807967931032181,
        0.024778934195637703,
        0.20269016921520233,
        0.40771520137786865,
        0.14291435480117798,
        -0.20793694257736206,
        -0.1947842687368393,
        -0.1610904484987259,
        0.3265690803527832,
        -0.28995272517204285,
        -0.17734652757644653,
        -0.02155117876827717,
        0.08820739388465881,
        -0.5748698711395264,
        0.027284152805805206,
        -0.051883358508348465,
        -0.06452967971563339,
        0.19827760756015778,
        0.11988773941993713,
        0.22856172919273376,
        -0.3156822919845581,
        0.011147130280733109,
        -0.18378569185733795,
        -0.3151038885116577,
        0.14365316927433014,
        -0.1723671704530716,
        0.2256081998348236,
        0.056864332407712936,
        -0.23399394750595093,
        -0.09538808465003967,
        0.22521314024925232,
        -0.20634974539279938,
        -0.13164852559566498,
        0.08811824768781662,
        -0.029350221157073975,
        0.256478875875473,
        -0.22797811031341553,
        0.11648060381412506,
        0.2358073890209198,
        0.05818312242627144,
        -0.49653542041778564,
        -0.06654658913612366,
        -0.08436229079961777,
        -0.23877683281898499,
        0.14743918180465698,
        -0.33753716945648193,
        0.11376537382602692,
        -0.1002621129155159,
        0.044954195618629456,
        -0.04354250803589821,
        -0.07008134573698044,
        -0.09181578457355499,
        -0.23728235065937042,
        0.11677423864603043,
        0.05468331649899483,
        -0.02052193507552147,
        0.3557131290435791,
        -0.09462586045265198,
        0.06420259922742844,
        0.15598119795322418,
        -0.32075151801109314,
        -0.20982146263122559,
        -0.024147313088178635,
        0.025572406128048897,
        -0.16314563155174255,
        -0.009160857647657394,
        -0.002270060358569026,
        -0.03206999972462654,
        -0.21128103137016296,
        -0.02924613654613495,
        0.08161969482898712,
        0.17400763928890228,
        0.009768502786755562,
        -0.12973400950431824,
        -0.17536623775959015,
        -0.09480037540197372,
        -0.11500236392021179,
        0.06561849266290665,
        0.04278719797730446,
        0.08627960830926895,
        0.13322007656097412,
        -0.060356926172971725,
        0.11341366171836853,
        0.06758381426334381,
        -0.0789957195520401,
        -0.10764624178409576,
        -0.12244823575019836,
        0.03940173238515854,
        0.113737091422081,
        0.17384734749794006,
        0.12838739156723022,
        0.03825702890753746,
        -0.04683386906981468,
        0.12206878513097763,
        -0.031123178079724312,
        0.0028978371992707253,
        0.3530330955982208,
        0.12677854299545288,
        0.10449984669685364,
        -0.05454511567950249,
        -0.20742714405059814,
        -0.03311281278729439,
        -0.31101155281066895,
        0.1998683512210846,
        0.19733069837093353,
        0.16466104984283447,
        -0.12647642195224762,
        -0.06857555359601974,
        0.31340739130973816,
        -0.14847849309444427,
        0.04607454687356949,
        0.27236491441726685,
        -0.0830654725432396,
        -0.06959167867898941,
        0.07298746705055237,
        -0.1812014877796173,
        -0.029688289389014244,
        -0.22440128028392792,
        0.05730032920837402,
        0.1357453167438507,
        0.035626739263534546,
        -0.0800522193312645,
        -0.11601554602384567,
        -0.10572993755340576,
        0.05774654820561409,
        0.07870688289403915,
        0.138468936085701,
        0.30500760674476624,
        -0.005007985979318619,
        -0.13668394088745117,
        -0.026954973116517067,
        -0.060915764421224594,
        0.008714129216969013,
        0.26241156458854675,
        -0.11951755732297897,
        -0.2154003530740738,
        -0.18980231881141663,
        -0.1457233875989914,
        -0.06276407092809677,
        -0.20201748609542847,
        -0.006714408751577139,
        0.004113711416721344,
        0.2818319797515869,
        0.007500999607145786,
        0.4664175808429718,
        -0.28895103931427,
        -0.10792982578277588,
        -0.0248667374253273,
        -0.17736712098121643,
        0.1146412119269371,
        -0.26638802886009216,
        0.3576701283454895,
        0.35326892137527466,
        0.14790832996368408,
        -0.0008888968732208014,
        0.12456707656383514,
        0.209685817360878,
        -0.27063223719596863,
        -0.23504023253917694,
        0.017286572605371475,
        0.16511870920658112,
        0.014814464375376701,
        0.04696519672870636,
        -0.31570377945899963,
        -0.4236011803150177,
        -0.23333752155303955,
        -0.19282133877277374,
        0.09934312850236893,
        -0.12696512043476105,
        0.0794050320982933,
        -0.07324272394180298,
        -0.06626395881175995,
        0.12944480776786804,
        0.13257603347301483,
        0.18867884576320648,
        0.0751369446516037,
        0.08094824105501175,
        0.06805218011140823,
        0.3090611398220062,
        0.26501429080963135,
        -0.06773819774389267,
        0.12178117781877518,
        0.022075559943914413,
        -0.14416055381298065,
        -0.12241457402706146,
        -0.14619310200214386,
        -0.14129483699798584,
        -0.1519433856010437,
        -0.30686694383621216,
        -0.08439336717128754,
        -0.14002414047718048,
        0.05160942301154137,
        0.574248194694519,
        0.49235135316848755,
        0.03331168740987778,
        -0.22932876646518707,
        0.17422877252101898,
        0.02513502910733223,
        -0.0783415213227272,
        0.3330506980419159,
        -0.0474143922328949,
        0.1838425248861313,
        0.027005933225154877,
        -0.012839080765843391,
        -0.22429513931274414,
        -0.26751503348350525,
        0.030921412631869316,
        0.05899108946323395,
        0.13543017208576202,
        -0.1133270263671875,
