{
    "version": "0.5.0",
    "architecture": "WaveNet",
    "config": {
        "layers": [
            {
                "input_size": 1,
                "condition_size": 1,
                "head_size": 8,
                "channels": 16,
                "kernel_size": 3,
                "dilations": [
                    1,
                    2,
                    4,
                    8,
                    16,
                    32,
                    64,
                    128,
                    256,
                    512
                ],
                "activation": "Tanh",
                "gated": false,
                "head_bias": false
            },
            {
                "input_size": 16,
                "condition_size": 1,
                "head_size": 1,
                "channels": 8,
                "kernel_size": 3,
                "dilations": [
                    1,
                    2,
                    4,
                    8,
                    16,
                    32,
                    64,
                    128,
                    256,
                    512
                ],
                "activation": "Tanh",
                "gated": false,
                "head_bias": true
            }
        ],
        "head": null,
        "head_scale": 0.02
    },
    "weights": [
        0.25451552867889404,
        0.27502724528312683,
        -0.7991127967834473,
        -0.9148327112197876,
        -0.40602535009384155,
        0.34382715821266174,
        -0.0022938314359635115,
        0.9004652500152588,
        -0.0009458482381887734,
        0.2873895466327667,
        -0.3519477844238281,
        -0.11905255168676376,
        -1.0882548093795776,
        -0.7409652471542358,
        -0.23845502734184265,
        0.0011620925506576896,
        0.0719764232635498,
        0.15663370490074158,
        -0.4599768817424774,
        -0.015946516767144203,
        0.17921516299247742,
        -0.07883866131305695,
        -0.07757358253002167,
        -0.01727382279932499,
        0.18710529804229736,
        -0.030262896791100502,
        0.003795986296609044,
        0.08403042703866959,
        -0.13754543662071228,
        -0.16424690186977386,
        0.15828102827072144,
        0.172977015376091,
        0.024074329063296318,
        -0.30408427119255066,
        -0.05753278732299805,
        -0.11190531402826309,
        0.18844559788703918,
        0.16882885992527008,
        0.18922698497772217,
        -0.14512185752391815,
        -0.0082924235612154,
        -0.14250092208385468,
        0.19986160099506378,
        -0.08099792152643204,
        0.02328338660299778,
        -0.30511030554771423,
        0.05129125714302063,
        -0.027685727924108505,
        0.16375988721847534,
        -0.06874251365661621,
        -0.043264780193567276,
        0.3634154796600342,
        0.010959490202367306,
        -0.10808401554822922,
        0.3148050010204315,
        -0.12723015248775482,
        -0.09717100113630295,
        0.10242008417844772,
        -0.1388651430606842,
        -0.18531039357185364,
        0.2844237983226776,
        -0.057762857526540756,
        -0.20640747249126434,
        -0.2560092806816101,
        -0.26936018466949463,
        -0.17727285623550415,
        0.23024606704711914,
        -0.3156178295612335,
        -0.11347436159849167,
        0.26906973123550415,
        0.2244316190481186,
        0.13155095279216766,
        -0.08997200429439545,
        0.46750059723854065,
        0.3201145529747009,
        -0.019388806074857712,
        0.38417595624923706,
        0.07628288865089417,
        -0.12214900553226471,
        -0.43141618371009827,
        -0.3189583420753479,
        0.28509533405303955,
        0.2817143201828003,
        -0.11271940171718597,
        -0.2648458778858185,
        -0.36817339062690735,
        -0.21535085141658783,
        0.07938294857740402,
        0.34334948658943176,
        0.10971403867006302,
        -0.09425520151853561,
        -0.2836904227733612,
        -0.09753667563199997,
        0.20083113014698029,
        0.1918378323316574,
        0.084959477186203,
        -0.08209584653377533,
        0.3886972963809967,
        0.08705759793519974,
        -0.2327735424041748,
        0.4835745394229889,
        0.28967443108558655,
        -0.20890989899635315,
        0.3087459206581116,
        0.0536082498729229,
        -0.14725498855113983,
        0.22127971053123474,
        0.06777797639369965,
        -0.15525759756565094,
        -0.18262647092342377,
        -0.17716486752033234,
        0.16322816908359528,
        -0.22844865918159485,
        0.27300864458084106,
        -0.06987074017524719,
        -0.24775968492031097,
        0.0876726433634758,
        -0.07894743978977203,
        0.1284845620393753,
        -0.10561846941709518,
        0.1505696177482605,
        0.13029596209526062,
        -0.2046842724084854,
        0.16773460805416107,
        -0.009242909960448742,
        -0.21028998494148254,
        0.06975828856229782,
        -0.18803741037845612,
        0.08204128593206406,
        -0.23366063833236694,
        0.051595501601696014,
        -0.04642465338110924,
        0.013941044919192791,
        -0.12473056465387344,
        0.23709675669670105,
        -0.11417900770902634,
        0.15651361644268036,
        0.021250799298286438,
        0.18451343476772308,
        -0.039766356348991394,
        0.2634629011154175,
        -0.02017354965209961,
        0.2527238726615906,
        -0.13839486241340637,
        -0.015704777091741562,
        0.057094477117061615,
        -0.032666437327861786,
        0.09900244325399399,
        0.04859050735831261,
        -0.24794639647006989,
        -0.03631144016981125,
        -0.002150000771507621,
        -0.16113223135471344,
        0.1805121898651123,
        0.18886680901050568,
        -0.2655196487903595,
        0.19666074216365814,
        -0.168869748711586,
        0.005754179786890745,
        -0.25639766454696655,
        0.12818077206611633,
        0.010520459152758121,
        -0.17001253366470337,
        -0.02597198635339737,
        -0.01945367269217968,
        -0.09119807183742523,
        -0.1422688364982605,
        0.06974110752344131,
        -0.03166597709059715,
        -0.100218765437603,
        0.13375556468963623,
        0.038028351962566376,
        0.028713664039969444,
        0.04675919935107231,
        -0.05032482370734215,
        0.17875337600708008,
        -0.024046873673796654,
        -0.1513548344373703,
        0.015626048669219017,
        -0.16053903102874756,
        -0.0070540690794587135,
        0.05587046965956688,
        0.09572956711053848,
        -0.053175099194049835,
        -0.04452644661068916,
        -0.04347024857997894,
        0.017259739339351654,
        0.07522885501384735,
        -0.11405040323734283,
        -0.006023688241839409,
        0.032002728432416916,
        0.10524741560220718,
        -0.01934623531997204,
        -0.10224787145853043,
        -0.10982232540845871,
        0.0009290537564083934,
        -0.17359502613544464,
        0.0594664141535759,
        0.010987005196511745,
        -0.0915345773100853,
        0.01265659835189581,
        0.18479302525520325,
        -0.1900048851966858,
        -0.09152590483427048,
        -0.000673011876642704,
        0.18039855360984802,
        -0.013116516172885895,
        0.2359931468963623,
        0.17093023657798767,
        0.025753848254680634,
        -0.23643144965171814,
        0.13556574285030365,
        0.0767047330737114,
        -0.1266593188047409,
        -0.16942638158798218,
        -0.032580893486738205,
        -0.005161588545888662,
        -0.24108053743839264,
        0.06379225850105286,
        -0.005621875636279583,
        -0.17488761246204376,
        0.0876331627368927,
        0.16085435450077057,
        0.16221454739570618,
        -0.08381230384111404,
        -0.060461267828941345,
        -0.1014593094587326,
        0.003363692434504628,
        0.16262449324131012,
        0.14520615339279175,
        0.0529945082962513,
        0.009315641596913338,
        -0.11805333197116852,
        0.061050936579704285,
        0.13657352328300476,
        0.07511358708143234,
        0.12400218844413757,
        -0.2204563468694687,
        -0.2159927636384964,
        0.008269976824522018,
        0.17421606183052063,
        -0.05223521217703819,
        -0.10222786664962769,
        0.12263169139623642,
        -0.09174071997404099,
        -0.19389620423316956,
        0.21581874787807465,
        -0.2823438048362732,
        -0.047609809786081314,
        0.08618271350860596,
        -0.2302752435207367,
        -0.020332172513008118,
        0.23742243647575378,
        0.09034223854541779,
        -0.01376043539494276,
        -0.11175772547721863,
        -0.22356046736240387,
        0.029071468859910965,
        -0.058137379586696625,
        -0.157390758395195,
        -0.10920930653810501,
        0.13856343924999237,
        0.11523880809545517,
        0.11997415125370026,
        -0.0103748869150877,
        0.005208364222198725,
        -0.021240748465061188,
        -0.014563316479325294,
        0.18153531849384308,
        0.06788936257362366,
        -0.11160436272621155,
        -0.11851714551448822,
        -0.15674300491809845,
        0.0753425806760788,
        0.028074823319911957,
        0.025271819904446602,
        0.42772096395492554,
        -0.1421702802181244,
        -0.03419092670083046,
        0.09734679013490677,
        0.08819478750228882,
        0.05461394786834717,
        -0.017505306750535965,
        0.04732068255543709,
        -0.006155524868518114,
        0.16201452910900116,
        -0.0033462755382061005,
        0.06191597878932953,
        -0.0791235938668251,
        0.06824620813131332,
        -0.04932818189263344,
        0.018816126510500908,
        0.09871871024370193,
        0.013113637454807758,
        -0.08973648399114609,
        -0.037944525480270386,
        0.11831622570753098,
        -0.16202124953269958,
        0.10203084349632263,
        -0.032470833510160446,
        -0.1182095929980278,
        0.010763200931251049,
        -0.11913948506116867,
        -0.20480743050575256,
        -0.15810845792293549,
        0.1608215570449829,
        -0.10694616287946701,
        -0.16273115575313568,
        0.2557500898838043,
        -0.1475723385810852,
        0.09480622410774231,
        -0.23982711136341095,
        0.18780285120010376,
        0.17265965044498444,
        -0.16039901971817017,
        0.23806390166282654,
        0.14994049072265625,
        -0.20776773989200592,
        0.20102150738239288,
        -0.20419123768806458,
        0.2258637398481369,
        -0.13280613720417023,
        -0.06253388524055481,
        -0.20636093616485596,
        0.12061270326375961,
        -0.09249880909919739,
        0.29818296432495117,
        -0.12390580773353577,
        0.3252345621585846,
        -0.10357819497585297,
        0.14082473516464233,
        -0.34911996126174927,
        0.35121965408325195,
        -0.05521785467863083,
        0.11249836534261703,
        -0.16042377054691315,
        0.2520265281200409,
        0.35187599062919617,
        -0.09677039086818695,
        0.23236165940761566,
        0.19099918007850647,
        -0.2660617232322693,
        0.2605895698070526,
        0.3041636049747467,
        -0.29938191175460815,
        0.2733534872531891,
        0.27569201588630676,
        -0.12944918870925903,
        0.04933176562190056,
        0.018592584878206253,
        0.10594125092029572,
        -0.04628412798047066,
        -0.03037586808204651,
        0.20872341096401215,
        -0.1543702483177185,
        0.11884398013353348,
        0.12650975584983826,
        -0.04538394883275032,
        -0.13715732097625732,
        -0.12938036024570465,
        0.034073080867528915,
        -0.18472862243652344,
        -0.28544872999191284,
        0.24509739875793457,
        0.025576801970601082,
        -0.04406917840242386,
        0.2330007553100586,
        -0.09233828634023666,
        0.06577083468437195,
        -0.15893520414829254,
        -0.0591873899102211,
        -0.05257799103856087,
        -0.1189650222659111,
        -0.02916659601032734,
        0.029096107929944992,
        -0.21135872602462769,
        0.049074575304985046,
        -0.1496759057044983,
        0.11359768360853195,
        0.16078582406044006,
        0.3051901161670685,
        -0.16278231143951416,
        0.02721262536942959,
        -0.03433505818247795,
        0.1800277680158615,
        0.0834454819560051,
        -0.11553929001092911,
        0.2007012516260147,
        -0.09197452664375305,
        -0.09773241728544235,
        0.1472891867160797,
        -0.07580553740262985,
        -0.249407559633255,
        0.048118673264980316,
        -0.14818087220191956,
        -0.06341149657964706,
        0.23092256486415863,
        -0.04432256147265434,
        0.008920391090214252,
        0.09620655328035355,
        -0.015347439795732498,
        0.11535130441188812,
        -0.1897483915090561,
        0.0659310519695282,
        0.1887763887643814,
        -0.1317530870437622,
        0.18856190145015717,
        -0.03233729302883148,
        -0.02067149057984352,
        0.14256525039672852,
        -0.22050336003303528,
        0.011082113720476627,
        0.19333776831626892,
        -0.1207742691040039,
        -0.0590013712644577,
        -0.10637491196393967,
        0.09709435701370239,
        -0.07786786556243896,
        0.05502939969301224,
        0.061786141246557236,
        0.07485053688287735,
        -0.14752332866191864,
        0.1445571929216385,
        0.033972710371017456,
        0.19623827934265137,
        -0.09312181174755096,
        0.09713137894868851,
        -0.1781003773212433,
        0.06986311823129654,
        0.00787835381925106,
        -0.04488877207040787,
        -0.07710698246955872,
        0.17342373728752136,
        0.07615151256322861,
        -0.22860616445541382,
        -0.014602256007492542,
        0.09228714555501938,
        -0.25049257278442383,
        0.10482519865036011,
        -0.06927401572465897,
        -0.27213144302368164,
        -0.10106257349252701,
        0.026241440325975418,
        -0.0303351990878582,
        -0.08814964443445206,
        0.1010984405875206,
        -0.02399752289056778,
        -0.1347869485616684,
        -0.019390864297747612,
        -0.3359344005584717,
        0.36592966318130493,
        0.005541373044252396,
        -0.09881497919559479,
        0.19568687677383423,
        -0.023920007050037384,
        0.36105573177337646,
        -0.1328563541173935,
        0.1372876912355423,
        0.1296067237854004,
        -0.18117889761924744,
        -0.07002223283052444,
        0.19068525731563568,
        -0.10611757636070251,
        -0.18287622928619385,
        -0.19334754347801208,
        0.23221708834171295,
        0.14019566774368286,
        0.13157227635383606,
        -0.1958373337984085,
        -0.11458147317171097,
        -0.18026676774024963,
        0.28199803829193115,
        0.1535899043083191,
        0.2054322212934494,
        -0.031805504113435745,
        -0.21940140426158905,
        -0.37418991327285767,
        0.2104954868555069,
        -0.018433809280395508,
        0.30070486664772034,
        -0.25571057200431824,
        0.014678743667900562,
        0.14317020773887634,
        -0.058260660618543625,
        0.05590963736176491,
        0.3569336533546448,
        -0.05053158849477768,
        0.14748118817806244,
        0.24659250676631927,
        -0.18598398566246033,
        0.0334380604326725,
        0.24662497639656067,
        -0.07925918698310852,
        -0.12673871219158173,
        0.019288774579763412,
        0.16851374506950378,
        -0.02364765852689743,
        -0.1738966703414917,
        0.4000229239463806,
        0.15927572548389435,
        -0.2895602583885193,
        0.2610020339488983,
        0.027756650000810623,
        0.22861340641975403,
        -0.05087152495980263,
        -0.12237979471683502,
        0.19591651856899261,
        -0.11583071947097778,
        -0.07396912574768066,
        0.20500686764717102,
        -0.2075546532869339,
        0.1347322016954422,
        -0.18110226094722748,
        0.13332588970661163,
        -0.020267954096198082,
        0.1289166510105133,
        -0.25296851992607117,
        0.05615125969052315,
        -0.06539418548345566,
        0.15762050449848175,
        -0.08154576271772385,
        0.04299477860331535,
        -0.19475999474525452,
        -0.06685204058885574,
        -0.23514756560325623,
        0.10901151597499847,
        0.09175173938274384,
        0.10416174679994583,
        -0.17628644406795502,
        -0.07918336987495422,
        0.3182658851146698,
        -0.016522640362381935,
        -0.15300005674362183,
        0.0303933285176754,
        -0.28471317887306213,
        -0.04437787085771561,
        0.10951238125562668,
        -0.2679618299007416,
        -0.09081576019525528,
        0.16373255848884583,
        -0.2508862614631653,
        0.15530915558338165,
        0.019405439496040344,
        0.2165229171514511,
        0.15377838909626007,
        -0.027779515832662582,
        -0.1139642745256424,
        0.1272783875465393,
        -0.1871858835220337,
        0.10672181099653244,
        -0.2357407957315445,
        0.019659755751490593,
        0.1859228014945984,
        -0.20382367074489594,
        0.17792831361293793,
        0.026386354118585587,
        -0.15104638040065765,
        0.10762310773134232,
        0.11896724253892899,
        0.11301296949386597,
        -0.2916666865348816,
        -0.11406262218952179,
        -0.11966771632432938,
        0.12666358053684235,
        -0.15318265557289124,
        0.24453434348106384,
        -0.18272635340690613,
        -0.0626303181052208,
        -0.02542538195848465,
        0.04252098500728607,
        0.04173724353313446,
        0.20447216928005219,
        -0.18449249863624573,
        -0.12454397231340408,
        -0.11375148594379425,
        0.2715238034725189,
        -0.017664803192019463,
        -0.25199973583221436,
        0.2017487734556198,
        0.17958015203475952,
        -0.15199559926986694,
        0.0339074432849884,
        -0.09075787663459778,
        -0.07440052181482315,
        0.13903440535068512,
        -0.036562852561473846,
        -0.07069042325019836,
        0.20408529043197632,
        0.14733128249645233,
        0.1531490683555603,
        -0.07517395913600922,
        0.052096202969551086,
        0.10652488470077515,
        -0.03486556559801102,
        0.22113147377967834,
        0.20970435440540314,
        -0.32977673411369324,
        0.192914217710495,
        -0.027058040723204613,
        0.3356110155582428,
        -0.19242256879806519,
        -0.22393207252025604,
        0.10915125161409378,
        0.06252703815698624,
        -0.22049635648727417,
        0.14827388525009155,
        0.009646867401897907,
        0.09883091598749161,
        -0.27926287055015564,
        0.06618813425302505,
        -0.04849076643586159,
        0.09091577678918839,
        0.055539168417453766,
        0.10224892944097519,
        -0.15756097435951233,
        0.1973320096731186,
        -0.1315828412771225,
        0.11370367556810379,
        -0.0763508602976799,
        0.18026022613048553,
        -0.2822648882865906,
        0.20753994584083557,
        -0.12799879908561707,
        0.06619810312986374,
        -0.11362235248088837,
        -0.2436443418264389,
        0.3521950840950012,
        -0.08251973241567612,
        -0.30257469415664673,
        0.19777293503284454,
        0.017498556524515152,
        -0.13038882613182068,
        0.2517097592353821,
        -0.05996689945459366,
        -0.10037501901388168,
        0.16565343737602234,
        -0.12655875086784363,
        -0.19269351661205292,
        -0.3044085204601288,
        0.17782579362392426,
        0.09031621366739273,
        -0.040832191705703735,
        0.12271444499492645,
        0.11407496780157089,
        -0.2024182826280594,
        0.11602288484573364,
        -0.172616645693779,
        0.23924262821674347,
        -0.10151820629835129,
        -0.13609303534030914,
        0.19467216730117798,
        -0.046822354197502136,
        0.00939500704407692,
        0.0039046485908329487,
        -0.12074161320924759,
        0.03305604308843613,
        -0.09359735995531082,
        0.12969964742660522,
        -0.059560682624578476,
        0.2543051838874817,
        0.11686533689498901,
        0.06620867550373077,
        -0.008982785046100616,
        -0.1220165491104126,
        -0.08584693819284439,
        0.17154419422149658,
        0.019863052293658257,
        0.22414153814315796,
        -0.15560081601142883,
        0.10735622048377991,
        -0.23622554540634155,
        0.08873377740383148,
        -0.030770020559430122,
        -0.06901738047599792,
        0.1584969460964203,
        0.11254668235778809,
        -0.1224692165851593,
        0.11286189407110214,
        0.1109556257724762,
        -0.13973329961299896,
        0.2383657544851303,
        -0.09046900272369385,
        -0.10815349966287613,
        0.10056138783693314,
        0.06334560364484787,
        0.0503801628947258,
        -0.21513214707374573,
        -0.21018379926681519,
        0.001051577739417553,
        0.1901675909757614,
        -0.13691900670528412,
        -0.11958322674036026,
        0.2669335901737213,
        0.08122839033603668,
        0.02830868773162365,
        -0.31978777050971985,
        0.1651136726140976,
        -0.08083077520132065,
        -0.14870528876781464,
        0.09108607470989227,
        -0.034561362117528915,
        -0.12501785159111023,
        -0.056367311626672745,
        0.01055961661040783,
        0.08764560520648956,
        -0.10333222895860672,
        0.009289532899856567,
        -0.024795569479465485,
        0.02069965936243534,
        0.06891301274299622,
        0.16227217018604279,
        -0.1377105861902237,
        -0.08174433559179306,
        -0.22681519389152527,
        0.19249384105205536,
        -0.06440088897943497,
        0.189936563372612,
        -0.03933689370751381,
        0.12479976564645767,
        -0.04723863676190376,
        0.20246489346027374,
        -0.07582930475473404,
        -0.19982320070266724,
        -0.005056149326264858,
        -0.05644708499312401,
        -0.14971940219402313,
        0.20476648211479187,
        -0.08800483494997025,
        -0.09004303067922592,
        -0.0037089844699949026,
        -0.003768683411180973,
        -0.05388511344790459,
        0.04565637186169624,
        0.10483633726835251,
        0.0963541567325592,
        0.08162085711956024,
        0.03854256123304367,
        -0.28176772594451904,
        0.18202067911624908,
        -0.08913178741931915,
        -0.3141777813434601,
        0.04587182030081749,
        0.10659404844045639,
        0.1600574105978012,
        0.0179755836725235,
        0.10842790454626083,
        0.2976718544960022,
        -0.12601619958877563,
        -0.03133981674909592,
        0.15620207786560059,
        -0.16509655117988586,
        0.014369543641805649,
        -0.08947883546352386,
        0.18637709319591522,
        0.040646858513355255,
        0.22026412189006805,
        -0.08510976284742355,
        0.12176481634378433,
        -0.26093441247940063,
        -0.04986126348376274,
        -0.006597866304218769,
        0.22807472944259644,
        -0.167037695646286,
        0.1426057517528534,
        -0.1553567349910736,
        -0.04811692237854004,
        -0.05076595023274422,
        0.3134487569332123,
        -0.17776328325271606,
        -0.04978985711932182,
        0.258731484413147,
        -0.17448678612709045,
        0.06506973505020142,
        0.27878400683403015,
        0.03973248600959778,
        -0.10805829614400864,
        0.3418981432914734,
        -0.13780169188976288,
        0.12903864681720734,
        0.049723125994205475,
        -0.189931720495224,
        0.00868753157556057,
        -0.19461210072040558,
        0.00930289551615715,
        0.053711965680122375,
        -0.3516502380371094,
        -0.024314170703291893,
        -0.13808540999889374,
        0.001561392331495881,
        0.003575951559469104,
        0.005675661377608776,
        0.054594170302152634,
        0.0988544449210167,
        0.11806274950504303,
        -0.04522212967276573,
        0.036332082003355026,
        -0.010118859820067883,
        -0.008110690861940384,
        -0.05451144278049469,
        -0.01138855516910553,
        0.24146594107151031,
        -0.2849826514720917,
        0.7108969688415527,
        -0.8046801090240479,
        -0.09671308845281601,
        0.9647091031074524,
        0.8589086532592773,
        -0.7078731656074524,
        0.15432260930538177,
        0.24898938834667206,
        -0.29985156655311584,
        -0.3929092586040497,
        0.33890780806541443,
        -0.7160339951515198,
        0.10946398973464966,
        0.4728553593158722,
        -0.014269795268774033,
        0.1599559187889099,
        -0.07263243198394775,
        0.07673968374729156,
        0.38951894640922546,
        -0.028974276036024094,
        -0.014440903440117836,
        -0.22893314063549042,
        -0.03568335250020027,
        -0.11340948194265366,
        0.15633058547973633,
        -0.06909609586000443,
        0.38762953877449036,
        0.021083006635308266,
        0.18926268815994263,
        -0.09455922991037369,
        -0.07768065482378006,
        -0.13246913254261017,
        -0.1590379923582077,
        0.11202271282672882,
        -0.02832537516951561,
        -0.08023770153522491,
        0.04445213824510574,
        0.21166540682315826,
        -0.011075042188167572,
        0.2626592814922333,
        -0.08722374588251114,
        0.05093158036470413,
        -0.06721626222133636,
        -0.07388857752084732,
        0.051401570439338684,
        0.18883198499679565,
        0.12628458440303802,
        -0.04560143128037453,
        0.3874572515487671,
        0.14630228281021118,
        -0.11661571264266968,
        -0.07917564362287521,
        0.7006441950798035,
        -0.10504002869129181,
        0.06723383814096451,
        -0.2706157863140106,
        0.02351893112063408,
        -0.5010883212089539,
        -0.1015549972653389,
        0.07363808900117874,
        0.23498396575450897,
        -0.18467794358730316,
        0.3866211473941803,
        -0.2437451332807541,
        0.007878811098635197,
        -0.13096676766872406,
        0.1537134051322937,
        -0.00306725618429482,
        0.012963118962943554,
        0.48563501238822937,
        -0.16771188378334045,
        -0.18655847012996674,
        -0.21873363852500916,
        0.16126437485218048,
        -0.005663101561367512,
        0.21889197826385498,
        0.03061835467815399,
        -0.22497691214084625,
        -0.12483830004930496,
        -0.3394762873649597,
        -0.29195675253868103,
        0.20158086717128754,
        0.1622011661529541,
        0.031172432005405426,
        -0.007274676579982042,
        0.0983245000243187,
        0.053262703120708466,
        0.1447896510362625,
        -0.18549872934818268,
        0.3139459490776062,
        0.01632249914109707,
        0.21149419248104095,
        -0.10980887711048126,
        0.027662793174386024,
        -0.15129905939102173,
        -0.11066871881484985,
        -0.0056377071887254715,
        0.07635907083749771,
        0.35876724123954773,
        0.14263388514518738,
        0.07412118464708328,
        0.221059188246727,
        0.1704566329717636,
        -0.20566818118095398,
        -0.24554404616355896,
        -0.038045596331357956,
        -0.009756111539900303,
        -0.10674653202295303,
        0.17422309517860413,
        -0.08850672841072083,
        -0.05706542357802391,
        0.28708893060684204,
        0.34544458985328674,
        0.07235496491193771,
        -0.26729515194892883,
        -0.2684009075164795,
        0.5705646872520447,
        0.19445808231830597,
        0.2114224135875702,
        -0.5827669501304626,
        -0.3169666826725006,
        0.06612289696931839,
        -0.1980186402797699,
        -0.2898828089237213,
        0.14072778820991516,
        -0.5045746564865112,
        0.29750582575798035,
        0.04696131870150566,
        0.2519172132015228,
        -0.16190746426582336,
        -0.14662186801433563,
        0.0281500406563282,
        0.2726154625415802,
        0.17785747349262238,
        0.14555922150611877,
        -0.3530333340167999,
        0.09447633475065231,
        -0.12377966940402985,
        0.14107352495193481,
        -0.06404552608728409,
        -0.05535715073347092,
        -0.03455335646867752,
        0.17253617942333221,
        -0.09562758356332779,
        -0.2929312586784363,
        -0.0667695701122284,
        0.2335171103477478,
        -0.13502468168735504,
        -0.42318692803382874,
        0.0077112228609621525,
        -0.34967413544654846,
        -0.26148703694343567,
        0.2574738562107086,
        0.29680681228637695,
        0.35706469416618347,
        0.05305217579007149,
        0.15623986721038818,
        0.08386039733886719,
        -0.3030308187007904,
        -0.07857228815555573,
        0.2256404459476471,
        -0.3582136034965515,
        -0.34117668867111206,
        0.242174431681633,
        0.22397902607917786,
        -0.552585244178772,
        0.08467023074626923,
        0.5278624296188354,
        0.15346288681030273,
        -0.08347456157207489,
        0.18259340524673462,
        0.03300412371754646,
        -0.27562233805656433,
        0.26165008544921875,
        0.055633097887039185,
        0.3571331202983856,
        -0.23313599824905396,
        0.1593230664730072,
        -0.17021922767162323,
        -0.19811786711215973,
        0.009288349188864231,
        -0.04481099545955658,
        7.006197120063007e-05,
        -0.010280773043632507,
        -0.17935916781425476,
        -0.028919195756316185,
        -0.11184891313314438,
        0.14255034923553467,
        -0.03377716615796089,
        0.35158759355545044,
        0.1012382060289383,
        -0.027364840731024742,
        0.27553126215934753,
        -0.003155064769089222,
        0.1912585198879242,
        -0.2261066436767578,
        0.277637243270874,
        0.3093751072883606,
        0.1141667291522026,
        -0.47607699036598206,
        -0.372142493724823,
        -0.17668156325817108,
        -0.4839417040348053,
        0.07506193965673447,
        -0.007887269370257854,
        -0.5381727814674377,
        -0.00996063370257616,
        -0.13843707740306854,
        -0.039428651332855225,
        0.04040811210870743,
        0.14487393200397491,
        -0.11077553778886795,
        -0.3118039667606354,
        0.06279881298542023,
        0.153769850730896,
        -0.056020233780145645,
        0.1238703802227974,
        0.2083660364151001,
        0.3844548165798187,
        -0.11451251059770584,
        -0.07679411768913269,
        0.10740489512681961,
        -0.17557057738304138,
        0.00908282957971096,
        -0.10536199808120728,
        0.15278439223766327,
        -0.34756895899772644,
        0.20836445689201355,
        0.2368786633014679,
        0.0007816500728949904,
        -0.0991848036646843,
        0.05087041109800339,
        0.0949501246213913,
        0.03171401098370552,
        -0.22307902574539185,
        -0.058563776314258575,
        -0.3275946080684662,
        0.4406040906906128,
        -0.169031023979187,
        0.21020366251468658,
        0.13952353596687317,
        -0.23510411381721497,
        0.041998282074928284,
        0.22160063683986664,
        0.19150783121585846,
        -0.0313301682472229,
        -0.17359833419322968,
        0.30186939239501953,
        0.12044993788003922,
        -0.3080061674118042,
        0.255126953125,
        0.05904540419578552,
        -0.14941877126693726,
        0.05167165771126747,
        0.17246964573860168,
        0.12588776648044586,
        0.23013906180858612,
        -0.1633850634098053,
        -0.01683429256081581,
        0.2240561693906784,
        0.07625626772642136,
        0.1601828932762146,
        -0.008986583910882473,
        -0.21835452318191528,
        -0.10126473754644394,
        -0.2642131447792053,
        0.10726319253444672,
        0.04816947504878044,
        0.11484351009130478,
        -0.18136481940746307,
        0.15599702298641205,
        -0.06614834815263748,
        0.06512798368930817,
        -0.08111049979925156,
        -0.07952935993671417,
        -0.05531887337565422,
        0.13346052169799805,
        0.025203745812177658,
        0.07904626429080963,
        -0.10898276418447495,
        0.10774117708206177,
        0.012505798600614071,
        -0.01954774372279644,
        0.13065798580646515,
        -0.002043666085228324,
        0.05925694853067398,
        0.23071135580539703,
        -0.0038531071040779352,
        -0.11216234415769577,
        -0.07332628965377808,
        -0.051732566207647324,
        0.11797399073839188,
        -0.1569439321756363,
        0.04487646743655205,
        0.16913671791553497,
        -0.15315742790699005,
        -0.21677443385124207,
        0.05627474561333656,
        -0.19485534727573395,
        -0.21458126604557037,
        0.13911201059818268,
        0.319978803396225,
        -0.03670047968626022,
        -0.09383624792098999,
        -0.2880040109157562,
        -0.20497474074363708,
        0.17205514013767242,
        0.1802615225315094,
        0.04986689239740372,
        -0.31607717275619507,
        0.050485409796237946,
        0.060186758637428284,
        -0.27484628558158875,
        -0.08569059520959854,
        0.2278517186641693,
        -0.13473203778266907,
        -0.35050806403160095,
        -0.1572778820991516,
        0.13598649203777313,
        0.11779811233282089,
        -0.24426817893981934,
        0.12689629197120667,
        -0.2581039071083069,
        -0.12503911554813385,
        0.11868004500865936,
        -0.2527325451374054,
        0.01778886653482914,
        0.06940553337335587,
        -0.3574085235595703,
        0.038416676223278046,
        0.17083394527435303,
        0.30305537581443787,
        -0.01694255881011486,
        -0.1968947798013687,
        0.012357478961348534,
        0.06871572136878967,
        0.24324940145015717,
        -0.15792731940746307,
        -0.032790008932352066,
        0.11114232242107391,
        -0.12398731708526611,
        0.7532268762588501,
        0.07396670430898666,
        -0.5791859030723572,
        0.3842979967594147,
        -0.1217719167470932,
        -0.19027510285377502,
        0.10133133083581924,
        0.11583926528692245,
        -0.18504756689071655,
        -0.10917167365550995,
        -0.08895107358694077,
        -0.6002650260925293,
        0.5123634934425354,
        -0.28278404474258423,
        0.1944008320569992,
        -0.15758046507835388,
        0.00024968571960926056,
        -0.3263057768344879,
        -0.07662388682365417,
        0.4169376790523529,
        0.48099878430366516,
        -0.30219388008117676,
        -0.18284447491168976,
        -0.024617422372102737,
        0.07479218393564224,
        0.04407743737101555,
        -0.8790204524993896,
        0.4770125448703766,
        -0.0607592910528183,
        -0.31539151072502136,
        0.10463575273752213,
        0.05877085402607918,
        0.058546409010887146,
        0.05399179458618164,
        0.06282902508974075,
        0.30249136686325073,
        -0.2617681324481964,
        0.03098251298069954,
        -0.04015733301639557,
        0.19420719146728516,
        -0.17862652242183685,
        -0.20469391345977783,
        -0.15301008522510529,
        0.13080352544784546,
        0.1129167303442955,
        0.05295652896165848,
        -0.28526410460472107,
        0.18566761910915375,
        0.24659618735313416,
        0.0011846813140437007,
        0.15898865461349487,
        0.2567210793495178,
        -0.09117180854082108,
        0.20040801167488098,
        0.11096564680337906,
        0.03416977450251579,
        -0.18001165986061096,
        0.015737099573016167,
        0.29659801721572876,
        0.1712266206741333,
        -0.05134099721908569,
        -0.21180769801139832,
        -0.19275496900081635,
        -0.2026013731956482,
        0.286217600107193,
        -0.25979486107826233,
        -0.13072694838047028,
        -0.026336250826716423,
        -0.14465557038784027,
        -0.21091435849666595,
        -0.1483323872089386,
        0.01039445586502552,
        -0.07417667657136917,
        -0.10416457802057266,
        -0.007354984059929848,
        0.1570592075586319,
        0.08938607573509216,
        0.15214431285858154,
        0.10928437113761902,
        -0.22609059512615204,
        0.1104300394654274,
        0.044560495764017105,
        -0.08995766192674637,
        0.07723434269428253,
        0.06663261353969574,
        -0.0880870670080185,
        -0.19731959700584412,
        0.0700296014547348,
        0.2574543058872223,
        -0.2112710326910019,
        -0.08579207211732864,
        0.13961149752140045,
        -0.08207657188177109,
        -0.005831591319292784,
        -0.009275710210204124,
        0.3277975618839264,
        -0.07456641644239426,
        -0.31194454431533813,
        0.19018876552581787,
        0.12967535853385925,
        -0.08005490154027939,
        0.08396090567111969,
        -0.044016025960445404,
        -0.04968329146504402,
        -0.2249431312084198,
        0.1160900890827179,
        0.13348129391670227,
        0.11954698711633682,
        0.07472982257604599,
        -0.3327276408672333,
        -0.3024879992008209,
        0.020666023716330528,
        0.195438951253891,
        -0.06643455475568771,
        -0.333518385887146,
        0.4043145775794983,
        0.042798932641744614,
        -0.16249291598796844,
        0.02739580348134041,
        0.2841622531414032,
        -0.0976748988032341,
        -0.1435743123292923,
        0.019811755046248436,
        0.19847455620765686,
        0.1507347673177719,
        0.18371257185935974,
        0.13011665642261505,
        -0.15952858328819275,
        0.21003638207912445,
        -0.14560313522815704,
        -0.19407440721988678,
        0.12302003800868988,
        -0.01861770823597908,
        -0.042083580046892166,
        -0.05824165791273117,
        0.08446653187274933,
        0.15525241196155548,
        -0.2548503875732422,
        0.06759928911924362,
        -0.050687942653894424,
        0.17605458199977875,
        0.000946435087826103,
        0.1811334192752838,
        -0.10822068154811859,
        -0.008302506990730762,
        -0.05559880658984184,
        -0.2781716287136078,
        0.11940062791109085,
        0.13029740750789642,
        -0.02316143736243248,
        -0.20630690455436707,
        0.012979414314031601,
        -0.18478353321552277,
        0.18755395710468292,
        -0.159783735871315,
        0.10361135005950928,
        -0.06997647136449814,
        -0.0338367223739624,
        0.0041687567718327045,
        0.2573709487915039,
        0.10726229101419449,
        -0.036596473306417465,
        -0.18362091481685638,
        0.18544602394104004,
        0.13029111921787262,
        -0.1284411996603012,
        0.015509293414652348,
        0.20907790958881378,
        -0.13871383666992188,
        0.047497935593128204,
        -0.3229829967021942,
        0.2524171471595764,
        0.08980636298656464,
        -0.2603549659252167,
        -0.37346383929252625,
        0.13539543747901917,
        0.09374386817216873,
        -0.1492423713207245,
        0.02053857408463955,
        0.09830554574728012,
        -0.1917085200548172,
        -0.10404541343450546,
        0.008367333561182022,
        0.1769317239522934,
        -0.14196491241455078,
        0.08896156400442123,
        -0.2313224971294403,
        -0.03172023966908455,
        -0.22708986699581146,
        0.3372781276702881,
        -0.03194092586636543,
        0.18569649755954742,
        -0.06458652019500732,
        -0.00230579380877316,
        0.37540921568870544,
        0.19852182269096375,
        -0.011240300722420216,
        -0.041327111423015594,
        0.30633774399757385,
        -0.11666189879179001,
        0.23024040460586548,
        -0.24033144116401672,
        0.007263283245265484,
        0.3961462080478668,
        -0.2874148190021515,
        -0.03661404177546501,
        0.1971774846315384,
        -0.22978807985782623,
        0.20665434002876282,
        0.24995627999305725,
        0.458499938249588,
        -0.3119935095310211,
        -0.08334705233573914,
        0.033572904765605927,
        0.18700195848941803,
        -0.06563320755958557,
        0.1643584966659546,
        0.022157659754157066,
        0.5093923211097717,
        -0.2990139126777649,
        0.07538054138422012,
        0.10288733243942261,
        0.342623233795166,
        -0.006286703050136566,
        -0.18972863256931305,
        -0.006890355609357357,
        0.1404309868812561,
        -0.2913210690021515,
        0.18297985196113586,
        -0.13438881933689117,
        0.13514398038387299,
        -0.19774428009986877,
        0.11825156211853027,
        0.08083166182041168,
        -0.05671324580907822,
        0.16845929622650146,
        0.012837585061788559,
        0.2539199888706207,
        -0.22591988742351532,
        -0.1379699409008026,
        -0.03138098493218422,
        -0.069130077958107,
        0.2676911950111389,
        0.1715206652879715,
        -0.0014122214633971453,
        0.01531256828457117,
        0.2939743101596832,
        -0.07170124351978302,
        0.1528605818748474,
        -0.13936595618724823,
        0.2711166441440582,
        -0.20708665251731873,
        -0.14302121102809906,
        -0.20088249444961548,
        -0.07164685428142548,
        -0.14904706180095673,
        0.13695071637630463,
        0.0480537973344326,
        0.10269007831811905,
        -0.08802085369825363,
        -0.006204657256603241,
        -0.07625646144151688,
        0.035524334758520126,
        0.0207244623452425,
        0.08238837122917175,
        -0.12986211478710175,
        -0.03775765746831894,
        0.05902906879782677,
        -0.04126609489321709,
        0.13781943917274475,
        0.3058408796787262,
        -0.04114100709557533,
        -0.040163230150938034,
        0.2044486254453659,
        -0.276639848947525,
        -0.16704557836055756,
        0.041338082402944565,
        -0.18055830895900726,
        -0.056569088250398636,
        -0.24678292870521545,
        0.07733293622732162,
        -0.11275143921375275,
        0.024396736174821854,
        -0.09494147449731827,
        0.06840955466032028,
        -0.020567411556839943,
        -0.016112733632326126,
        -0.24939551949501038,
        -0.24638454616069794,
        0.4171289801597595,
        -0.0018625977681949735,
        -0.3438107371330261,
        0.005274107214063406,
        -0.051161620765924454,
        -0.3367425203323364,
        -0.07328331470489502,
        0.22914958000183105,
        -0.02946411445736885,
        -0.19567006826400757,
        0.07453514635562897,
        -0.4175606966018677,
        0.5515803098678589,
        0.0999087393283844,
        0.06632127612829208,
        -0.17700107395648956,
        0.08922947943210602,
        -0.1962394118309021,
        -0.231411874294281,
        0.13696910440921783,
        0.42908623814582825,
        -0.06427673250436783,
        0.006460961885750294,
        -0.21278327703475952,
        0.15491564571857452,
        0.191594660282135,
        -0.38284265995025635,
        0.24720674753189087,
        -0.05832814797759056,
        -0.16902577877044678,
        0.1554827094078064,
        -0.19996502995491028,
        -0.0821952298283577,
        0.01887013576924801,
        -0.05726795271039009,
        0.11876230686903,
        0.2947311997413635,
        0.018811620771884918,
        0.054120808839797974,
        -0.08684590458869934,
        0.09770725667476654,
        0.07819660007953644,
        -0.12227330356836319,
        -0.06686710566282272,
        -0.16924035549163818,
        -0.10949961841106415,
        0.2894923985004425,
        0.29499027132987976,
        0.36503252387046814,
        0.16317877173423767,
        0.07307890802621841,
        -0.17656280100345612,
        0.22299423813819885,
        0.15040262043476105,
        0.03622475266456604,
        -0.10440139472484589,
        0.17087580263614655,
        -0.15071412920951843,
        0.016473853960633278,
        0.04676005616784096,
        -0.026279805228114128,
        -0.10737933218479156,
        -0.055683862417936325,
        -0.0213029682636261,
        0.08928623050451279,
        -0.27566397190093994,
        0.12336429208517075,
        -0.060840215533971786,
        0.021755846217274666,
        -0.06175168976187706,
        0.02717476710677147,
        -0.058414869010448456,
        0.06372848153114319,
        0.10201526433229446,
        0.09155581891536713,
        -0.015243182890117168,
        0.005082191899418831,
        0.15162883698940277,
        0.12093570828437805,
        -0.011571311391890049,
        -0.09291386604309082,
        -0.03984874486923218,
        -0.05991064012050629,
        -0.07425624877214432,
        0.2602837085723877,
        -0.08180486410856247,
        0.06839270144701004,
        -0.1507873386144638,
        0.12937144935131073,
        0.0074965679086744785,
        0.10882516950368881,
        -0.130552738904953,
        0.011165577918291092,
        -0.048293840140104294,
        -0.14647498726844788,
        -0.12169002741575241,
        -0.1873665452003479,
        0.007452751975506544,
        0.07992683351039886,
        0.009079997427761555,
        0.15007323026657104,
        -0.01185613963752985,
        -0.07953093200922012,
        -0.1829695701599121,
        -0.1611023247241974,
        0.20249523222446442,
        0.043693602085113525,
        -0.12446331232786179,
        0.04721177741885185,
        -0.2434687465429306,
        -0.02550358511507511,
        0.2333841621875763,
        0.011355526745319366,
        0.01161165814846754,
        -0.04921170696616173,
        -0.15575720369815826,
        -0.012276843190193176,
        0.03446313366293907,
        0.0332162082195282,
        0.09877246618270874,
        -0.014317280612885952,
        0.06689038872718811,
        -0.18660995364189148,
        0.13444632291793823,
        0.18903733789920807,
        -0.035543013364076614,
        -0.1829761415719986,
        -0.045572005212306976,
        0.15268614888191223,
        -0.09784548729658127,
        -0.027324337512254715,
        -0.04040440544486046,
        -0.08616769313812256,
        -0.07023935765028,
        -0.055820148438215256,
        0.05075995251536369,
        -0.16823510825634003,
        0.25767844915390015,
        -0.08958695083856583,
        0.01713436469435692,
        0.09847649186849594,
        -0.004644677508622408,
        -0.13876821100711823,
        -0.04929498955607414,
        0.038234006613492966,
        -0.3084768056869507,
        0.03884667903184891,
        -0.07134733349084854,
        -0.16002900898456573,
        -0.014391967095434666,
        -0.16495281457901,
        0.06604690104722977,
        0.1904570609331131,
        -0.07772703468799591,
        -0.18909789621829987,
        0.11305974423885345,
        0.06055354326963425,
        0.07569584995508194,
        0.2525881826877594,
        0.09217215329408646,
        -0.25157633423805237,
        -0.027452480047941208,
        0.12462914735078812,
        0.20229801535606384,
        -0.19954897463321686,
        0.08833280205726624,
        0.09351375699043274,
        -0.12485967576503754,
        -0.009715878404676914,
        -0.12894172966480255,
        0.15358498692512512,
        -0.28694650530815125,
        -0.2177426666021347,
        -0.17123545706272125,
        0.009558008052408695,
        0.02346833422780037,
        -0.22209414839744568,
        -0.004830983467400074,
        0.11461998522281647,
        -0.09368785470724106,
        0.09312745183706284,
        -0.015196168795228004,
        0.06391819566488266,
        0.09436468780040741,
        -0.09885860979557037,
        -0.0779106393456459,
        -0.0942377820611,
        -0.044496554881334305,
        -0.013096362352371216,
        -0.06523261964321136,
        0.5731187462806702,
        0.7305864095687866,
        0.3487356901168823,
        -0.0791359543800354,
        0.125825896859169,
        0.18065011501312256,
        -0.07585611194372177,
        0.05975858122110367,
        0.011956490576267242,
        -0.048633139580488205,
        0.18241047859191895,
        0.16041386127471924,
        0.11031316220760345,
        0.07375871390104294,
        0.06312909722328186,
        0.07810654491186142,
        0.11316181719303131,
        0.12813247740268707,
        -0.5946695804595947,
        -0.282222718000412,
        0.05108700692653656,
        -0.07055624574422836,
        0.012995325960218906,
        -0.17397873103618622,
        0.03656755015254021,
        -0.02414025366306305,
        -0.23285284638404846,
        -0.1791517287492752,
        0.2551199495792389,
        0.27003517746925354,
        -0.0943959653377533,
        -0.03610573336482048,
        0.02987018972635269,
        0.20666933059692383,
        -0.011236676946282387,
        -0.1361752301454544,
        0.3384269177913666,
        0.0014034508494660258,
        -0.3568568229675293,
        -0.11860376596450806,
        -0.023611970245838165,
        0.05929753929376602,
        -0.18892957270145416,
        -0.00434314226731658,
        -0.0735175684094429,
        0.17531050741672516,
        0.08368663489818573,
        0.03935016691684723,
        -0.020778201520442963,
        0.08751484006643295,
        -0.20580770075321198,
        -0.07688606530427933,
        0.17145517468452454,
        -0.021173756569623947,
        0.1921864002943039,
        0.09933135658502579,
        -0.08118017762899399,
        -0.209856316447258,
        -0.17219515144824982,
        0.23705284297466278,
        -0.21644309163093567,
        0.005953812040388584,
        -0.0694710835814476,
        -0.20304331183433533,
        -0.1844017058610916,
        0.18270687758922577,
        -0.2797105312347412,
        0.03734523057937622,
        0.32203689217567444,
        0.06470166146755219,
        -0.07296333461999893,
        -0.07888346910476685,
        0.24582767486572266,
        0.20825645327568054,
        -0.08066191524267197,
        -0.21087118983268738,
        -0.00795046892017126,
        -0.05099019408226013,
        0.036388132721185684,
        -0.03777944669127464,
        -0.05171024054288864,
        0.028486091643571854,
        -0.04980875179171562,
        -0.2374992072582245,
        0.26422417163848877,
        -0.11427229642868042,
        -0.1912345141172409,
        -0.0258093923330307,
        0.09002827107906342,
        0.07526681572198868,
        -0.05167635530233383,
        -0.1361478567123413,
        0.19561049342155457,
        -0.08352801203727722,
        0.06240290403366089,
        -0.1136346235871315,
        0.12960459291934967,
        -0.19450262188911438,
        -0.008451111614704132,
        0.06158154830336571,
        -0.015103122219443321,
        0.029417986050248146,
        0.11170478165149689,
        0.08641257882118225,
        0.0782657116651535,
        -0.1465582251548767,
        -0.022866996005177498,
        0.09370493143796921,
        0.03864391893148422,
        0.029359420761466026,
        0.045250054448843,
        -0.02401660569012165,
        -0.0026024109683930874,
        0.15004593133926392,
        0.004593493416905403,
        -0.06812386214733124,
        0.013545751571655273,
        -0.02733139880001545,
        -0.08625052869319916,
        0.13750571012496948,
        0.07104209065437317,
        0.016043059527873993,
        -0.24215145409107208,
        0.025092167779803276,
        -0.06604715436697006,
        0.08481396734714508,
        0.10815984010696411,
        -0.008306982927024364,
        -0.191381573677063,
        0.15908394753932953,
        0.189164936542511,
        -0.21850140392780304,
        -0.007779537700116634,
        -0.01843753084540367,
        -0.26451098918914795,
        -0.015448096208274364,
        -0.13499021530151367,
        0.22402875125408173,
        0.02789904922246933,
        -0.08436846733093262,
        0.033245258033275604,
        -0.08488383889198303,
        0.22643548250198364,
        -0.13137193024158478,
        -0.27836835384368896,
        0.4539244771003723,
        -0.5065845251083374,
        0.05470963194966316,
        0.3388747274875641,
        -0.22469362616539001,
        0.0640125423669815,
        0.43950411677360535,
        -0.06049206852912903,
        0.07397229224443436,
        -0.3182159662246704,
        -0.008855117484927177,
        -0.000690584653057158,
        0.8948245048522949,
        -0.33694955706596375,
        -0.08355900645256042,
        -0.35767224431037903,
        -0.014692147262394428,
        0.31869950890541077,
        0.2974276840686798,
        -0.00336285587400198,
        -0.4043119549751282,
        -0.9378469586372375,
        0.24108701944351196,
        0.05435776710510254,
        0.3942263424396515,
        0.05729800462722778,
        0.13720890879631042,
        0.28373944759368896,
        -0.4484114348888397,
        0.1586252748966217,
        0.49050936102867126,
        -0.10872689634561539,
        0.030007898807525635,
        0.2591788172721863,
        -0.01937883161008358,
        -0.1513899713754654,
        0.018969519063830376,
        -0.08451350033283234,
        0.05612388253211975,
        -0.3383253216743469,
        -0.026595421135425568,
        -0.016386473551392555,
        0.0899864137172699,
        0.06996433436870575,
        -0.15316404402256012,
        -0.03937963396310806,
        -0.046662576496601105,
        0.06001701578497887,
        0.0018739626975730062,
        -0.08771732449531555,
        0.04791472107172012,
        0.037866607308387756,
        -0.01642679050564766,
        -0.10160776227712631,
        0.019703935831785202,
        -0.007557367440313101,
        -0.11550818383693695,
        -0.2111380398273468,
        0.097726970911026,
        -0.011867266148328781,
        0.03851434960961342,
        -0.3117642104625702,
        0.0058717443607747555,
        -0.21288418769836426,
        -0.04919241741299629,
        -0.196949303150177,
        -0.15627990663051605,
        0.0002492071653250605,
        -0.09547721594572067,
        0.1366865485906601,
        0.07483330368995667,
        0.07973682135343552,
        0.18514561653137207,
        -0.18382255733013153,
        -0.004330132622271776,
        -0.11615807563066483,
        0.2105948030948639,
        0.003456483129411936,
        -0.02072461135685444,
        -0.033121298998594284,
        0.09758850932121277,
        0.24059359729290009,
        -0.17984075844287872,
        0.10243666917085648,
        -0.003002794459462166,
        -0.12690062820911407,
        0.077823206782341,
        0.08176569640636444,
        0.19877344369888306,
        0.20826926827430725,
        0.14259697496891022,
        -0.018313581123948097,
        0.03947199136018753,
        -0.05890161171555519,
        0.1485983282327652,
        0.04028885439038277,
        0.1022108942270279,
        -0.0012439346173778176,
        -0.10551325231790543,
        0.039252977818250656,
        0.031377162784338,
        0.01376810111105442,
        0.00777464359998703,
        0.18655632436275482,
        -0.07063757628202438,
        -0.5818760395050049,
        0.16896001994609833,
        0.4668709635734558,
        -0.417184442281723,
        0.29403865337371826,
        -0.8234639167785645,
        -0.2232303023338318,
        -0.5815832614898682,
        0.6265068650245667,
        -0.885392427444458,
        -0.5844892859458923,
        -0.8118063807487488,
        0.4280301332473755,
        -0.6463775634765625,
        0.39561283588409424,
        -0.6327441930770874,
        -0.24773171544075012,
        -0.12884722650051117,
        0.1446334272623062,
        0.29633980989456177,
        0.27001839876174927,
        -0.2274763584136963,
        -0.34573426842689514,
        -0.00697227893397212,
        0.12702129781246185,
        -0.18638789653778076,
        0.09739046543836594,
        0.022263646125793457,
        0.1018558219075203,
        -0.021767018362879753,
        -0.09172401577234268,
        -0.11779139190912247,
        0.002836774569004774,
        0.13593493402004242,
        -0.049474138766527176,
        0.054608460515737534,
        -0.41883477568626404,
        0.5078558325767517,
        0.08666225522756577,
        -0.3482164144515991,
        0.11775627732276917,
        -0.02484961785376072,
        0.12028416991233826,
        0.23650625348091125,
        0.030064992606639862,
        0.13510741293430328,
        0.06588084995746613,
        0.2713475525379181,
        0.13249239325523376,
        -0.5311103463172913,
        0.11420853435993195,
        0.10146908462047577,
        -0.10320130735635757,
        0.456917941570282,
        0.020614128559827805,
        0.23053249716758728,
        0.1817237287759781,
        0.0025620106607675552,
        -0.23076364398002625,
        -0.2731674313545227,
        -0.04136079177260399,
        0.09706054627895355,
        0.14915943145751953,
        -0.011263770051300526,
        0.321064293384552,
        0.19939923286437988,
        -0.6447746157646179,
        -0.43027809262275696,
        -0.0049882857128977776,
        -0.11690384149551392,
        -0.24484185874462128,
        0.0773964449763298,
        -0.3397320806980133,
        -0.05654946342110634,
        0.23904526233673096,
        0.2948349118232727,
        0.0732562318444252,
        -0.20431335270404816,
        -0.05135389789938927,
        -0.03920809552073479,
        0.6364369988441467,
        -0.1433282345533371,
        -0.19569286704063416,
        -0.3059290647506714,
        0.2010507881641388,
        0.008408674970269203,
        0.057330839335918427,
        0.2559666037559509,
        0.032114285975694656,
        -0.11351442337036133,
        -0.004586199764162302,
        0.1623634397983551,
        -0.31275179982185364,
        -0.11088798940181732,
        -0.20488274097442627,
        -0.18784521520137787,
        -0.271054208278656,
        -0.03714491054415703,
        -0.2273867130279541,
        0.0003974575665779412,
        0.05781279504299164,
        -0.1536770761013031,
        0.12768614292144775,
        -0.21008247137069702,
        0.3364209532737732,
        0.21875116229057312,
        -0.10040208697319031,
        -0.17701223492622375,
        -0.18406476080417633,
        -0.19805003702640533,
        0.15872395038604736,
        0.05701777711510658,
        -0.136787548661232,
        0.11553546041250229,
        0.6705204248428345,
        0.5992787480354309,
        0.044374700635671616,
        0.13394789397716522,
        -0.27379700541496277,
        -0.17768406867980957,
        0.24176637828350067,
        0.06212475523352623,
        -0.26434364914894104,
        0.5355762839317322,
        0.42999035120010376,
        0.33117783069610596,
        -0.319791316986084,
        0.4762522876262665,
        0.11119572073221207,
        -0.10786611586809158,
        -0.10184627026319504,
        0.11467184126377106,
        0.13729996979236603,
        -0.2104819267988205,
        -0.35805946588516235,
        0.5181463956832886,
        -0.23934395611286163,
        0.2474406659603119,
        -0.2854008078575134,
        0.26505959033966064,
        -0.10569993406534195,
        0.1759728044271469,
        0.19739538431167603,
        0.0446951687335968,
        -0.1253824084997177,
        0.1382928192615509,
        -0.15706507861614227,
        -0.36941859126091003,
        -0.367641419172287,
        -0.11245740950107574,
        0.028002778068184853,
        0.10481315106153488,
        -0.0943271741271019,
        0.23546528816223145,
        0.007850725203752518,
        -0.3359431028366089,
        0.22221486270427704,
        0.24750900268554688,
        -0.16857807338237762,
        0.23550836741924286,
        -0.3247392475605011,
        0.12062070518732071,
        0.08811674267053604,
        0.15347826480865479,
        0.13151440024375916,
        -0.2151472270488739,
        0.0680883526802063,
        -0.11782412976026535,
        -0.026168664917349815,
        -0.0051201460883021355,
        0.0916055217385292,
        0.21166092157363892,
        0.22656315565109253,
        0.01239488273859024,
        0.1508679836988449,
        -0.125103160738945,
        -0.07806628197431564,
        -0.2682320773601532,
        -0.15174391865730286,
        0.1243089884519577,
        -0.13586464524269104,
        0.04498712345957756,
        -0.1504068672657013,
        0.09230686724185944,
        0.13476161658763885,
        0.22398003935813904,
        -0.21328558027744293,
        0.08722808957099915,
        0.07075343281030655,
        0.09013862162828445,
        -0.05735564976930618,
        0.08193806558847427,
        -0.061316896229982376,
        0.43442460894584656,
        -0.036497894674539566,
        0.25789234042167664,
        0.11074390262365341,
        -0.41482678055763245,
        0.12157464772462845,
        -0.06840989738702774,
        -0.09835232049226761,
        0.026024941354990005,
        0.40193644165992737,
        0.19625291228294373,
        0.027759457007050514,
        -0.11434213072061539,
        0.26858001947402954,
        -0.09195505082607269,
        -0.08967595547437668,
        -0.17891451716423035,
        -0.17681695520877838,
        0.25011515617370605,
        0.04919707402586937,
        -0.13477276265621185,
        -0.32817989587783813,
        0.026676204055547714,
        -0.19870010018348694,
        -0.19783884286880493,
        -0.1902468353509903,
        -0.2684195041656494,
        0.17745740711688995,
        -0.19558066129684448,
        -0.14357492327690125,
        -0.024165567010641098,
        0.14616882801055908,
        0.06499844789505005,
        -0.1974801868200302,
        0.21614672243595123,
        -0.303426593542099,
        0.17394322156906128,
        0.08086242526769638,
        -0.11475616693496704,
        0.12149134278297424,
        0.2347274124622345,
        0.070477195084095,
        -0.07392217963933945,
        0.1727624386548996,
        0.19834710657596588,
        0.03176432102918625,
        -0.0090939374640584,
        0.10462372750043869,
        0.279009610414505,
        0.010105711407959461,
        -0.02018704265356064,
        -0.31944164633750916,
        -0.01256024744361639,
        0.06982472538948059,
        0.026872504502534866,
        -0.21088504791259766,
        -0.01814975030720234,
        -0.011042563244700432,
        -0.06164811924099922,
        -0.05769738182425499,
        0.13846494257450104,
        0.20644013583660126,
        0.15489299595355988,
        0.41615477204322815,
        -0.4425152838230133,
        -0.09622368961572647,
        -0.1500178426504135,
        0.21414215862751007,
        -0.07343310862779617,
        -0.05417434126138687,
        -0.11774750798940659,
        0.3028181493282318,
        -0.6566081047058105,
        0.7594231963157654,
        0.04109591245651245,
        -0.5394967198371887,
        -0.15659570693969727,
        -0.09477443248033524,
        -0.5837424397468567,
        0.022960064932703972,
        -0.199335515499115,
        -0.10539751499891281,
        -0.0003191141877323389,
        -0.0939362421631813,
        0.058626655489206314,
        0.06212053447961807,
        0.013773908838629723,
        0.02340361848473549,
        0.017971811816096306,
        0.08219635486602783,
        -0.054226163774728775,
        0.08021581918001175,
        -0.20467594265937805,
        -0.14673203229904175,
        0.05940614268183708,
        0.1711910367012024,
        -0.18950942158699036,
        -0.004062695894390345,
        -0.1049015149474144,
        0.04725371301174164,
        -0.017510436475276947,
        -0.06328219920396805,
        0.1706259697675705,
        -0.006303189322352409,
        0.3542594909667969,
        -0.25862765312194824,
        -0.11974137276411057,
        0.40732836723327637,
        -0.0573781318962574,
        -0.03440199792385101,
        0.17397208511829376,
        -0.018887341022491455,
        -0.046938762068748474,
        -0.3292239308357239,
        0.10983383655548096,
        0.13138070702552795,
        -0.021057315170764923,
        -0.030582964420318604,
        -0.09099551290273666,
        -0.2071419209241867,
        0.16337069869041443,
        0.07929734140634537,
        -0.3178204596042633,
        0.1355684995651245,
        -0.029344307258725166,
        -0.19493070244789124,
        0.16652292013168335,
        0.0028860103338956833,
        -0.1224176362156868,
        0.05348224937915802,
        -0.07450790703296661,
        0.3055106997489929,
        -0.04601388797163963,
        0.17601506412029266,
        -0.1877307891845703,
        0.2547001838684082,
        -0.06106792017817497,
        -0.046545203775167465,
        0.20487460494041443,
        -0.12120817601680756,
        0.3034133017063141,
        -0.2798455059528351,
        -0.06608062982559204,
        -0.014719368889927864,
        -0.2133663445711136,
        0.20917733013629913,
        -0.16355358064174652,
        0.2080681473016739,
        -0.19370874762535095,
        0.09275759756565094,
        0.3256414532661438,
        -0.08141238242387772,
        0.10022767633199692,
        -0.2371235191822052,
        -0.05255597457289696,
        0.28496748208999634,
        -0.1602831333875656,
        -0.0014925540890544653,
        -0.024335462599992752,
        -0.08123894035816193,
        -0.04474623128771782,
        -0.02629941701889038,
        0.04266613349318504,
        0.08933107554912567,
        -0.06609688699245453,
        -0.05036095529794693,
        -0.05951382964849472,
        0.04101310297846794,
        0.004848280921578407,
        -0.27527889609336853,
        -0.14964212477207184,
        0.17156237363815308,
        0.06616254150867462,
        0.07920093089342117,
        0.16263796389102936,
        -0.01975848525762558,
        -0.1554749459028244,
        -0.3076089918613434,
        0.09784932434558868,
        0.05519304424524307,
        0.034297287464141846,
        0.046745046973228455,
        -0.0629996806383133,
        0.13063785433769226,
        -0.11959674954414368,
        -0.07122208923101425,
        0.26511043310165405,
        0.05164544656872749,
        0.227991983294487,
        -0.12315848469734192,
        0.029665205627679825,
        0.025261126458644867,
        0.28370535373687744,
        -0.09931034594774246,
        0.3076932728290558,
        -0.1880304515361786,
        -0.04557332396507263,
        0.2937700152397156,
        -0.11685018241405487,
        0.13669712841510773,
        -0.41703957319259644,
        0.22275777161121368,
        0.14405065774917603,
        -0.27260079979896545,
        0.03612487018108368,
        0.18956036865711212,
        -0.044070445001125336,
        0.22279076278209686,
        0.02713971771299839,
        0.19656752049922943,
        0.0342307947576046,
        -0.051841121166944504,
        -0.17062652111053467,
        0.23640865087509155,
        -0.0054196882992982864,
        0.17223015427589417,
        -0.029443638399243355,
        -0.008525381796061993,
        0.35303041338920593,
        -0.055726513266563416,
        -0.10413933545351028,
        0.040545009076595306,
        -0.08918243646621704,
        -0.07849401980638504,
        -0.2693707346916199,
        0.21036909520626068,
        0.09595418721437454,
        0.23465491831302643,
        0.048939332365989685,
        -0.14965157210826874,
        0.1506691873073578,
        -0.20298995077610016,
        0.07000331580638885,
        0.28097793459892273,
        -0.319892942905426,
        -0.02186467871069908,
        -0.34774839878082275,
        0.08656173199415207,
        0.13319696485996246,
        -0.009739442728459835,
        -0.29285719990730286,
        0.23964907228946686,
        -0.2569452226161957,
        0.2780107855796814,
        -0.006637872662395239,
        -0.1325821727514267,
        0.4293496012687683,
        -0.14494292438030243,
        0.24121642112731934,
        -0.0972176194190979,
        0.019807083532214165,
        0.17906241118907928,
        -0.12755395472049713,
        0.0031545511446893215,
        0.07475177943706512,
        -0.17919474840164185,
        0.17141690850257874,
        -0.011119685135781765,
        0.008945639245212078,
        -0.1432613879442215,
        0.05221647396683693,
        -0.14010484516620636,
        0.1379818320274353,
        -0.14052124321460724,
        0.03769155964255333,
        -0.10206587612628937,
        -0.1733139306306839,
        -0.08513004332780838,
        -0.2599511742591858,
        -0.13006240129470825,
        0.16192926466464996,
        -0.0003585865197237581,
        0.405497282743454,
        -0.25641390681266785,
        -0.007990961894392967,
        -0.12457145750522614,
        -0.3994836211204529,
        0.05022203177213669,
        0.015112836845219135,
        0.1654633730649948,
        0.1025937870144844,
        -0.11129871755838394,
        0.09526050090789795,
        0.015510983765125275,
        0.09011097997426987,
        -0.10960675776004791,
        0.06522085517644882,
        0.1672213226556778,
        -0.4558355510234833,
        -0.23808935284614563,
        -0.24114909768104553,
        0.1712738573551178,
        0.21817544102668762,
        -0.04370628297328949,
        0.0039608231745660305,
        -0.03911018371582031,
        0.24164637923240662,
        0.27713921666145325,
        -0.17118620872497559,
        0.18642990291118622,
        0.13304011523723602,
        -0.07088795304298401,
        0.23182842135429382,
        0.026344723999500275,
        -0.22053128480911255,
        -0.2978307604789734,
        -0.11182666569948196,
        0.22683358192443848,
        0.07209775596857071,
        -0.29802122712135315,
        -0.07740826904773712,
        -0.11121287196874619,
        -0.16160531342029572,
        0.17489182949066162,
        -0.3212727904319763,
        -0.0012320729438215494,
        0.1703331023454666,
        -0.238398939371109,
        0.02157673053443432,
        0.1199917420744896,
        0.19155849516391754,
        0.25093787908554077,
        -0.4497225284576416,
        -0.12333881109952927,
        0.21924041211605072,
        -0.3799208402633667,
        -0.24874265491962433,
        0.053689759224653244,
        0.28786054253578186,
        -0.22920474410057068,
        -0.09381549805402756,
        0.29329535365104675,
        0.2857077419757843,
        -0.11934392154216766,
        -0.2555769085884094,
        0.20883390307426453,
        0.15277256071567535,
        -0.17456060647964478,
        -0.008927511982619762,
        -0.12492747604846954,
        0.12376391142606735,
        -0.13210764527320862,
        -0.012992016039788723,
        -0.03462095558643341,
        -0.09471851587295532,
        -0.16906316578388214,
        0.024823056533932686,
        -0.04880599305033684,
        -0.08350495994091034,
        -0.07281842827796936,
        -0.1449999064207077,
        0.09169609099626541,
        -0.047604311257600784,
        -0.004319427069276571,
        0.09680871665477753,
        0.2715107798576355,
        0.14846643805503845,
        0.031808000057935715,
        -0.02997269108891487,
        0.15167534351348877,
        -0.055438537150621414,
        0.03115645796060562,
        -0.023777896538376808,
        -0.017383860424160957,
        0.009243461303412914,
        -0.04252498596906662,
        -0.064568430185318,
        0.17504306137561798,
        -0.16870683431625366,
        -0.031246664002537727,
        -0.017090320587158203,
        -0.07570629566907883,
        0.3217620849609375,
        0.008676813915371895,
        -0.14105935394763947,
        -0.11469428241252899,
        0.19341304898262024,
        -0.07739273458719254,
        -0.25868475437164307,
        0.0023523462004959583,
        0.18926991522312164,
        0.05681639909744263,
        -0.12701453268527985,
        -0.21499422192573547,
        -0.22838760912418365,
        0.16138701140880585,
        0.14514978229999542,
        0.16040971875190735,
        -0.3349689841270447,
        -0.014748293906450272,
        0.24653221666812897,
        -0.2142244130373001,
        0.17190219461917877,
        0.13279230892658234,
        0.01264609768986702,
        -0.26736485958099365,
        -0.21020449697971344,
        0.15071682631969452,
        -0.21721820533275604,
        0.02411273866891861,
        0.26368075609207153,
        -0.17696011066436768,
        0.29880091547966003,
        0.06557197123765945,
        0.07812350988388062,
        0.09893692284822464,
        0.0021634690929204226,
        0.3934965431690216,
        0.2115193009376526,
        0.22963066399097443,
        0.144284188747406,
        0.11671663075685501,
        -0.11495044082403183,
        -0.21386770904064178,
        0.03706439211964607,
        -0.35230180621147156,
        0.4326968193054199,
        -0.05354519188404083,
        0.23212124407291412,
        -0.1704965978860855,
        -0.1766672134399414,
        0.20790839195251465,
        0.005967056844383478,
        -0.10413272678852081,
        -0.33042046427726746,
        0.0846208781003952,
        0.20225706696510315,
        -0.11668483912944794,
        -0.09212938696146011,
        -0.3020516037940979,
        0.23212970793247223,
        0.04833265021443367,
        0.4991910755634308,
        -0.07829546183347702,
        0.1252661496400833,
        -0.1659248173236847,
        0.05516058951616287,
        0.023035679012537003,
        -0.033551786094903946,
        -0.146461620926857,
        -0.27657970786094666,
        -0.030196955427527428,
        -0.022648757323622704,
        -0.2664259374141693,
        0.051106009632349014,
        -0.09740687161684036,
        0.014613744802772999,
        0.3687722980976105,
        0.04197205603122711,
        0.07603525370359421,
        -0.0028693038038909435,
        0.13993141055107117,
        -0.02946837805211544,
        0.286913126707077,
        -0.06036420166492462,
        -0.06999266147613525,
        0.011505495756864548,
        -0.17531250417232513,
        0.02802661620080471,
        0.13046589493751526,
        -0.04349430277943611,
        0.18290941417217255,
        -0.246996209025383,
        0.05475806072354317,
        -0.10264758765697479,
        0.19314847886562347,
        -0.006376415491104126,
        0.3484525680541992,
        0.5094625353813171,
        -0.029921840876340866,
        -0.07965393364429474,
        -0.34161362051963806,
        -0.014180696569383144,
        0.054666101932525635,
        -0.2806652784347534,
        -0.06138722971081734,
        -0.21028365194797516,
        0.03036944381892681,
        -0.01223636046051979,
        -0.1865708827972412,
        0.15396882593631744,
        -0.1331644505262375,
        0.23009346425533295,
        -0.2519332468509674,
        0.05970346927642822,
        0.12558870017528534,
        -0.24034342169761658,
        -0.053026262670755386,
        -0.26191189885139465,
        0.25697973370552063,
        0.09501171857118607,
        -0.3968815207481384,
        0.06243278831243515,
        0.06519059836864471,
        -0.11441735923290253,
        0.08640488982200623,
        -0.1283746063709259,
        0.331612229347229,
        -0.19028088450431824,
        0.02851676195859909,
        0.009783963672816753,
        0.04994358867406845,
        -0.07342289388179779,
        0.18018698692321777,
        -0.23730754852294922,
        0.06207871809601784,
        0.2760728895664215,
        0.12569491565227509,
        0.16951818764209747,
        0.15846073627471924,
        -0.16012318432331085,
        -0.12362125515937805,
        -0.11296772211790085,
        0.25286877155303955,
        0.024069495499134064,
        -0.24731510877609253,
        0.18818479776382446,
        -0.25426506996154785,
        0.1374676376581192,
        -0.24780167639255524,
        0.11342766880989075,
        0.26937854290008545,
        -0.10110332816839218,
        -0.0023689037188887596,
        -0.08312748372554779,
        0.22941215336322784,
        0.022221263498067856,
        -0.24921651184558868,
        -0.4299452006816864,
        -0.10859524458646774,
        0.14315937459468842,
        0.3356744050979614,
        -0.023895783349871635,
        0.07110899686813354,
        0.09552200883626938,
        0.1437433362007141,
        0.040126655250787735,
        -0.08162786811590195,
        -0.1110743060708046,
        0.11591793596744537,
        -0.024144010618329048,
        0.017889542505145073,
        -0.06696601957082748,
        -0.24145670235157013,
        0.04220007732510567,
        -0.31316637992858887,
        0.02016196772456169,
        -0.19023622572422028,
        -0.21744747459888458,
        -0.26479870080947876,
        -0.0014793805312365294,
        -0.09260392189025879,
        -0.046773359179496765,
        -0.004900411702692509,
        -0.16387709975242615,
        -0.13508455455303192,
        -0.013653524219989777,
        0.08346255868673325,
        0.22372902929782867,
        -0.11483351141214371,
        0.027772555127739906,
        -0.03908476606011391,
        0.0937926173210144,
        0.0142232496291399,
        -0.11653867363929749,
        0.0968603640794754,
        0.02143263816833496,
        0.14229539036750793,
        -0.04830478876829147,
        0.0036682994104921818,
        0.3588642477989197,
        -0.09861654788255692,
        0.14177826046943665,
        -0.1670045703649521,
        -0.0798974260687828,
        0.02285514771938324,
        -0.16081368923187256,
        0.09345773607492447,
        -0.09283779561519623,
        0.26865091919898987,
        0.2451927661895752,
        -0.04275336489081383,
        0.38922855257987976,
        0.1708090603351593,
        0.20136165618896484,
        -0.09956151992082596,
        0.09626132994890213,
        0.3682697117328644,
        -0.1839618682861328,
        0.0814293771982193,
        0.03284938260912895,
        -0.15653187036514282,
        -0.11615992337465286,
        -0.15061426162719727,
        0.2138717770576477,
        -0.011013842187821865,
        -0.024803679436445236,
        -0.09553930908441544,
        -0.18731631338596344,
        -0.09189963340759277,
        0.1616208702325821,
        0.0038923241663724184,
        -0.2515065670013428,
        -0.039807695895433426,
        -0.03119865618646145,
        -0.041903745383024216,
        0.1655004918575287,
        0.20807000994682312,
        -0.15304642915725708,
        -0.46525436639785767,
        0.08962780982255936,
        0.16323323547840118,
        -0.2863501012325287,
        0.09088237583637238,
        0.0509113185107708,
        0.07626756280660629,
        0.06262961030006409,
        -0.17451122403144836,
        0.30171024799346924,
        -0.09248741716146469,
        0.17219512164592743,
        -0.29446178674697876,
        -0.09350385516881943,
        0.02577611804008484,
        -0.0490436777472496,
        0.09824876487255096,
        -0.0658334344625473,
        0.006776964757591486,
        0.0937466025352478,
        0.11309044808149338,
        0.1176861971616745,
        0.10922186076641083,
        -0.09703538566827774,
        0.058211807161569595,
        0.04268630966544151,
        0.05604902654886246,
        -0.06037212908267975,
        -0.04694610461592674,
        0.0644923746585846,
        -0.04491596668958664,
        -0.06284987181425095,
        -0.11963678151369095,
        0.16533827781677246,
        0.20731130242347717,
        0.2248326539993286,
        0.07329908758401871,
        -0.17217111587524414,
        -0.110301174223423,
        0.043622031807899475,
        0.0556543804705143,
        -0.23406316339969635,
        -0.09855547547340393,
        -0.16195334494113922,
        -0.21423301100730896,
        -0.19156181812286377,
        -0.06051698327064514,
        0.1438613384962082,
        0.017416220158338547,
        0.20858551561832428,
        -0.19422228634357452,
        -0.020935188978910446,
        0.18233342468738556,
        -0.21571959555149078,
        -0.17339767515659332,
        0.1549226939678192,
        -0.11393645405769348,
        -0.131365105509758,
        0.19816136360168457,
        0.09843221306800842,
        -0.10878992080688477,
        -0.17146703600883484,
        -0.020138248801231384,
        -0.2715568542480469,
        0.23501592874526978,
        0.038863230496644974,
        0.13247500360012054,
        -0.14779014885425568,
        -0.012767101638019085,
        -0.035277143120765686,
        0.09721724689006805,
        0.04548744484782219,
        -0.00621401984244585,
        -0.01929333433508873,
        0.21785245835781097,
        0.10567233711481094,
        0.08625350147485733,
        -0.004608409944921732,
        -0.23608331382274628,
        0.04800155386328697,
        -0.1493229866027832,
        0.2690286338329315,
        -0.11792168021202087,
        0.07430517673492432,
        -0.13609060645103455,
        -0.034655917435884476,
        -0.0388270765542984,
        -0.019229495897889137,
        -0.06513939797878265,
        -0.2636044919490814,
        -0.01347418874502182,
        -0.053380563855171204,
        0.05074797943234444,
        0.30536088347435,
        0.0014485662104561925,
        -0.019292030483484268,
        -0.24291735887527466,
        0.03177119418978691,
        -0.08743880689144135,
        0.137604221701622,
        -0.0759618878364563,
        0.04901503026485443,
        0.28480908274650574,
        0.06380800157785416,
        -0.05842580646276474,
        0.20338621735572815,
        -0.19110345840454102,
        0.22983801364898682,
        -0.1416429579257965,
        0.11227358877658844,
        0.047124773263931274,
        -0.056275077164173126,
        0.17331448197364807,
        0.08009583503007889,
        -0.03075909987092018,
        -0.10952217131853104,
        0.03382207080721855,
        -0.06506239622831345,
        -0.1092662587761879,
        -0.02273111790418625,
        -0.007920441217720509,
        0.09400361776351929,
        -0.005445846822112799,
        0.12436846643686295,
        0.1541541963815689,
        -0.20408929884433746,
        -0.2910594642162323,
        0.010672586970031261,
        0.0019234349019825459,
        0.035743314772844315,
        -0.16046938300132751,
        -0.07667305320501328,
        -0.026120755821466446,
        0.06638608872890472,
        0.10088525712490082,
        0.12618890404701233,
        0.023289527744054794,
        -0.02534671500325203,
        -0.05823158472776413,
        0.14884574711322784,
        0.05265158787369728,
        0.1921810805797577,
        -0.19014404714107513,
        0.015599819831550121,
        -0.00114943808875978,
        -0.12396910041570663,
        0.2047826647758484,
        0.12336550652980804,
        -0.06762950122356415,
        0.09943876415491104,
        0.30484941601753235,
        -0.1440477967262268,
        -0.0437319353222847,
        0.10050259530544281,
        -0.07794797420501709,
        -0.05839104577898979,
        -0.14153312146663666,
        0.059869494289159775,
        0.0438404381275177,
        0.22759714722633362,
        0.05341259762644768,
        0.015235553495585918,
        -0.07879025489091873,
        0.17515608668327332,
        -0.11913076788187027,
        0.10036636888980865,
        0.13152150809764862,
        -0.0775550827383995,
        -0.16525490581989288,
        0.019314240664243698,
        -0.05008378624916077,
        -0.1223643347620964,
        -0.2692216634750366,
        0.04025781899690628,
        0.023402348160743713,
        -0.17359523475170135,
        -0.10528794676065445,
        -0.03242116421461105,
        0.09348416328430176,
        0.010511470958590508,
        0.10037858784198761,
        0.07671035826206207,
        -0.06807200610637665,
        -0.04503018036484718,
        0.04605261608958244,
        0.10333796590566635,
        0.00687680346891284,
        0.057985883206129074,
        -0.13290391862392426,
        -0.10670329630374908,
        0.1101115494966507,
        -0.03741975501179695,
        -0.06552198529243469,
        -0.20926028490066528,
        -0.17091232538223267,
        0.12477187812328339,
        -0.06052756682038307,
        -0.09023172408342361,
        -0.2198815494775772,
        0.13529323041439056,
        -0.055067550390958786,
        -0.2282295674085617,
        0.07382946461439133,
        0.001007039099931717,
        0.11043146252632141,
        -0.2676701247692108,
        -0.003852077526971698,
        -0.035502053797245026,
        0.2121981978416443,
        -0.042846933007240295,
        0.06486538052558899,
        0.045342978090047836,
        -0.029814135283231735,
        0.06696851551532745,
        -0.013871013186872005,
        -0.09529582411050797,
        0.14835390448570251,
        0.26251789927482605,
        0.07644049823284149,
        0.1831904500722885,
        0.11725463718175888,
        0.07650114595890045,
        -0.11328049004077911,
        -0.12063635140657425,
        0.15620392560958862,
        0.12284956872463226,
        0.3673942983150482,
        -0.05644799768924713,
        -0.17751801013946533,
        0.22757598757743835,
        -0.3994351327419281,
        -0.37088742852211,
        -0.03977654501795769,
        -0.19232995808124542,
        -0.02846919745206833,
        -0.09758484363555908,
        0.010473999194800854,
        0.0105892987921834,
        0.10727618634700775,
        0.2928883731365204,
        0.4463029205799103,
        0.0805729478597641,
        -0.5052552223205566,
        0.2572329044342041,
        0.2178194373846054,
        -0.03527035564184189,
        0.2051517516374588,
        -0.1295592337846756,
        0.11565672606229782,
        -0.03290431946516037,
        -0.10529772937297821,
        -0.04955747723579407,
        -0.05711821839213371,
        0.16300895810127258,
        0.10628470778465271,
        0.02557363733649254,
        -0.1336812973022461,
        -0.07332354038953781,
        0.1891547441482544,
        -0.025301992893218994,
        0.033739738166332245,
        -0.20814281702041626,
        -0.020143214613199234,
        0.19524319469928741,
        0.028170809149742126,
        0.06193190813064575,
        -0.07344559580087662,
        -0.014362035319209099,
        -0.012032801285386086,
        0.030214129015803337,
        -0.17215532064437866,
        -0.4860219359397888,
        0.776512622833252,
        0.392758846282959,
        -0.6459648013114929,
        0.19495679438114166,
        0.24954533576965332,
        -0.0751204863190651,
        0.48943719267845154,
        -0.7654465436935425,
        0.8739396333694458,
        0.8460237383842468,
        -0.04501410573720932,
        -0.46030959486961365,
        0.3357444405555725,
        -1.0467523336410522,
        -0.09051641076803207,
        -0.42110827565193176,
        0.19258446991443634,
        -0.20331628620624542,
        0.41338542103767395,
        0.1268717348575592,
        -0.2222546637058258,
        0.11231446266174316,
        0.4769388437271118,
        0.019551001489162445,
        -0.01918109878897667,
        0.3250884711742401,
        -0.25879722833633423,
        -0.02514093555510044,
        0.03074880689382553,
        -0.21311506628990173,
        0.2873973846435547,
        -0.07478316873311996,
        -0.03189528360962868,
        0.23031187057495117,
        0.07288946956396103,
        0.06396396458148956,
        0.09910011291503906,
        -0.34040147066116333,
        -0.45769673585891724,
        0.08810333162546158,
        0.13926789164543152,
        -0.2896994650363922,
        0.2563076615333557,
        0.42799675464630127,
        -0.0971200242638588,
        -0.04216167330741882,
        0.05735607445240021,
        -0.2801806330680847,
        -0.22037406265735626,
        -0.26481419801712036,
        0.5893063545227051,
        0.1641087532043457,
        -0.5892647504806519,
        -0.3999652862548828,
        -0.10040149092674255,
        0.05475211143493652,
        -0.17329898476600647,
        0.3229531943798065,
        0.30870679020881653,
        -0.41268283128738403,
        -0.025512484833598137,
        0.24603132903575897,
        0.41374439001083374,
        -0.041107144206762314,
        0.11096464097499847,
        -0.16291286051273346,
        -0.385970801115036,
        0.2536342144012451,
        -0.3688620626926422,
        0.35098642110824585,
        -0.15442855656147003,
        -0.23651593923568726,
        0.22091935575008392,
        0.19067920744419098,
        -0.024744873866438866,
        0.02607368491590023,
        0.5430251955986023,
        -0.18273760378360748,
        -0.2072305828332901,
        -0.18009141087532043,
        0.35415852069854736,
        -0.15351742506027222,
        0.08877655118703842,
        0.05040673539042473,
        -0.002475615357980132,
        0.1535864770412445,
        0.3330099880695343,
        -0.183349147439003,
        -0.3649822175502777,
        0.13177312910556793,
        -0.4124094843864441,
        -0.3602103292942047,
        0.2163906842470169,
        -0.061207108199596405,
        -0.20031583309173584,
        -0.09520584344863892,
        -0.007935574278235435,
        -0.06516043096780777,
        -0.03135598078370094,
        0.02914319932460785,
        0.058942925184965134,
        -0.032744668424129486,
        0.06711073964834213,
        -0.051808036863803864,
        -0.1934874951839447,
        0.2907296121120453,
        -0.21472275257110596,
        -0.08665979653596878,
        0.5894483923912048,
        0.07403647154569626,
        0.28219619393348694,
        0.21331003308296204,
        -0.40656670928001404,
        0.022329574450850487,
        0.28331896662712097,
        -0.201065331697464,
        -0.04636247828602791,
        -0.22647380828857422,
        -0.43493521213531494,
        0.20416690409183502,
        0.23131215572357178,
        -0.20261384546756744,
        0.1854521781206131,
        0.15058782696723938,
        0.006686461623758078,
        0.11671704798936844,
        0.49516046047210693,
        0.11460146307945251,
        -0.3808806240558624,
        -0.14405229687690735,
        0.12198283523321152,
        -0.14214445650577545,
        0.18189607560634613,
        -0.21159492433071136,
        -0.22712908685207367,
        0.18315812945365906,
        0.16308139264583588,
        0.32467949390411377,
        0.08888965100049973,
        0.09172257035970688,
        -0.062348976731300354,
        -0.2755306661128998,
        -0.0018497935961931944,
        0.18270909786224365,
        -0.58582603931427,
        -0.11279952526092529,
        0.3530597388744354,
        0.11235348880290985,
        -0.3424395024776459,
        0.11910748481750488,
        -0.32934266328811646,
        -0.0579080656170845,
        -0.14452162384986877,
        0.10402344167232513,
        -0.35634639859199524,
        -0.13457868993282318,
        0.26462090015411377,
        0.1265294849872589,
        0.5029739141464233,
        -0.08668472617864609,
        -0.5202374458312988,
        0.34712445735931396,
        0.23975519835948944,
        0.13785387575626373,
        -0.1459912210702896,
        -0.25491344928741455,
        -0.4207209646701813,
        -0.016551285982131958,
        0.12843872606754303,
        -0.02970214933156967,
        0.023378634825348854,
        -0.13357985019683838,
        0.2506563663482666,
        -0.06885264813899994,
        0.05885551497340202,
        -0.27777770161628723,
        -0.08426064997911453,
        -0.43091872334480286,
        0.3005366325378418,
        0.10035936534404755,
        -0.10132672637701035,
        0.05574043467640877,
        0.5190159678459167,
        -0.02941209264099598,
        -0.43425866961479187,
        -0.031140420585870743,
        -0.2139131724834442,
        -0.33582285046577454,
        0.3633185625076294,
        0.1890198439359665,
        0.19582009315490723,
        0.16222812235355377,
        -0.29323023557662964,
        0.22619585692882538,
        -0.02540886215865612,
        0.26289477944374084,
        0.07270384579896927,
        0.02399263344705105,
        -0.43802616000175476,
        -0.12192150950431824,
        0.024602532386779785,
        0.2638423442840576,
        -0.27440446615219116,
        -0.3239147961139679,
        0.15593069791793823,
        0.16465429961681366,
        -0.5964815020561218,
        -0.22891980409622192,
        0.3291473090648651,
        -0.3590584993362427,
        0.3414212167263031,
        0.06504353880882263,
        -0.5081019401550293,
        -0.09761674702167511,
        0.5883880257606506,
        -0.03710249438881874,
        -0.11440066993236542,
        -0.205283060669899,
        -0.270740270614624,
        0.19051338732242584,
        0.48815226554870605,
        -0.22731532156467438,
        -0.28650447726249695,
        0.058480050414800644,
        -0.0765228196978569,
        -0.26222342252731323,
        0.051449261605739594,
        -0.06114787608385086,
        0.011228973977267742,
        -0.028237076476216316,
        0.1582021266222,
        -0.0658143013715744,
        -0.09874573349952698,
        -0.47257962822914124,
        -0.12047083675861359,
        0.17076599597930908,
        0.029039379209280014,
        -0.07153978198766708,
        -0.021272018551826477,
        0.1511126458644867,
        -0.17705003917217255,
        -0.0677126944065094,
        0.079426109790802,
        -0.2438882738351822,
        0.21931327879428864,
        -0.3844524621963501,
        0.2662692964076996,
        0.5172195434570312,
        -0.09241484850645065,
        0.023506172001361847,
        -0.10225706547498703,
        0.16018794476985931,
        0.24347692728042603,
        -0.1734163612127304,
        -0.09200074523687363,
        -0.08754929900169373,
        -0.043120432645082474,
        -0.2945851981639862,
        -0.08605896681547165,
        0.13479582965373993,
        -0.15552976727485657,
        -0.1870325654745102,
        0.1322275996208191,
        0.19018255174160004,
        0.2981949746608734,
        0.5017493367195129,
        -0.42213839292526245,
        -0.4326232373714447,
        0.3336870074272156,
        -0.23240575194358826,
        -0.0648745521903038,
        -0.24377456307411194,
        -0.046195026487112045,
        0.20885615050792694,
        -0.07560151815414429,
        0.2354148030281067,
        0.10423718392848969,
        -0.05796819552779198,
        -0.1861518919467926,
        -0.16577482223510742,
        0.04366113618016243,
        0.12101533263921738,
        0.16365176439285278,
        0.10769382119178772,
        0.06741612404584885,
        0.06750202178955078,
        0.07918451726436615,
        -0.13978663086891174,
        0.15265674889087677,
        -0.017329830676317215,
        0.09443364292383194,
        0.06686969101428986,
        0.2211359590291977,
        0.1420360654592514,
        -0.013751910999417305,
        0.05449322238564491,
        0.20697417855262756,
        0.4157264232635498,
        0.03790551796555519,
        -0.1693485677242279,
        -0.02588476799428463,
        0.166259303689003,
        -0.03282389044761658,
        0.18044811487197876,
        0.1808205097913742,
        0.09762824326753616,
        -0.05882467329502106,
        -0.11502798646688461,
        -0.04794738441705704,
        -0.024762334302067757,
        -0.03984007239341736,
        0.2864278554916382,
        -0.12391096353530884,
        -0.22095032036304474,
        0.17459355294704437,
        -0.255652517080307,
        0.018387271091341972,
        0.5192038416862488,
        0.1136617511510849,
        0.06938228756189346,
        -0.1475106030702591,
        -0.04931182041764259,
        -0.28174108266830444,
        0.11212511360645294,
        -0.037562381476163864,
        0.004715694114565849,
        0.17013460397720337,
        -0.17347632348537445,
        -0.06928089261054993,
        -0.11210295557975769,
        -0.1909654140472412,
        0.1911546289920807,
        -0.26549986004829407,
        0.06583584100008011,
        -0.09095736593008041,
        0.34148773550987244,
        0.16893179714679718,
        0.23989109694957733,
        -0.11205711215734482,
        -0.20485231280326843,
        -0.123085156083107,
        -0.20829170942306519,
        -0.03281319513916969,
        -0.03038688562810421,
        -0.1922818422317505,
        0.194646954536438,
        -0.017868082970380783,
        -0.044539596885442734,
        0.24448645114898682,
        -0.08459672331809998,
        -0.1146988794207573,
        0.09420996904373169,
        -0.24495792388916016,
        0.00030294645694084466,
        -0.19722603261470795,
        -0.44127023220062256,
        -0.2776513397693634,
        -0.39178231358528137,
        0.2290944904088974,
        -0.07441193610429764,
        -0.033692579716444016,
        -0.045707594603300095,
        0.11808888614177704,
        -0.012109658680856228,
        -0.26176056265830994,
        -0.2434820979833603,
        0.019770657643675804,
        -0.16521187126636505,
        -0.24375802278518677,
        -0.10386812686920166,
        0.093851238489151,
        -0.055313095450401306,
        0.0700492262840271,
        -0.017889749258756638,
        0.02493533305823803,
        -0.22251203656196594,
        0.08106691390275955,
        0.009003554470837116,
        -0.21323484182357788,
        -0.342804878950119,
        -0.001409362768754363,
        -0.0832054391503334,
        -0.24769072234630585,
        -0.25640928745269775,
        0.033501219004392624,
        0.2008175253868103,
        0.09233506768941879,
        -0.17043346166610718,
        0.0745510384440422,
        -0.017849626019597054,
        0.23721083998680115,
        -0.09224559366703033,
        0.0848657563328743,
        0.2076861709356308,
        0.1268918812274933,
        -0.02488900162279606,
        0.0743313655257225,
        -0.15714263916015625,
        -0.16557113826274872,
        0.07160665839910507,
        0.07782968878746033,
        0.13821108639240265,
        -0.22614915668964386,
        -0.13080845773220062,
        0.07434140890836716,
        0.21015094220638275,
        -0.08038119971752167,
        -0.1095675453543663,
