{"version":"0.7.0","metadata":{"date":{"year":2026,"month":6,"day":11,"hour":0,"minute":2,"second":7},"loudness":-15.84969530570879,"gain":0.6591286683227243,"name":"[POW] MESA.MKVII-90W-EQ@ON Pres@5 - SM58","modeled_by":"2dor","gear_type":"amp_cab","gear_make":"Mesa","gear_model":"Mesa","tone_type":"clean to mean","trainer":"TONE3000","input_level_dbu":18.995,"output_level_dbu":13.195},"architecture":"SlimmableContainer","config":{"submodels":[{"max_value":0.5,"model":{"version":"0.7.0","metadata":{"date":{"year":2026,"month":6,"day":11,"hour":0,"minute":2,"second":3},"loudness":-16.371892075423148,"gain":0.7138548381750498},"architecture":"WaveNet","config":{"layers":[{"input_size":1,"condition_size":1,"head":{"out_channels":1,"kernel_size":16,"bias":true},"channels":3,"kernel_sizes":[6,6,6,6,6,6,6,6,6,6,6,6,6,6,15,15,6,6,6,6,6,6,6],"dilations":[1,3,7,17,41,101,239,1,3,7,17,41,101,239,1,13,1,3,7,17,41,101,239],"activation":[{"type":"LeakyReLU","negative_slope":0.01},{"type":"LeakyReLU","negative_slope":0.01},{"type":"LeakyReLU","negative_slope":0.01},{"type":"LeakyReLU","negative_slope":0.01},{"type":"LeakyReLU","negative_slope":0.01},{"type":"LeakyReLU","negative_slope":0.01},{"type":"LeakyReLU","negative_slope":0.01},{"type":"LeakyReLU","negative_slope":0.01},{"type":"LeakyReLU","negative_slope":0.01},{"type":"LeakyReLU","negative_slope":0.01},{"type":"LeakyReLU","negative_slope":0.01},{"type":"LeakyReLU","negative_slope":0.01},{"type":"LeakyReLU","negative_slope":0.01},{"type":"LeakyReLU","negative_slope":0.01},{"type":"LeakyReLU","negative_slope":0.01},{"type":"LeakyReLU","negative_slope":0.01},{"type":"LeakyReLU","negative_slope":0.01},{"type":"LeakyReLU","negative_slope":0.01},{"type":"LeakyReLU","negative_slope":0.01},{"type":"LeakyReLU","negative_slope":0.01},{"type":"LeakyReLU","negative_slope":0.01},{"type":"LeakyReLU","negative_slope":0.01},{"type":"LeakyReLU","negative_slope":0.01}],"bottleneck":3,"head1x1":{"active":false,"out_channels":1,"groups":1},"layer1x1":{"active":true,"groups":1},"groups_input":1,"groups_input_mixin":1,"conv_pre_film":{"active":false,"shift":true,"groups":1},"conv_post_film":{"active":false,"shift":true,"groups":1},"input_mixin_pre_film":{"active":false,"shift":true,"groups":1},"input_mixin_post_film":{"active":false,"shift":true,"groups":1},"activation_pre_film":{"active":false,"shift":true,"groups":1},"activation_post_film":{"active":false,"shift":true,"groups":1},"layer1x1_post_film":{"active":false,"shift":true,"groups":1},"head1x1_post_film":{"active":false,"shift":true,"groups":1},"gating_mode":["none","none","none","none","none","none","none","none","none","none","none","none","none","none","none","none","none","none","none","none","none","none","none"],"secondary_activation":[null,null,null,null,null,null,null,null,null,null,null,null,null,null,null,null,null,null,null,null,null,null,null],"slimmable":null}],"head":null,"head_scale":0.008946017204273786},"weights":[-0.35270315408706665,-0.6479047536849976,-0.6054017543792725,-0.1890258491039276,0.42423391342163086,0.010863388888537884,-0.5774528980255127,0.3296145498752594,0.06074002385139465,-0.2400045543909073,0.4924200475215912,0.05033062398433685,-0.6969320774078369,0.2145151048898697,0.08273501694202423,-0.24894414842128754,0.6102383732795715,0.01671406254172325,-0.42752259969711304,0.16744467616081238,0.22214175760746002,-0.21675488352775574,0.006146397441625595,-0.08973272889852524,0.09013260900974274,0.6579734683036804,0.15355724096298218,-0.12299908697605133,-0.26557159423828125,0.0004991263849660754,0.2457600235939026,0.49429425597190857,0.17549601197242737,-0.08072011917829514,-0.1449286788702011,0.15730483829975128,0.4849480986595154,0.7228410243988037,0.11265365779399872,0.03903532400727272,-0.4570567309856415,-0.17672307789325714,-0.3054070770740509,0.11830314248800278,0.3122138977050781,0.04474886134266853,-0.19382931292057037,-0.17106258869171143,-0.3080539107322693,0.37190040946006775,0.4848558306694031,0.0567714124917984,-0.2728789448738098,0.02719373069703579,-0.35224825143814087,0.1655527800321579,0.3847008943557739,-0.00525690196081996,0.26923468708992004,0.004445417318493128,0.1625928431749344,0.415166437625885,-0.198308065533638,0.3111651837825775,0.6016576290130615,0.2976263463497162,0.20777831971645355,0.6942018270492554,0.3466593325138092,-0.708977460861206,0.3971441388130188,-0.6321892142295837,-0.05400986224412918,-0.20112812519073486,-0.10862822830677032,-0.14308549463748932,0.13969112932682037,0.1473822146654129,0.1585712730884552,0.05761951580643654,-0.40286850929260254,0.13441462814807892,-0.06048683822154999,-0.04983973130583763,0.11863955855369568,-0.6784273386001587,-0.3030385673046112,-0.09835150092840195,-0.046130310744047165,-0.0315316841006279,-0.05648801848292351,-0.1906740367412567,-0.007194265257567167,-0.027770239859819412,0.11721888184547424,0.19151011109352112,-0.09690974652767181,0.4307684004306793,-0.3231523334980011,0.058336518704891205,-0.2083059698343277,-0.0754750669002533,-0.02623949758708477,0.19770780205726624,0.07403391599655151,-0.42374905943870544,-0.5907057523727417,-0.5101320743560791,-0.6586395502090454,-0.4643460512161255,0.49032971262931824,-0.1300935298204422,-0.05587844178080559,-0.04267139732837677,-0.2348545789718628,0.15735489130020142,-0.3967709243297577,0.010262683033943176,-0.07559071481227875,-0.3047996759414673,0.09339757263660431,-0.1791253536939621,-0.34687843918800354,0.1874009668827057,0.23020416498184204,0.10489193350076675,0.23653589189052582,0.33674097061157227,0.07046675682067871,0.23747172951698303,0.18243812024593353,0.14909647405147552,-0.11716503649950027,0.2480202615261078,0.24191497266292572,-0.37093105912208557,0.42736732959747314,-0.4986959397792816,-0.2368948608636856,0.3971515893936157,0.03285674378275871,-0.44732019305229187,-0.656574547290802,-0.0690188780426979,0.30091702938079834,-0.12656615674495697,0.19098854064941406,-0.24315181374549866,-0.026193663477897644,-0.22205059230327606,-0.23810553550720215,0.11749465018510818,0.3123132288455963,0.2986776530742645,0.14878587424755096,0.35594430565834045,0.5430412888526917,0.2698116898536682,0.8743520975112915,-0.10767531394958496,-0.06906329840421677,-0.10786869376897812,-0.04774415120482445,-0.11754915118217468,0.25466594099998474,0.06833498179912567,0.04527585953474045,0.165070042014122,0.28571343421936035,0.2546461224555969,0.08953258395195007,0.06584333628416061,0.195830836892128,0.12828613817691803,-0.06085359677672386,0.2584587037563324,0.012916577979922295,-0.008456836454570293,-0.044273778796195984,-0.3585788905620575,-0.05931529402732849,-0.2343416064977646,-0.20181427896022797,0.09173163771629333,-0.06426788866519928,0.06085274741053581,-0.07318615913391113,-0.266475111246109,0.16204001009464264,-0.17647255957126617,-0.09612874686717987,-0.07265042513608932,-0.007773997727781534,-0.25686970353126526,0.22478587925434113,0.16337329149246216,0.13919539749622345,0.27147895097732544,0.11320668458938599,-0.021758800372481346,0.020228207111358643,-0.17432714998722076,-0.4079090654850006,0.13885577023029327,-0.4909079074859619,0.6965045928955078,-0.35762783885002136,-0.4597145915031433,0.39097461104393005,-0.12086708098649979,-0.48047181963920593,0.24342963099479675,-0.2944653332233429,-0.49143338203430176,-0.0575188510119915,0.32451286911964417,0.20778681337833405,0.06043218448758125,0.28256118297576904,-0.07805940508842468,0.005168982315808535,0.029528465121984482,-0.03835219144821167,-0.08858948945999146,0.09854904562234879,0.10090110450983047,-0.014559191651642323,0.05261394381523132,0.05053235962986946,0.32640260457992554,0.6593144536018372,-0.05194589123129845,-0.07770831137895584,-0.03362094983458519,-0.07476009428501129,0.05059590935707092,-0.30843284726142883,0.040486592799425125,0.039462193846702576,0.0856536477804184,0.18208837509155273,0.11188117414712906,-0.06221850588917732,-0.02091609686613083,0.15852558612823486,0.10868090391159058,0.3874954581260681,0.4664018452167511,-0.4758826196193695,0.13009972870349884,-0.2451888769865036,-0.18631163239479065,-0.24862247705459595,-0.266573429107666,0.04745204746723175,-0.02410956099629402,0.014392079785466194,-0.04753101244568825,-0.09195436537265778,0.07233181595802307,0.08237018436193466,0.04681311547756195,-0.3140297830104828,0.13371111452579498,-0.1031871885061264,0.01767241582274437,0.10957551747560501,0.14674949645996094,0.2543849050998688,0.21375219523906708,0.3209136724472046,0.09767573326826096,-0.03483711555600166,-0.341255784034729,-0.05811034515500069,-0.14551879465579987,-0.09529896080493927,0.25212323665618896,-0.5128350853919983,-0.25984346866607666,0.24745404720306396,-0.26279109716415405,-0.5139024257659912,0.010039107874035835,-0.4365256726741791,0.8568096160888672,-0.13067086040973663,0.33299750089645386,-0.15716801583766937,-0.202558696269989,0.3215886950492859,-0.12181366235017776,-0.07584214955568314,-0.09282055497169495,-0.24052996933460236,-0.1509806364774704,0.05976429954171181,-0.22164350748062134,-0.15606357157230377,0.10769027471542358,-0.022653689607977867,-0.00007605954306200147,0.32151761651039124,0.27537086606025696,0.2224448174238205,0.3454781174659729,-0.1363256722688675,-0.5109279751777649,-0.004672197625041008,-0.05279310792684555,0.059995345771312714,-0.07702416926622391,0.1486767828464508,0.07476530224084854,0.0971144363284111,-0.006568161305040121,0.11415132880210876,0.13966800272464752,0.18424294888973236,-0.028281988576054573,0.36982452869415283,-0.0873037800192833,-0.11922816932201385,-0.013925976119935513,-0.18924255669116974,-0.22813484072685242,0.3467569053173065,0.11152972280979156,-0.052653927356004715,0.09837287664413452,-0.056749213486909866,-0.1656818836927414,-0.26099449396133423,-0.2638993561267853,-0.14297039806842804,-0.3220405876636505,-0.11609017103910446,-0.18210917711257935,-0.11660544574260712,0.05278921499848366,0.1849188357591629,0.2944362163543701,0.2824538052082062,0.2964548170566559,-0.2838203012943268,-0.024875065311789513,0.11584053188562393,0.36734867095947266,-0.14372578263282776,0.2769894003868103,0.2483469396829605,-0.061516039073467255,0.12809500098228455,-0.393637478351593,-0.5312829613685608,0.26120930910110474,0.23218466341495514,0.4198586642742157,-0.4664134979248047,0.03579103946685791,-0.085129514336586,0.021315518766641617,0.13802236318588257,-0.009551560506224632,-0.3980881869792938,-0.26286810636520386,-0.06473159044981003,-0.039251092821359634,-0.24852964282035828,0.03448893502354622,0.26289302110671997,0.5225661396980286,0.08267278969287872,-0.05142004415392876,-0.43943074345588684,-0.005186349153518677,0.13766466081142426,-0.09268305450677872,-0.08647193759679794,-0.22172889113426208,0.5815845727920532,0.0403139665722847,0.03337297588586807,0.0044359867461025715,-0.11701371520757675,-0.28447026014328003,-0.5660822987556458,-0.07107926160097122,-0.0829172134399414,-0.1192375048995018,-0.0637628585100174,0.09433728456497192,0.026407716795802116,-0.023777268826961517,-0.04467656835913658,0.019961342215538025,0.14393949508666992,0.20844006538391113,-0.8354735374450684,-0.010150808840990067,0.09861858934164047,0.02046779729425907,-0.04312582314014435,-0.2464970052242279,-1.090951681137085,-0.042323965579271317,-0.14838019013404846,-0.07902850210666656,0.01810830645263195,0.16918806731700897,-0.13131041824817657,0.04876274615526199,-0.049330029636621475,-0.004790387582033873,0.07743470370769501,0.24915245175361633,-0.7856343984603882,0.25851354002952576,0.1314529925584793,-0.02966027893126011,0.1302064061164856,0.12362156063318253,0.021939784288406372,0.2863408327102661,-0.41584527492523193,0.7228044867515564,0.4982471466064453,-0.1421579271554947,-0.2450180947780609,-0.48507368564605713,-0.13756628334522247,0.5345029234886169,-0.34269052743911743,-0.0801863968372345,-0.46796900033950806,-0.21801987290382385,-0.03425440937280655,-0.2241445779800415,-0.39808347821235657,-0.48671755194664,-0.10862871259450912,0.007837124168872833,-0.006495440378785133,0.05686207860708237,0.30004140734672546,0.6132164001464844,-0.7105638384819031,0.044201094657182693,0.007434863597154617,0.008844871073961258,-0.03624407574534416,-0.32907846570014954,0.11210709065198898,-0.08813628554344177,-0.04381350055336952,-0.1452781707048416,-0.09596092253923416,0.28853046894073486,0.027724789455533028,-0.031547967344522476,-0.016262836754322052,-0.11387685686349869,-0.09142915159463882,-0.4553925395011902,0.02556421235203743,0.23304958641529083,0.25317028164863586,0.2568624019622803,-0.10724528133869171,-0.3612484335899353,0.13114753365516663,0.018468527123332024,-0.03357002139091492,0.01796036772429943,-0.06767770648002625,0.09006001055240631,0.5776798725128174,0.011539430357515812,0.007917636074125767,0.00692705437541008,0.039022453129291534,0.013142252340912819,0.01614019088447094,0.043073028326034546,0.04196437820792198,0.004237021319568157,0.056737128645181656,-0.05482837185263634,-0.06980346888303757,0.12321552634239197,-0.2935425341129303,0.35510796308517456,-0.14243818819522858,0.027915114536881447,-1.4719226360321045,0.21846187114715576,0.36736807227134705,0.19283442199230194,0.6456734538078308,0.2189016342163086,0.008222522214055061,-0.5026394128799438,0.1253119856119156,0.5419489145278931,0.2914092540740967,-0.39692896604537964,0.08059682697057724,0.04555550217628479,-0.0477539487183094,-0.35463735461235046,-0.45501163601875305,-0.12798190116882324,0.2505655884742737,0.03272739797830582,-0.05141153186559677,-0.10582544654607773,-0.1274711787700653,0.18342949450016022,0.15740498900413513,-0.1209167093038559,-0.15274541079998016,-0.1759604662656784,-0.2719690501689911,0.13435779511928558,0.35820215940475464,0.04384029284119606,-0.10202193260192871,-0.13779988884925842,0.006584635935723782,0.2984333634376526,0.26198282837867737,-0.1888025552034378,-0.10093482583761215,0.17974135279655457,-0.10657336562871933,-0.08723845332860947,-0.03301500156521797,-0.024823347106575966,0.02178236097097397,-0.0015466702170670033,-0.13382317125797272,0.13464771211147308,0.36510372161865234,0.18105515837669373,0.18852968513965607,0.310746431350708,0.2594110369682312,-0.11863511055707932,-0.2325086146593094,0.07794938236474991,0.0744219422340393,-0.24594108760356903,-0.10555639117956161,-0.1824577897787094,-0.0915001779794693,0.12453891336917877,-0.03464619442820549,0.02672170288860798,-0.013722437433898449,-0.3251415491104126,0.3467443287372589,0.15947461128234863,-0.2683911621570587,0.17171868681907654,-0.20624946057796478,-0.11239836364984512,-0.18589331209659576,0.15232720971107483,0.06412606686353683,0.08415400236845016,0.04415028169751167,-0.06063148006796837,-0.25765177607536316,0.4777931869029999,-0.615703821182251,-0.6767592430114746,-0.1211540549993515,-0.20381276309490204,0.16305702924728394,-0.13681474328041077,-0.05541399493813515,-0.0026010440196841955,-0.2623603343963623,-0.029992952942848206,-0.7611472010612488,0.1017005518078804,0.02174401842057705,0.10982546955347061,0.03763741999864578,0.0025429485831409693,-0.09569297730922699,0.12068542838096619,0.025734134018421173,0.13456648588180542,-0.018070518970489502,0.11791384220123291,-0.4393213987350464,-0.02842940203845501,-0.01786041259765625,-0.04075898975133896,0.007426811847835779,0.0026829501148313284,0.6913650035858154,-0.06978537142276764,-0.04440321400761604,-0.06764959543943405,-0.07376033812761307,0.02053898572921753,0.07790462672710419,-0.11711479723453522,-0.06766387820243835,0.02407628856599331,0.19402730464935303,0.29096129536628723,0.27384042739868164,0.08123300969600677,-0.14893414080142975,-0.15746699273586273,-0.17629891633987427,-0.47286346554756165,-0.9486207365989685,-0.1962248533964157,0.026124460622668266,0.09174145758152008,-0.039509255439043045,0.03480139747262001,0.06803937256336212,0.1971040815114975,-0.041552554816007614,-0.05607052892446518,0.09918428212404251,-0.17313043773174286,-0.06725413352251053,0.6451094150543213,-0.13147911429405212,-0.21300628781318665,0.9687560200691223,-0.2085353434085846,0.14423204958438873,-0.4942222535610199,-0.5300531387329102,0.48641645908355713,0.064621701836586,-0.1935238391160965,0.1908338963985443,-0.5858011245727539,-0.13873659074306488,0.40621811151504517,0.15650396049022675,0.09760113805532455,0.2964960038661957,-0.13103486597537994,-0.18946243822574615,0.019181037321686745,-0.36617913842201233,0.02970210090279579,-0.829235315322876,-0.02841131016612053,-0.03484954684972763,-0.08060779422521591,0.16722077131271362,0.04871802031993866,-0.39368340373039246,0.14507262408733368,0.11959231644868851,-0.02697337232530117,0.11301559209823608,0.056759875267744064,-0.6336636543273926,-0.26287755370140076,-0.060130346566438675,-0.004007691517472267,0.12027280777692795,-0.008510427549481392,0.05536713823676109,0.00942800473421812,0.17267325520515442,0.1872767210006714,0.30960792303085327,0.24309074878692627,0.011983462609350681,-0.45607566833496094,-0.15218891203403473,-0.2372722327709198,-0.07971418648958206,0.10527811199426651,0.05702541396021843,-0.11704257130622864,-0.024474306032061577,0.2057863473892212,-0.2312542200088501,-0.30756044387817383,0.30898573994636536,-0.08433514833450317,-0.0013975497568026185,-0.35014429688453674,-0.13143901526927948,0.24886684119701385,0.3269810378551483,-0.016028285026550293,0.18646782636642456,-0.18879014253616333,-0.2224242240190506,-0.059526361525058746,0.22865746915340424,-0.43684619665145874,-0.7331200242042542,-0.3551449775695801,0.7120601534843445,0.33812570571899414,0.08225228637456894,0.45066070556640625,0.6118113398551941,0.06248531490564346,0.7150490880012512,0.6893316507339478,0.652675211429596,0.2643226385116577,-0.019394641742110252,0.20944079756736755,0.05254528671503067,0.05519687384366989,0.39612001180648804,-0.21641547977924347,-0.10673597455024719,-0.21739396452903748,-0.14685358107089996,-0.06338728964328766,0.15000873804092407,-0.005106136202812195,-0.11170410364866257,-0.06587793678045273,-0.08813277631998062,0.20236237347126007,-0.4725969731807709,0.04935304820537567,-0.20011644065380096,-0.03753544017672539,0.05384041741490364,0.021514978259801865,-0.02892378903925419,-0.013862382620573044,0.13895949721336365,0.022137850522994995,0.1292666643857956,0.343517929315567,0.18449628353118896,0.05771404504776001,-0.19043776392936707,0.10896176844835281,-0.2784280478954315,0.024707019329071045,0.4072973132133484,0.06556413322687149,0.1544569581747055,0.1785273253917694,0.33685213327407837,0.2933962643146515,-0.29153963923454285,0.1377868950366974,0.14776940643787384,0.19152316451072693,0.09527194499969482,0.18895147740840912,0.13011690974235535,0.01917068473994732,-0.04910358786582947,-0.07786932587623596,0.025012081488966942,0.0016156723722815514,0.04166632890701294,-0.16471411287784576,-0.23616507649421692,-0.24044694006443024,-0.103019580245018,-0.13174906373023987,0.7487722635269165,0.25920557975769043,0.23478496074676514,0.28398841619491577,0.2318267524242401,-0.01755410246551037,-0.8846362233161926,-0.5162375569343567,-0.014077816158533096,0.6062275767326355,0.3983992040157318,-0.6084402203559875,0.396457314491272,0.23353564739227295,0.050303567200899124,-0.029826490208506584,0.06334229558706284,0.2228313535451889,-0.37784186005592346,-0.8120520114898682,-0.31965088844299316,-0.1648869663476944,-0.22784951329231262,0.11393249779939651,0.3189878761768341,0.3866637945175171,-0.1311572641134262,0.3016054630279541,0.21637609601020813,-0.06427353620529175,-0.1942005157470703,0.26128333806991577,-0.17080752551555634,-0.2382558435201645,0.19719409942626953,-0.04507732018828392,0.2037423700094223,0.10935015231370926,0.0253500584512949,0.1903253197669983,0.10288358479738235,0.19737659394741058,-0.28043171763420105,-0.017033588141202927,-0.1494789868593216,-0.22281168401241302,-0.28483256697654724,-0.5695749521255493,0.6256714463233948,-0.13594257831573486,0.13167212903499603,-0.034650951623916626,0.17244893312454224,0.08454775810241699,-0.15366098284721375,-0.09281054139137268,-0.10924948006868362,-0.11899317800998688,-0.009707177057862282,0.05088260769844055,0.45017072558403015,0.18046723306179047,0.23700349032878876,0.28225427865982056,0.18837924301624298,0.35636258125305176,-0.15682078897953033,-0.00021697819465771317,-0.02831859700381756,-0.0670946016907692,-0.09527291357517242,-0.37759333848953247,1.079386830329895,-0.19156783819198608,0.2920779585838318,0.16179674863815308,0.020701831206679344,0.008153606206178665,0.42448291182518005,-0.15055596828460693,0.05331805348396301,0.42890432476997375,-0.5440921187400818,-0.7723873257637024,0.4543883800506592,0.7092971205711365,0.17187440395355225,0.3745342195034027,-0.5459824800491333,0.28867608308792114,-0.34789013862609863,-0.14009593427181244,-0.013740258291363716,0.034045398235321045,-0.03810758888721466,-0.038850441575050354,-0.39170652627944946,0.25385984778404236,0.03644093871116638,0.2013484090566635,0.2606760859489441,0.11417067050933838,-0.9654921293258667,0.013107237406075,-0.03995717689394951,-0.13158056139945984,-0.13710138201713562,0.14021675288677216,-0.10003103315830231,-0.15125438570976257,-0.03039294108748436,-0.1570795327425003,0.23213747143745422,0.37044966220855713,-0.05023273825645447,0.03294610604643822,0.19533386826515198,0.14459393918514252,-0.2573568522930145,-0.5194105505943298,0.3019412159919739,0.1552824229001999,-0.004660964477807283,0.09489145874977112,-0.051269274204969406,-0.031770311295986176,0.08070218563079834,-0.05915781483054161,0.026503555476665497,-0.055366240441799164,0.013935975730419159,0.0524500273168087,0.49327361583709717,0.0616501085460186,-0.04729286581277847,0.07383780181407928,0.016521239653229713,-0.09871381521224976,0.34115371108055115,0.030374284833669662,0.011819679290056229,-0.001351080252788961,-0.019328296184539795,0.06282380223274231,0.4440934658050537,0.001223102561198175,0.26825255155563354,-0.6278587579727173,0.0034945528022944927,0.26971909403800964,0.004820714704692364,-0.1674266755580902,0.19443151354789734,-0.8117571473121643,-0.3480268716812134,-0.5991630554199219,-0.7843989729881287,0.29886069893836975,-0.3069833815097809,-0.35321226716041565,-0.28776946663856506,-0.241237610578537,0.2595908045768738,0.15039876103401184,0.01021738164126873,0.07406040281057358,0.0033653019927442074,0.027614353224635124,-0.3208981454372406,-0.22929134964942932,-0.0365947000682354,-0.18011626601219177,-0.07873862236738205,-0.2100238800048828,-0.4983028173446655,0.0072369747795164585,0.009510444477200508,0.07215578109025955,0.077352374792099,0.09035108238458633,0.19291505217552185,-0.2913283109664917,-0.16784244775772095,-0.18792398273944855,-0.1121373325586319,0.12589876353740692,-0.5689764022827148,0.3491627275943756,0.19571439921855927,0.2861323058605194,0.1382860392332077,0.07010869681835175,-0.09300731867551804,0.1653081178665161,0.061659593135118484,0.10432987660169601,0.01891082152724266,-0.16849170625209808,-0.01873822696506977,0.007733606267720461,-0.05411858111619949,-0.07353506982326508,-0.11017008125782013,-0.3056008517742157,0.48106661438941956,0.021948670968413353,0.09053143113851547,0.08187279850244522,0.14385607838630676,0.3609224557876587,-0.5876272916793823,-0.07048138231039047,0.010375089943408966,-0.014647076837718487,0.014922003261744976,0.021390849724411964,0.2617727816104889,0.008014323189854622,-0.35552978515625,0.14013901352882385,-0.6446865200996399,-0.0849447175860405,0.1115482971072197,0.23408585786819458,0.2271452397108078,-0.03684582933783531,0.3026055097579956,-0.559164822101593,0.7097725868225098,-0.5636559724807739,-0.3488572835922241,0.05643361806869507,-0.5379942655563354,0.058584652841091156,-0.6090232729911804,-0.029144270345568657,-0.11707138270139694,-0.17813104391098022,-0.10248459130525589,-0.096796415746212,-0.22097648680210114,0.1293124258518219,0.1412532478570938,0.4646189212799072,0.2487497478723526,0.06856232136487961,-0.24392209947109222,-0.46384772658348083,-0.8133312463760376,-0.47151830792427063,0.03490216284990311,-0.11251887679100037,-0.1070929542183876,-0.008101347833871841,0.07782036811113358,0.011721190996468067,-0.03873518109321594,-0.07855235785245895,0.0017729131504893303,-0.15319597721099854,-0.010768944397568703,-0.10047507286071777,0.04547137767076492,-0.5127002596855164,-0.4527696669101715,0.19218823313713074,0.0456518791615963,0.011029966175556183,-0.02280418388545513,0.08554314821958542,-0.019040348008275032,0.07755924761295319,0.11320483684539795,0.3000805377960205,0.17581361532211304,0.10126339644193649,-0.10453668981790543,-0.29259079694747925,-0.5510391592979431,-0.3814546763896942,-0.20319417119026184,0.10316438972949982,0.06463789194822311,0.11874564737081528,-0.09118146449327469,0.02612016722559929,-0.05501064285635948,-0.02983115240931511,-0.3362792432308197,-0.2681862413883209,0.05768007040023804,0.13437972962856293,-0.19002355635166168,0.34206998348236084,0.07567993551492691,-0.11477996408939362,0.23623962700366974,0.1505780965089798,0.15026864409446716,-0.10758022964000702,0.10519614815711975,0.19069409370422363,0.22454896569252014,0.015136810019612312,-0.01319639291614294,0.09804137796163559,0.14826573431491852,-0.35883626341819763,0.4849071204662323,0.7141216993331909,-0.1461011916399002,0.19265469908714294,-0.0725252628326416,-0.013057569973170757,-0.12508490681648254,0.0037220302037894726,-0.1201154887676239,-0.07339661568403244,-0.18466491997241974,-0.0859992653131485,0.020644133910536766,0.27317169308662415,-0.23379328846931458,0.18722592294216156,0.2854762077331543,-0.0682918056845665,-0.1645839363336563,-0.12399453669786453,-0.0664176195859909,0.03899848088622093,-0.04191307723522186,-0.022510726004838943,-0.05824663117527962,0.12794040143489838,0.04669664427638054,0.03361813351511955,0.04669104516506195,0.4136428236961365,0.49721482396125793,0.7292155027389526,0.3761794865131378,0.16007190942764282,0.09296347200870514,0.12272953242063522,0.11479011178016663,0.06631822139024734,-0.07570334523916245,0.08541650325059891,0.14931483566761017,-0.004197507631033659,0.03726375102996826,0.020538264885544777,0.03461421653628349,0.08699575066566467,0.058348722755908966,0.12267736345529556,-0.046036675572395325,-0.1614392250776291,-0.012422863394021988,0.0829852968454361,-0.06992251425981522,-0.11533212661743164,0.01697719469666481,0.10252536088228226,-0.03165654093027115,-0.13921219110488892,0.030713306739926338,0.3263950049877167,0.40861958265304565,0.4895525872707367,0.2185145616531372,0.4437945783138275,-0.09521150588989258,0.20589883625507355,0.34928083419799805,0.0583256259560585,-0.6370792388916016,0.94242262840271,-1.2165966033935547,0.23925259709358215,0.11051401495933533,-0.2069840431213379,0.048590824007987976,-0.1544148176908493,0.48307836055755615,-0.46558064222335815,-0.1575060337781906,-0.40916332602500916,-0.006398261524736881,-0.010545892640948296,-0.008718498051166534,-0.006947681773453951,-0.0012815722730010748,0.013476499356329441,0.004657372832298279,-0.024412836879491806,-0.022594956681132317,0.03419266268610954,-0.046238355338573456,-0.03962228447198868,0.003173814620822668,-0.07677220553159714,-0.2666405141353607,-0.1678822636604309,-0.18747949600219727,-0.32992294430732727,0.04781195893883705,-0.18854334950447083,-0.24963626265525818,0.10903189331293106,0.057809680700302124,0.07391633838415146,0.29267778992652893,0.3464612364768982,0.07659085839986801,0.24162179231643677,0.17610862851142883,-0.054496463388204575,0.13684919476509094,-0.09381324052810669,0.07574652135372162,0.0010003667557612062,0.16718101501464844,0.18124690651893616,0.03445103392004967,0.11314622312784195,0.03472141921520233,0.02213500253856182,0.3237611949443817,0.19897319376468658,0.20413844287395477,0.0737377479672432,-0.35394513607025146,0.08141820877790451,-0.06166449561715126,0.006728894542902708,-0.04916687682271004,0.01817292347550392,0.12185048311948776,-0.005174991209059954,0.2524182200431824,0.011867311783134937,0.014535089954733849,-0.10185875743627548,-0.006739217322319746,0.2581605911254883,-0.02056589163839817,-0.184947207570076,-0.20186595618724823,0.11628095805644989,0.045677270740270615,-0.04334909841418266,-0.1425887793302536,-0.47072070837020874,-0.10113935172557831,0.10844225436449051,0.41247448325157166,0.1991492211818695,0.372605562210083,0.5090093612670898,-0.21586069464683533,-0.02106238529086113,-0.09079062938690186,-0.2028406262397766,-0.05914746969938278,-0.07397247850894928,0.0026464415714144707,-0.16133219003677368,-0.23811350762844086,-0.13865496218204498,-0.049595411866903305,-0.060475438833236694,-0.08951675891876221,-0.1670987606048584,-0.11123503744602203,-0.04915643483400345,-0.0856463611125946,0.12129570543766022,-0.2702571153640747,-0.13948960602283478,-0.0797857716679573,-0.14477305114269257,-0.2212240993976593,0.08542034775018692,-0.4004676640033722,-0.3893575966358185,-0.021067088469862938,-0.30200275778770447,-0.013552089221775532,-0.1165175810456276,-0.02813037857413292,0.14114750921726227,0.26437297463417053,-0.03406872600317001,0.3005679249763489,0.25388166308403015,-0.12248823791742325,-0.09631074965000153,-0.049086425453424454,-0.03705023229122162,-0.019912127405405045,0.17469669878482819,-0.04653237760066986,-0.0893261507153511,-0.14194872975349426,-0.1438983827829361,-0.1419542133808136,0.09691813588142395,0.02387216128408909,-0.015225058421492577,-0.27087119221687317,0.13222497701644897,-0.19975173473358154,0.04094722867012024,-0.22735431790351868,-0.11511895060539246,-0.013961720280349255,-0.01926225610077381,0.0748283639550209,-0.12755897641181946,-0.3342636823654175,-0.516585111618042,-0.28858357667922974,-0.02040473185479641,0.36239880323410034,0.3289192318916321,0.5992150902748108,-0.12247230112552643,0.1403277963399887,-0.2923780679702759,0.2375359833240509,-0.0934201329946518,0.4859869182109833,-0.19043028354644775,0.40341606736183167,-0.36962640285491943,0.08401700109243393,0.4294833242893219,-0.3252405822277069,-0.013225891627371311,-0.07559443265199661,-0.07593944668769836,0.060918908566236496,0.27851805090904236,0.0542176179587841,-0.36040323972702026,-0.6203374266624451,0.05378223955631256,-0.02114388346672058,0.25145265460014343,-0.011713845655322075,-0.017919406294822693,-0.26029014587402344,-0.025816719979047775,0.06420502811670303,-0.22293493151664734,0.010663053952157497,-0.06578662991523743,0.08907821774482727,0.05026309937238693,-0.09452547878026962,0.02240584045648575,0.443442165851593,0.4812318682670593,-0.14130347967147827,-0.2618407905101776,0.1407005339860916,0.3639619052410126,0.09852292388677597,0.03771353140473366,-0.22885851562023163,-0.345928430557251,-0.22072327136993408,-0.3201664090156555,-0.01724814623594284,0.19559398293495178,-0.13710792362689972,-0.15901142358779907,0.010926947928965092,-0.13545489311218262,-0.15493831038475037,-0.11651082336902618,0.613544225692749,0.038603223860263824,-0.1692539006471634,0.0015676806215196848,-0.06931527704000473,0.2211381494998932,0.05075916647911072,0.15301072597503662,0.11552264541387558,0.05613824725151062,-0.12198968976736069,-0.02111867256462574,0.25228893756866455,0.3135858178138733,0.47414132952690125,0.14128680527210236,-0.15414388477802277,-0.032690517604351044,-0.01830046996474266,-0.4250878691673279,0.5795964598655701,0.278416246175766,0.02596368081867695,-0.168948233127594,0.031186282634735107,-0.22428856790065765,-0.23646317422389984,0.02371259778738022,-0.16592423617839813,0.501116156578064,0.3136845827102661,-0.14175845682621002,0.14374187588691711,0.03580726310610771,0.2750902771949768,0.1267400085926056,-0.31750306487083435,0.06230178847908974,-0.20997008681297302,-0.2241472452878952,-0.2435430884361267,-0.20182359218597412,-0.04843077436089516,0.1643991321325302,0.09803681075572968,0.09193389117717743,0.5879204869270325,0.17856886982917786,0.1372973471879959,0.11269896477460861,-0.10599778592586517,-0.046402573585510254,-0.15821197628974915,0.21464784443378448,-0.15395674109458923,-0.22484585642814636,0.0762116014957428,0.03327462077140808,0.07072028517723083,-0.038609545677900314,-0.2460247427225113,0.06137533485889435,0.0944938212633133,0.02780797705054283,-0.04533561319112778,0.03510880842804909,-0.026868769899010658,0.09730890393257141,-0.15514203906059265,-0.09605442732572556,-0.35170885920524597,-0.26337093114852905,0.30216923356056213,-0.11957055330276489,0.001073395716957748,0.2711406350135803,-0.12427839636802673,0.10877108573913574,0.0338977612555027,-0.26124879717826843,-0.03454320877790451,0.0487094409763813,-0.17635385692119598,-0.21960823237895966,-0.05022868141531944,0.3786329925060272,-0.4199170172214508,0.1472066342830658,-0.16972355544567108,0.4703404903411865,-0.23972180485725403,-0.3509777784347534,0.3484351933002472,-0.03985638543963432,-0.18106362223625183,0.4224560558795929,0.46469536423683167,0.39107853174209595,0.2216642051935196,-0.5490611791610718,-0.20688843727111816,0.35560473799705505,0.08962871879339218,-0.0456915944814682,-0.1896180659532547,0.0861688107252121,0.10925929993391037,0.05886819586157799,-0.6386793255805969,0.09942051768302917,-0.01861715503036976,0.0013780064182356,-0.12340375036001205,0.05297169089317322,0.29263249039649963,-0.23813991248607635,0.0544612817466259,0.05679026618599892,-0.30260148644447327,-0.4915895164012909,0.10119365155696869,-0.018541669473052025,0.04407177120447159,-0.048636987805366516,0.034019969403743744,0.1498720794916153,0.19450919330120087,0.1910761147737503,0.17972451448440552,-0.021688289940357208,0.3090338408946991,-0.13469597697257996,0.09742818772792816,0.2559102177619934,-0.12582534551620483,0.010060896165668964,0.10092691332101822,0.14688056707382202,0.035007067024707794,-0.12222527712583542,-0.5114036798477173,-0.013972053304314613,-0.3011285066604614,0.23555926978588104,0.4818439483642578,0.20299717783927917,0.1422819048166275,0.14393353462219238,0.27096688747406006,0.5089675784111023,0.22849346697330475,0.08987616002559662,0.20701318979263306,-0.04326397553086281,-0.07056911289691925,0.5270634889602661,-0.008780517615377903,0.6890920996665955,-0.5655047297477722,0.6209332942962646,-0.39505264163017273,0.04836544021964073,-0.66972815990448,0.0013495011953637004,0.7220612168312073,0.24081626534461975,-0.33514344692230225,0.053565192967653275,0.6997132897377014,-0.48304814100265503,0.3835468292236328,0.5437823534011841,0.17904974520206451,0.36688458919525146,0.22186577320098877,-0.003052437910810113,-0.13032305240631104,-0.11567436158657074,0.21792644262313843,-0.15260332822799683,-0.5351735949516296,0.07851788401603699,0.1795508712530136,0.19188086688518524,-0.17061421275138855,0.16729508340358734,-0.18549209833145142,0.21422484517097473,-0.04401123523712158,0.40298888087272644,0.0895240530371666,-0.2637978494167328,0.45258814096450806,-0.42964404821395874,-0.36174529790878296,-0.12710081040859222,0.18408894538879395,0.0681985467672348,0.0959278792142868,0.27059289813041687,0.18063507974147797,0.011794621124863625,-0.24691125750541687,-0.3396054208278656,0.039261139929294586,0.4991627037525177,0.20838257670402527,0.17324304580688477,-0.15551462769508362,0.0760098397731781,-0.2760908305644989,-0.23892280459403992,-0.37654170393943787,-0.38199231028556824,0.098288893699646,-0.16563881933689117,0.4610876739025116,0.2891045808792114,0.13690787553787231,0.3781145513057709,0.3671191930770874,0.2892928719520569,0.5268807411193848,-0.25132787227630615,-0.46171775460243225,0.22132547199726105,-0.17920081317424774,0.10433176159858704,0.2510996162891388,-0.08589939773082733,0.358186274766922,0.3071381449699402,-0.5470029711723328,-0.3915749192237854,-0.23942697048187256,0.42686691880226135,0.2780792713165283,-0.38354313373565674,0.24289970099925995,-0.16178813576698303,0.054437704384326935,-0.8499917387962341,-0.16146638989448547,-0.4216068387031555,-0.5713896155357361,-0.40853351354599,-0.0341423824429512,-0.3829615116119385,-0.3202025592327118,0.11451778560876846,-0.04763360321521759,0.12560009956359863,-0.45011186599731445,0.13199035823345184,0.2744073271751404,0.2763025760650635,0.20501288771629333,0.2147555649280548,-0.4046807289123535,-0.20838846266269684,0.14718233048915863,-0.18160344660282135,0.5722154974937439,-0.19258472323417664,-0.15354448556900024,-0.3118213713169098,-0.19625906646251678,0.19348612427711487,-0.018449021503329277,0.3852651119232178,0.06860416382551193,0.31096887588500977,0.1926824450492859,0.37672558426856995,0.08588948845863342,-0.18059785664081573,0.26077085733413696,-0.2764482796192169,0.2439136505126953,-0.04329058527946472,0.19247624278068542,0.14030423760414124,-0.1752253770828247,0.014224442653357983,0.08404804766178131,0.014355961233377457,-0.05584200844168663,0.007290326524525881,0.2864266335964203,-0.032043907791376114,-0.06854140013456345,-0.15957006812095642,-0.02161414921283722,0.08371623605489731,-0.31000635027885437,0.06968391686677933,-0.05474567413330078,-0.042496901005506516,0.020100684836506844,-0.04257350042462349,-0.3143196702003479,-0.0061968485824763775,-0.42305490374565125,0.16823111474514008,-0.8432532548904419,0.14681659638881683,-0.950579822063446,-0.2381485402584076,0.6914806962013245,0.012080651707947254,0.6517433524131775,-0.4551621675491333,0.08996129781007767,0.3100721538066864,0.005162608809769154,0.12119630724191666,-0.1993943303823471,-0.24871017038822174,-0.10108475387096405,0.028280004858970642,0.020744401961565018,-0.04879753664135933,-0.014004976488649845,-0.0736786425113678,-0.14850401878356934,-0.024445047602057457,-0.02342148683965206,-0.12673737108707428,-0.13475820422172546,0.27728721499443054,-0.10617142170667648,-0.04812563955783844,0.11874270439147949,-0.1718706488609314,-0.005159236490726471,0.09352811425924301,-0.08383340388536453,-0.09949200600385666,0.20198960602283478,0.040253061801195145,0.009196089580655098,-0.19337807595729828,-0.6739065647125244,-0.20300039649009705,-0.3422869145870209,-0.3840929865837097,-0.3191133141517639,-0.010484261438250542,0.3482424020767212,0.10160066187381744,0.11930527538061142,-0.010162119753658772,0.27033644914627075,0.07489173114299774,-0.3834117352962494,0.0031059011816978455,-0.01899109221994877,0.11077190935611725,-0.0005379134672693908,0.027925806120038033,-0.06567538529634476,0.27480676770210266,0.012835812754929066,0.15055391192436218,0.07402916997671127,-0.3643050193786621,-0.2775367796421051,0.19601720571517944,-0.16326716542243958,0.17884492874145508,0.11608996987342834,0.011449819430708885,0.10319305956363678,-0.07998663932085037,-0.19438351690769196,-0.2738310992717743,-0.060770679265260696,0.13193278014659882,-0.14915697276592255,-0.4848005175590515,0.2395116686820984,0.4969566762447357,-0.7418366074562073,-0.5858457684516907,0.46142351627349854,-0.18283145129680634,-0.16105610132217407,0.027884220704436302,-0.19565008580684662,0.32518720626831055,0.4180859327316284,0.02040633000433445,-0.030502965673804283,0.1519114226102829,0.05145327374339104,-0.3590609133243561,-0.08320056647062302,0.029943566769361496,0.021327322348952293,0.17752385139465332,-0.11560416221618652,0.09886345267295837,0.31800392270088196,0.05083370581269264,0.08859705924987793,0.028311073780059814,0.33208009600639343,0.20734061300754547,-0.2973860800266266,0.04224524646997452,-0.007913589477539062,0.0398775078356266,-0.09046171605587006,-0.41970357298851013,0.28523799777030945,-0.0660303384065628,0.057240478694438934,0.12581679224967957,-0.14611777663230896,0.2955630123615265,0.27117541432380676,-0.014105853624641895,0.02236698754131794,0.10833896696567535,0.33310750126838684,0.13333721458911896,-0.31896334886550903,-0.02111077681183815,0.036174457520246506,0.09637798368930817,0.044500794261693954,-0.020223649218678474,0.40044477581977844,0.0005142003064975142,0.019144337624311447,0.017582643777132034,-0.12710919976234436,-0.08189935982227325,-0.275190144777298,-0.052102457731962204,0.0039108931086957455,-0.07341348379850388,0.07042380422353745,0.06182141229510307,-0.4977664649486542,0.32883068919181824,0.25059860944747925,0.050703857094049454,-0.24400010704994202,-0.27743959426879883,-0.7968828678131104,0.4162098467350006,-0.00858832336962223,0.5327888131141663,0.11612158268690109,0.18631941080093384,-0.07476914674043655,-0.32249006628990173,-0.3899204134941101,-0.36959829926490784,-0.3457287847995758,0.4948616325855255,-0.35605674982070923,0.013527140021324158,0.047403428703546524,0.08831365406513214,0.10856124758720398,0.08800184726715088,0.038683462888002396,-0.020663589239120483,-0.08555024117231369,-0.1565539538860321,-0.20963045954704285,-0.22093279659748077,-0.19143210351467133,-0.13217948377132416,-0.06914682686328888,-0.02649560570716858,-0.008508488535881042,-0.022521020844578743,-0.08268832415342331,-0.16083060204982758,-0.21313925087451935,-0.21359758079051971,-0.17235851287841797,-0.1160166785120964,-0.05090847611427307,0.02275184728205204,0.07997718453407288,0.09919005632400513,0.08201399445533752,0.04187610745429993,0.006660033483058214,-0.004571245517581701,-0.0015330106252804399,-0.04669822379946709,-0.09801971912384033,-0.0708463042974472,0.029193488880991936,0.13055112957954407,0.19416727125644684,0.2581401765346527,0.2884123921394348,0.2618299424648285,0.1900242120027542,0.09105093032121658,0.009074901230633259,-0.018500076606869698,-0.017676260322332382,-0.018195079639554024,-0.0030601839534938335,0.004575908649712801,0.00894601700431472],"sample_rate":48000}},{"max_value":1,"model":{"version":"0.7.0","metadata":{"date":{"year":2026,"month":6,"day":11,"hour":0,"minute":2,"second":5},"loudness":-15.84969530570879,"gain":0.6591286683227243},"architecture":"WaveNet","config":{"layers":[{"input_size":1,"condition_size":1,"head":{"out_channels":1,"kernel_size":16,"bias":true},"channels":8,"kernel_sizes":[6,6,6,6,6,6,6,6,6,6,6,6,6,6,15,15,6,6,6,6,6,6,6],"dilations":[1,3,7,17,41,101,239,1,3,7,17,41,101,239,1,13,1,3,7,17,41,101,239],"activation":[{"type":"LeakyReLU","negative_slope":0.01},{"type":"LeakyReLU","negative_slope":0.01},{"type":"LeakyReLU","negative_slope":0.01},{"type":"LeakyReLU","negative_slope":0.01},{"type":"LeakyReLU","negative_slope":0.01},{"type":"LeakyReLU","negative_slope":0.01},{"type":"LeakyReLU","negative_slope":0.01},{"type":"LeakyReLU","negative_slope":0.01},{"type":"LeakyReLU","negative_slope":0.01},{"type":"LeakyReLU","negative_slope":0.01},{"type":"LeakyReLU","negative_slope":0.01},{"type":"LeakyReLU","negative_slope":0.01},{"type":"LeakyReLU","negative_slope":0.01},{"type":"LeakyReLU","negative_slope":0.01},{"type":"LeakyReLU","negative_slope":0.01},{"type":"LeakyReLU","negative_slope":0.01},{"type":"LeakyReLU","negative_slope":0.01},{"type":"LeakyReLU","negative_slope":0.01},{"type":"LeakyReLU","negative_slope":0.01},{"type":"LeakyReLU","negative_slope":0.01},{"type":"LeakyReLU","negative_slope":0.01},{"type":"LeakyReLU","negative_slope":0.01},{"type":"LeakyReLU","negative_slope":0.01}],"bottleneck":8,"head1x1":{"active":false,"out_channels":1,"groups":1},"layer1x1":{"active":true,"groups":1},"groups_input":1,"groups_input_mixin":1,"conv_pre_film":{"active":false,"shift":true,"groups":1},"conv_post_film":{"active":false,"shift":true,"groups":1},"input_mixin_pre_film":{"active":false,"shift":true,"groups":1},"input_mixin_post_film":{"active":false,"shift":true,"groups":1},"activation_pre_film":{"active":false,"shift":true,"groups":1},"activation_post_film":{"active":false,"shift":true,"groups":1},"layer1x1_post_film":{"active":false,"shift":true,"groups":1},"head1x1_post_film":{"active":false,"shift":true,"groups":1},"gating_mode":["none","none","none","none","none","none","none","none","none","none","none","none","none","none","none","none","none","none","none","none","none","none","none"],"secondary_activation":[null,null,null,null,null,null,null,null,null,null,null,null,null,null,null,null,null,null,null,null,null,null,null],"slimmable":null}],"head":null,"head_scale":0.008946017204273786},"weights":[-0.39365920424461365,-0.0006855906685814261,0.15043196082115173,0.5525504350662231,-0.4557638466358185,-0.3113158643245697,0.1800089180469513,0.8021724820137024,-0.11982405930757523,-0.051330823451280594,-0.013576671481132507,0.06567908823490143,0.23597867786884308,-0.024466367438435555,0.0032071094028651714,0.00273798662237823,0.001243655220605433,0.0020343740470707417,0.0018088392680510879,0.0015421014977619052,0.040675412863492966,0.025530487298965454,0.010920478031039238,-0.017384329810738564,-0.06881769001483917,-0.0007252587820403278,0.07399560511112213,0.12137198448181152,0.02976495400071144,-0.06459737569093704,-0.2259773164987564,0.02801486849784851,-0.12122508883476257,-0.0678773894906044,-0.011595644988119602,0.06573034822940826,0.22433851659297943,-0.025492580607533455,-0.07015703618526459,-0.04478989169001579,-0.014050619676709175,0.03362239897251129,0.14154718816280365,0.009311375208199024,0.049423959106206894,0.033907920122146606,0.023360544815659523,-0.02103319950401783,-0.07497381418943405,0.005367130506783724,0.1981973499059677,0.07067988067865372,0.06145307794213295,0.0022379420697689056,-0.2673889100551605,0.00921914353966713,0.04608766734600067,-0.060584258288145065,-0.09956816583871841,-0.2127476930618286,-0.2710779309272766,-0.0702614039182663,-0.000992659479379654,-0.0003278602962382138,-0.0005242078332230449,-0.00007624054705956951,0.0008682686020620167,0.0010157667566090822,0.029711250215768814,0.03428105637431145,0.021766990423202515,0.06459198147058487,0.1022479385137558,-0.0018691557925194502,-0.03051716461777687,0.09958907216787338,0.13458654284477234,0.22152145206928253,0.30523449182510376,0.031545426696538925,-0.016833024099469185,0.03207261115312576,-0.1440424770116806,-0.13356131315231323,-0.2576623558998108,-0.0371842160820961,-0.046639591455459595,-0.005181495100259781,-0.13242925703525543,-0.15016058087348938,-0.2004019170999527,-0.06456780433654785,0.033959224820137024,0.03877059742808342,0.07792243361473083,0.10537546128034592,0.1605818122625351,0.03590543195605278,-0.038945555686950684,0.01907516084611416,0.119569793343544,0.20817454159259796,0.39573079347610474,0.151524618268013,0.004076742101460695,-0.08939636498689651,0.028555043041706085,-0.18162064254283905,-0.00813996884971857,0.1372384876012802,0.0065936376340687275,0.00744732515886426,0.007032947614789009,0.006211866158992052,0.00650107953697443,0.006898954976350069,-0.0010328355710953474,0.022819912061095238,-0.009690399281680584,0.058934930711984634,-0.0010425281943753362,-0.05574952811002731,0.030626073479652405,0.06993132829666138,-0.032596513628959656,0.22409118711948395,0.013431522063910961,-0.14372552931308746,0.016406049951910973,-0.14136138558387756,0.01904539205133915,-0.24040085077285767,0.020009012892842293,0.14027108252048492,-0.015276125632226467,-0.07348085939884186,-0.008468423038721085,-0.15435542166233063,-0.020051246508955956,0.08534569293260574,-0.0004941198276355863,0.034059152007102966,-0.011243904940783978,0.07400822639465332,-0.0036939620040357113,-0.06431255489587784,0.04666438326239586,0.19031916558742523,0.022157976403832436,0.2658737599849701,-0.011107667349278927,-0.23796075582504272,-0.09361936897039413,-0.16663578152656555,-0.1966087967157364,-0.24034859240055084,-0.20475643873214722,-0.024571193382143974,-0.0033724987879395485,-0.002598542021587491,-0.0026863652747124434,-0.00470306258648634,-0.0028086709789931774,-0.004371612798422575,0.02485021948814392,0.05692477896809578,0.07328598946332932,0.07686791568994522,0.06515046954154968,0.009569684974849224,0.07072637975215912,0.20657046139240265,0.23251938819885254,0.21185417473316193,0.20838375389575958,0.01920846663415432,-0.08048097789287567,-0.1965472251176834,-0.25164976716041565,-0.22986295819282532,-0.20303261280059814,-0.01462666504085064,-0.05755578726530075,-0.12118926644325256,-0.1645820289850235,-0.17119775712490082,-0.1299837976694107,-0.022460153326392174,0.03073979914188385,0.06922989338636398,0.09253457933664322,0.0932045727968216,0.0789199024438858,0.012297390960156918,0.1296263486146927,0.23112666606903076,0.32413679361343384,0.35583651065826416,0.24200904369354248,0.0087345065549016,-0.06851987540721893,0.013454858213663101,-0.0048637897707521915,0.15628644824028015,0.11779484897851944,0.054419681429862976,0.0006809361511841416,0.0011129265185445547,0.0004258266999386251,0.001706766663119197,0.0012287914287298918,0.0019279845291748643,0.02301173098385334,-0.011671139858663082,0.0024201120249927044,-0.05108743533492088,-0.03604884818196297,-0.02589593455195427,0.0632646456360817,-0.016396915540099144,-0.0001802085607778281,-0.16560977697372437,-0.1104736402630806,-0.07626030594110489,-0.06859152019023895,0.01645762100815773,-0.004655911587178707,0.17911328375339508,0.11281885206699371,0.07533841580152512,-0.05755572393536568,0.02470230869948864,-0.013495748862624168,0.12432269752025604,0.0770433098077774,0.0456005334854126,0.022669516503810883,-0.018562626093626022,0.00034023678745143116,-0.0662214457988739,-0.04941680654883385,-0.032836221158504486,0.0966406837105751,-0.03925672918558121,0.035165052860975266,-0.2311389297246933,-0.23790176212787628,-0.12135063111782074,0.05838485434651375,-0.14282968640327454,0.1753760278224945,0.12339252233505249,-0.009005913510918617,0.02703736163675785,0.0027842067647725344,0.00223081698641181,0.002833319129422307,0.004497205372899771,0.001931561972014606,0.0040068430826067924,-0.005677811335772276,0.07133635878562927,-0.0520133338868618,-0.05652282387018204,-0.006733143702149391,-0.006425729487091303,0.008545135147869587,0.12221047282218933,-0.19923162460327148,-0.16054564714431763,0.019197072833776474,0.006240950897336006,0.04885963350534439,-0.20274055004119873,0.16770502924919128,0.14025191962718964,0.03218658268451691,0.024530692026019096,0.024320492520928383,-0.1337486207485199,0.09621363133192062,0.08236297965049744,-0.0015921854646876454,0.010672129690647125,-0.018204906955361366,0.08344392478466034,-0.07242938876152039,-0.06867747753858566,-0.013334394432604313,-0.01491082739084959,-0.04476834088563919,0.21842646598815918,-0.20638878643512726,-0.21106526255607605,0.04077642410993576,0.06335624307394028,-0.09305495768785477,0.0002582433808129281,-0.07680699229240417,0.07259716838598251,0.1960015445947647,-0.051074784249067307,0.00262886518612504,0.0005967137985862792,-0.0011471172329038382,0.001263260841369629,-0.00008414613694185391,0.00025627523427829146,0.024013428017497063,0.004966705571860075,0.010593983344733715,-0.040042292326688766,-0.06546854972839355,0.001629110425710678,0.05869537591934204,0.018977822735905647,0.018891459330916405,-0.12307744473218918,-0.23160022497177124,0.024536840617656708,-0.06252837926149368,-0.041772931814193726,-0.08036154508590698,0.13959994912147522,0.20184080302715302,-0.014108290895819664,-0.06242930889129639,-0.02688886597752571,-0.04416896030306816,0.07480430603027344,0.1551981419324875,-0.06350377202033997,0.024735210463404655,0.010286308825016022,0.014929869212210178,-0.048426177352666855,-0.06921740621328354,0.001541436300612986,0.12738904356956482,-0.02844412438571453,0.10544288158416748,-0.2200884371995926,-0.23234082758426666,0.02352648414671421,-0.12328121811151505,-0.07360844314098358,-0.0038116101641207933,-0.17696484923362732,0.20661289989948273,0.0369395948946476,0.008283974602818489,0.009172677993774414,0.008668717928230762,0.006753690540790558,0.006609056610614061,0.008006288670003414,0.04403876140713692,0.015582540072500706,0.020833559334278107,0.07454395294189453,-0.10400157421827316,-0.003209351096302271,0.06404063105583191,0.13239820301532745,0.006378254387527704,0.10390167683362961,-0.2639490067958832,0.015559074468910694,-0.06944025307893753,-0.08298389613628387,-0.07153266668319702,-0.17087560892105103,0.23245029151439667,-0.03669547289609909,-0.03297748789191246,-0.10901129990816116,-0.07068466395139694,-0.15926745533943176,0.16657355427742004,0.01670079678297043,0.07062546163797379,0.025119537487626076,0.02654481865465641,0.10423668473958969,-0.0910228043794632,0.0313984639942646,0.10383648425340652,0.051221106201410294,0.12603731453418732,0.12401777505874634,-0.2813785970211029,-0.011670969426631927,0.012229031883180141,0.3264021873474121,0.006764458492398262,0.004253502003848553,-0.2727036476135254,0.005483676679432392,-0.004462378565222025,0.014759743586182594,-0.11080117523670197,0.19218719005584717,-0.3349848985671997,0.26161521673202515,-0.4040656089782715,0.28879493474960327,0.41628363728523254,-0.38685140013694763,0.04214343801140785,0.19870996475219727,0.009747888892889023,-0.16497214138507843,0.0024394216015934944,0.1219896599650383,0.13146506249904633,0.18943287432193756,-0.06884802877902985,-0.426626592874527,-0.3033332824707031,0.36000198125839233,-0.22241583466529846,-0.570404589176178,-0.5121220350265503,-0.09309409558773041,0.009177196770906448,0.35449206829071045,0.0277244970202446,0.4792802035808563,0.24392244219779968,-0.10670638829469681,-0.037089984863996506,-0.005340296775102615,0.22330786287784576,0.062204908579587936,0.3413706421852112,-0.35968178510665894,-0.2698984146118164,0.38258081674575806,0.3335975706577301,0.2573226988315582,0.21208520233631134,-0.4557790160179138,0.16673414409160614,0.16583487391471863,-0.21641144156455994,-0.1101982593536377,-0.01588849164545536,0.27156421542167664,0.26549166440963745,0.12179212272167206,0.3434833884239197,-0.19002169370651245,-0.30619820952415466,0.3706032931804657,0.3812743127346039,0.4053363800048828,-0.20851962268352509,-0.054705604910850525,-0.1701873540878296,0.07386541366577148,0.3653109073638916,0.394670695066452,0.19996856153011322,-0.275150328874588,-0.13741299510002136,0.16642558574676514,0.05720039829611778,-0.18404726684093475,0.2975618243217468,-0.1059054285287857,-0.0748714953660965,-0.3189995288848877,-0.07340259104967117,0.1843523383140564,-0.1289093792438507,-0.04286324605345726,0.10052906721830368,-0.08312315493822098,0.020563585683703423,0.012144327163696289,0.0785009041428566,0.09977185726165771,0.07757679373025894,0.10915040969848633,0.12543849647045135,0.25700843334198,-0.1862850934267044,-0.1576969176530838,-0.17738857865333557,-0.15764623880386353,-0.18991856276988983,-0.27405110001564026,-0.08590367436408997,-0.06624224036931992,-0.2060958594083786,-0.19069957733154297,-0.06828189641237259,-0.19758358597755432,-0.010772120207548141,0.24658061563968658,0.17619481682777405,0.13336120545864105,0.17019417881965637,0.0481908842921257,0.10339438170194626,-0.012027213349938393,-0.025859901681542397,-0.06385630369186401,0.014454714953899384,0.025567520409822464,-0.021414605900645256,0.06695815175771713,0.10732316225767136,0.05490636080503464,0.03101860173046589,0.0708727315068245,0.08908127248287201,-0.002736381022259593,0.13325583934783936,0.12924422323703766,0.1547665148973465,0.08152033388614655,0.09183726459741592,0.03955838084220886,-0.07044948637485504,-0.04535515233874321,-0.008640222251415253,-0.08724784851074219,0.04244432598352432,-0.0119325527921319,-0.016394352540373802,-0.009666860103607178,-0.20642633736133575,-0.014455783180892467,0.013148771598935127,0.051384422928094864,0.16491203010082245,0.3091340661048889,0.3941613435745239,-0.02824784442782402,-0.07690035551786423,-0.03513888642191887,-0.06413932144641876,-0.09618527442216873,-0.13982583582401276,0.26872342824935913,-0.15757325291633606,-0.15072877705097198,0.025401469320058823,-0.049440447241067886,0.03505484014749527,-0.08481694757938385,-0.11305326223373413,0.019172202795743942,0.039186615496873856,0.0046323975548148155,0.14135022461414337,-0.3065507113933563,-0.08611297607421875,-0.10256996750831604,-0.21137003600597382,-0.11492282897233963,-0.0891505628824234,-0.11541128158569336,-0.06130606308579445,-0.059583939611911774,0.0330280140042305,0.023984670639038086,0.12608979642391205,-0.11537067592144012,0.0957515686750412,0.08500005304813385,0.0352163091301918,-0.11460424214601517,-0.09534590691328049,0.40235286951065063,0.012089353054761887,0.06880830973386765,-0.052037160843610764,0.04642406851053238,-0.0626368522644043,0.1567014455795288,0.01595577970147133,-0.04708435386419296,-0.020713327452540398,-0.0560208223760128,-0.10318350046873093,0.1388554722070694,0.2977253794670105,0.2443249225616455,0.30916082859039307,0.2480027824640274,0.3605227470397949,-0.10708921402692795,0.17455275356769562,0.08003932237625122,0.16819307208061218,0.2269686609506607,0.17041312158107758,-0.3238711655139923,0.07973333448171616,0.004441923927515745,0.03392859548330307,-0.09305847436189651,0.06309610605239868,0.0003608937549870461,0.03211471438407898,0.10708922892808914,0.16044993698596954,0.1527889221906662,0.13823841512203217,-0.20617644488811493,0.03473525866866112,0.028807442635297775,-0.029030734673142433,-0.07960488647222519,-0.03607449308037758,0.31232699751853943,-0.05266313627362251,0.02420469932258129,-0.03212093934416771,-0.08496560901403427,-0.15040737390518188,-0.3137083649635315,0.13082599639892578,0.043706588447093964,-0.006712034344673157,0.047913096845149994,-0.007129790727049112,0.36858657002449036,-0.06125302612781525,-0.20291368663311005,-0.19029457867145538,-0.16839481890201569,-0.28446686267852783,-0.37785592675209045,-0.09520570933818817,-0.06141108646988869,-0.03386176377534866,-0.14500825107097626,-0.12496638298034668,0.2565470039844513,0.14199312031269073,0.13466595113277435,0.14624562859535217,0.2827618718147278,0.23281694948673248,0.12259482592344284,-0.022187653928995132,0.09773233532905579,-0.01965169608592987,0.094479501247406,0.1286401003599167,-0.2935611307621002,0.0013161705574020743,0.0847952589392662,0.14843755960464478,0.12249280512332916,0.212014302611351,0.1985940933227539,-0.08800889551639557,-0.026760464534163475,0.014860776253044605,0.06716666370630264,0.05990637466311455,-0.005492108874022961,0.06437796354293823,0.09879626333713531,0.00032620219280943274,-0.0074814013205468655,-0.0008951894124038517,-0.09604570269584656,0.10881950706243515,0.01418245118111372,0.15377762913703918,0.023908670991659164,0.055094122886657715,0.11559140682220459,-0.17198778688907623,-0.19400961697101593,-0.27590444684028625,-0.21522550284862518,-0.05835391953587532,0.2062491923570633,-0.15463213622570038,-0.16878172755241394,-0.1748732328414917,-0.10946934670209885,-0.10340137034654617,-0.10787083208560944,0.04214657098054886,0.20761214196681976,0.11495136469602585,0.17152488231658936,0.11468752473592758,-0.05193366855382919,-0.013064427301287651,0.10441886633634567,-0.0011420885566622019,0.136557936668396,-0.1826786994934082,-0.04113484174013138,0.04650825262069702,0.1840151846408844,0.14243578910827637,0.22907193005084991,-0.039030447602272034,0.09390772879123688,0.02423313446342945,-0.15841183066368103,-0.021647462621331215,0.02279314026236534,0.022577626630663872,-0.37305405735969543,0.05270954221487045,0.07346968352794647,0.028471846133470535,-0.06965681165456772,0.17086327075958252,-0.13055051863193512,-0.01971554569900036,0.0017948781605809927,-0.09695872664451599,0.07342597097158432,-0.07010531425476074,-0.09449122846126556,-0.059910763055086136,-0.0007905036327429116,0.0336855910718441,-0.23215916752815247,-0.10363307595252991,0.17254625260829926,0.035238269716501236,0.047182757407426834,-0.0062027438543736935,-0.022337226197123528,-0.30810117721557617,0.08936646580696106,-0.057644475251436234,0.2133423238992691,0.3078055679798126,0.1363002061843872,0.347661554813385,0.3171198070049286,-0.012227608822286129,-0.22645534574985504,-0.003049860242754221,0.07223349064588547,0.19506733119487762,0.10955407470464706,0.18617361783981323,0.04465979337692261,0.16924484074115753,0.2630102336406708,0.25981441140174866,0.03245902433991432,-0.1347922682762146,0.09629084914922714,0.009381244890391827,-0.1323566436767578,0.154217928647995,-0.6849210262298584,-0.004810362588614225,-0.00570348184555769,-0.0008086467860266566,-0.03282243013381958,-0.19929279386997223,0.32345712184906006,0.07075858861207962,0.13051658868789673,0.1836414635181427,-0.0013365939958021045,0.1372290998697281,-0.108396515250206,-0.15142200887203217,-0.2586716115474701,-0.2073729932308197,-0.2449914813041687,-0.2963793873786926,0.2484792321920395,-0.25213873386383057,-0.03774123266339302,-0.18392601609230042,-0.04849385470151901,-0.13433198630809784,-0.1943746954202652,0.1739332526922226,0.29275232553482056,0.25436463952064514,0.24770820140838623,0.37834087014198303,-0.13047997653484344,-0.14350172877311707,-0.06396987289190292,0.03462839871644974,-0.13590405881404877,-0.18867893517017365,-0.05846906080842018,0.006846573669463396,0.22592857480049133,0.13474689424037933,0.16036781668663025,0.21562443673610687,-0.2234543114900589,-0.1526082158088684,-0.32223260402679443,0.011526530608534813,-0.09797272086143494,-0.07263867557048798,-0.20784728229045868,0.29118943214416504,0.05798301473259926,0.002107806270942092,0.09363865107297897,0.09153121709823608,0.2637428343296051,0.0692996084690094,0.06874629855155945,0.051759347319602966,0.09329178929328918,0.06870689988136292,-0.06273982673883438,-0.08404243737459183,-0.008934219367802143,-0.002073243260383606,0.014203382655978203,0.12694977223873138,0.2090483456850052,0.06254074722528458,0.07659436017274857,0.08567637950181961,-0.17475859820842743,-0.10816039144992828,0.21041423082351685,-0.14327266812324524,-0.10252703726291656,-0.18820925056934357,-0.08382506668567657,-0.23514558374881744,-0.06953402608633041,0.009456855244934559,-0.08863729983568192,-0.06470645219087601,-0.036651935428380966,-0.1800227016210556,-0.12254977971315384,-0.0042436434887349606,-0.07610376179218292,-0.07525263726711273,-0.04898880794644356,-0.1772366762161255,-0.1037583276629448,0.01095842756330967,-0.1619425266981125,-0.0708644688129425,-0.0597284659743309,-0.2483593225479126,-0.25970205664634705,-0.021703258156776428,0.09646297246217728,0.03142373636364937,-0.011823557317256927,0.18913160264492035,0.1704259216785431,-0.2187143862247467,0.004192828666418791,0.14252789318561554,-0.2324659377336502,0.017284397035837173,0.20030289888381958,0.015980537980794907,-0.043802618980407715,-0.022982949391007423,0.1779250204563141,0.09616945683956146,0.2046508938074112,-0.1343916654586792,0.3146544098854065,-0.10934000462293625,0.06895000487565994,-0.30638769268989563,-0.1737034022808075,-0.38215821981430054,-0.1975415199995041,0.025970127433538437,0.028810936957597733,0.13636775314807892,0.1652894765138626,0.40338754653930664,-0.11213003844022751,-0.07097496837377548,0.4803061783313751,-0.28625819087028503,-0.22233973443508148,-0.4553065598011017,0.28010624647140503,0.22815650701522827,0.09582483023405075,-0.0932246670126915,-0.31231266260147095,0.13207903504371643,-0.04233388602733612,-0.06117945536971092,0.05653996020555496,-0.26027655601501465,-0.1477743238210678,0.18404172360897064,-0.019471123814582825,0.17843356728553772,0.05586433783173561,0.36542123556137085,0.11081138998270035,-0.06332892179489136,-0.14722128212451935,0.14677217602729797,0.5003681182861328,-0.09243126213550568,-0.16555164754390717,-0.04657311737537384,0.01363429520279169,-0.2934296727180481,-0.16884025931358337,0.36941853165626526,0.08539124578237534,0.042393334209918976,0.008055956102907658,0.33785226941108704,-0.07120935618877411,-0.4528735280036926,0.31783750653266907,-0.13308191299438477,-0.27005475759506226,0.11437126249074936,0.3618472218513489,0.1999972015619278,-0.18175965547561646,0.18745368719100952,0.2139841765165329,0.3038281798362732,-0.3880347013473511,-0.00414572237059474,0.018910139799118042,-0.18745337426662445,0.2670946717262268,0.00862107239663601,0.004948327783495188,0.0857383981347084,-0.00574267515912652,0.021553678438067436,-0.04884183779358864,-0.07364516705274582,-0.11857075989246368,-0.23542514443397522,0.0015555050922557712,0.017833663150668144,0.07665431499481201,0.03311873972415924,0.12178347259759903,0.05789411440491676,-0.12022417783737183,-0.0738673210144043,0.08204246312379837,-0.05089549347758293,0.35968977212905884,0.1302318572998047,0.31119224429130554,0.31104785203933716,0.01221525203436613,0.08336879312992096,-0.12174670398235321,0.02674141153693199,-0.0787145122885704,-0.09933364391326904,-0.0878487229347229,-0.02882230654358864,-0.08079281449317932,0.059796400368213654,-0.06791628897190094,-0.045312587171792984,-0.014942346140742302,0.030689913779497147,0.1922820657491684,0.032830722630023956,-0.008959704078733921,-0.1334829181432724,-0.19135014712810516,-0.3122696876525879,-0.4034503698348999,-0.02875732071697712,-0.054737865924835205,0.010442261584103107,-0.04605291783809662,0.13206855952739716,0.0909019485116005,0.31460607051849365,0.26766490936279297,0.0881001427769661,0.08997722715139389,-0.016044076532125473,-0.07423834502696991,0.040746647864580154,-0.02538418024778366,-0.08917989581823349,0.09283735603094101,-0.19285422563552856,0.023932429030537605,-0.07919473946094513,-0.03755001723766327,-0.08708643913269043,-0.04955849424004555,-0.07493095844984055,0.09485432505607605,-0.07440364360809326,-0.018388204276561737,-0.05962666869163513,0.03814930096268654,0.024296551942825317,0.28245389461517334,0.15026818215847015,0.14253823459148407,0.07917381078004837,0.21675240993499756,0.2733924686908722,-0.11047500371932983,-0.09791074693202972,-0.06644294410943985,0.052608683705329895,0.10015080124139786,0.04637931287288666,-0.4855349361896515,0.001449122792109847,0.06981988996267319,0.17255893349647522,0.12182285636663437,0.2306622713804245,-0.22757919132709503,0.039013005793094635,0.033810991793870926,0.033953841775655746,0.10720297694206238,0.037707872688770294,-0.027447285130620003,-0.10861551016569138,-0.10305705666542053,-0.0641828253865242,-0.03237024322152138,-0.15972428023815155,0.449486643075943,0.06602664291858673,0.026734769344329834,0.09208553284406662,0.06127948313951492,0.012753569521009922,0.1867738664150238,-0.09880576282739639,0.06816022098064423,-0.011453184299170971,-0.0876392275094986,0.049836285412311554,0.048998478800058365,0.025412542745471,0.09933647513389587,0.02876836247742176,-0.061875201761722565,-0.26075199246406555,0.20814500749111176,-0.1794043630361557,0.0692075714468956,-0.11626967787742615,0.18683363497257233,0.0753294825553894,-0.10069608688354492,-0.02569195255637169,-0.004024897236377001,-0.00048345260438509285,-0.011253319680690765,0.018864495679736137,-0.00008632428216515109,-0.03724021092057228,-0.07805228978395462,-0.02099286951124668,0.09630277752876282,-0.013490242883563042,-0.08061417937278748,0.05098336189985275,-0.12731055915355682,0.06838148087263107,-0.17594656348228455,-0.06760583072900772,-0.00020877279166597873,0.05362103134393692,0.06281323730945587,-0.0021915591787546873,0.1279296875,0.09214136749505997,-0.1204516813158989,0.2986133396625519,0.22799505293369293,0.20064957439899445,0.20133842527866364,0.16541904211044312,-0.37321528792381287,-0.08971212059259415,-0.04870489239692688,-0.04673299565911293,-0.10981720685958862,-0.13773542642593384,-0.13168670237064362,0.07151153683662415,0.01583103835582733,-0.0938287004828453,-0.06204516440629959,0.1417587399482727,-0.22690413892269135,0.008041998371481895,0.0009006556938402355,0.09954986721277237,0.03650445491075516,0.11545111984014511,0.22127583622932434,0.0009587447275407612,0.0021234583109617233,0.0018281395314261317,-0.033861562609672546,0.007416189648211002,0.09995894134044647,-0.05661670118570328,-0.013008217327296734,0.010535767301917076,0.08037053048610687,0.07717426121234894,0.24886904656887054,0.07975255697965622,0.11193210631608963,0.07033487409353256,0.06672868877649307,0.03646209090948105,0.048216577619314194,-0.02711804024875164,-0.02386474795639515,-0.010426796041429043,-0.011770769953727722,0.004261470399796963,-0.06682475656270981,0.02888312190771103,0.07697200030088425,0.06994715332984924,0.08031998574733734,0.03333542123436928,0.0618036724627018,-0.16022108495235443,-0.07542305439710617,-0.06169208511710167,0.07960575819015503,-0.023409554734826088,-0.20312120020389557,-0.017864247784018517,-0.05784454569220543,0.025081904605031013,0.11766888201236725,0.10168512910604477,-0.011874305084347725,-0.11812061816453934,0.01859269104897976,-0.03905142471194267,-0.27205702662467957,-0.053160469979047775,-0.1748504936695099,0.03003525920212269,-0.05116515979170799,-0.05944231152534485,0.037664297968149185,-0.01218442339450121,-0.029597200453281403,0.09624528884887695,-0.004734205547720194,-0.059742528945207596,-0.08687426894903183,-0.04609059542417526,0.04265385493636131,0.03681905195116997,0.0404168926179409,0.1480683535337448,-0.0825226753950119,0.05818207561969757,0.22277837991714478,-0.06369810551404953,0.01833498105406761,0.004393684212118387,-0.06683991849422455,0.041702985763549805,-0.050437211990356445,0.19541655480861664,0.09428317099809647,0.10470389574766159,0.08764030039310455,0.020245738327503204,0.11814740300178528,0.03754953667521477,0.08716318011283875,0.10939603298902512,0.14537420868873596,0.22393350303173065,0.19231882691383362,-0.1281135082244873,-0.1158299371600151,-0.1227814182639122,-0.18188394606113434,-0.08095420897006989,-0.17080296576023102,-0.0687401294708252,-0.03825392946600914,-0.031092986464500427,-0.07002655416727066,-0.09421013295650482,-0.14082416892051697,-0.09645407646894455,-0.0550481341779232,0.032810285687446594,0.05825308710336685,0.09865162521600723,0.2632835805416107,-0.16250285506248474,-0.11808804422616959,-0.026393147185444832,-0.016569094732403755,-0.122317373752594,-0.0009118519374169409,0.00018591033585835248,-0.02951889857649803,-0.029727619141340256,-0.06055322289466858,-0.05734845995903015,-0.13343390822410583,-0.08710506558418274,0.015102583914995193,-0.05270581319928169,-0.0755213126540184,-0.03648173063993454,-0.10370847582817078,0.1335328072309494,0.0015390330227091908,0.08471322804689407,0.14841106534004211,0.12600044906139374,0.03283971548080444,-0.013000380247831345,0.004644597414880991,0.04697227105498314,0.010585705749690533,-0.06493188440799713,-0.02736302837729454,-0.05711575597524643,-0.09866192936897278,0.049764081835746765,-0.04483795911073685,-0.1178283616900444,0.11561515927314758,-0.020605316385626793,-0.04199898988008499,-0.0637105256319046,-0.20691725611686707,-0.18618173897266388,0.06799384951591492,-0.004593402147293091,-0.008873015642166138,-0.1197826936841011,0.06217489764094353,0.0016583736287429929,-0.2594827711582184,-0.08210362493991852,-0.004560008179396391,-0.10854766517877579,0.020641304552555084,-0.05761527642607689,-0.2223241627216339,-0.09448787569999695,0.010091667994856834,-0.2020280361175537,-0.12529852986335754,0.02796752378344536,0.09999089688062668,0.013872082345187664,0.06167486310005188,0.07913585007190704,-0.07322824001312256,-0.026167605072259903,0.2410433143377304,0.10933183133602142,0.016727261245250702,0.026147088035941124,-0.09393566101789474,-0.09148383885622025,0.03181157633662224,0.04835972189903259,0.0317896232008934,-0.014682754874229431,-0.020823786035180092,0.1463223099708557,-0.09945647418498993,-0.026312753558158875,0.13593585789203644,0.12207365036010742,0.23444080352783203,0.13866648077964783,-0.2946628928184509,-0.0590507909655571,-0.030942143872380257,-0.10543730854988098,0.019932199269533157,-0.17183123528957367,0.0720735639333725,0.0863422304391861,-0.023863550275564194,0.03473551571369171,-0.06318355351686478,0.18763414025306702,0.04492140933871269,-0.04552847892045975,-0.05191386118531227,0.01997160166501999,0.06099340692162514,0.13117195665836334,0.08430757373571396,0.015459936112165451,0.05128074437379837,0.14155934751033783,-0.12722177803516388,0.011072944849729538,0.03597015142440796,-0.10803433507680893,0.02486957609653473,0.028945405036211014,0.17072749137878418,0.12324503064155579,0.062035202980041504,-0.02044924907386303,0.06193220987915993,-0.01844664290547371,-0.1782979816198349,-0.18358425796031952,-0.06842853128910065,-0.09947361052036285,-0.11175952106714249,-0.2367861270904541,0.15929502248764038,-0.07432671636343002,-0.21631276607513428,-0.23634155094623566,-0.25326716899871826,0.2599922716617584,-0.10197999328374863,-0.08240115642547607,-0.037242062389850616,-0.14028328657150269,0.23453834652900696,0.3311470150947571,0.19764119386672974,-0.4726409912109375,0.005884175188839436,0.07144270837306976,-0.40967682003974915,-0.15469247102737427,-0.18912871181964874,0.059107158333063126,0.09786980599164963,0.05414958670735359,-0.10533332079648972,-0.3105430006980896,0.10155186802148819,-0.20662933588027954,0.12017437815666199,0.027567848563194275,0.4860764443874359,0.14594946801662445,-0.0378745011985302,-0.11408369243144989,0.07195737957954407,0.30206918716430664,-0.6268519759178162,-0.29562848806381226,-0.36765578389167786,-0.03883594274520874,-0.16648541390895844,-0.11260899156332016,0.08416339755058289,0.12404246628284454,-0.2816953957080841,-0.2855660319328308,0.21001788973808289,0.1251693218946457,0.06303486227989197,0.34594887495040894,0.2205810844898224,0.17832018435001373,-0.12154495716094971,0.05175548791885376,-0.07527992874383926,0.21955421566963196,0.10599377751350403,-0.19992023706436157,0.34166213870048523,-0.09544432908296585,0.004517073277384043,-0.18504440784454346,-0.10526269674301147,0.34312644600868225,-0.14614337682724,0.22746345400810242,-0.12450233846902847,0.05250951647758484,-0.027449049055576324,-0.1430954486131668,-0.07171257585287094,-0.09685076773166656,-0.1733262687921524,0.08052296936511993,0.02042694203555584,-0.10853846371173859,0.02193840779364109,0.06446079909801483,-0.022406145930290222,0.04724131524562836,-0.003116633277386427,-0.06648048013448715,0.02148277871310711,0.12070915848016739,0.02267300896346569,-0.04889298602938652,0.332092821598053,0.03692949563264847,-0.05976996570825577,0.016960447654128075,-0.02895357832312584,0.12365328520536423,0.5123066902160645,-0.04188326746225357,0.07046087831258774,0.04038872569799423,0.04248761758208275,-0.010229206643998623,-0.2758327126502991,-0.14258600771427155,0.0035005526151508093,-0.057753317058086395,-0.0872892290353775,-0.0949387401342392,-0.22545038163661957,-0.18890413641929626,-0.02620117738842964,-0.04901772737503052,-0.03494485840201378,0.03946651518344879,0.48648789525032043,0.2086166888475418,0.0579846017062664,0.09111102670431137,0.05960137024521828,0.05287528783082962,-0.10449536144733429,-0.14073573052883148,-0.006975672207772732,-0.05905567482113838,-0.007562741171568632,-0.010883168317377567,-0.12610208988189697,0.20582722127437592,0.04090777039527893,0.19663825631141663,0.03546871989965439,0.09553040564060211,-0.4043715000152588,-0.021641632542014122,-0.019382048398256302,-0.007270824164152145,-0.06410019099712372,-0.008907102979719639,-0.34352219104766846,0.17177137732505798,0.162985697388649,0.09637340158224106,0.09157201647758484,0.2190503031015396,-0.056320060044527054,-0.011454662308096886,-0.055646780878305435,-0.13114291429519653,-0.063078872859478,-0.07302644103765488,0.21547290682792664,0.14155536890029907,-0.05152396485209465,-0.2171996682882309,-0.11756721138954163,-0.09785650670528412,-0.18441759049892426,0.0877917930483818,0.13971677422523499,0.09096378087997437,0.13695606589317322,0.08711111545562744,-0.3531826138496399,-0.25725042819976807,-0.10702983289957047,-0.07358068972826004,-0.14943769574165344,-0.1849948763847351,0.023583071306347847,0.10323425382375717,0.13945990800857544,0.07908783107995987,-0.1403696984052658,-0.006045447196811438,-0.11756114661693573,-0.24081730842590332,-0.18382388353347778,-0.16723166406154633,-0.02558964677155018,-0.02896602265536785,0.3599995970726013,0.16428536176681519,0.09547577053308487,0.10447075963020325,0.04820643365383148,0.045351725071668625,0.5771391987800598,-0.06918937712907791,-0.054582029581069946,-0.006615922786295414,-0.08538658916950226,-0.10355359315872192,-0.2068898230791092,0.010760738514363766,-0.017635192722082138,-0.006040892098098993,0.02436625026166439,0.015175209380686283,-0.1756557673215866,0.013364315964281559,-0.012926718220114708,0.046962201595306396,0.005146523471921682,0.05752713978290558,0.008170363493263721,0.04797719046473503,-0.05214662104845047,-0.10659132897853851,-0.111024871468544,-0.14449776709079742,0.07649917155504227,0.06498966366052628,0.12700216472148895,0.09110170602798462,0.12675592303276062,0.16992947459220886,0.4271146357059479,0.1066608875989914,0.043975718319416046,-0.009154780767858028,-0.05207250639796257,0.03453375771641731,-0.20129096508026123,-0.026987861841917038,0.008818334899842739,0.012447250075638294,-0.04176666960120201,-0.10483701527118683,-0.5668556690216064,-0.002767611062154174,-0.04728636518120766,-0.05972611904144287,-0.07292995601892471,-0.19565963745117188,0.28426802158355713,0.1298486590385437,0.028126602992415428,0.03206612914800644,0.10914741456508636,0.1364433467388153,0.6210212707519531,-0.09028845280408859,-0.07953058928251266,-0.05190414935350418,0.03929890692234039,-0.013973870314657688,-0.4980815052986145,-0.20071105659008026,-0.07670073211193085,-0.07610432803630829,0.0003329885075800121,-0.03768337145447731,-0.0315028615295887,-0.08965768665075302,-0.07276905328035355,-0.0801427960395813,-0.0582645982503891,-0.009862163104116917,0.2592472434043884,0.12172642350196838,0.07923762500286102,0.04422654211521149,0.0587189607322216,0.09722132980823517,-0.3772903084754944,0.07881974428892136,0.011736101470887661,-0.06873350590467453,-0.064307801425457,-0.01141213160008192,-0.26000896096229553,0.15118053555488586,0.0877184122800827,0.03149490803480148,-0.0038861434441059828,-0.0035613037180155516,-0.3048694133758545,0.025906052440404892,0.07074645906686783,0.09176947921514511,0.06372520327568054,0.050052206963300705,-0.038036052137613297,0.09280452132225037,0.03431916981935501,0.02630230039358139,0.055516667664051056,0.13383501768112183,0.06686729192733765,-0.012132164090871811,-0.027564695104956627,0.058773964643478394,0.0893704891204834,0.1951003223657608,0.2305547446012497,0.07997401803731918,0.12396563589572906,0.15118969976902008,-0.09086905419826508,0.040042344480752945,0.041504278779029846,-0.018763432279229164,0.031418949365615845,0.05830390751361847,0.04801954701542854,-0.0039739287458360195,-0.25797179341316223,-0.11901570111513138,-0.1225193589925766,-0.1179065927863121,-0.060393646359443665,-0.15393391251564026,-0.2638687789440155,-0.022165196016430855,-0.032206274569034576,-0.0404595285654068,-0.06705086678266525,-0.16107721626758575,0.09850488603115082,0.09188413619995117,0.06060685217380524,0.09256580471992493,0.09244754165410995,0.11697583645582199,0.26211196184158325,-0.04621734842658043,-0.07423649728298187,-0.04194652661681175,-0.14107029139995575,-0.21943867206573486,-0.11017296463251114,-0.06135454401373863,-0.021998364478349686,-0.09862580895423889,-0.016998721286654472,-0.12464657425880432,0.0763343945145607,-0.015414323657751083,-0.03185827657580376,0.0339985154569149,0.06510229408740997,0.128987118601799,-0.17424370348453522,0.03812916576862335,0.047750554978847504,0.005930339451879263,0.08593565225601196,0.024494387209415436,0.1476963758468628,0.14685790240764618,0.09980986267328262,0.10097160190343857,0.06994245201349258,0.031049324199557304,0.3444939851760864,-0.17862743139266968,0.04397652670741081,0.09134258329868317,0.1316373348236084,0.3194720447063446,-0.07740314304828644,0.05270538106560707,0.034314364194869995,0.04451056197285652,0.030386341735720634,0.1093793660402298,0.1944098025560379,-0.14041467010974884,-0.033868350088596344,-0.12031716108322144,-0.06941092014312744,-0.20590728521347046,0.3481409251689911,-0.024269184097647667,-0.04382418841123581,-0.13413546979427338,-0.16457530856132507,0.031147237867116928,0.41734933853149414,-0.025740092620253563,0.014429189264774323,0.026035798713564873,-0.16528955101966858,-0.17503732442855835,0.2929995059967041,0.03509669005870819,0.1015089899301529,0.13596418499946594,0.13464215397834778,-0.03112649731338024,-0.2967985272407532,0.0025524639058858156,-0.08974026143550873,0.10174247622489929,-0.07776894420385361,0.06303103268146515,0.08820588886737823,-0.012946260161697865,0.034110017120838165,-0.022077355533838272,-0.02462785132229328,-0.14401735365390778,-0.04035080224275589,0.05375969782471657,0.1095527708530426,0.11695468425750732,0.17176054418087006,0.028304601088166237,-0.5147877335548401,-0.023427516222000122,0.02023271843791008,-0.12574051320552826,0.02841561660170555,-0.07378394901752472,0.04606901854276657,0.08391019701957703,0.19392052292823792,0.12416872382164001,0.0035607912577688694,0.01969594694674015,0.048314038664102554,0.060869015753269196,-0.016025029122829437,0.009892091155052185,0.04018960893154144,-0.06052800267934799,-0.10856800526380539,-0.11277200281620026,-0.07620969414710999,-0.007003748323768377,-0.12114137411117554,-0.11325474828481674,-0.6692691445350647,-0.01107922662049532,-0.03342048078775406,-0.03554869443178177,-0.07155729085206985,-0.0053912680596113205,-0.10446427762508392,-0.0010699889389798045,0.0012646408285945654,0.03641262277960777,-0.011796025559306145,0.025881312787532806,0.21309439837932587,-0.05177976191043854,-0.11087338626384735,-0.13283982872962952,0.03266564756631851,-0.07693113386631012,-0.003993787337094545,0.026638265699148178,0.0650639533996582,-0.025134604424238205,0.012127378955483437,0.06685325503349304,0.2674153447151184,0.025025974959135056,0.0012683673994615674,-0.033635787665843964,-0.017964893952012062,-0.0867825374007225,0.5254206657409668,-0.08017414063215256,-0.062452130019664764,-0.025754414498806,-0.05346626788377762,-0.08508870750665665,0.3872951865196228,-0.5563123226165771,0.11560044437646866,-0.10128302872180939,0.09694994240999222,0.039820536971092224,-0.034042838960886,-0.06756459921598434,-0.1257132738828659,-0.29029273986816406,0.09271568059921265,0.007102795876562595,-0.1099693700671196,0.43704164028167725,0.14133431017398834,-0.2722170948982239,-0.16923677921295166,0.22393056750297546,0.1476288139820099,-0.1279747188091278,-0.2781887948513031,0.12668609619140625,0.06795226037502289,-0.30725333094596863,0.2505483329296112,-0.053990378975868225,0.07472213357686996,-0.24489347636699677,-0.053590528666973114,-0.16673697531223297,-0.3831917643547058,-0.32832735776901245,0.14479346573352814,0.0348692461848259,0.15937788784503937,0.099427230656147,-0.0900191217660904,0.15160030126571655,-0.013131662271916866,-0.012548686005175114,-0.05356279015541077,0.2721351087093353,0.10383361577987671,-0.3182682991027832,0.08679479360580444,-0.18231242895126343,0.13987798988819122,0.20890896022319794,-0.4990147054195404,-0.6978458166122437,0.33805567026138306,-0.3199540972709656,0.36432158946990967,-0.0778995230793953,0.0476786270737648,0.25655117630958557,0.21639131009578705,0.29668933153152466,-0.2935325503349304,-0.1629597693681717,0.3500666916370392,0.22063179314136505,0.22639338672161102,0.11399970948696136,0.09005552530288696,-0.3709928095340729,0.3687463104724884,0.39587557315826416,0.3975503444671631,0.2120540589094162,-0.09759503602981567,-0.22174370288848877,-0.1638522446155548,0.2731246054172516,0.21140944957733154,0.2137700766324997,-0.3150552213191986,0.14431415498256683,-0.2930188775062561,-0.15680567920207977,-0.3059639632701874,-0.01838112063705921,-0.011865404434502125,0.04559721052646637,0.002140659373253584,-0.15635350346565247,-0.1287795454263687,-0.2028704434633255,0.12915503978729248,-0.06157420575618744,-0.07549826055765152,-0.03573867306113243,-0.1570521742105484,-0.333158403635025,0.44168850779533386,0.013952643610537052,0.022748589515686035,0.06606507301330566,-0.09826812893152237,-0.08412446081638336,0.6677789092063904,-0.0008034285856410861,-0.0417923629283905,-0.038421109318733215,0.037241555750370026,0.14563554525375366,-0.2555539608001709,-0.003636457957327366,-0.027598083019256592,-0.038594700396060944,-0.0020747173111885786,0.006473219022154808,0.272678405046463,-0.03723202273249626,-0.06389600783586502,-0.05711664259433746,-0.03782086446881294,-0.017312271520495415,0.42113158106803894,-0.040530458092689514,-0.003844558959826827,0.08630216121673584,0.11228529363870621,0.1838771104812622,-0.22146591544151306,-0.03923720493912697,-0.01921934448182583,-0.0711510106921196,-0.13122503459453583,-0.1854763925075531,-0.6409051418304443,0.05052151903510094,0.09934647381305695,0.17770235240459442,0.17114955186843872,0.1454010009765625,-0.234137162566185,-0.12113799899816513,-0.16121524572372437,-0.20195715129375458,-0.1496143639087677,-0.266475647687912,-0.1321948915719986,0.041476547718048096,-0.01705840229988098,-0.03913310170173645,-0.0447339303791523,-0.14312663674354553,0.26788321137428284,0.0253902580589056,-0.002046946668997407,0.07055844366550446,0.0723932534456253,0.0657290369272232,0.18081314861774445,-0.03396506980061531,0.029810788109898567,-0.026926295831799507,-0.0331689715385437,-0.0623287558555603,-0.11362617462873459,-0.06207512319087982,0.013114607892930508,0.007295986171811819,0.024664321914315224,0.06937313824892044,0.0394325777888298,0.23259370028972626,0.11934222280979156,0.14400102198123932,0.23631589114665985,0.05779275298118591,-0.3247435986995697,-0.03904988244175911,-0.011048517189919949,-0.03382022678852081,0.011825823225080967,-0.029137682169675827,0.07248901575803757,0.037624016404151917,0.15781578421592712,0.047908294945955276,-0.004008413292467594,-0.1637246012687683,-0.11398845911026001,0.09678150713443756,0.024222731590270996,-0.022981122136116028,0.07944215089082718,0.18040481209754944,0.08256634324789047,-0.05149776116013527,0.041831713169813156,0.08231101930141449,0.02959047630429268,0.10267870873212814,0.21521501243114471,-0.05090176686644554,-0.06401995569467545,-0.03284863382577896,-0.03777651861310005,0.04264216870069504,-0.23942475020885468,-0.009239215403795242,0.030559029430150986,0.017559483647346497,-0.053977590054273605,0.05581473559141159,0.5474925637245178,0.2700524628162384,0.16631756722927094,0.14449608325958252,0.1658615618944168,0.12716388702392578,0.040825389325618744,-0.11082974821329117,-0.14093677699565887,-0.10145264118909836,-0.13509586453437805,-0.09120622277259827,-0.2417718470096588,-0.02886377088725567,0.025725549086928368,0.08707833290100098,0.02173272706568241,-0.001050723483785987,0.14915916323661804,0.12436382472515106,0.07376187294721603,-0.002137844916433096,-0.05585155263543129,-0.04496895521879196,0.15144576132297516,-0.08090589940547943,0.001483811647631228,-0.02513596974313259,0.031914032995700836,0.13092702627182007,0.010318257845938206,-0.05365176871418953,-0.03365335240960121,-0.08654726296663284,-0.02980927936732769,0.006137059070169926,0.2708938717842102,0.025514084845781326,0.03250402584671974,0.02927805669605732,0.07492692023515701,0.01796594448387623,0.062156278640031815,-0.02123984880745411,-0.05427786335349083,-0.043868884444236755,-0.10730870068073273,0.0006733121117576957,0.3992336094379425,-0.15936151146888733,-0.03564976900815964,-0.015580300241708755,0.1727835088968277,0.20926019549369812,-0.19139525294303894,0.1407608836889267,0.21092402935028076,0.03521834686398506,0.06353601813316345,-0.08615844696760178,-0.14308293163776398,-0.03966723382472992,0.015597990714013577,-0.03355094790458679,-0.012567679397761822,0.11691632866859436,0.012556809931993484,-0.009492346085608006,0.008631674572825432,-0.11279825121164322,-0.14065346121788025,-0.2293272763490677,0.003910385072231293,0.1490325927734375,0.05057903751730919,0.01861817017197609,0.1303500235080719,-0.028560500591993332,0.27695587277412415,-0.04318970441818237,0.12255650013685226,0.16079293191432953,0.1804698407649994,0.2747441530227661,0.28914204239845276,-0.018014175817370415,-0.07657300680875778,-0.1695268303155899,-0.18656565248966217,-0.17967218160629272,0.0960438922047615,-0.1403910517692566,-0.128653421998024,-0.03584806248545647,-0.009140295907855034,-0.018909690901637077,-0.2129029482603073,0.02810053713619709,-0.11244894564151764,-0.16956467926502228,-0.31514424085617065,-0.461860716342926,-0.00042737057083286345,-0.11630937457084656,-0.0733625739812851,-0.13954466581344604,-0.24564027786254883,0.016442066058516502,-0.22110337018966675,-0.10965742915868759,-0.12476713955402374,-0.06262586265802383,-0.12466219067573547,-0.08595939725637436,0.04805430397391319,0.06902778148651123,0.19450247287750244,0.277840793132782,0.14238759875297546,0.38085249066352844,0.05119997635483742,0.008693959563970566,0.012011060491204262,0.07569227367639542,0.07418031990528107,0.014981373213231564,-0.2176009565591812,0.013434315100312233,-0.0038105337880551815,0.017836518585681915,0.028813112527132034,0.002526929834857583,-0.10895393043756485,-0.0033678049221634865,-0.015646055340766907,-0.05991681292653084,-0.027880918234586716,0.021833883598446846,0.29611676931381226,0.010397400707006454,0.030349792912602425,0.016604416072368622,0.05443543195724487,0.020993463695049286,0.2193990796804428,0.03568929061293602,0.029902003705501556,0.038763608783483505,0.06603258103132248,0.1076679602265358,-0.5522882342338562,-0.03872968629002571,-0.08934812247753143,-0.16884134709835052,-0.11568954586982727,-0.15882886946201324,-0.40390923619270325,-0.008590842597186565,0.007706605363637209,0.013425037264823914,0.020400645211338997,0.012939420528709888,-0.012311841361224651,0.027679696679115295,-0.032943446189165115,-0.05443434789776802,-0.006597280967980623,-0.19001947343349457,0.6391605734825134,-0.0951511412858963,0.09136754274368286,0.11783050745725632,0.20509541034698486,0.21250814199447632,0.31426453590393066,-0.026308558881282806,0.037899285554885864,-0.008544513955712318,-0.02317974716424942,0.05106278508901596,0.30903568863868713,-0.05986769124865532,-0.08543437719345093,0.002523773582652211,0.02849334292113781,-0.09170055389404297,-0.04345676302909851,0.027646558359265327,-0.16661633551120758,-0.11047274619340897,-0.0917634665966034,0.06314880400896072,-0.16496218740940094,-0.07732170820236206,0.1276325285434723,0.14546766877174377,0.1378096044063568,-0.01259438693523407,-0.5687083005905151,-0.12658648192882538,-0.15112389624118805,-0.10738466680049896,-0.14499571919441223,-0.12202049046754837,-0.2929810881614685,0.06161126866936684,0.13809914886951447,0.11874726414680481,0.06897337734699249,-0.19376906752586365,-0.11699832230806351,-0.19792325794696808,-0.07075781375169754,-0.0786178708076477,-0.11281831562519073,0.19055962562561035,0.27038460969924927,0.16500215232372284,0.10437282174825668,0.11375703662633896,0.05384575203061104,0.06906172633171082,-0.39887750148773193,-0.013127807527780533,-0.027600135654211044,-0.060325056314468384,0.27217209339141846,0.1139838695526123,-0.07774574309587479,-0.04665611684322357,-0.030813636258244514,0.04057517275214195,0.031274162232875824,-0.017720088362693787,-0.333761602640152,0.0008359907660633326,0.004948136862367392,0.08336356282234192,0.07512398809194565,0.012036961503326893,-0.021502988412976265,0.2819446623325348,0.11934180557727814,0.06009049713611603,0.0171063169836998,0.02912667579948902,-0.18299554288387299,-0.03436914458870888,-0.10878538340330124,-0.06785942614078522,-0.06745091825723648,-0.02888152003288269,0.47478607296943665,0.10575694590806961,-0.02091357484459877,0.07812952995300293,0.041584379971027374,0.05935290455818176,-0.09166407585144043,0.06496347486972809,-0.08661802113056183,-0.14146317541599274,-0.1155640035867691,0.21663761138916016,0.3648032546043396,0.0389377698302269,0.15281368792057037,0.08521486073732376,0.014705421403050423,0.06982667744159698,0.2517697811126709,-0.13659681379795074,-0.1254885196685791,-0.34891563653945923,0.13434705138206482,0.40655314922332764,-0.05147342383861542,-0.17473465204238892,0.20628944039344788,0.0597822330892086,0.08739332109689713,0.11329459398984909,0.35855555534362793,-0.24268196523189545,0.09116549044847488,0.12884436547756195,0.24587595462799072,0.057351380586624146,0.15918593108654022,-0.19334733486175537,-0.33859074115753174,0.29752686619758606,-0.33026695251464844,0.03982440382242203,-0.09399890154600143,-0.30164724588394165,-0.005494088865816593,0.030316755175590515,-0.057583414018154144,-0.1473201960325241,-0.038400888442993164,0.3280782699584961,0.1869836151599884,0.04327162355184555,0.08989937603473663,0.16817651689052582,0.2937149107456207,-0.06880751997232437,-0.523555338382721,-0.06370046734809875,0.12431390583515167,-0.060455627739429474,0.3739790916442871,0.4208605885505676,0.07937318831682205,-0.3226122260093689,0.0790749341249466,-0.3153987228870392,-0.2901451885700226,0.3728106915950775,0.44685885310173035,0.292983740568161,0.10810702294111252,0.4169188439846039,-0.14979217946529388,0.41406670212745667,0.2105746567249298,0.3792637288570404,-0.41374149918556213,-0.06314174085855484,-0.24441218376159668,0.30753257870674133,0.2474805861711502,-0.3859456777572632,0.43904638290405273,0.5049101710319519,0.10864055156707764,-0.4437941312789917,0.1969940960407257,-0.09956452995538712,0.07382861524820328,-0.29177621006965637,0.26862797141075134,0.1381671130657196,-0.128753662109375,-0.18403032422065735,0.09711795300245285,-0.2170352041721344,-0.0911245346069336,0.16431139409542084,-0.13176675140857697,-0.14413166046142578,-0.04813791811466217,0.04039445519447327,0.040165066719055176,0.08160890638828278,0.0003660253423731774,-0.06779420375823975,-0.18264709413051605,-0.07380341738462448,-0.06238709017634392,-0.07137145847082138,-0.04916735365986824,0.09276934713125229,0.14409400522708893,0.015184191055595875,-0.010874639265239239,0.000814923841971904,-0.016802964732050896,-0.002519810339435935,0.31075772643089294,0.02726997248828411,0.022230148315429688,0.04364606365561485,-0.030552543699741364,-0.039539873600006104,-0.044028349220752716,0.04154030233621597,0.021880624815821648,0.0335979163646698,0.09242230653762817,0.05631565302610397,-0.4128364324569702,0.01320177037268877,0.031100334599614143,-0.03003382869064808,-0.061551377177238464,-0.11920447647571564,0.19128960371017456,-0.05927775800228119,-0.028600098565220833,-0.05672546848654747,0.013466930948197842,0.061606161296367645,0.8149125576019287,0.04368722811341286,0.029762785881757736,0.004432372748851776,0.023209843784570694,-0.005568961147218943,0.34825801849365234,-0.16630497574806213,0.018869930878281593,-0.17754262685775757,-0.06998388469219208,0.1580195277929306,0.03355173394083977,0.5319273471832275,0.13014960289001465,0.05619185417890549,-0.17893584072589874,-0.2970275282859802,-0.2292957454919815,0.044127918779850006,0.0251325536519289,0.053815968334674835,0.019759586080908775,0.1221797913312912,-0.08909979462623596,0.1779024302959442,-0.24014364182949066,0.25781694054603577,0.036917198449373245,-0.12415342777967453,-0.10029564797878265,-0.14716652035713196,-0.2076239138841629,-0.005311166401952505,-0.21708494424819946,0.2427162230014801,0.1437692642211914,-0.1834033876657486,-0.0031056080479174852,-0.04375201091170311,0.01679948903620243,0.20217566192150116,-0.1619286835193634,0.07501199096441269,-0.1511414796113968,0.019518008455634117,-0.08582407981157303,-0.09906046092510223,-0.08462852984666824,-0.11546525359153748,-0.04276787117123604,0.04826038330793381,-0.04435347393155098,0.10264208167791367,0.1726893037557602,0.04139802232384682,-0.026225198060274124,-0.09347141534090042,-0.2014254778623581,-0.24283552169799805,-0.396088570356369,0.13772189617156982,0.23387008905410767,0.18512587249279022,0.2311541736125946,0.15249496698379517,0.4802701473236084,-0.03976138308644295,-0.03564052656292915,-0.029747456312179565,0.04493210092186928,0.07172248512506485,-0.39992350339889526,0.01113840565085411,-0.03099578060209751,-0.15306369960308075,-0.10776405781507492,-0.011220374144613743,0.3990120589733124,0.020842595025897026,-0.022103453055024147,-0.15068073570728302,-0.21520695090293884,-0.22509504854679108,0.26942601799964905,0.05282653868198395,0.11017687618732452,0.06212499365210533,0.24016690254211426,0.2536481022834778,-0.03162376582622528,0.10991229116916656,0.11990827322006226,0.038872066885232925,-0.005539117380976677,-0.14908692240715027,-0.4089182913303375,-0.0027906959876418114,0.00037140381755307317,-0.02577033080160618,-0.0416305847465992,0.059643737971782684,0.00000860474756336771,-0.043877795338630676,-0.07696425914764404,0.022647662088274956,0.028529245406389236,0.09548944234848022,-0.014342442154884338,-0.19476164877414703,-0.018307941034436226,0.07840478420257568,0.12019985914230347,0.2141467183828354,0.17052292823791504,-0.015585147775709629,0.05436498671770096,-0.03931267932057381,0.05847955122590065,0.006545038428157568,0.10042144358158112,-0.05978679284453392,0.11774758994579315,0.07840097695589066,-0.03295695036649704,0.11092355847358704,0.23974888026714325,0.13176454603672028,0.10792884230613708,0.0982084795832634,0.25685882568359375,0.3245481252670288,-0.21768270432949066,-0.04694557562470436,0.1264466941356659,0.04132600128650665,0.059058088809251785,-0.002613154472783208,0.16096413135528564,-0.06808297336101532,0.011215482838451862,0.07163038104772568,0.013536516577005386,0.12319105118513107,-0.3664981722831726,0.11229684203863144,0.04069632664322853,0.05245712772011757,0.17043986916542053,0.18769009411334991,-0.13723620772361755,0.0031631598249077797,-0.05347519367933273,0.006701013073325157,0.20328621566295624,-0.2163712978363037,-0.028675012290477753,-0.27027904987335205,-0.06716317683458328,-0.19213011860847473,0.014477194286882877,0.33905497193336487,0.8168343305587769,-0.06578347831964493,0.019796429201960564,-0.01496764924377203,-0.17445996403694153,-0.22171126306056976,0.15654481947422028,-0.02711249701678753,0.0081262718886137,-0.18550041317939758,-0.043845973908901215,-0.26878395676612854,-0.1850958615541458,0.1617772877216339,0.21392923593521118,0.23009246587753296,0.14162389934062958,-0.18777699768543243,-0.38344669342041016,-0.034485798329114914,-0.04833026975393295,-0.3098936975002289,0.18261978030204773,-0.09528600424528122,0.4118162989616394,-0.08877741545438766,0.0017126144375652075,-0.004255693405866623,0.210950568318367,0.03860766813158989,-0.2804690897464752,0.17991334199905396,0.13469618558883667,0.04942089691758156,0.03397013247013092,0.2325017899274826,-0.1205209493637085,0.11526639759540558,0.02637415938079357,0.07417235523462296,-0.08948297798633575,-0.042687878012657166,-0.14123688638210297,0.06793584674596786,-0.021367907524108887,0.061352066695690155,0.2352548986673355,0.2035948932170868,-0.02019917592406273,0.02344590239226818,0.018097292631864548,-0.12631645798683167,0.09777283668518066,-0.047716185450553894,0.03350017964839935,0.05207102745771408,0.1064821258187294,0.1494027078151703,-0.02113175019621849,-0.0011997678084298968,-0.054051052778959274,-0.19922904670238495,-0.22048291563987732,-0.24792033433914185,0.012410654686391354,0.11352340877056122,0.03550155088305473,0.03811292722821236,-0.02186897210776806,-0.15224382281303406,-0.030819430947303772,-0.14183364808559418,0.11420873552560806,-0.15097856521606445,-0.209447979927063,-0.2189275473356247,-0.11594653874635696,0.07360436767339706,0.16761642694473267,-0.09198513627052307,-0.08326064795255661,-0.0735139399766922,0.03955599665641785,0.030610283836722374,0.19276724755764008,0.10035453736782074,0.20284850895404816,-0.001832625363022089,0.18734949827194214,0.13722451031208038,0.08468681573867798,0.07700251787900925,0.04879400506615639,0.1812662035226822,0.07287435978651047,-0.02488766610622406,0.23211249709129333,0.009085692465305328,0.011143992654979229,0.06633394956588745,-0.006698269862681627,0.0630471408367157,-0.11561495810747147,-0.043999988585710526,0.03606116399168968,0.035164229571819305,-0.083025723695755,0.21941770613193512,-0.16765400767326355,-0.008173014968633652,0.06083995848894119,0.17729820311069489,0.03562113270163536,0.1148253008723259,-0.26212048530578613,0.11271736025810242,0.12584613263607025,0.018143320456147194,-0.059049054980278015,0.023765916004776955,0.07979799062013626,0.03137967362999916,-0.1661614626646042,-0.20817716419696808,0.01929771713912487,-0.025590769946575165,0.07189249992370605,-0.003311018692329526,0.14180494844913483,-0.17166756093502045,0.001183672109618783,-0.0992320254445076,0.1533985435962677,0.09884099662303925,0.15117499232292175,0.03963753581047058,0.16299492120742798,0.06985097378492355,0.11588644236326218,0.154257133603096,0.0626702755689621,0.2048768252134323,0.1277666538953781,-0.0033248451072722673,0.4495551586151123,0.08865620940923691,0.06995858252048492,-0.21809372305870056,0.09746887534856796,0.08216371387243271,-0.1035112515091896,-0.07536901533603668,0.01942569576203823,-0.07138734310865402,-0.04477796331048012,0.12614214420318604,0.024037912487983704,0.2824385464191437,0.16945138573646545,-0.23282788693904877,0.19061100482940674,0.4298776388168335,-0.22263260185718536,0.02307174913585186,0.12956275045871735,0.16819408535957336,0.08202812820672989,-0.061814069747924805,0.22643379867076874,-0.05887709930539131,0.09607304632663727,0.02502666600048542,-0.12921755015850067,0.004794001113623381,0.18159767985343933,