{
    "version": "0.5.1",
    "metadata": {
        "date": {
            "year": 2023,
            "month": 5,
            "day": 8,
            "hour": 21,
            "minute": 48,
            "second": 46
        },
        "loudness": -14.296608924865723,
        "gain": 0.8589536982604358,
        "name": null,
        "modeled_by": null,
        "gear_type": null,
        "gear_make": null,
        "gear_model": null,
        "tone_type": null
    },
    "architecture": "WaveNet",
    "config": {
        "layers": [
            {
                "input_size": 1,
                "condition_size": 1,
                "head_size": 8,
                "channels": 16,
                "kernel_size": 3,
                "dilations": [
                    1,
                    2,
                    4,
                    8,
                    16,
                    32,
                    64,
                    128,
                    256,
                    512
                ],
                "activation": "Tanh",
                "gated": false,
                "head_bias": false
            },
            {
                "input_size": 16,
                "condition_size": 1,
                "head_size": 1,
                "channels": 8,
                "kernel_size": 3,
                "dilations": [
                    1,
                    2,
                    4,
                    8,
                    16,
                    32,
                    64,
                    128,
                    256,
                    512
                ],
                "activation": "Tanh",
                "gated": false,
                "head_bias": true
            }
        ],
        "head": null,
        "head_scale": 0.02
    },
    "weights": [
        -0.022531889379024506,
        0.6197882890701294,
        -0.9588093757629395,
        -0.8759311437606812,
        -0.4407334327697754,
        0.2667929530143738,
        -5.592870365944691e-05,
        0.8879697918891907,
        0.004047547001391649,
        0.054237838834524155,
        -0.20267686247825623,
        0.0033600039314478636,
        -1.0221319198608398,
        -0.8087249994277954,
        -0.7569667100906372,
        -0.12927936017513275,
        0.1752631813287735,
        0.33067014813423157,
        0.053248081356287,
        -0.4639161229133606,
        0.20678749680519104,
        0.33223679661750793,
        0.35954442620277405,
        -0.05458535999059677,
        -0.24025970697402954,
        0.41471561789512634,
        -0.026048151776194572,
        -0.3477613627910614,
        0.31527090072631836,
        -0.18079140782356262,
        -0.2568001449108124,
        -0.271979421377182,
        0.06486351788043976,
        0.1501997411251068,
        0.1874634325504303,
        -0.01656387932598591,
        -0.049475181847810745,
        -0.2697979509830475,
        0.21755637228488922,
        0.27875658869743347,
        0.43902263045310974,
        -0.15063521265983582,
        -0.10396755486726761,
        -0.5148265361785889,
        0.03256731852889061,
        0.10585236549377441,
        0.4838738441467285,
        -0.060441721230745316,
        -0.2616052031517029,
        0.35708582401275635,
        -0.06423451006412506,
        -0.08147386461496353,
        0.4479324519634247,
        -0.13590644299983978,
        -0.11554660648107529,
        0.3134860694408417,
        -0.1282920092344284,
        -0.32343795895576477,
        0.3175186514854431,
        -0.2284766286611557,
        -0.14115318655967712,
        0.5379565954208374,
        -0.25042062997817993,
        -0.14643146097660065,
        -0.03152000531554222,
        -0.12431652843952179,
        -0.0180202703922987,
        -0.02897009812295437,
        0.07454948127269745,
        0.1858786642551422,
        -0.0407884307205677,
        -0.030059276148676872,
        0.013573366217315197,
        0.1849987804889679,
        0.1428646743297577,
        0.0813121423125267,
        0.09546758234500885,
        -0.11047746986150742,
        -0.03894920274615288,
        -0.15658695995807648,
        -0.14818182587623596,
        0.17880111932754517,
        0.02938169799745083,
        -0.21484722197055817,
        0.11642932146787643,
        -0.09498047083616257,
        -0.04537151753902435,
        -0.020612424239516258,
        0.09499532729387283,
        -0.0912989154458046,
        -0.0005055323708802462,
        -0.0035441829822957516,
        0.07656292617321014,
        0.10027163475751877,
        -0.06724688410758972,
        -0.0710899829864502,
        0.024867530912160873,
        0.002706612227484584,
        -0.14488153159618378,
        -0.08499523252248764,
        0.2069379985332489,
        0.12008778005838394,
        -0.10531220585107803,
        0.03306930512189865,
        -0.11768940836191177,
        -0.04859037324786186,
        -0.04178699478507042,
        -0.09665483981370926,
        -0.06442507356405258,
        0.018908757716417313,
        -0.12307558953762054,
        -0.09108352661132812,
        -0.07861670851707458,
        0.14151212573051453,
        0.13667206466197968,
        -0.22229713201522827,
        0.10180383175611496,
        -0.0879564881324768,
        0.11384138464927673,
        -0.10453157871961594,
        0.15242713689804077,
        0.10998717695474625,
        -0.2059788852930069,
        0.16500143706798553,
        -0.02590104378759861,
        -0.20533615350723267,
        0.0729944035410881,
        -0.17331823706626892,
        0.07597927004098892,
        -0.21467243134975433,
        -0.007164331618696451,
        -0.029143666848540306,
        -0.08012783527374268,
        -0.10752246528863907,
        0.23255646228790283,
        -0.11746877431869507,
        0.18362873792648315,
        -0.08142425119876862,
        0.17826595902442932,
        -0.018872814252972603,
        0.24320457875728607,
        -0.031287629157304764,
        0.24395112693309784,
        -0.12368320673704147,
        -0.015759766101837158,
        0.01974884420633316,
        -0.06618008017539978,
        -0.004540117457509041,
        0.024505432695150375,
        -0.24157145619392395,
        -0.03663963824510574,
        -0.021105967462062836,
        -0.16110259294509888,
        0.17938481271266937,
        0.1905965507030487,
        -0.27549394965171814,
        0.19856774806976318,
        0.10557393729686737,
        -0.18172277510166168,
        0.13176043331623077,
        -0.0580686591565609,
        -0.05301360413432121,
        -0.32022199034690857,
        -0.051598336547613144,
        -0.22275769710540771,
        0.12819135189056396,
        -0.13598550856113434,
        0.25344130396842957,
        -0.25704425573349,
        -0.08479487895965576,
        0.3245372474193573,
        -0.18731915950775146,
        0.042848266661167145,
        0.23374921083450317,
        -0.2698892056941986,
        0.16459564864635468,
        -0.20632053911685944,
        0.056836552917957306,
        -0.01631132885813713,
        -0.11940466612577438,
        -0.2073681503534317,
        0.047236695885658264,
        -0.08750133961439133,
        0.17360658943653107,
        -0.0689903199672699,
        0.19294096529483795,
        -0.22509551048278809,
        0.06426643580198288,
        -0.2832944691181183,
        0.23460163176059723,
        0.025466438382864,
        0.26987648010253906,
        -0.24790938198566437,
        -0.013631932437419891,
        0.13204079866409302,
        -0.121928870677948,
        -0.15844570100307465,
        0.24069805443286896,
        -0.21489745378494263,
        -0.07898706942796707,
        0.20014642179012299,
        -0.03753745183348656,
        -0.19262509047985077,
        0.10278039425611496,
        -0.22467577457427979,
        -0.05647224932909012,
        0.18671151995658875,
        -0.10880347341299057,
        0.05576414242386818,
        -0.04395950213074684,
        -0.06973207741975784,
        0.2787868082523346,
        -0.24673061072826385,
        -0.08427191525697708,
        -0.307282030582428,
        0.28027859330177307,
        -0.0629085972905159,
        -0.38649624586105347,
        0.3779583275318146,
        -0.06853386759757996,
        -0.32740873098373413,
        0.3929125964641571,
        0.09164264798164368,
        0.30939948558807373,
        -0.3861335217952728,
        0.01830419898033142,
        -0.15369932353496552,
        0.15150438249111176,
        -0.04976116865873337,
        0.28828713297843933,
        -0.2530202865600586,
        0.07423821091651917,
        -0.33572128415107727,
        0.3226906359195709,
        0.06377139687538147,
        0.22306948900222778,
        -0.16549460589885712,
        -0.12490136176347733,
        -0.37823250889778137,
        0.2826600968837738,
        0.08036009222269058,
        -0.11989526450634003,
        0.25733059644699097,
        0.08218830078840256,
        -0.23241718113422394,
        0.11588753759860992,
        0.15152287483215332,
        -0.4293825328350067,
        0.26105794310569763,
        0.023422107100486755,
        -0.4027256369590759,
        0.28050974011421204,
        0.16027729213237762,
        -0.4362451136112213,
        0.19339139759540558,
        -0.038506243377923965,
        -0.08179028332233429,
        0.13169559836387634,
        0.037333663552999496,
        -0.013412155210971832,
        0.04204445704817772,
        -0.08706453442573547,
        -0.015247086063027382,
        -0.02004244737327099,
        0.22163623571395874,
        -0.13265712559223175,
        -0.16499179601669312,
        0.21458755433559418,
        0.040282800793647766,
        -0.07198190689086914,
        0.11479323357343674,
        0.012677428312599659,
        -0.02286805957555771,
        -0.1399795114994049,
        -0.03406449407339096,
        -0.092893585562706,
        0.19219405949115753,
        -0.006880811415612698,
        0.10619224607944489,
        -0.13397395610809326,
        -0.02176043950021267,
        -0.15544356405735016,
        0.10018928349018097,
        0.19553393125534058,
        0.12817178666591644,
        -0.07244322448968887,
        -0.13170777261257172,
        -0.06517665088176727,
        0.15407516062259674,
        0.0029742708429694176,
        -0.1585603505373001,
        0.1546887755393982,
        -0.042864494025707245,
        -0.12768496572971344,
        0.13759742677211761,
        -0.1760081797838211,
        -0.024588076397776604,
        0.06618652492761612,
        -0.025944264605641365,
        -0.17519304156303406,
        0.11691024154424667,
        0.016001826152205467,
        -0.2095511555671692,
        0.29650965332984924,
        -0.0900290235877037,
        -0.2707301378250122,
        -0.04820167273283005,
        0.015458519570529461,
        0.1661413460969925,
        -0.14695101976394653,
        -0.07871799916028976,
        -0.13190878927707672,
        0.17986708879470825,
        -0.006098195444792509,
        -0.05179297551512718,
        0.22725988924503326,
        -0.018299270421266556,
        -0.09138662368059158,
        0.201377734541893,
        -0.0408066026866436,
        0.10749569535255432,
        -0.1144494116306305,
        -0.1906479001045227,
        -0.14286288619041443,
        0.0649210512638092,
        0.08224281668663025,
        0.1853879690170288,
        -0.11689294129610062,
        0.16895858943462372,
        -0.12562519311904907,
        0.049131348729133606,
        -0.18289630115032196,
        0.22500601410865784,
        -0.06309336423873901,
        -0.045915380120277405,
        -0.030143875628709793,
        0.255431205034256,
        0.1960860639810562,
        0.003340767929330468,
        0.16743937134742737,
        0.012146626599133015,
        -0.15258097648620605,
        0.25138068199157715,
        0.127798393368721,
        -0.18958213925361633,
        0.26396650075912476,
        0.12122409790754318,
        -0.027935171499848366,
        0.04942788556218147,
        0.1294817328453064,
        -0.21982087194919586,
        0.26845768094062805,
        0.02070392668247223,
        0.11399570852518082,
        0.08157238364219666,
        0.1365758776664734,
        -0.0405583381652832,
        0.083372101187706,
        -0.16699831187725067,
        0.027852963656187057,
        -0.10964665561914444,
        -0.21447502076625824,
        -0.12354537844657898,
        0.10195106267929077,
        -0.0013063797960057855,
        0.11764418333768845,
        0.0945165827870369,
        -0.05092127248644829,
        -0.0820688009262085,
        -0.008015811443328857,
        -0.23114413022994995,
        -0.010979656130075455,
        -0.14105409383773804,
        0.0012629099655896425,
        -0.1280774474143982,
        -0.06419415026903152,
        0.011670654639601707,
        0.08332662284374237,
        0.06593883782625198,
        0.17656974494457245,
        0.13897207379341125,
        -0.01266523078083992,
        -0.0024613195564597845,
        0.11721167713403702,
        0.02976085990667343,
        0.0857192873954773,
        0.12308306992053986,
        0.15690770745277405,
        -0.12121012806892395,
        0.05881518870592117,
        0.0006732327165082097,
        -0.10776213556528091,
        -0.09319237619638443,
        -0.09735453873872757,
        -0.18753890693187714,
        0.08449000120162964,
        0.08453357964754105,
        -0.08853798359632492,
        -0.04877340421080589,
        0.12854129076004028,
        0.12695565819740295,
        -0.03228554502129555,
        -0.20134444534778595,
        0.12781314551830292,
        0.16825509071350098,
        -0.16090096533298492,
        0.1352139115333557,
        -0.004930038936436176,
        -0.0017269254894927144,
        0.08514055609703064,
        -0.1899293065071106,
        0.031202562153339386,
        0.12845031917095184,
        -0.09429194778203964,
        -0.03761001303792,
        -0.05325782299041748,
        0.05969369783997536,
        -0.08755640685558319,
        0.09013412892818451,
        0.12449058145284653,
        -0.13148921728134155,
        -0.0878315344452858,
        0.11741690337657928,
        0.0133118387311697,
        0.12113210558891296,
        -0.18046079576015472,
        0.0708123967051506,
        -0.10190503299236298,
        0.043204911053180695,
        -0.01512580644339323,
        -0.10848520696163177,
        -0.0511934868991375,
        0.18427711725234985,
        0.05742145702242851,
        -0.17409449815750122,
        -0.08004503697156906,
        0.0286954864859581,
        -0.2217041552066803,
        0.12292615324258804,
        -0.13080202043056488,
        -0.2480393797159195,
        -0.08610197901725769,
        -0.022536275908350945,
        -0.011046386323869228,
        -0.07077200710773468,
        0.20613250136375427,
        -0.1524590253829956,
        0.1526583731174469,
        0.06327276676893234,
        -0.09909594804048538,
        0.20057082176208496,
        0.15838506817817688,
        0.15697239339351654,
        -0.013701912015676498,
        -0.18365462124347687,
        0.10079364478588104,
        0.08885206282138824,
        -0.016192898154258728,
        -0.13172899186611176,
        0.042727213352918625,
        -0.22319646179676056,
        -0.0661555677652359,
        0.11937257647514343,
        -0.034474924206733704,
        0.05366988852620125,
        -0.0035447499249130487,
        0.24246862530708313,
        0.13097721338272095,
        0.07437799870967865,
        0.042169902473688126,
        0.08121898025274277,
        0.060287073254585266,
        0.023542139679193497,
        -0.012810221873223782,
        0.14888541400432587,
        -0.05644448101520538,
        -0.10977887362241745,
        -0.021977359429001808,
        -0.16701355576515198,
        0.058850955218076706,
        -0.014069604687392712,
        -0.06655856966972351,
        -0.09223590046167374,
        0.14291934669017792,
        -0.10148951411247253,
        0.09227825701236725,
        0.16814392805099487,
        -0.005838365294039249,
        -0.011107859201729298,
        0.038934361189603806,
        -0.12112754583358765,
        0.002439463511109352,
        0.1634189486503601,
        -0.08768883347511292,
        0.19735412299633026,
        0.22338810563087463,
        -0.20621618628501892,
        -0.1613399237394333,
        0.26947537064552307,
        0.06389497220516205,
        0.11453297734260559,
        -0.002307022688910365,
        0.1363421082496643,
        -0.16286073625087738,
        0.2256694883108139,
        -0.008798444643616676,
        -0.2005981057882309,
        0.16487707197666168,
        0.03748730197548866,
        -0.1828913539648056,
        0.07505752146244049,
        0.020576111972332,
        0.19707229733467102,
        -0.15513643622398376,
        0.26382938027381897,
        0.11212755739688873,
        0.2824137806892395,
        -0.059131134301424026,
        0.32282570004463196,
        -0.12515251338481903,
        0.1698293685913086,
        -0.21973839402198792,
        0.21593818068504333,
        -0.19283562898635864,
        0.12699054181575775,
        -0.2035256326198578,
        0.2170780450105667,
        -0.2567453384399414,
        0.12384472042322159,
        -0.032530032098293304,
        -0.09499930590391159,
        0.21861697733402252,
        -0.039964307099580765,
        -0.35691389441490173,
        -0.001783730578608811,
        0.06915109604597092,
        -0.27944549918174744,
        0.013286473229527473,
        0.026659728959202766,
        -0.22222673892974854,
        0.039154183119535446,
        0.15683254599571228,
        -0.33935847878456116,
        0.07419861108064651,
        0.09223795682191849,
        0.1851816326379776,
        -0.10732986778020859,
        -0.03090287372469902,
        -0.21680116653442383,
        0.23111653327941895,
        -0.09014465659856796,
        0.028636489063501358,
        0.0536520890891552,
        -0.052459802478551865,
        0.19070453941822052,
        -0.1029050350189209,
        -0.004651403054594994,
        0.1151542067527771,
        -0.011083723977208138,
        -0.0240484569221735,
        -0.2916935682296753,
        0.007933366112411022,
        -0.1200723648071289,
        0.061877116560935974,
        -0.2024877816438675,
        0.0982789397239685,
        -0.18933777511119843,
        0.06970851868391037,
        0.08683492988348007,
        0.17924310266971588,
        -0.010803814977407455,
        0.05792747065424919,
        -0.18054717779159546,
        0.01788751594722271,
        0.019845515489578247,
        0.2622711956501007,
        -0.15450847148895264,
        -0.09778335690498352,
        0.24282768368721008,
        0.13435961306095123,
        -0.0003891984233632684,
        0.03931727260351181,
        -0.22282066941261292,
        0.07379013299942017,
        0.1478365957736969,
        -0.16712766885757446,
        0.06294659525156021,
        0.21852485835552216,
        0.014307130128145218,
        0.06655760109424591,
        0.16447344422340393,
        -0.29320141673088074,
        -0.2584453523159027,
        0.052534449845552444,
        0.04730146750807762,
        0.23960527777671814,
        -0.09755448251962662,
        8.620180597063154e-05,
        -0.04983515664935112,
        0.09669748693704605,
        0.007978181354701519,
        -0.23513348400592804,
        -0.12854613363742828,
        0.26896795630455017,
        -0.23529301583766937,
        -0.08478492498397827,
        0.21746490895748138,
        0.10428538173437119,
        -0.05452768877148628,
        -0.15219567716121674,
        -0.07449471950531006,
        -0.08756961673498154,
        0.13858263194561005,
        0.1166180744767189,
        0.0780683383345604,
        -0.010332818143069744,
        -0.07907986640930176,
        0.012305259704589844,
        0.25195446610450745,
        0.1933661252260208,
        -0.0479663722217083,
        -0.006753470748662949,
        -0.1436234712600708,
        -0.1609252542257309,
        0.10039172321557999,
        -0.18575970828533173,
        0.13378772139549255,
        0.06589345633983612,
        -0.3129432797431946,
        -0.037638138979673386,
        0.22402146458625793,
        -0.14189788699150085,
        0.02005203813314438,
        0.14966611564159393,
        -0.1302073448896408,
        -0.06318876147270203,
        0.07941201329231262,
        -0.2811775803565979,
        -0.15041787922382355,
        0.17176169157028198,
        -0.1333031952381134,
        0.10009857267141342,
        0.206665500998497,
        -0.040793225169181824,
        -0.0750141367316246,
        0.141056090593338,
        -0.026462918147444725,
        0.10586826503276825,
        -0.11612758040428162,
        0.01783880405128002,
        0.05980563908815384,
        -0.06287577748298645,
        0.17533740401268005,
        -0.11947404593229294,
        -0.13079345226287842,
        -0.11659286916255951,
        0.04974861070513725,
        0.1455727070569992,
        -0.11473371088504791,
        0.018693044781684875,
        0.15635059773921967,
        -0.09011247754096985,
        0.11814018338918686,
        -0.10943099111318588,
        0.0546734593808651,
        0.11806495487689972,
        -0.01625763066112995,
        0.04778505489230156,
        -0.040595389902591705,
        0.11950880289077759,
        -0.07634518295526505,
        -0.032928045839071274,
        -0.029972247779369354,
        -0.0027515620458871126,
        -0.025986257940530777,
        0.11460509151220322,
        0.03775041550397873,
        -0.016759123653173447,
        0.09903247654438019,
        0.018138796091079712,
        0.1113976240158081,
        -0.09876515716314316,
        0.04022371396422386,
        -0.025910964235663414,
        0.05749889835715294,
        0.1546974927186966,
        -0.031059691682457924,
        -0.11433801054954529,
        0.07534828037023544,
        -0.13701677322387695,
        -0.07337412238121033,
        0.053403306752443314,
        -0.028298169374465942,
        0.19265778362751007,
        -0.13974568247795105,
        -0.02511943317949772,
        0.04070572927594185,
        -0.2546217441558838,
        0.14980138838291168,
        -0.038094181567430496,
        -0.21547819674015045,
        0.1674770563840866,
        -0.18075978755950928,
        0.17201553285121918,
        -0.22218506038188934,
        0.02628403529524803,
        0.043393783271312714,
        0.24137207865715027,
        -0.21401841938495636,
        0.24521124362945557,
        -0.1262025386095047,
        -0.01099364459514618,
        -0.2674002945423126,
        -0.03337753564119339,
        0.07417458295822144,
        0.12273304909467697,
        -0.08826063573360443,
        0.0928846150636673,
        -0.061089057475328445,
        0.22848157584667206,
        0.06137944385409355,
        -0.1416410505771637,
        0.1555212289094925,
        -0.13912639021873474,
        -0.23521041870117188,
        0.141025111079216,
        0.07642459869384766,
        -0.26514574885368347,
        0.20194943249225616,
        -0.13073895871639252,
        -0.17948706448078156,
        0.23350490629673004,
        -0.09070888161659241,
        -0.08727498352527618,
        0.0372655875980854,
        0.04505419358611107,
        0.06601554900407791,
        0.008247754536569118,
        0.05079377070069313,
        -0.07707872241735458,
        -0.2280631959438324,
        0.014256331138312817,
        0.09464371204376221,
        0.07206425070762634,
        0.061128050088882446,
        0.09847906976938248,
        0.20708750188350677,
        -0.0825880616903305,
        -0.05370181426405907,
        0.05155455693602562,
        -0.13392452895641327,
        0.032513249665498734,
        0.009687034413218498,
        0.13041798770427704,
        0.10020700842142105,
        0.1658892184495926,
        0.0033280421048402786,
        0.13581983745098114,
        -0.16535280644893646,
        -0.08787810057401657,
        -0.04577457159757614,
        0.17080354690551758,
        -0.1672116219997406,
        0.16965021193027496,
        -0.03544192016124725,
        -0.0677696093916893,
        -0.06613466143608093,
        0.21548937261104584,
        -0.13441449403762817,
        -0.054713062942028046,
        0.20117998123168945,
        -0.06080959737300873,
        0.05445295572280884,
        0.1812223345041275,
        0.07994326949119568,
        -0.11898946017026901,
        0.25017082691192627,
        -0.09606664627790451,
        0.11349283903837204,
        -0.027003241702914238,
        -0.14220662415027618,
        -0.0318237841129303,
        0.13707277178764343,
        -0.0788683146238327,
        -0.2089615911245346,
        -0.12620042264461517,
        0.10176438093185425,
        -0.187140554189682,
        -0.07900474965572357,
        0.03078443557024002,
        0.05600382387638092,
        -0.027219584211707115,
        0.2698674201965332,
        0.04354465752840042,
        -0.037594083696603775,
        -0.0553429014980793,
        -0.1032082661986351,
        -0.11633515357971191,
        0.007001633755862713,
        -0.08088816702365875,
        0.6637649536132812,
        -0.391290545463562,
        0.7066537141799927,
        -0.5803271532058716,
        -0.04704519361257553,
        0.7387441396713257,
        0.8684296011924744,
        -0.5674028992652893,
        0.13401155173778534,
        0.04611118510365486,
        -0.5703372955322266,
        -0.2618323862552643,
        0.1458064764738083,
        -0.7022112607955933,
        0.23183102905750275,
        0.43553832173347473,
        -0.23951934278011322,
        0.0631759762763977,
        -0.1298937201499939,
        0.26174676418304443,
        0.5703926086425781,
        -0.017923280596733093,
        0.09476755559444427,
        0.001758568687364459,
        -0.007391738705337048,
        0.10587593913078308,
        0.01762145198881626,
        -0.05527481436729431,
        0.15619033575057983,
        -0.022100770846009254,
        0.3705863058567047,
        -0.024407310411334038,
        -0.10557471960783005,
        -0.013554712757468224,
        -0.32622474431991577,
        0.2685554325580597,
        0.32850053906440735,
        -0.14142873883247375,
        -0.15873275697231293,
        0.22213499248027802,
        -0.17448505759239197,
        0.009978314861655235,
        -0.09251048415899277,
        0.20018431544303894,
        0.12297389656305313,
        0.04653434455394745,
        0.041759613901376724,
        0.38424229621887207,
        -0.14898838102817535,
        0.22169874608516693,
        0.04285585135221481,
        0.042481858283281326,
        -0.18450254201889038,
        -0.21642377972602844,
        0.07680142670869827,
        -0.051999107003211975,
        -0.06731091439723969,
        -0.17877450585365295,
        0.47335296869277954,
        -0.168229341506958,
        0.02492031455039978,
        0.3799615204334259,
        -0.15672175586223602,
        0.002736629918217659,
        0.12879575788974762,
        -0.17685595154762268,
        0.06079611927270889,
        -0.3568500876426697,
        -0.06077447906136513,
        0.15165144205093384,
        0.10768523812294006,
        0.00980288628488779,
        -0.11318587511777878,
        0.1646898239850998,
        0.13759298622608185,
        -0.05218661203980446,
        0.1544160693883896,
        0.10995534807443619,
        -0.10835318267345428,
        -0.1392402946949005,
        -0.21202102303504944,
        -0.1656067818403244,
        -0.2128140926361084,
        0.13463366031646729,
        0.0223485566675663,
        0.10583139955997467,
        0.04115859419107437,
        -0.07855304330587387,
        0.03800299018621445,
        0.2050907015800476,
        -0.09394969046115875,
        0.21882891654968262,
        -0.1548619121313095,
        0.16552086174488068,
        -0.2895544469356537,
        0.18263329565525055,
        -0.382322758436203,
        -0.14690665900707245,
        -0.06982795894145966,
        0.03554229810833931,
        0.5952181816101074,
        0.2682599723339081,
        0.281181275844574,
        0.3274387717247009,
        0.13167092204093933,
        0.17076529562473297,
        -0.08723598718643188,
        -0.14101101458072662,
        0.19015300273895264,
        -0.02702268771827221,
        0.28218257427215576,
        -0.07037453353404999,
        0.14652878046035767,
        0.027712054550647736,
        0.28168535232543945,
        0.09062564373016357,
        -0.5539473295211792,
        -0.1761353760957718,
        0.031247111037373543,
        -0.04514255374670029,
        0.17780761420726776,
        -0.30012276768684387,
        -0.3403366804122925,
        0.15080609917640686,
        0.006223631557077169,
        -0.26732465624809265,
        -0.008158297277987003,
        -0.04675690084695816,
        0.3753320872783661,
        0.014476053416728973,
        0.28032150864601135,
        -0.0799095407128334,
        -0.2683990001678467,
        0.16502170264720917,
        0.3005021810531616,
        0.020808545872569084,
        0.11638154089450836,
        -0.1330692172050476,
        0.06718694418668747,
        -0.2782115936279297,
        0.2297162264585495,
        -0.19972847402095795,
        0.08353520929813385,
        -0.06584180146455765,
        -0.39104798436164856,
        -0.14236921072006226,
        -0.46150776743888855,
        0.031213674694299698,
        0.6427636742591858,
        -0.07907765358686447,
        -0.33032333850860596,
        0.11046184599399567,
        -0.31495440006256104,
        -0.09334855526685715,
        0.02891331911087036,
        0.30401214957237244,
        0.056174445897340775,
        -0.08510610461235046,
        0.27000144124031067,
        0.2193373143672943,
        -0.09396133571863174,
        0.020389830693602562,
        0.19421125948429108,
        -0.24758806824684143,
        -0.2979573607444763,
        -0.022217975929379463,
        0.1544666439294815,
        -0.09572616219520569,
        0.1298249065876007,
        0.15075279772281647,
        -0.13596315681934357,
        0.09025468677282333,
        0.1905277818441391,
        0.1339067667722702,
        -0.1511678546667099,
        -0.0071966820396482944,
        0.11647672206163406,
        0.2363814115524292,
        -0.12756244838237762,
        0.10957160592079163,
        -0.2520425617694855,
        -0.21600690484046936,
        0.017356598749756813,
        -0.22408320009708405,
        0.06208183616399765,
        -0.25168973207473755,
        -0.22153078019618988,
        0.009145593270659447,
        -0.27057945728302,
        0.055456411093473434,
        -0.05710722506046295,
        0.30137115716934204,
        0.10193692147731781,
        -0.18685156106948853,
        0.24256470799446106,
        -0.11736496537923813,
        0.13120445609092712,
        0.008900555782020092,
        0.06915530562400818,
        -0.06792136281728745,
        0.10994046181440353,
        -0.08702576905488968,
        -0.21822291612625122,
        -0.2341184765100479,
        -0.0991358682513237,
        0.03481345251202583,
        -0.09448041766881943,
        -0.2286437749862671,
        -0.18033047020435333,
        0.008786933496594429,
        0.039144907146692276,
        0.0035648453049361706,
        0.02077331766486168,
        -0.19711031019687653,
        -0.06634058058261871,
        0.14083008468151093,
        0.19750630855560303,
        -0.056996334344148636,
        -0.00041357139707542956,
        0.06088786572217941,
        0.021133868023753166,
        -0.1254538744688034,
        -0.290871262550354,
        0.15976737439632416,
        -0.11147724092006683,
        -0.06568175554275513,
        -0.21550694108009338,
        0.19111338257789612,
        -0.17422640323638916,
        0.03327937424182892,
        0.023844318464398384,
        0.0638512596487999,
        -0.1255304366350174,
        -0.2528289556503296,
        -0.05085406079888344,
        0.12596143782138824,
        -0.3840465545654297,
        0.03576788678765297,
        -0.45871904492378235,
        0.3240288496017456,
        -0.41367101669311523,
        0.4155174195766449,
        -0.27992913126945496,
        0.0037042133044451475,
        0.15488846600055695,
        -0.23104096949100494,
        -0.0792897641658783,
        0.32751449942588806,
        -0.3970711827278137,
        -0.036603037267923355,
        -0.01406785100698471,
        0.1230817586183548,
        -0.0370553620159626,
        0.3801652491092682,
        -0.41200438141822815,
        0.11085308343172073,
        0.23898254334926605,
        0.17411310970783234,
        0.26259535551071167,
        -0.2784939408302307,
        -0.3994603455066681,
        0.19695992767810822,
        0.20963868498802185,
        0.3624109923839569,
        -0.08078747242689133,
        -0.14678019285202026,
        0.4769446849822998,
        -0.3392612040042877,
        0.10158954560756683,
        0.22523988783359528,
        -0.1501869261264801,
        -0.2156992107629776,
        0.21649928390979767,
        -0.2578921914100647,
        0.1872132122516632,
        -0.12137061357498169,
        -0.1173412948846817,
        0.08875349164009094,
        0.26392462849617004,
        -0.06847795099020004,
        0.11713869869709015,
        -0.09343695640563965,
        0.0935656875371933,
        0.16715595126152039,
        0.07060016691684723,
        -0.0364212766289711,
        0.025996088981628418,
        -0.0965745747089386,
        -0.13281099498271942,
        -0.2334756851196289,
        -0.003818775061517954,
        -0.17853765189647675,
        -0.3318813741207123,
        -0.08312742412090302,
        0.10941094160079956,
        0.05232686549425125,
        -0.01937612146139145,
        0.0729445219039917,
        0.17652839422225952,
        0.0975358635187149,
        -0.06920778006315231,
        -0.06728934496641159,
        0.06730934232473373,
        -0.17795424163341522,
        -0.0896906778216362,
        0.10870344191789627,
        -0.09028032422065735,
        -0.18673986196517944,
        -0.02159956842660904,
        -0.016692152246832848,
        0.015029139816761017,
        -0.05527534708380699,
        -0.1257564127445221,
        -0.11286986619234085,
        -0.19614310562610626,
        -0.022192401811480522,
        0.1313234120607376,
        -0.11478213965892792,
        -0.08572255820035934,
        -0.11237924546003342,
        -0.12729193270206451,
        -0.06493741273880005,
        0.07413828372955322,
        0.19545264542102814,
        0.02774977870285511,
        0.03340800479054451,
        -0.135942742228508,
        -0.0353231318295002,
        0.07359710335731506,
        -0.14012467861175537,
        0.01131749153137207,
        0.08947646617889404,
        -0.018306106328964233,
        0.4629499614238739,
        0.2652238607406616,
        0.02688426338136196,
        -0.1411449909210205,
        -0.11224208772182465,
        -0.04256919026374817,
        0.03486349806189537,
        -0.02225410006940365,
        0.17968101799488068,
        -0.16620323061943054,
        -0.09713028371334076,
        0.17072872817516327,
        -0.3052995502948761,
        0.1230216845870018,
        -0.1059858649969101,
        0.08608826249837875,
        -0.14533208310604095,
        0.16041436791419983,
        -0.1141248568892479,
        -0.15178602933883667,
        -0.21075420081615448,
        0.14645469188690186,
        -0.15113545954227448,
        -0.014021513052284718,
        0.18826477229595184,
        0.03414157032966614,
        -0.050723250955343246,
        -0.19257541000843048,
        -0.10454637557268143,
        0.02758885733783245,
        0.09525912255048752,
        0.10200509428977966,
        -0.19786927103996277,
        0.06961317360401154,
        -0.06707871705293655,
        0.12794429063796997,
        -0.11400330066680908,
        -0.023311907425522804,
        -0.06999579817056656,
        -0.1901065856218338,
        -0.12364044785499573,
        0.09010711312294006,
        -0.05714341253042221,
        -0.03425523266196251,
        0.07833752036094666,
        -0.14928096532821655,
        -0.13602964580059052,
        0.07683777809143066,
        -0.036052901297807693,
        0.3290897607803345,
        -0.09179738163948059,
        -0.08395832777023315,
        0.03574282303452492,
        -0.03601017966866493,
        0.28701528906822205,
        0.2678586542606354,
        -0.05751112848520279,
        -0.062080446630716324,
        0.17242646217346191,
        -0.1632058322429657,
        0.06200774386525154,
        0.18244995176792145,
        -0.2427966594696045,
        0.17139209806919098,
        0.07645539194345474,
        -0.019710790365934372,
        -0.011586392298340797,
        0.163530170917511,
        0.062255971133708954,
        0.1286168396472931,
        -0.4314482510089874,
        0.11364220082759857,
        -0.11126802861690521,
        -0.2309466302394867,
        0.28982943296432495,
        0.09045332670211792,
        0.031541600823402405,
        -0.12225674837827682,
        -0.1257137507200241,
        0.10553804039955139,
        -0.03952062875032425,
        -0.10535354912281036,
        -0.14983369410037994,
        -0.023563526570796967,
        -0.0037029823288321495,
        -0.23942522704601288,
        0.19928842782974243,
        0.050327055156230927,
        0.055363141000270844,
        -0.2740373909473419,
        0.006977858953177929,
        0.006994788069278002,
        -0.07900179177522659,
        -0.05806403234601021,
        0.26457905769348145,
        -0.096412792801857,
        -0.10183316469192505,
        0.18883711099624634,
        0.04088964685797691,
        -0.12821996212005615,
        0.2200198918581009,
        0.14668484032154083,
        -0.3091283142566681,
        -0.04723256826400757,
        -0.17818880081176758,
        0.3088711202144623,
        -0.03953961282968521,
        -0.17864158749580383,
        -0.1381949782371521,
        -0.022164685651659966,
        -0.20543338358402252,
        -0.08431017398834229,
        -0.08936972916126251,
        -0.17665964365005493,
        -0.509101927280426,
        0.2634231448173523,
        0.005492910277098417,
        0.43055665493011475,
        0.14824682474136353,
        0.1725366860628128,
        -0.25015637278556824,
        -0.03379390761256218,
        0.14324021339416504,
        0.22581927478313446,
        0.036545462906360626,
        -0.007728641387075186,
        0.04151535779237747,
        -0.23398350179195404,
        0.1026715487241745,
        0.4806585907936096,
        -0.049366142600774765,
        -0.031667087227106094,
        0.11401316523551941,
        0.045106519013643265,
        0.34117841720581055,
        0.33322760462760925,
        0.24789263308048248,
        -0.08918540179729462,
        0.36690688133239746,
        -0.03166281431913376,
        -0.10550310462713242,
        0.11590737104415894,
        0.059056371450424194,
        0.049648724496364594,
        -0.013126211240887642,
        -0.3793491721153259,
        0.07199161499738693,
        -0.12449342757463455,
        0.11314214766025543,
        -0.0009925137273967266,
        0.25138017535209656,
        0.3043619394302368,
        0.030743390321731567,
        -0.03191879764199257,
        0.1964021474123001,
        -0.254100501537323,
        -0.1184391900897026,
        0.14526809751987457,
        0.018120918422937393,
        0.05490736663341522,
        0.11059978604316711,
        -0.1659475862979889,
        -0.07864803820848465,
        0.10785797983407974,
        0.031014205887913704,
        0.18256328999996185,
        -0.2991518974304199,
        0.05151420459151268,
        -0.07751250267028809,
        -0.07833477109670639,
        0.2591385245323181,
        0.1862388551235199,
        0.23110054433345795,
        -0.18568319082260132,
        -0.07549427449703217,
        -0.20386983454227448,
        0.20240269601345062,
        0.1934749335050583,
        0.033430229872465134,
        -0.1250150352716446,
        -0.2686925232410431,
        -0.19229675829410553,
        0.16085155308246613,
        -0.141771137714386,
        -0.07007921487092972,
        -0.12539954483509064,
        0.08254352957010269,
        0.050979990512132645,
        -0.11353535205125809,
        0.07524756342172623,
        0.1014777272939682,
        -0.28338855504989624,
        0.2488924115896225,
        -0.03263977915048599,
        0.015130015090107918,
        -0.2101983278989792,
        0.045667339116334915,
        0.01455883588641882,
        -0.3089771866798401,
        0.17142052948474884,
        0.006281543988734484,
        0.06065600365400314,
        0.008497875183820724,
        -0.10203148424625397,
        0.1106719970703125,
        0.16480249166488647,
        0.10571518540382385,
        -0.06997419893741608,
        0.1612568497657776,
        -0.027914732694625854,
        -0.30865633487701416,
        0.11854422837495804,
        0.08820928633213043,
        0.13120514154434204,
        -0.2574799656867981,
        -0.012599732726812363,
        0.042918477207422256,
        -0.16719630360603333,
        0.25824037194252014,
        0.21960505843162537,
        0.2118632048368454,
        -0.17444881796836853,
        0.1232457160949707,
        -0.0861189067363739,
        0.08822966367006302,
        0.15392358601093292,
        0.08400184661149979,
        -0.05025673285126686,
        0.14913669228553772,
        -0.16118760406970978,
        0.25323233008384705,
        0.17962752282619476,
        0.15143010020256042,
        -0.09127500653266907,
        0.03780076280236244,
        -0.05901999771595001,
        0.006764906458556652,
        0.10772868990898132,
        0.19163258373737335,
        -0.2838810980319977,
        0.37274378538131714,
        -0.15935280919075012,
        0.051007047295570374,
        -0.011727144941687584,
        -0.09342658519744873,
        -0.13056212663650513,
        -0.06757910549640656,
        -0.07266779989004135,
        -0.2046489119529724,
        -0.1606481373310089,
        -0.10759785771369934,
        0.14516238868236542,
        0.09312104433774948,
        0.19853658974170685,
        -0.06795167922973633,
        -0.2104204148054123,
        -0.011157141998410225,
        -0.08098550885915756,
        0.2796032130718231,
        0.12549574673175812,
        -0.0703735500574112,
        0.13439132273197174,
        -0.15586847066879272,
        0.0821583941578865,
        0.12035886943340302,
        0.254568874835968,
        0.03705466911196709,
        -0.11457860469818115,
        -0.3806472420692444,
        -0.14231568574905396,
        0.10756560415029526,
        0.34232670068740845,
        -0.0653897076845169,
        -0.07183093577623367,
        -0.24597378075122833,
        0.0603993721306324,
        0.12429459393024445,
        0.26327791810035706,
        0.07418253272771835,
        -0.04346705973148346,
        0.056628163903951645,
        0.15633650124073029,
        -0.15490524470806122,
        -0.039027292281389236,
        -0.15186583995819092,
        -0.3015967011451721,
        -0.11819368600845337,
        -0.05841987207531929,
        -0.03771987929940224,
        0.226698637008667,
        -8.57771301525645e-05,
        -0.051128312945365906,
        0.4263753890991211,
        -0.05587237328290939,
        -0.023386092856526375,
        -0.1098092570900917,
        -0.16270071268081665,
        -0.32630452513694763,
        0.09002131968736649,
        0.3397192060947418,
        -0.06467065960168839,
        0.12087651342153549,
        0.023930178955197334,
        -0.2142675518989563,
        -0.1045028567314148,
        -0.057875655591487885,
        0.27372777462005615,
        0.4112611711025238,
        -0.2552071213722229,
        0.08847977221012115,
        -0.29735103249549866,
        0.00040906688082031906,
        0.2913637161254883,
        -0.07814085483551025,
        -0.13958068192005157,
        -0.1793559342622757,
        -0.03683146461844444,
        0.2934547960758209,
        0.24392962455749512,
        0.09550942480564117,
        -0.14945508539676666,
        -0.16098560392856598,
        -0.27245500683784485,
        0.13639594614505768,
        0.14738674461841583,
        -0.07535659521818161,
        -0.11569444090127945,
        -0.2874383330345154,
        0.05287908390164375,
        0.18476249277591705,
        -0.3371445834636688,
        -0.02796877548098564,
        0.05081596598029137,
        -0.18377412855625153,
        0.13697384297847748,
        0.354508638381958,
        0.0685683861374855,
        -0.23070523142814636,
        0.29982686042785645,
        0.13840170204639435,
        0.21114423871040344,
        0.08997904509305954,
        -0.1651974618434906,
        -0.2833428680896759,
        -0.22640855610370636,
        0.30683016777038574,
        0.08809496462345123,
        0.11155559867620468,
        -0.06455428898334503,
        0.029386790469288826,
        0.015598760917782784,
        0.18375664949417114,
        0.09453403204679489,
        0.045228950679302216,
        -0.2906269133090973,
        0.24627745151519775,
        0.24011364579200745,
        0.21670131385326385,
        -0.03325539827346802,
        -0.09173853695392609,
        -0.302651971578598,
        -0.09435370564460754,
        0.11633637547492981,
        0.15656639635562897,
        -0.0930764228105545,
        0.09963738173246384,
        -0.20927034318447113,
        0.12623055279254913,
        -0.13593652844429016,
        0.2511105537414551,
        -0.16804364323616028,
        -0.18845762312412262,
        -0.12780065834522247,
        0.004706845618784428,
        0.21232418715953827,
        0.1916375309228897,
        0.18066085875034332,
        0.004991530906409025,
        0.2162226438522339,
        -0.017840370535850525,
        -0.12715782225131989,
        0.14824220538139343,
        -0.08354714512825012,
        -0.040721017867326736,
        -0.2746543288230896,
        -0.10838120430707932,
        -0.2011132687330246,
        -0.022475138306617737,
        0.0708235651254654,
        -0.04196437820792198,
        -0.2419775277376175,
        0.04644237086176872,
        0.12002357095479965,
        -0.15131928026676178,
        -0.06637042760848999,
        0.14967040717601776,
        0.08176916092634201,
        0.044588711112737656,
        0.051569629460573196,
        0.001125114387832582,
        -0.043536070734262466,
        0.03443129360675812,
        -0.06316310167312622,
        -0.015498231165111065,
        -0.05685155838727951,
        0.11684864014387131,
        -0.006615349091589451,
        0.04898206144571304,
        0.03231959417462349,
        0.1044263243675232,
        -0.013944498263299465,
        -0.24726033210754395,
        0.056808289140462875,
        0.12478163838386536,
        0.056913942098617554,
        -0.08112385123968124,
        -0.012660673819482327,
        -0.19329242408275604,
        0.002728434279561043,
        0.24196010828018188,
        0.18441641330718994,
        0.04892712086439133,
        -0.11638329178094864,
        -0.11284738034009933,
        -0.11115051060914993,
        0.08295696973800659,
        -0.18276628851890564,
        0.027026843279600143,
        0.14480113983154297,
        -0.17981445789337158,
        -0.2273896485567093,
        0.20948901772499084,
        0.3647357225418091,
        -0.3013550937175751,
        -0.10003284364938736,
        0.13910378515720367,
        0.10280372202396393,
        -0.07111292332410812,
        -0.048291098326444626,
        0.003843033919110894,
        -0.07626838237047195,
        -0.16229239106178284,
        -0.09789518266916275,
        0.16528438031673431,
        -0.24901169538497925,
        -0.22235539555549622,
        -0.10682918131351471,
        -0.09180350601673126,
        -0.1538303941488266,
        -0.11439517140388489,
        0.5294817090034485,
        -0.09245352447032928,
        0.029602954164147377,
        -0.049982812255620956,
        0.29667413234710693,
        0.19588400423526764,
        0.09611577540636063,
        0.198412224650383,
        -0.005482081323862076,
        -0.1562756597995758,
        -0.06812628358602524,
        0.2621007263660431,
        0.08226627856492996,
        -0.1714232712984085,
        -0.14045725762844086,
        -0.05916192755103111,
        -0.07473217695951462,
        0.012152555398643017,
        0.13019965589046478,
        0.12726198136806488,
        -0.18597814440727234,
        -0.09620203077793121,
        -0.0943870097398758,
        0.15330982208251953,
        -0.06935787200927734,
        -0.127425417304039,
        0.12735867500305176,
        -0.138726606965065,
        -0.0775623619556427,
        0.03819415718317032,
        -0.0913422629237175,
        -0.048645567148923874,
        -0.10806672275066376,
        0.17192499339580536,
        -0.21713034808635712,
        -0.3091091811656952,
        0.23475101590156555,
        0.02246088907122612,
        0.05579150840640068,
        -0.20490261912345886,
        0.09308617562055588,
        0.08810655027627945,
        0.02234535664319992,
        0.2027864009141922,
        0.02593875676393509,
        0.17868998646736145,
        0.09944156557321548,
        0.045336950570344925,
        0.3031782805919647,
        -0.1838671714067459,
        -0.2649654746055603,
        -0.23553140461444855,
        -0.2053845375776291,
        0.054966192692518234,
        0.07870907336473465,
        0.12839289009571075,
        -0.02799220383167267,
        0.10258428007364273,
        -0.10174967348575592,
        0.03408487141132355,
        -0.1502520889043808,
        0.07600228488445282,
        -0.18077151477336884,
        -0.09798792749643326,
        -0.005014840513467789,
        0.036813199520111084,
        -0.30021539330482483,
        -0.034780681133270264,
        -0.16160301864147186,
        -0.18752232193946838,
        -0.14319489896297455,
        0.05690905451774597,
        0.06855916976928711,
        -0.01110369898378849,
        -0.028410382568836212,
        0.03477559983730316,
        0.018328271806240082,
        -0.11531010270118713,
        -0.4352545738220215,
        0.3084581196308136,
        0.013457350432872772,
        -0.23957441747188568,
        0.2633659541606903,
        0.006746270228177309,
        0.17242014408111572,
        0.3366933763027191,
        0.12701210379600525,
        0.15240362286567688,
        0.08462630212306976,
        -0.22324545681476593,
        0.12448011338710785,
        0.053064752370119095,
        -0.03681962937116623,
        0.22743597626686096,
        0.06153934448957443,
        -0.1385831981897354,
        -0.3464685082435608,
        -0.020937161520123482,
        0.32521331310272217,
        -0.09150080382823944,
        -0.2132422775030136,
        -0.0778890997171402,
        -0.17303167283535004,
        -0.17832577228546143,
        0.17663456499576569,
        -0.08889498561620712,
        0.21693406999111176,
        0.0043052551336586475,
        -0.016159238293766975,
        -0.038902681320905685,
        -0.00964561477303505,
        0.2694219648838043,
        0.2267991453409195,
        -0.0774737000465393,
        0.03809861093759537,
        -0.32084837555885315,
        0.07080010324716568,
        0.07867419719696045,
        -0.08953745663166046,
        -0.08571256697177887,
        0.01184110902249813,
        -0.018434450030326843,
        -0.21081101894378662,
        0.1916932612657547,
        -0.008880304172635078,
        -0.149016872048378,
        0.3810705542564392,
        -0.10824031382799149,
        0.03376134857535362,
        -0.13800494372844696,
        -0.23300014436244965,
        0.04587431624531746,
        0.0887928232550621,
        0.04239065200090408,
        0.033763982355594635,
        0.19589607417583466,
        -0.18900658190250397,
        0.0405748151242733,
        -0.0019690687768161297,
        0.08875405043363571,
        0.16534502804279327,
        0.07790261507034302,
        0.04868101701140404,
        0.15532390773296356,
        -0.25281476974487305,
        0.04508165270090103,
        -0.0014232591493055224,
        -0.007309117820113897,
        -0.001457961043342948,
        -0.021914562210440636,
        -0.028792431578040123,
        0.12812870740890503,
        0.033800721168518066,
        0.12846896052360535,
        -0.18324150145053864,
        0.013676219619810581,
        -0.038496896624565125,
        -0.023216810077428818,
        0.1474723368883133,
        0.09695501625537872,
        -0.10860885679721832,
        -0.1313035935163498,
        -0.10137579590082169,
        0.14086882770061493,
        0.053270336240530014,
        0.001083523966372013,
        -0.08566351234912872,
        -0.08105844259262085,
        0.20576532185077667,
        0.07030025124549866,
        -0.12803705036640167,
        0.05747010186314583,
        -0.13744360208511353,
        -0.17569498717784882,
        -0.22402162849903107,
        -0.13867883384227753,
        -0.07031593471765518,
        -0.29645249247550964,
        -0.22587428987026215,
        -0.27518293261528015,
        0.06876616179943085,
        0.23839272558689117,
        0.0695003941655159,
        -0.20545820891857147,
        0.06565380096435547,
        0.13271695375442505,
        0.018613988533616066,
        0.02193431928753853,
        0.1112440899014473,
        -0.03638847917318344,
        0.1269674003124237,
        0.1066310927271843,
        0.1140025407075882,
        -0.21316763758659363,
        -0.2694108188152313,
        -0.10407663136720657,
        0.01736561954021454,
        0.015258665196597576,
        0.17294126749038696,
        0.032285839319229126,
        -0.1914120316505432,
        -0.10810793191194534,
        -0.15196527540683746,
        0.035352569073438644,
        0.07602722942829132,
        -0.08459950238466263,
        0.05257940664887428,
        -0.12592077255249023,
        0.08624262362718582,
        0.19420883059501648,
        0.18984101712703705,
        0.0858631581068039,
        -0.13804124295711517,
        -0.12860919535160065,
        -0.004918662365525961,
        0.1478913128376007,
        -0.19385486841201782,
        -0.06035035848617554,
        0.04145818203687668,
        -0.3154605031013489,
        -0.03168250620365143,
        -0.009198440238833427,
        0.40219300985336304,
        0.17066951096057892,
        0.2082332819700241,
        -0.17662781476974487,
        -0.1532488316297531,
        -0.4792170226573944,
        0.15067413449287415,
        0.10921591520309448,
        0.14721891283988953,
        0.029497915878891945,
        -0.051163606345653534,
        -0.054810699075460434,
        0.3075299859046936,
        0.29084640741348267,
        0.02757873758673668,
        0.021832851693034172,
        0.12073787301778793,
        0.04058712348341942,
        -0.1758812814950943,
        -0.10966970771551132,
        -0.10003355890512466,
        -0.12357985228300095,
        -0.09524670243263245,
        -0.2755829393863678,
        0.01772357150912285,
        -0.10268828272819519,
        -0.06580737233161926,
        -0.059776291251182556,
        -0.16981807351112366,
        -0.1548684984445572,
        -0.062213242053985596,
        0.35009658336639404,
        0.3005056381225586,
        -0.023297937586903572,
        0.012100816704332829,
        -0.1503363996744156,
        -0.12590324878692627,
        0.010673903860151768,
        0.08455777168273926,
        -0.04650449752807617,
        -0.13988132774829865,
        -0.054705679416656494,
        0.02199225127696991,
        0.0884888619184494,
        -0.14724421501159668,
        0.05979588255286217,
        -0.16074419021606445,
        -0.055555157363414764,
        0.07725818455219269,
        0.1686079204082489,
        0.23720292747020721,
        0.13794052600860596,
        -0.016549665480852127,
        -0.09825006127357483,
        0.37904244661331177,
        -0.16941457986831665,
        0.10157656669616699,
        0.12870444357395172,
        0.16822656989097595,
        0.02910454012453556,
        -0.059304483234882355,
        0.16517415642738342,
        -0.007542306557297707,
        -0.06178596243262291,
        0.005403247196227312,
        -0.07307202368974686,
        -0.2991262972354889,
        -0.3122095465660095,
        0.19134725630283356,
        0.5740149617195129,
        -0.5150676369667053,
        0.5008875131607056,
        -0.589407205581665,
        -0.4766819477081299,
        -0.7309374809265137,
        0.8373514413833618,
        -1.2526819705963135,
        -0.6374763250350952,
        -0.9586921334266663,
        0.48451918363571167,
        -0.7459469437599182,
        0.12131486088037491,
        -0.6660650968551636,
        -0.4871332347393036,
        -0.23322494328022003,
        0.013332798145711422,
        0.3122536540031433,
        0.1876356154680252,
        -0.3860264718532562,
        -0.1711868941783905,
        -0.15890035033226013,
        0.02821720391511917,
        -0.09302128851413727,
        0.18263888359069824,
        0.2894977927207947,
        0.2548161447048187,
        0.05172343924641609,
        -0.21356818079948425,
        -0.10945575684309006,
        0.17309200763702393,
        -0.186320498585701,
        -0.128587543964386,
        0.07566763460636139,
        -0.45862168073654175,
        0.11922627687454224,
        -0.030615033581852913,
        -0.150715172290802,
        0.14036385715007782,
        -0.13226531445980072,
        -0.02367938496172428,
        0.11435632407665253,
        -0.01667742431163788,
        0.0007835488650016487,
        0.1211203783750534,
        0.1773967742919922,
        -0.08042650669813156,
        -0.3815877437591553,
        -0.09727273136377335,
        0.24347668886184692,
        -0.10965117067098618,
        0.22904741764068604,
        0.018886862322688103,
        0.0041533722542226315,
        -0.12590162456035614,
        0.1309581696987152,
        -0.3204655647277832,
        -0.306357741355896,
        -0.024384664371609688,
        -0.08042020350694656,
        0.19417019188404083,
        0.06654727458953857,
        0.11585012823343277,
        0.20257064700126648,
        -0.4194267690181732,
        -0.36785295605659485,
        -0.46404552459716797,
        -0.30995306372642517,
        -0.17953228950500488,
        0.025442881509661674,
        -0.26704666018486023,
        0.19071437418460846,
        0.1744242161512375,
        0.3077985644340515,
        -0.01430934015661478,
        -0.35070911049842834,
        0.18391482532024384,
        -0.06720121204853058,
        -0.07431047409772873,
        -0.09196680039167404,
        -0.1674940586090088,
        -0.3286614418029785,
        0.0440325029194355,
        -0.02407892793416977,
        -0.04995528236031532,
        0.37054723501205444,
        -0.26735633611679077,
        0.08543598651885986,
        0.05684475973248482,
        0.21768797934055328,
        -0.3646813631057739,
        -0.6515402793884277,
        -0.04348580166697502,
        -0.5173171758651733,
        -0.22297319769859314,
        0.020286647602915764,
        -0.30795013904571533,
        -0.36909064650535583,
        0.012979651801288128,
        -0.26703423261642456,
        -0.16357535123825073,
        0.10036760568618774,
        -0.16525667905807495,
        0.27752527594566345,
        0.18928435444831848,
        -0.02404664270579815,
        -0.3493192195892334,
        -0.1981169581413269,
        0.22219228744506836,
        -0.13099150359630585,
        0.17847302556037903,
        -0.24496418237686157,
        0.24898581206798553,
        -0.17391587793827057,
        0.22974544763565063,
        0.013554774224758148,
        -0.1863008588552475,
        -0.41941291093826294,
        0.397225022315979,
        -0.2240167260169983,
        -0.1838926076889038,
        0.4605329632759094,
        0.21734091639518738,
        0.3011123239994049,
        -0.27832451462745667,
        0.2112751305103302,
        0.02593230828642845,
        0.10470985621213913,
        0.17664213478565216,
        0.09516105055809021,
        0.33616194128990173,
        -0.10278753936290741,
        -0.03294256702065468,
        0.04621843993663788,
        -0.07949937134981155,
        0.15867498517036438,
        -0.111988864839077,
        0.06151597574353218,
        -0.01514260284602642,
        0.03998624160885811,
        0.1404588371515274,
        0.06048605591058731,
        0.026356657966971397,
        0.09939519315958023,
        -0.2474048137664795,
        -0.11875395476818085,
        -0.3035876750946045,
        -0.317744642496109,
        0.09540470689535141,
        -0.14601656794548035,
        0.04232151433825493,
        0.09623278677463531,
        0.22985021770000458,
        -0.10743173211812973,
        -0.06668638437986374,
        0.23624125123023987,
        -0.10419531166553497,
        0.3138294219970703,
        -0.19635577499866486,
        0.031087208539247513,
        0.01867208629846573,
        0.12027913331985474,
        0.18513239920139313,
        -0.14026083052158356,
        0.13025644421577454,
        -0.06115814670920372,
        0.018828976899385452,
        0.002623220905661583,
        0.296060711145401,
        0.24602793157100677,
        0.21845975518226624,
        -0.12232545763254166,
        0.11825206875801086,
        -0.2629384696483612,
        0.044810909777879715,
        -0.22341445088386536,
        -0.10371159017086029,
        0.16051079332828522,
        0.03971249982714653,
        -0.06331682205200195,
        0.02639705501496792,
        0.03096870519220829,
        0.2613273561000824,
        0.2572278678417206,
        -0.26750439405441284,
        0.005950172431766987,
        0.09450056403875351,
        0.036313291639089584,
        -0.10592986643314362,
        0.006307216361165047,
        0.15075911581516266,
        0.4557251036167145,
        -0.37991079688072205,
        -0.2869347333908081,
        -0.2943868935108185,
        -0.13485020399093628,
        -0.09117261320352554,
        0.10183986276388168,
        -0.3222475051879883,
        0.20923545956611633,
        0.1279868632555008,
        -0.2690684199333191,
        0.03419122472405434,
        -0.19021663069725037,
        0.31408846378326416,
        -0.20108774304389954,
        -0.1397850513458252,
        -0.3826945126056671,
        -0.2968861162662506,
        0.34684333205223083,
        -0.13514554500579834,
        0.04358604550361633,
        -0.2860928773880005,
        0.19522976875305176,
        -0.08109033107757568,
        0.035928063094615936,
        -0.4243814945220947,
        -0.28882959485054016,
        0.2866073548793793,
        -0.09138800948858261,
        -0.11786600202322006,
        0.16710655391216278,
        0.1213589534163475,
        -0.15257319808006287,
        -0.16685257852077484,
        0.40677061676979065,
        -0.2415340095758438,
        0.14986053109169006,
        0.013637151569128036,
        -0.1425979733467102,
        0.2074732929468155,
        0.19580674171447754,
        0.003126391675323248,
        0.01587057299911976,
        0.2084801197052002,
        0.1876649111509323,
        -0.09726885706186295,
        0.12664109468460083,
        -0.12189264595508575,
        0.29384180903434753,
        -0.13989299535751343,
        -0.17480948567390442,
        -0.44261667132377625,
        -0.312649667263031,
        0.3288641571998596,
        0.22670355439186096,
        -0.2693212330341339,
        0.36653247475624084,
        -0.04043687880039215,
        0.08900541067123413,
        -0.37544289231300354,
        0.011715472675859928,
        0.3696725070476532,
        0.17206817865371704,
        0.24804748594760895,
        -0.09275329113006592,
        -0.06064748764038086,
        -0.014893370680510998,
        -0.25834986567497253,
        -0.36824938654899597,
        0.03585066273808479,
        -0.024978432804346085,
        0.2955276668071747,
        -0.31657126545906067,
        0.26166537404060364,
        0.44358891248703003,
        -0.34769001603126526,
        0.40971243381500244,
        -0.167223259806633,
        -0.031461648643016815,
        -0.07428748160600662,
        -0.03385082259774208,
        -0.011765428818762302,
        -0.03248533979058266,
        0.0047768484801054,
        0.14439399540424347,
        0.26701629161834717,
        0.0848846584558487,
        0.09705779701471329,
        0.14924129843711853,
        0.09440387040376663,
        -0.044314879924058914,
        -0.10886640846729279,
        -0.5241976976394653,
        -0.2410123646259308,
        -0.12232774496078491,
        0.15949870645999908,
        0.1230430081486702,
        -0.30208584666252136,
        -0.2122584730386734,
        -0.3421739935874939,
        0.019845640286803246,
        0.030898291617631912,
        -0.07456322759389877,
        0.08192604035139084,
        0.008479396812617779,
        -0.1775592416524887,
        -0.0994594544172287,
        0.024826552718877792,
        -0.059213560074567795,
        -0.04461159184575081,
        0.1844099909067154,
        0.12307722866535187,
        0.038591381162405014,
        -0.11477521061897278,
        -0.009257427416741848,
        0.08580602705478668,
        0.1285981684923172,
        0.19003166258335114,
        -0.19943466782569885,
        -0.12271519005298615,
        0.06896059960126877,
        0.23882845044136047,
        0.11340609192848206,
        0.12569154798984528,
        -0.19297949969768524,
        -0.11653783172369003,
        -0.04051937162876129,
        -0.04997865855693817,
        -0.0024390227627009153,
        0.004580695182085037,
        -0.01492215134203434,
        -0.014014242216944695,
        -0.07226281613111496,
        0.1475674957036972,
        -0.13653652369976044,
        -0.009335909970104694,
        -0.015342227183282375,
        0.0010607399744912982,
        -0.04261225461959839,
        -0.20921480655670166,
        0.07723456621170044,
        -0.14314104616641998,
        0.07552418112754822,
        -0.5654683709144592,
        -0.30116191506385803,
        0.6198693513870239,
        -0.06965899467468262,
        -0.0023349386174231768,
        -0.2022271752357483,
        0.18246762454509735,
        0.13680905103683472,
        -0.07929209619760513,
        -0.031267207115888596,
        -0.08005133271217346,
        -0.10251960158348083,
        0.3037815988063812,
        -0.04528016969561577,
        0.07988353818655014,
        -0.09225605428218842,
        0.04104263335466385,
        0.08217644691467285,
        0.055242374539375305,
        -0.19304676353931427,
        -0.09790370613336563,
        -0.20716328918933868,
        -0.06999630481004715,
        0.04002533107995987,
        0.05225105583667755,
        -0.11724509298801422,
        -0.19262710213661194,
        0.05284419283270836,
        0.20246876776218414,
        0.2511444687843323,
        0.27527251839637756,
        0.09983894973993301,
        -0.06037532165646553,
        -0.09807227551937103,
        -0.10555414110422134,
        0.1476708948612213,
        0.02546287141740322,
        0.09316407144069672,
        -0.24462515115737915,
        0.07533814013004303,
        0.011764129623770714,
        -0.2570713460445404,
        0.10937998443841934,
        0.022197438403964043,
        0.11666153371334076,
        0.42097002267837524,
        0.38778170943260193,
        -0.11451134085655212,
        0.42570582032203674,
        0.13701030611991882,
        -0.0882355272769928,
        0.18307797610759735,
        -0.056397147476673126,
        -0.16835957765579224,
        0.278403639793396,
        0.008293273858726025,
        0.02597314678132534,
        -0.25677868723869324,
        -0.004388128407299519,
        0.11908205598592758,
        -0.05189225450158119,
        0.015741931274533272,
        0.2150060534477234,
        -0.010495834052562714,
        0.01535030361264944,
        0.10342367738485336,
        0.0738881379365921,
        0.1460544466972351,
        -0.06371034681797028,
        -0.19205930829048157,
        0.10436245054006577,
        0.0954885333776474,
        0.10249274224042892,
        -0.12038103491067886,
        0.023529410362243652,
        -0.11855228245258331,
        0.1399422138929367,
        -0.025559773668646812,
        0.03721093013882637,
        0.05834038183093071,
        -0.125645712018013,
        -0.1757327914237976,
        -0.02846415713429451,
        0.09983470290899277,
        0.26082539558410645,
        -0.012942950241267681,
        -0.04253431782126427,
        0.13304290175437927,
        -0.02974509634077549,
        -0.025917980819940567,
        0.08272302150726318,
        -0.4652504622936249,
        0.03311007469892502,
        -0.21278107166290283,
        -0.038346484303474426,
        0.14653611183166504,
        -0.009219309315085411,
        -0.2616437077522278,
        0.06947416067123413,
        0.0025848825462162495,
        0.053819023072719574,
        -0.050503671169281006,
        0.1538168489933014,
        0.08845517039299011,
        -0.203531414270401,
        0.02945542149245739,
        -0.0028104125522077084,
        -0.15560363233089447,
        -0.062344763427972794,
        -0.013081319630146027,
        -0.01667858473956585,
        -0.07601530104875565,
        -0.11395218968391418,
        0.15474069118499756,
        0.1973661631345749,
        0.041805628687143326,
        -0.12552355229854584,
        -0.0918671116232872,
        0.08913318067789078,
        0.1862904131412506,
        0.07384761422872543,
        -0.09909103810787201,
        -0.04402324929833412,
        -0.16055259108543396,
        0.02806529402732849,
        -0.027683403342962265,
        0.1042955070734024,
        0.010745675303041935,
        -0.0694776326417923,
        0.004160623531788588,
        -0.06728765368461609,
        -0.030147306621074677,
        0.12196197360754013,
        -0.11139439046382904,
        -0.11930068582296371,
        0.2428230345249176,
        -0.08469370007514954,
        0.025618290528655052,
        0.10887404531240463,
        -0.3790569603443146,
        0.17141956090927124,
        -0.10054317116737366,
        -0.01779172383248806,
        0.022465892136096954,
        0.38094693422317505,
        -0.08442208170890808,
        0.15739962458610535,
        -0.15933886170387268,
        0.17312529683113098,
        0.14100056886672974,
        -0.1411828249692917,
        0.13430950045585632,
        0.033954888582229614,
        0.1655791997909546,
        0.20104272663593292,
        -0.11146758496761322,
        0.05366411805152893,
        0.14848674833774567,
        -0.14347200095653534,
        0.13623712956905365,
        0.12595012784004211,
        -0.10603724420070648,
        -0.27617132663726807,
        -0.14571252465248108,
        0.1952141970396042,
        0.07109765708446503,
        -0.1749461144208908,
        -0.012139680795371532,
        -0.06425198167562485,
        0.004301107954233885,
        0.10817860811948776,
        0.23878562450408936,
        0.012405658140778542,
        -0.02398756332695484,
        -0.25002405047416687,
        -0.01318224798887968,
        0.13141216337680817,
        0.16500705480575562,
        0.09109073877334595,
        -0.2360067367553711,
        -0.26439550518989563,
        0.11555156111717224,
        0.07442630082368851,
        -0.24705953896045685,
        -0.047703817486763,
        0.18723665177822113,
        0.029632853344082832,
        0.24399036169052124,
        0.09038286656141281,
        0.08094359934329987,
        -0.13256552815437317,
        -0.06866773962974548,
        0.42201200127601624,
        0.07892655581235886,
        -0.4053567349910736,
        0.1613432615995407,
        -0.057621706277132034,
        -0.08565689623355865,
        0.05555179342627525,
        -0.14425288140773773,
        -0.1368899941444397,
        -0.15865080058574677,
        -0.19171176850795746,
        0.055481523275375366,
        -0.11588294059038162,
        -0.06918711215257645,
        -0.006751169916242361,
        -0.20766812562942505,
        -0.09470486640930176,
        0.04739142954349518,
        -0.016535231843590736,
        0.11985766887664795,
        0.03792748600244522,
        -0.18846091628074646,
        -0.06902755796909332,
        0.16173575818538666,
        0.17288807034492493,
        -0.10083819180727005,
        -0.2032727152109146,
        -0.13837698101997375,
        0.1480318307876587,
        0.12403098493814468,
        0.15422803163528442,
        -0.0024231632705777884,
        -0.05166943371295929,
        -0.048529546707868576,
        0.07322487235069275,
        0.162653386592865,
        0.2375766932964325,
        -0.10466904193162918,
        -0.12676043808460236,
        0.09433110058307648,
        -0.011081418953835964,
        -0.019602268934249878,
        0.0995575487613678,
        -0.3901166021823883,
        -0.18081504106521606,
        0.1679105907678604,
        0.023461470380425453,
        0.12604089081287384,
        -0.479621022939682,
        0.032000407576560974,
        -0.1341271847486496,
        0.038893114775419235,
        0.0096210315823555,
        0.04798875376582146,
        0.12301752716302872,
        -0.10444069653749466,
        -0.07713392376899719,
        -0.07935383915901184,
        0.20373736321926117,
        0.04056163504719734,
        -0.08466920256614685,
        -0.05534960329532623,
        0.008732713758945465,
        -0.1628894954919815,
        0.14386190474033356,
        -0.09704603254795074,
        0.027008546516299248,
        -0.06477722525596619,
        -0.019740628078579903,
        0.18930979073047638,
        0.025256691500544548,
        -0.14566490054130554,
        -0.18170659244060516,
        0.12156768888235092,
        0.15654170513153076,
        -0.06691903620958328,
        0.08404667675495148,
        -0.1633676290512085,
        -0.13866259157657623,
        -0.03254328668117523,
        -0.06983420252799988,
        -0.03869503736495972,
        -0.014128783717751503,
        -0.0958787202835083,
        -0.10391438007354736,
        -0.09535617381334305,
        0.1316981166601181,
        -0.028647305443882942,
        -0.07438061386346817,
        0.026977844536304474,
        -0.24065420031547546,
        0.09116458892822266,
        -0.11564075946807861,
        0.3638107180595398,
        0.02491474151611328,
        0.07630617171525955,
        -0.11697486788034439,
        -0.1648719757795334,
        -0.1544504463672638,
        0.3570011258125305,
        0.07144929468631744,
        0.1699955016374588,
        0.030354483053088188,
        0.0014424646506085992,
        -0.11467772722244263,
        -0.08975709974765778,
        0.005052170250564814,
        0.1406271606683731,
        -0.1435595452785492,
        0.1497100442647934,
        -0.018964307382702827,
        -0.052406229078769684,
        0.11585696786642075,
        -0.014413723722100258,
        -0.043161604553461075,
        -0.08784714341163635,
        0.03340230882167816,
        -0.18461622297763824,
        0.1728777140378952,
        -0.034418292343616486,
        0.11453945934772491,
        -0.3090721666812897,
        -0.1149313747882843,
        -0.24905912578105927,
        0.24165363609790802,
        -0.12259078770875931,
        0.19994568824768066,
        -0.24438124895095825,
        -0.09527545422315598,
        -0.046725574880838394,
        0.07065676152706146,
        -0.04410070925951004,
        0.1615142971277237,
        -0.04759475961327553,
        0.049769122153520584,
        0.03291402757167816,
        -0.17461267113685608,
        0.03128046542406082,
        0.1001950353384018,
        -0.34967848658561707,
        0.04455075040459633,
        -0.17472554743289948,
        -0.255999892950058,
        -0.02850102260708809,
        -0.5826903581619263,
        0.33312681317329407,
        -0.17645303905010223,
        0.0569690465927124,
        -0.13921017944812775,
        -0.05392884463071823,
        -0.15818838775157928,
        0.3595229983329773,
        -0.003782033221796155,
        -0.12816664576530457,
        0.1029757559299469,
        0.03235914558172226,
        -0.3244576156139374,
        0.17595496773719788,
        0.05815631151199341,
        0.09111201763153076,
        -0.031995613127946854,
        0.036839406937360764,
        0.056789830327034,
        -0.025477010756731033,
        -0.13415557146072388,
        0.18276390433311462,
        -0.2315114587545395,
        -0.01936299540102482,
        0.2083148956298828,
        -0.04903709143400192,
        0.09214907884597778,
        0.15233097970485687,
        0.09363915771245956,
        0.18005262315273285,
        -0.005674081854522228,
        0.28574445843696594,
        0.03849000483751297,
        0.42574343085289,
        0.03671471029520035,
        0.006622398272156715,
        -0.42178860306739807,
        0.4310278296470642,
        0.09175006300210953,
        -0.15313467383384705,
        0.08576921373605728,
        0.11484610289335251,
        0.02714141272008419,
        -0.04049355909228325,
        -0.1443701684474945,
        -0.15497037768363953,
        0.13536091148853302,
        -0.04187567159533501,
        0.09228047728538513,
        -0.22411756217479706,
        -0.29758667945861816,
        -0.061661992222070694,
        0.06111228093504906,
        0.09622164815664291,
        -0.13184604048728943,
        -0.003453860292211175,
        0.19851896166801453,
        -0.1390303522348404,
        0.08818773180246353,
        -0.1865656077861786,
        -0.2286810725927353,
        0.2548709511756897,
        0.16377173364162445,
        0.04956664517521858,
        0.21701017022132874,
        -0.11691347509622574,
        -0.20202800631523132,
        -0.29393622279167175,
        -0.15209153294563293,
        0.17810410261154175,
        -0.1913616955280304,
        -0.17470622062683105,
        -0.1384527087211609,
        0.18464219570159912,
        0.09442756325006485,
        0.21556326746940613,
        -0.15550597012043,
        -0.07282675057649612,
        -0.04295620322227478,
        0.0399521067738533,
        0.08376530557870865,
        -0.04244120791554451,
        0.30059579014778137,
        -0.2152889221906662,
        -0.14557980000972748,
        0.027956755831837654,
        0.07632891088724136,
        -0.18458707630634308,
        -0.09117761999368668,
        0.11238469928503036,
        -0.3845307528972626,
        0.6973123550415039,
        -0.1494026631116867,
        0.08071485161781311,
        0.026926890015602112,
        -0.07555849850177765,
        -0.47279301285743713,
        0.2861027121543884,
        0.03333519771695137,
        0.06323111802339554,
        0.07521041482686996,
        0.12319562584161758,
        0.16284282505512238,
        -0.07794708758592606,
        0.028709080070257187,
        -0.13336703181266785,
        0.30751264095306396,
        0.18367674946784973,
        -0.037557393312454224,
        -0.24230848252773285,
        0.22126074135303497,
        -0.0376068539917469,
        0.23232965171337128,
        0.06290185451507568,
        0.14509443938732147,
        -0.07907425612211227,
        -0.1869327872991562,
        0.020072028040885925,
        0.14724215865135193,
        0.0351971872150898,
        0.0365588441491127,
        0.5629938840866089,
        0.0890316292643547,
        -0.10922393202781677,
        0.0752599686384201,
        0.13633382320404053,
        0.19590143859386444,
        -0.150034099817276,
        0.05118512362241745,
        -0.05512961000204086,
        0.10743150115013123,
        0.21113529801368713,
        0.18463440239429474,
        -0.10308875888586044,
        -0.06603940576314926,
        0.207789346575737,
        -0.2209623008966446,
        -0.20262908935546875,
        -0.12905608117580414,
        0.05999504774808884,
        -0.06883565336465836,
        0.21875804662704468,
        0.33469149470329285,
        0.06705092638731003,
        -0.1186099499464035,
        0.08641386032104492,
        -0.08483877778053284,
        -0.004465475678443909,
        -0.04693739116191864,
        0.14541585743427277,
        -0.060076285153627396,
        -0.09966021031141281,
        0.15833474695682526,
        0.03143303468823433,
        0.08769159764051437,
        0.027168968692421913,
        0.021419266238808632,
        -0.055027831345796585,
        -0.007892324589192867,
        0.040460970252752304,
        -0.0857229083776474,
        -0.12758687138557434,
        -0.0880480632185936,
        0.14475703239440918,
        0.25847718119621277,
        0.26313990354537964,
        -0.014766639098525047,
        -0.15082404017448425,
        -0.1822192519903183,
        -0.013116802088916302,
        -0.14199046790599823,
        0.006507459096610546,
        0.017601080238819122,
        -0.17959603667259216,
        -0.2236385941505432,
        -0.22365674376487732,
        -0.04319858178496361,
        0.22694846987724304,
        -0.022606145590543747,
        -0.04319054260849953,
        -0.13077497482299805,
        -0.07850989699363708,
        0.017578162252902985,
        -0.2064100056886673,
        -0.1859842985868454,
        0.16636352241039276,
        -0.11976635456085205,
        -0.18382088840007782,
        0.028992677107453346,
        0.11778733879327774,
        -0.2277565449476242,
        -0.263467013835907,
        0.2520456910133362,
        -0.5732101202011108,
        0.48182937502861023,
        0.0027748337015509605,
        -0.12373168766498566,
        -0.2452358454465866,
        0.07075370103120804,
        -0.0811091884970665,
        -0.0032129804603755474,
        -0.06207486614584923,
        0.09646829962730408,
        -0.00880869384855032,
        0.12943194806575775,
        0.1895163655281067,
        0.10763124376535416,
        -0.09007822722196579,
        -0.0022047602105885744,
        0.019884807989001274,
        -0.09054826200008392,
        0.07154177129268646,
        -0.0805315226316452,
        0.012926166877150536,
        -0.05548735335469246,
        0.07440870255231857,
        -0.06518859416246414,
        -0.19360439479351044,
        -0.03951527550816536,
        -0.1379634439945221,
        0.08014639467000961,
        0.08342299610376358,
        0.17217952013015747,
        0.112238310277462,
        -0.015764620155096054,
        -0.07545686513185501,
        0.012793117202818394,
        0.1616852581501007,
        0.02627500891685486,
        0.012149765156209469,
        -0.1563049703836441,
        0.1581125259399414,
        0.05391891300678253,
        -0.016042131930589676,
        0.03867259621620178,
        0.10226256400346756,
        -0.06252595782279968,
        0.18272918462753296,
        0.017779765650629997,
        0.21773338317871094,
        -0.2169862985610962,
        0.28669172525405884,
        -0.18189071118831635,
        0.044383272528648376,
        -0.15457528829574585,
        -0.24985691905021667,
        0.19832293689250946,
        0.058188363909721375,
        -0.1897248476743698,
        -0.15105128288269043,
        -0.10243389755487442,
        0.03476329520344734,
        -0.0211444441229105,
        0.14619964361190796,
        0.167985737323761,
        -0.09170813858509064,
        0.02177836373448372,
        -0.08096962422132492,
        -0.0052197398617863655,
        -0.13811303675174713,
        -0.06131318584084511,
        -0.10216527432203293,
        0.009206012822687626,
        0.05623112618923187,
        0.14680474996566772,
        0.13573548197746277,
        -0.19963109493255615,
        -0.0422416590154171,
        -0.052919965237379074,
        0.24498727917671204,
        0.13683156669139862,
        0.08781866729259491,
        -0.07578664273023605,
        -0.17724832892417908,
        0.02518651634454727,
        0.0724802166223526,
        0.024622788652777672,
        0.10921399295330048,
        -0.08715539425611496,
        0.16214975714683533,
        0.14534932374954224,
        -0.17065897583961487,
        0.012962677516043186,
        -0.056113701313734055,
        -0.08478157967329025,
        0.21170595288276672,
        0.2992575466632843,
        0.3268064260482788,
        0.21568696200847626,
        0.09995537251234055,
        0.2582293450832367,
        -0.03724139556288719,
        -0.02668570727109909,
        0.007629315834492445,
        0.10001508891582489,
        -0.042298104614019394,
        0.07186209410429001,
        -0.33463531732559204,
        -0.286376416683197,
        -0.07036109268665314,
        -0.08454263210296631,
        -0.27404776215553284,
        -0.10249728709459305,
        -0.07575718313455582,
        -0.15324251353740692,
        -0.13571007549762726,
        0.1648622751235962,
        0.24743689596652985,
        -0.07026776671409607,
        -0.026011299341917038,
        0.07314572483301163,
        -0.006717822514474392,
        -0.07464996725320816,
        -0.3036201298236847,
        0.23529976606369019,
        0.11835510283708572,
        0.12588822841644287,
        0.06029742211103439,
        0.05729348212480545,
        0.01670278050005436,
        0.06683612614870071,
        -0.2663824260234833,
        -0.0477849505841732,
        -0.13310937583446503,
        0.06561122834682465,
        -0.11901696026325226,
        -0.06336653977632523,
        -0.019891206175088882,
        -0.19494152069091797,
        0.046597886830568314,
        -0.2025267332792282,
        -0.6627883911132812,
        0.10915529727935791,
        0.11318559944629669,
        0.12851373851299286,
        0.005525470245629549,
        -0.11788643896579742,
        -0.07175497710704803,
        0.2186194807291031,
        -0.09870310127735138,
        0.11286348849534988,
        0.21514154970645905,
        -0.19637024402618408,
        0.12250028550624847,
        0.15405015647411346,
        -0.022843001410365105,
        0.13245953619480133,
        0.048620663583278656,
        0.0719778910279274,
        0.13450461626052856,
        -0.21876056492328644,
        0.16544245183467865,
        0.02443120814859867,
        -0.22428476810455322,
        0.07299382239580154,
        -0.006032547447830439,
        0.2602897882461548,
        0.1302533894777298,
        -0.007159165572375059,
        0.06397943943738937,
        -0.14282241463661194,
        0.0650792121887207,
        -0.02467438578605652,
        0.006972161121666431,
        -0.11830376833677292,
        -0.12053816020488739,
        -0.16688188910484314,
        -0.11357641220092773,
        0.1131487488746643,
        -0.02074301242828369,
        0.12373294681310654,
        -0.0189680065959692,
        -0.25991591811180115,
        0.17280662059783936,
        -0.05732221528887749,
        -0.18120670318603516,
        0.1385422945022583,
        0.007576365489512682,
        0.08028439432382584,
        0.2728297710418701,
        -0.20552226901054382,
        -0.0953487902879715,
        -0.13182948529720306,
        0.20306533575057983,
        0.28488144278526306,
        0.0725201740860939,
        0.0762297660112381,
        -0.08569405972957611,
        0.0179426409304142,
        0.052424415946006775,
        -0.0668950006365776,
        -0.20523126423358917,
        0.266109824180603,
        0.09258899837732315,
        0.20907022058963776,
        -0.06823613494634628,
        -0.06400856375694275,
        0.22252127528190613,
        0.07476069778203964,
        -0.027872996404767036,
        -0.15339228510856628,
        -0.43184950947761536,
        0.7610587477684021,
        0.3454700708389282,
        -0.39573386311531067,
        0.1261078417301178,
        -0.19283917546272278,
        -0.15101918578147888,
        0.5834886431694031,
        -0.7859170436859131,
        1.0249533653259277,
        0.6891323924064636,
        -0.0012586703523993492,
        -0.42937150597572327,
        0.08462346345186234,
        -0.621001124382019,
        0.23542854189872742,
        -0.2298581749200821,
        -0.22793801128864288,
        -0.4173017740249634,
        0.33380022644996643,
        -0.003422908717766404,
        0.209375262260437,
        -0.1006699949502945,
        0.1963385045528412,
        0.28799352049827576,
        0.10334018617868423,
        0.15260352194309235,
        -0.31933218240737915,
        -0.09617217630147934,
        -0.17950893938541412,
        0.02704061195254326,
        0.23217828571796417,
        -0.06539830565452576,
        0.049983661621809006,
        0.16097339987754822,
        0.14095117151737213,
        0.20640166103839874,
        -0.08829870820045471,
        -0.1746142953634262,
        -0.4388386011123657,
        0.009146611206233501,
        0.13623802363872528,
        -0.04034080356359482,
        0.10114308446645737,
        0.24232622981071472,
        0.2790895700454712,
        -0.0814913809299469,
        0.1895475536584854,
        -0.3138715624809265,
        -0.09587176889181137,
        -0.28854575753211975,
        0.2882285416126251,
        -0.22509141266345978,
        -0.030175233259797096,
        -0.034550320357084274,
        -0.2766839265823364,
        0.041802436113357544,
        -0.37663349509239197,
        0.3789527416229248,
        0.14990101754665375,
        -0.4042169749736786,
        -0.022546855732798576,
        0.1639237254858017,
        0.26450055837631226,
        -0.1697864830493927,
        0.1121952012181282,
        -0.11572489142417908,
        -0.09870556741952896,
        0.11704495549201965,
        -0.18851056694984436,
        0.14526453614234924,
        0.21751031279563904,
        -0.10613644868135452,
        0.07546605914831161,
        0.20399586856365204,
        -0.002134942216798663,
        -0.0463404506444931,
        0.14844925701618195,
        -0.0802006721496582,
        0.19086778163909912,
        -0.26663970947265625,
        0.23027333617210388,
        -0.311827152967453,
        0.071957528591156,
        0.031378451734781265,
        -0.11314377188682556,
        0.22222831845283508,
        -0.09618057310581207,
        -0.15564173460006714,
        -0.14150241017341614,
        0.13734009861946106,
        -0.30511578917503357,
        -0.22776277363300323,
        0.2887558341026306,
        -0.09161460399627686,
        -0.051957983523607254,
        -0.096460722386837,
        0.1975269466638565,
        0.03164565563201904,
        -0.2675999402999878,
        0.10404199361801147,
        0.28507542610168457,
        0.2214755266904831,
        -0.44498154520988464,
        -0.1932927668094635,
        0.2745697498321533,
        0.09966439753770828,
        0.03868161886930466,
        0.32293227314949036,
        0.30261296033859253,
        -0.07394059747457504,
        0.06923811882734299,
        0.16010606288909912,
        -0.15571925044059753,
        0.002929889829829335,
        0.16837914288043976,
        -0.14562861621379852,
        0.0968908742070198,
        0.006510651670396328,
        -0.19955264031887054,
        0.21010538935661316,
        0.21088449656963348,
        -0.024539746344089508,
        -0.009275934658944607,
        0.0866706520318985,
        0.07894203066825867,
        0.12284186482429504,
        0.270708292722702,
        0.13706251978874207,
        -0.3621905446052551,
        -0.1745549589395523,
        0.24192512035369873,
        -0.21818970143795013,
        0.11455649137496948,
        -0.20913220942020416,
        0.15908105671405792,
        0.24247992038726807,
        0.06992097944021225,
        0.17088963091373444,
        -0.03983473777770996,
        -0.06571231782436371,
        0.006238291040062904,
        -0.0912952721118927,
        -0.15106095373630524,
        0.18690307438373566,
        -0.10489656031131744,
        0.4852363169193268,
        0.11235284805297852,
        0.013222357258200645,
        -0.44046255946159363,
        -0.06381795555353165,
        -0.01512248907238245,
        -0.07705407589673996,
        0.005467765498906374,
        0.08100520074367523,
        -0.2907145023345947,
        -0.09989593923091888,
        0.050457924604415894,
        -0.1246960312128067,
        0.2566802203655243,
        -0.21480216085910797,
        -0.14778587222099304,
        0.17659783363342285,
        0.1312897801399231,
        0.11141832172870636,
        -0.06409130990505219,
        -0.41505926847457886,
        0.12051967531442642,
        -0.024219589307904243,
        0.08483496308326721,
        -0.052073922008275986,
        -0.12382353842258453,
        -0.24416770040988922,
        0.16306233406066895,
        -0.05002483353018761,
        0.2273426651954651,
        -0.2543303072452545,
        -0.2837882339954376,
        -0.2360771894454956,
        0.3458763062953949,
        -0.334290087223053,
        0.11974642425775528,
        -0.1935565173625946,
        0.3351026177406311,
        0.07321837544441223,
        -0.32066842913627625,
        0.19980131089687347,
        -0.025431565940380096,
        -0.32455188035964966,
        0.06828872859477997,
        0.3838407099246979,
        0.2421814352273941,
        -0.07156893610954285,
        -0.17822480201721191,
        -0.07128866016864777,
        0.01783292181789875,
        0.12390061467885971,
        0.2774231433868408,
        0.09313227981328964,
        -0.18644799292087555,
        -0.11475671082735062,
        -0.2119762897491455,
        0.30657872557640076,
        -0.22477513551712036,
        -0.3582105040550232,
        -0.05110813304781914,
        0.13586656749248505,
        -0.33438122272491455,
        -0.2317233681678772,
        -0.0833730697631836,
        -0.130362406373024,
        0.19573140144348145,
        0.005847357679158449,
        -0.03871141001582146,
        -0.41570553183555603,
        0.38704368472099304,
        -0.06796818971633911,
        -0.22674691677093506,
        0.3799627721309662,
        -0.12494464963674545,
        0.1374836564064026,
        0.0056323157623410225,
        0.028140945360064507,
        -0.3178029954433441,
        0.2973625063896179,
        -0.2452307790517807,
        -0.07883220165967941,
        0.037668246775865555,
        -0.1666182577610016,
        0.11758420616388321,
        -0.08499211072921753,
        0.030284758657217026,
        0.07103382050991058,
        0.09507057815790176,
        -0.34773972630500793,
        0.004672515206038952,
        0.2632797956466675,
        -0.17321917414665222,
        0.09948517382144928,
        -0.006180321332067251,
        0.16834229230880737,
        0.046501800417900085,
        0.07376832515001297,
        -0.2646453380584717,
        0.09658981114625931,
        0.12190091609954834,
        -0.2195451408624649,
        0.11962763965129852,
        -0.03538408875465393,
        0.19246917963027954,
        0.12023242563009262,
        -0.12786775827407837,
        0.08429596573114395,
        0.07428339123725891,
        -0.20729725062847137,
        -0.13635927438735962,
        -0.05511370673775673,
        -0.2574869990348816,
        -0.3056202530860901,
        0.11068360507488251,
        -0.23529019951820374,
        -0.1857907921075821,
        -0.3496881425380707,
        0.21889901161193848,
        0.34696319699287415,
        0.14384868741035461,
        0.24553722143173218,
        -0.24463583528995514,
        -0.1027759313583374,
        -0.32843875885009766,
        0.1549157202243805,
        0.08505184948444366,
        0.019875913858413696,
        0.043032772839069366,
        0.1334659606218338,
        -0.01953202299773693,
        0.39552560448646545,
        0.14939089119434357,
        -0.06208157539367676,
        -0.17674723267555237,
        -0.04426198452711105,
        0.08433942496776581,
        0.2447064369916916,
        0.029747644439339638,
        -0.1126101166009903,
        0.0744771808385849,
        -0.0368097759783268,
        -0.13874419033527374,
        -0.02312866784632206,
        0.10810801386833191,
        -0.02409512549638748,
        0.11910252273082733,
        0.11929666250944138,
        0.09931334853172302,
        -0.01212721411138773,
        -0.010965372435748577,
        0.07197881489992142,
        0.026139572262763977,
        0.331162691116333,
        -0.16115079820156097,
        -0.20048202574253082,
        -0.07471414655447006,
        -0.01178255956619978,
        0.01418126467615366,
        0.27350154519081116,
        0.08377731591463089,
        -0.05610264092683792,
        -0.039711110293865204,
        -0.2895079553127289,
        -0.001635510940104723,
        0.15372520685195923,
        -0.13053008913993835,
        -0.23285482823848724,
        -0.19424788653850555,
        -0.06744978576898575,
        0.08093558996915817,
        0.034208182245492935,
        -0.06753503531217575,
        -0.037892896682024,
        0.09859638661146164,
        -0.12657378613948822,
        -0.2273668795824051,
        0.04953250661492348,
        -0.004394439049065113,
        0.12189651280641556,
        -0.16163598001003265,
        0.1526792347431183,
        0.05894424021244049,
        -0.24086426198482513,
        0.1937040537595749,
        0.16984522342681885,
        -0.006152396555989981,
        0.028740037232637405,
        -0.04617619886994362,
        -0.005742406006902456,
        -0.014948107302188873,
        -0.04550649970769882,
        -0.14351753890514374,
        0.03175320848822594,
        -0.10425039380788803,
        -0.11113549023866653,
        -0.04368867725133896,
        -0.14337584376335144,
        0.07708112895488739,
        -0.17656567692756653,
        0.04253867268562317,
        -0.008394153788685799,
        0.11867856234312057,
        -0.07528381794691086,
        0.1640295386314392,
        0.11445318907499313,
        -0.18737752735614777,
        -0.12131831049919128,
        -0.21537721157073975,
        0.010973184369504452,
        -0.049070484936237335,
        0.13883015513420105,
        -0.08706595748662949,
        -0.16806963086128235,
        -0.12982060015201569,
        0.11742027848958969,
        -0.058918021619319916,
        0.09966636449098587,
        0.15642279386520386,
        0.012945346534252167,
        -0.10265973955392838,
        0.04056447371840477,
        0.04394356533885002,
        0.20840337872505188,
        -0.002522725146263838,
        -0.23763860762119293,
        -0.09357395768165588,
        0.012407868169248104,
        0.1439272165298462,
        -0.22350679337978363,
        0.09216617047786713,
        0.031747978180646896,
        -0.08922306448221207,
        -0.07188474386930466,
        0.3183594048023224,
        -0.009975781664252281,
        -0.08102691918611526,
        0.02131814695894718,
        -0.1723753809928894,
        -0.0818525180220604,
        0.13959264755249023,
        0.16165514290332794,
        0.04156504571437836,
        -0.25546738505363464,
        -0.05857554078102112,
        0.04258826747536659,
        0.04135366156697273,
