{
    "version": "0.5.0",
    "architecture": "WaveNet",
    "config": {
        "layers": [
            {
                "input_size": 1,
                "condition_size": 1,
                "head_size": 8,
                "channels": 16,
                "kernel_size": 3,
                "dilations": [
                    1,
                    2,
                    4,
                    8,
                    16,
                    32,
                    64,
                    128,
                    256,
                    512
                ],
                "activation": "Tanh",
                "gated": false,
                "head_bias": false
            },
            {
                "input_size": 16,
                "condition_size": 1,
                "head_size": 1,
                "channels": 8,
                "kernel_size": 3,
                "dilations": [
                    1,
                    2,
                    4,
                    8,
                    16,
                    32,
                    64,
                    128,
                    256,
                    512
                ],
                "activation": "Tanh",
                "gated": false,
                "head_bias": true
            }
        ],
        "head": null,
        "head_scale": 0.02
    },
    "weights": [
        0.00044039852218702435,
        0.5070276260375977,
        -0.6254712343215942,
        -0.6856508851051331,
        -0.3068889379501343,
        0.0024330620653927326,
        -0.0004888293915428221,
        0.772705078125,
        0.0005125976749695837,
        0.16986051201820374,
        -0.20349425077438354,
        -0.02788653038442135,
        -0.9299269914627075,
        -0.6125036478042603,
        -0.2514948844909668,
        0.000808804645203054,
        0.10348376631736755,
        0.13407659530639648,
        -0.033419620245695114,
        -0.03159472346305847,
        -0.07257629930973053,
        0.11534512042999268,
        -0.061233680695295334,
        0.22668951749801636,
        -0.01824778877198696,
        -0.013183270581066608,
        0.25322869420051575,
        -0.1279679834842682,
        -0.12829504907131195,
        0.07925890386104584,
        -0.056662850081920624,
        0.11184746026992798,
        -0.21263614296913147,
        -0.08266753703355789,
        -0.059617120772600174,
        -0.09922220557928085,
        -0.06303910166025162,
        0.15187682211399078,
        -0.06003531813621521,
        0.061778973788022995,
        0.08619289100170135,
        0.038494985550642014,
        0.1737179160118103,
        -0.08987398445606232,
        -0.2057563215494156,
        -0.054711855947971344,
        0.05309610068798065,
        0.19155511260032654,
        -0.073043093085289,
        -0.04324077442288399,
        0.20321665704250336,
        0.13162663578987122,
        0.02926524542272091,
        0.1447557657957077,
        0.10479319095611572,
        -0.11400412768125534,
        0.14933449029922485,
        -0.10733039677143097,
        -0.1264094114303589,
        0.05530451238155365,
        0.08092432469129562,
        0.030220234766602516,
        -0.17215803265571594,
        0.014049419201910496,
        0.12309964746236801,
        -0.11947880685329437,
        -0.1878681778907776,
        -0.08056341856718063,
        0.22377456724643707,
        0.25565916299819946,
        0.004962929058820009,
        -0.17304539680480957,
        -0.04920995980501175,
        0.2334374487400055,
        -0.0018181897467002273,
        0.014049612917006016,
        0.14613224565982819,
        -0.25530120730400085,
        -0.09502037614583969,
        -0.15153375267982483,
        -0.022252023220062256,
        0.2749541401863098,
        0.14020715653896332,
        -0.2094571739435196,
        -0.13518168032169342,
        -0.13580021262168884,
        0.10344317555427551,
        0.04965531453490257,
        0.17027819156646729,
        -0.10790223628282547,
        -0.13986243307590485,
        -0.0458645261824131,
        0.21408428251743317,
        0.15808089077472687,
        -0.028553439304232597,
        -0.2055271714925766,
        -0.03548368811607361,
        0.14497247338294983,
        -0.22891323268413544,
        -0.20057719945907593,
        0.24869908392429352,
        -0.03300417214632034,
        -0.1785580813884735,
        0.07716456055641174,
        -0.2636220157146454,
        -0.11638625711202621,
        -0.004224414937198162,
        -0.2554936110973358,
        -0.12944042682647705,
        -0.1410849392414093,
        0.10726278275251389,
        0.16962270438671112,
        -0.07567879557609558,
        0.1669195294380188,
        0.11518988013267517,
        -0.08265073597431183,
        0.05803457275032997,
        -0.12484931945800781,
        -0.02257624827325344,
        -0.06060237064957619,
        0.1790669858455658,
        -0.035720743238925934,
        -0.16602440178394318,
        0.19356293976306915,
        -0.17044144868850708,
        -0.17005133628845215,
        0.0981428325176239,
        -0.017566733062267303,
        0.016136687248945236,
        -0.2298472821712494,
        -0.004592970013618469,
        0.06658397614955902,
        -0.031074225902557373,
        0.03672850504517555,
        0.2002134621143341,
        -0.14030931890010834,
        -0.032703280448913574,
        0.011782028712332249,
        0.06719128042459488,
        0.11684129387140274,
        0.21230170130729675,
        -0.054131802171468735,
        0.10619929432868958,
        -0.09049789607524872,
        0.00830199383199215,
        -0.09197193384170532,
        0.025110360234975815,
        0.14401450753211975,
        -0.11718899011611938,
        -0.20864030718803406,
        -0.010455484502017498,
        -0.16438382863998413,
        -0.12404751032590866,
        0.20709291100502014,
        0.039983004331588745,
        -0.22913305461406708,
        0.2148086577653885,
        -0.037618331611156464,
        -0.054720450192689896,
        -0.0550844706594944,
        -0.07857344299554825,
        0.010187491774559021,
        -0.07658892124891281,
        -0.11418645083904266,
        -0.19782216846942902,
        0.0661160871386528,
        -0.07457470148801804,
        0.22111698985099792,
        -0.19089621305465698,
        -0.016400305554270744,
        0.2978915870189667,
        -0.11754043400287628,
        0.11105404049158096,
        0.21716852486133575,
        -0.20052872598171234,
        0.0775124654173851,
        -0.16502685844898224,
        -0.007813611067831516,
        0.033660758286714554,
        -0.09698428213596344,
        0.0034754767548292875,
        -0.022692693397402763,
        -0.06670486927032471,
        0.10017082840204239,
        0.05815320461988449,
        0.09201862663030624,
        -0.015698013827204704,
        -0.0056580109521746635,
        -0.2679133713245392,
        0.16204078495502472,
        0.09470630437135696,
        0.24864524602890015,
        -0.17644482851028442,
        -0.02034085988998413,
        0.051023535430431366,
        -0.16249458491802216,
        -0.09012730419635773,
        0.22278107702732086,
        -0.1440061628818512,
        -0.01158035360276699,
        0.17546406388282776,
        0.031062576919794083,
        -0.12328069657087326,
        0.07030186802148819,
        -0.1448216438293457,
        0.07034964114427567,
        -0.08400169759988785,
        0.13932406902313232,
        -0.10253453254699707,
        -0.026702454313635826,
        -0.0100750382989645,
        0.017426418140530586,
        0.016100402921438217,
        -0.09819275885820389,
        -0.04928581789135933,
        0.020250683650374413,
        -0.05213068053126335,
        -0.12200333178043365,
        0.1231110468506813,
        -0.051381997764110565,
        -0.058700162917375565,
        0.1413109302520752,
        0.11249849200248718,
        0.04704100638628006,
        -0.12275965511798859,
        0.004897642880678177,
        -0.13760501146316528,
        -0.006301138550043106,
        0.04435144364833832,
        0.02461712434887886,
        -0.004653399344533682,
        0.05346586927771568,
        -0.12839247286319733,
        0.052811991423368454,
        0.07066074758768082,
        -0.04893107712268829,
        0.058330826461315155,
        -0.17110954225063324,
        -0.1004379391670227,
        0.05395025014877319,
        0.11881546676158905,
        0.06443050503730774,
        -0.05106514319777489,
        0.06603974848985672,
        0.027484247460961342,
        -0.13430289924144745,
        0.16961535811424255,
        -0.1641155630350113,
        0.009413132444024086,
        0.04310295730829239,
        -0.12502877414226532,
        0.015393915586173534,
        0.17627283930778503,
        0.10137954354286194,
        -0.19773554801940918,
        -0.16578277945518494,
        -0.18546608090400696,
        0.10381323099136353,
        -0.0901927649974823,
        0.04364375025033951,
        -0.05911686271429062,
        -0.025146648287773132,
        -0.06670665740966797,
        0.08348896354436874,
        0.1503165364265442,
        -0.19257742166519165,
        -0.06582000851631165,
        0.14509223401546478,
        -0.01669071428477764,
        0.021115900948643684,
        0.0370187908411026,
        0.014767834916710854,
        -0.1705310046672821,
        -0.1012011393904686,
        -0.0727158933877945,
        -0.0788193792104721,
        0.16048605740070343,
        0.04918757826089859,
        0.009697293862700462,
        -0.06359518319368362,
        -0.07691505551338196,
        -0.03423352912068367,
        -0.04361826926469803,
        0.24116258323192596,
        0.03828725218772888,
        0.0029166541062295437,
        -0.17895978689193726,
        0.025114286690950394,
        0.07848753035068512,
        -0.12092326581478119,
        -0.09521562606096268,
        0.1718762367963791,
        -0.09904345870018005,
        -0.02929910644888878,
        0.07138664275407791,
        -0.23171627521514893,
        0.07413696497678757,
        -0.002349437214434147,
        -0.07310640066862106,
        -0.06431815028190613,
        0.033753734081983566,
        0.1348421722650528,
        -0.13410837948322296,
        0.035459473729133606,
        -0.021051691845059395,
        -0.011342646554112434,
        -0.04243111610412598,
        0.28402209281921387,
        0.06081885099411011,
        -0.1570867896080017,
        -0.34481438994407654,
        -0.028428470715880394,
        0.1801254153251648,
        -0.28074556589126587,
        0.050755858421325684,
        0.2298295497894287,
        -0.29162782430648804,
        0.004876190796494484,
        0.19540756940841675,
        0.15905404090881348,
        -0.041403863579034805,
        -0.12658877670764923,
        -0.13062670826911926,
        0.07642938196659088,
        0.0809347853064537,
        0.35782307386398315,
        0.09033352136611938,
        -0.1173323392868042,
        0.03291218727827072,
        0.09077522158622742,
        -0.028115440160036087,
        0.07827046513557434,
        0.13427449762821198,
        -0.060583483427762985,
        -0.30953502655029297,
        0.062207289040088654,
        0.2541373074054718,
        -0.04049420729279518,
        0.1425623744726181,
        0.26760098338127136,
        -0.26224446296691895,
        -0.0561751052737236,
        0.25372546911239624,
        -0.1454949676990509,
        -0.09144601970911026,
        0.2665644586086273,
        -0.14381369948387146,
        0.08127500861883163,
        0.040956202894449234,
        0.16059507429599762,
        -0.1497596651315689,
        0.11682038009166718,
        -0.07412523031234741,
        0.043279979377985,
        -0.022641528397798538,
        0.16993625462055206,
        0.09081905335187912,
        -0.031002653762698174,
        -0.21283987164497375,
        -0.10251034796237946,
        0.00036096241092309356,
        -0.2569645941257477,
        -0.25475963950157166,
        0.21082249283790588,
        -0.022325240075588226,
        0.005423423834145069,
        0.22127000987529755,
        -0.015575985424220562,
        0.023012615740299225,
        -0.08649545907974243,
        -0.1250855028629303,
        0.08011076599359512,
        -0.11820776015520096,
        0.04442143812775612,
        -0.0005779219791293144,
        -0.18011373281478882,
        0.016459835693240166,
        0.062419671565294266,
        0.026308920234441757,
        0.20316442847251892,
        0.24683567881584167,
        -0.15461532771587372,
        -0.035980112850666046,
        0.007049020379781723,
        0.15776857733726501,
        0.0592479482293129,
        -0.04738675430417061,
        0.19824989140033722,
        -0.16640283167362213,
        -0.07213325798511505,
        0.11288228631019592,
        -0.14724157750606537,
        -0.21913403272628784,
        0.018721694126725197,
        -0.2174474447965622,
        -0.03986320644617081,
        0.19655705988407135,
        0.04937268793582916,
        -0.11100730299949646,
        0.07642587274312973,
        0.06377952545881271,
        0.10662484914064407,
        -0.06447184085845947,
        0.27614399790763855,
        0.08362012356519699,
        -0.20466357469558716,
        -0.008235725574195385,
        0.0822184756398201,
        0.034375786781311035,
        -0.06670992076396942,
        -0.10839422047138214,
        0.06641626358032227,
        -0.01512477919459343,
        -0.010862098075449467,
        -0.007543916814029217,
        0.09353476017713547,
        -0.024720897898077965,
        -0.0982317253947258,
        -0.005720106884837151,
        0.1696563959121704,
        -0.011218086816370487,
        0.0574345625936985,
        0.034680891782045364,
        -0.02261078543961048,
        0.0190937127918005,
        -0.03101438842713833,
        0.042222537100315094,
        0.020465658977627754,
        -0.047970980405807495,
        -0.05461723729968071,
        -0.23453277349472046,
        0.03689461201429367,
        0.22290411591529846,
        -0.11000926047563553,
        -0.10269448161125183,
        0.05844241380691528,
        -0.11767265200614929,
        -0.13836100697517395,
        0.16112127900123596,
        -0.27640217542648315,
        -0.1645982414484024,
        -0.04760846868157387,
        -0.16690108180046082,
        0.07968501001596451,
        -0.0459795743227005,
        0.23082393407821655,
        -0.15418018400669098,
        0.009602363221347332,
        -0.08208169043064117,
        -0.062131959944963455,
        0.011757529340684414,
        0.3000762164592743,
        0.2201700061559677,
        -0.032810505479574203,
        -0.3225061595439911,
        0.04362821206450462,
        0.10300056636333466,
        -0.16090531647205353,
        -0.19210396707057953,
        0.05735550820827484,
        -0.357959121465683,
        -0.1252066195011139,
        0.13408112525939941,
        0.06875522434711456,
        0.0763569101691246,
        -0.014894052408635616,
        0.0017650449881330132,
        -0.02486575022339821,
        -0.1432495266199112,
        0.18471591174602509,
        0.1410396248102188,
        0.04146653413772583,
        0.004563027992844582,
        0.09959349036216736,
        0.06045284494757652,
        0.0639176145195961,
        -0.060851357877254486,
        -0.05058449134230614,
        -0.2938297986984253,
        0.0055940723977983,
        0.008569643832743168,
        -0.2604580521583557,
        -0.17556285858154297,
        0.1967242807149887,
        -0.24516025185585022,
        0.03257255256175995,
        0.18901056051254272,
        -0.14750435948371887,
        -0.07183490693569183,
        0.05761583149433136,
        -0.24738161265850067,
        -0.05178141966462135,
        0.16693107783794403,
        0.03380545973777771,
        0.06660442799329758,
        0.009347868151962757,
        -0.16272246837615967,
        -0.09586125612258911,
        0.10722346603870392,
        0.25162723660469055,
        -0.000560313812457025,
        0.019911063835024834,
        -0.05232018232345581,
        -0.04706215858459473,
        0.19649070501327515,
        -0.20540247857570648,
        -0.0900740921497345,
        0.133793443441391,
        -0.15234674513339996,
        -0.07427821308374405,
        0.044620685279369354,
        0.21236932277679443,
        0.07243432849645615,
        -0.11769729852676392,
        0.03964495658874512,
        0.05381358414888382,
        -0.02278568595647812,
        0.14035066962242126,
        0.21922795474529266,
        -0.09022379666566849,
        -0.029348323121666908,
        -0.05338684841990471,
        0.060915179550647736,
        0.001224542036652565,
        0.030371956527233124,
        -0.17076611518859863,
        0.02010979689657688,
        -0.15741413831710815,
        0.08935769647359848,
        -0.17043347656726837,
        0.029346853494644165,
        0.2369035929441452,
        -0.2375614196062088,
        -0.25461503863334656,
        -0.03525462746620178,
        -0.1261843591928482,
        -0.17088328301906586,
        -0.016481246799230576,
        -0.16783364117145538,
        -0.10116486251354218,
        0.00018749439914245158,
        0.16114720702171326,
        -0.006033414509147406,
        -0.03957275673747063,
        0.06873040646314621,
        0.09857545793056488,
        -0.16284264624118805,
        -0.11662740260362625,
        0.07825333625078201,
        0.1166282668709755,
        -0.01402352750301361,
        -0.2615455687046051,
        0.16797992587089539,
        0.027904203161597252,
        -0.1015172004699707,
        0.007779601961374283,
        0.0989600196480751,
        -0.15317215025424957,
        0.12467982620000839,
        -0.04677896946668625,
        0.00018254491442348808,
        -0.06739223003387451,
        -0.01713816449046135,
        0.04477028176188469,
        -0.15001080930233002,
        0.017883269116282463,
        0.09892767667770386,
        -0.043914422392845154,
        0.09971456974744797,
        -0.041019007563591,
        -0.05470357462763786,
        -0.04908689856529236,
        0.06434250622987747,
        -0.1379402130842209,
        0.11567781120538712,
        0.00638548843562603,
        -0.017538653686642647,
        -0.007855508476495743,
        -0.06021694839000702,
        0.17156164348125458,
        0.07786932587623596,
        -0.2519589960575104,
        -0.11251827329397202,
        0.15554919838905334,
        -0.14005854725837708,
        -0.05146956443786621,
        0.14694340527057648,
        -0.08387363702058792,
        0.12833349406719208,
        0.04430157691240311,
        0.05110146850347519,
        -0.1478879749774933,
        -0.10353561490774155,
        0.0857623890042305,
        0.0006133075221441686,
        0.04017958045005798,
        0.052721310406923294,
        0.03813866525888443,
        0.153745636343956,
        -0.04211214929819107,
        -0.03298908472061157,
        -0.039229728281497955,
        -0.27580034732818604,
        0.2248692512512207,
        -0.030144574120640755,
        -0.23113740980625153,
        0.1750996708869934,
        -0.042793676257133484,
        0.09419945627450943,
        -0.07162746787071228,
        0.017499249428510666,
        -0.16535797715187073,
        0.10335017740726471,
        -0.07770288735628128,
        0.22929522395133972,
        0.03758981451392174,
        0.03497728705406189,
        -0.07244201004505157,
        0.051777470856904984,
        -0.010412568226456642,
        0.08828389644622803,
        0.025583168491721153,
        0.058235350996255875,
        -0.29968923330307007,
        0.05968565121293068,
        -0.06998695433139801,
        -0.03501150757074356,
        0.08196140080690384,
        -0.1169266477227211,
        -0.18895001709461212,
        0.1781659573316574,
        0.05348067358136177,
        -0.1303996443748474,
        0.10425596684217453,
        0.0782575011253357,
        -0.2120264321565628,
        0.029530460014939308,
        -0.08445911109447479,
        -0.08933442831039429,
        0.0914730653166771,
        -0.17167137563228607,
        0.03811988979578018,
        0.08161243796348572,
        0.07621560990810394,
        -0.25935786962509155,
        0.2103096842765808,
        -0.1457846313714981,
        0.27418702840805054,
        -0.1856725662946701,
        -0.094345822930336,
        0.24021729826927185,
        -0.1262308806180954,
        0.04607973247766495,
        0.056543201208114624,
        -0.20037564635276794,
        -0.039912812411785126,
        -0.10931149125099182,
        0.1866004317998886,
        -0.13670818507671356,
        0.08620335161685944,
        -0.004089145455509424,
        0.02828667126595974,
        -0.05376612767577171,
        -0.043266162276268005,
        -0.0012908743228763342,
        0.16912397742271423,
        0.04603368416428566,
        0.1882392019033432,
        -0.18311062455177307,
        0.20643232762813568,
        -0.20808571577072144,
        0.11967942863702774,
        -0.10632160305976868,
        -0.03248929604887962,
        0.19619180262088776,
        0.024499934166669846,
        -0.08060970902442932,
        0.1583186835050583,
        0.03236914798617363,
        -0.10013265907764435,
        0.2863815724849701,
        -0.1663511097431183,
        -0.08355522900819778,
        0.14960485696792603,
        -0.005966684781014919,
        0.09845151007175446,
        -0.09111519902944565,
        -0.09992143511772156,
        -0.03886638209223747,
        -0.02820255607366562,
        -0.05536079406738281,
        -0.06642454117536545,
        0.021504808217287064,
        0.13958291709423065,
        -0.010995269753038883,
        -0.0672503411769867,
        0.09759307652711868,
        -0.12889385223388672,
        0.1030409187078476,
        0.01860182359814644,
        -0.09356813132762909,
        0.11712798476219177,
        -0.13834692537784576,
        0.035133834928274155,
        -0.15746204555034637,
        -0.02618560753762722,
        -0.016906967386603355,
        0.12766103446483612,
        -0.10372180491685867,
        0.11244843155145645,
        -0.08986575901508331,
        -0.06993534415960312,
        -0.12773823738098145,
        -0.08563760668039322,
        0.1873525083065033,
        0.002537788124755025,
        -0.03947103023529053,
        0.06242180988192558,
        0.06823544949293137,
        0.17937372624874115,
        0.10487181693315506,
        -0.1395890712738037,
        0.03262067586183548,
        -0.09730081260204315,
        -0.10297244042158127,
        0.10679537057876587,
        0.13585692644119263,
        -0.13723112642765045,
        0.15717916190624237,
        -0.07647652179002762,
        -0.04190025106072426,
        0.20125602185726166,
        -0.02353019453585148,
        0.0731034129858017,
        -0.2032390981912613,
        0.19176362454891205,
        -0.011579062789678574,
        -0.022241218015551567,
        0.03227515146136284,
        -0.08254872262477875,
        -0.07315590232610703,
        -0.03978917375206947,
        0.09226948022842407,
        -0.08165265619754791,
        0.11742032319307327,
        0.1038101390004158,
        0.0560280941426754,
        -0.02597770094871521,
        -0.04157920181751251,
        -0.08856475353240967,
        -0.07880282402038574,
        0.04176564887166023,
        0.11756713688373566,
        0.10713504254817963,
        -0.05289015173912048,
        0.008381825871765614,
        -0.16770121455192566,
        0.1277308166027069,
        -0.019195616245269775,
        -0.15461884438991547,
        -0.0022030635736882687,
        0.14465288817882538,
        -0.12044181674718857,
        0.1676807403564453,
        0.10543780773878098,
        -0.13671818375587463,
        -0.06614219397306442,
        0.07275433838367462,
        -0.07417697459459305,
        -0.06914673000574112,
        0.016532331705093384,
        -0.0902329534292221,
        0.06079041585326195,
        0.036038439720869064,
        0.14252744615077972,
        -0.1134759932756424,
        0.1013975441455841,
        -0.03565627336502075,
        0.1276717633008957,
        -0.16387492418289185,
        -0.07840096205472946,
        0.15298029780387878,
        -0.13453279435634613,
        -0.043705813586711884,
        -0.035224396735429764,
        -0.1566149741411209,
        0.03303290531039238,
        -0.16276681423187256,
        0.04291578009724617,
        0.19813591241836548,
        0.174295112490654,
        -0.039314258843660355,
        0.11220913380384445,
        0.25671467185020447,
        -0.003555126953870058,
        -0.03632405027747154,
        -0.10750564932823181,
        0.08926919847726822,
        -0.0241519995033741,
        0.006343306507915258,
        0.4305558502674103,
        -0.31255578994750977,
        0.6803085207939148,
        -0.6507751941680908,
        -0.060588426887989044,
        0.8014254570007324,
        0.8657920956611633,
        -0.6694233417510986,
        0.09489782899618149,
        0.024948779493570328,
        -0.5355795621871948,
        -0.3599005341529846,
        0.19013042747974396,
        -0.6352757215499878,
        0.16011326014995575,
        0.37490198016166687,
        -0.07780693471431732,
        0.21622665226459503,
        -0.04813496023416519,
        0.07473000138998032,
        0.0752466470003128,
        -0.1176174134016037,
        0.09351591765880585,
        -0.024518227204680443,
        -0.01534593477845192,
        -0.04701579362154007,
        0.033677928149700165,
        -0.08573898673057556,
        0.06921708583831787,
        -0.03669173642992973,
        0.24825745820999146,
        0.08062007278203964,
        0.019109655171632767,
        -0.2217455506324768,
        -0.2065720111131668,
        0.0779009759426117,
        0.15414945781230927,
        0.01199532300233841,
        0.00503501994535327,
        0.003417273983359337,
        -0.0034495373256504536,
        0.25336286425590515,
        -0.04434584826231003,
        -0.06511906534433365,
        0.06953824311494827,
        -0.05409654974937439,
        -0.014065277762711048,
        0.07702954113483429,
        0.2492857724428177,
        -0.03578730300068855,
        -0.03098505549132824,
        0.354790061712265,
        -0.19919723272323608,
        -0.08170817047357559,
        0.10823982208967209,
        -0.3658847212791443,
        -0.062461499124765396,
        -0.21426118910312653,
        0.0958288162946701,
        -0.3768741488456726,
        0.12957647442817688,
        0.4260806441307068,
        0.20026835799217224,
        0.06901834905147552,
        0.23665034770965576,
        -0.2377339005470276,
        0.035948365926742554,
        -0.18413585424423218,
        0.02245909720659256,
        0.19352327287197113,
        0.10045714676380157,
        0.03196440264582634,
        -0.12522603571414948,
        0.0899619609117508,
        0.04750353470444679,
        -0.15482217073440552,
        0.1922699511051178,
        0.21716158092021942,
        -0.10798284411430359,
        0.0727401003241539,
        0.15526366233825684,
        -0.42909401655197144,
        -0.2764853239059448,
        0.34495916962623596,
        0.21271201968193054,
        0.13011249899864197,
        0.16824588179588318,
        -0.21638010442256927,
        0.03777109459042549,
        0.20748832821846008,
        -0.2931281328201294,
        0.008553295396268368,
        -0.08675263822078705,
        0.378383070230484,
        0.027529854327440262,
        0.058694805949926376,
        -0.04556684568524361,
        -0.032803189009428024,
        0.05018847435712814,
        0.1264900118112564,
        0.21931518614292145,
        0.2043081670999527,
        0.26253533363342285,
        0.12076406925916672,
        0.14253437519073486,
        -0.006779339164495468,
        -0.2218865603208542,
        -0.16623003780841827,
        -0.08182302117347717,
        -0.07679229974746704,
        0.12528251111507416,
        0.10676757991313934,
        0.08621159195899963,
        0.09754425287246704,
        0.22163836658000946,
        0.14605653285980225,
        -0.17108263075351715,
        -0.15212960541248322,
        0.08842657506465912,
        0.05201222375035286,
        0.09593670815229416,
        -0.2688182592391968,
        -0.20873120427131653,
        0.06225426495075226,
        0.18464043736457825,
        -0.2192462682723999,
        0.0648106187582016,
        -0.16530200839042664,
        0.3451964259147644,
        0.03616797924041748,
        0.2976444661617279,
        -0.27775126695632935,
        -0.19687874615192413,
        0.19844360649585724,
        0.32612884044647217,
        0.10039149224758148,
        0.16022861003875732,
        -0.1324840933084488,
        0.22098693251609802,
        -0.2906247675418854,
        0.09458526968955994,
        -0.16534166038036346,
        -0.022476162761449814,
        0.11042772978544235,
        -0.22175730764865875,
        0.050778828561306,
        -0.14330299198627472,
        -0.3362489342689514,
        0.007145619951188564,
        -0.042355045676231384,
        -0.17268504202365875,
        -0.049853794276714325,
        -0.14597542583942413,
        -0.1999584138393402,
        0.2076239138841629,
        0.16717305779457092,
        0.13168230652809143,
        -0.3162437975406647,
        0.11331633478403091,
        0.14167720079421997,
        -0.27791741490364075,
        0.060142092406749725,
        0.2728743255138397,
        -0.33987051248550415,
        -0.06999742239713669,
        -0.03472094610333443,
        0.27456772327423096,
        0.046476081013679504,
        0.0810915008187294,
        0.31589412689208984,
        0.28128868341445923,
        0.1755186766386032,
        0.3252573311328888,
        0.11309951543807983,
        -0.1715497225522995,
        -0.047930385917425156,
        0.09165120869874954,
        0.27185869216918945,
        -0.25196024775505066,
        0.14566271007061005,
        -0.08308815956115723,
        -0.20550251007080078,
        -0.004108504857867956,
        -0.17334677278995514,
        0.04682856798171997,
        -0.21576927602291107,
        -0.21653884649276733,
        -0.07462375611066818,
        -0.07338074594736099,
        0.11797206848859787,
        -0.0019909951370209455,
        0.08984874188899994,
        0.01157580129802227,
        -0.13255251944065094,
        0.1000264436006546,
        0.034091416746377945,
        0.09799952805042267,
        -0.09109889715909958,
        -0.09968139231204987,
        -0.04884461313486099,
        0.011942800134420395,
        -0.26367613673210144,
        -0.053449053317308426,
        -0.25112184882164,
        -0.11143159866333008,
        0.23650433123111725,
        -0.14518864452838898,
        -0.16895826160907745,
        -0.1728799194097519,
        -0.07974982261657715,
        0.17361804842948914,
        -0.004904374945908785,
        0.09514594078063965,
        -0.14226537942886353,
        0.02254854515194893,
        0.25324076414108276,
        0.26455411314964294,
        0.023778825998306274,
        0.013466720469295979,
        0.29099664092063904,
        0.30198606848716736,
        -0.280256986618042,
        0.06744281947612762,
        0.16615648567676544,
        0.0792408213019371,
        -0.08720140159130096,
        -0.20036089420318604,
        0.14894822239875793,
        -0.1831357479095459,
        0.16069597005844116,
        0.04796088486909866,
        -0.15573203563690186,
        -0.05219385772943497,
        -0.20949940383434296,
        -0.17863020300865173,
        -0.10389098525047302,
        -0.2260703295469284,
        -0.06935727596282959,
        -0.2077055722475052,
        0.03696664050221443,
        -0.30753156542778015,
        0.4170941114425659,
        -0.06741553544998169,
        -0.17738886177539825,
        -0.15695713460445404,
        -0.06741583347320557,
        0.055088210850954056,
        0.12470235675573349,
        -0.30289942026138306,
        0.0716346725821495,
        -0.05944465473294258,
        0.23160326480865479,
        0.202895849943161,
        -0.004928071051836014,
        -0.27251526713371277,
        0.06973794102668762,
        0.18026570975780487,
        -0.07479619234800339,
        0.13332632184028625,
        0.08239419013261795,
        0.07205374538898468,
        0.1308889091014862,
        0.1297563910484314,
        0.37574830651283264,
        -0.09655196219682693,
        -0.12515786290168762,
        0.09541068971157074,
        -0.1459985375404358,
        0.011052452027797699,
        0.36803242564201355,
        0.04103744029998779,
        -0.21625389158725739,
        0.07746773213148117,
        -0.06171269714832306,
        0.09858245402574539,
        -0.1756862998008728,
        -0.21085047721862793,
        -0.034671105444431305,
        0.15834151208400726,
        -0.016885442659258842,
        0.09192711859941483,
        -0.12040472775697708,
        0.0872708186507225,
        0.010326235555112362,
        -0.016127994284033775,
        0.15228280425071716,
        0.07103851437568665,
        -0.020958159118890762,
        0.06534013152122498,
        -0.09076224267482758,
        -0.02460481785237789,
        0.15929965674877167,
        -0.011113138869404793,
        0.06992816179990768,
        -0.005578707903623581,
        -0.23293446004390717,
        0.033231690526008606,
        -0.11115986108779907,
        -0.06525442004203796,
        0.05931326374411583,
        0.06976841390132904,
        -0.20923542976379395,
        0.11011838167905807,
        0.17718002200126648,
        0.007859302684664726,
        0.0926409438252449,
        -0.2313731163740158,
        0.1034582257270813,
        0.013524234294891357,
        0.0729801282286644,
        0.047573842108249664,
        -0.21039463579654694,
        -0.20929159224033356,
        0.21658669412136078,
        -0.05684675648808479,
        -0.13449661433696747,
        0.1926201730966568,
        -0.0989677906036377,
        -0.09938035905361176,
        -0.1475507766008377,
        0.042772326618433,
        -0.09782987833023071,
        -0.2336842268705368,
        0.04322715848684311,
        -0.35160085558891296,
        -0.008298816159367561,
        0.05481644719839096,
        -0.03167179599404335,
        0.0046545350924134254,
        -0.026530668139457703,
        -0.4394993185997009,
        0.2674414813518524,
        -0.06549162417650223,
        0.15100151300430298,
        -0.10683398693799973,
        0.03759586811065674,
        -0.08652464300394058,
        0.004535968881100416,
        0.06881528347730637,
        -0.1844567507505417,
        0.005232792813330889,
        -0.004346687346696854,
        -0.12471041828393936,
        -0.24414440989494324,
        0.3290770947933197,
        0.015078102238476276,
        0.03787931054830551,
        0.2321350872516632,
        0.07643122971057892,
        -0.25505074858665466,
        0.39748290181159973,
        -0.22474579513072968,
        -0.08256862312555313,
        0.0979061871767044,
        0.0636119693517685,
        0.11282403022050858,
        -0.4183477461338043,
        0.05811105668544769,
        0.011222347617149353,
        -0.26962795853614807,
        -0.03349071368575096,
        0.06955087929964066,
        -0.2588769495487213,
        0.1702364683151245,
        0.22348172962665558,
        -0.19784361124038696,
        0.03896843269467354,
        -0.06743761152029037,
        0.07690213620662689,
        -0.07692044228315353,
        -0.17819516360759735,
        0.2155935913324356,
        0.11584217101335526,
        -0.04046611487865448,
        0.1305171251296997,
        -0.01656489446759224,
        -0.07450201362371445,
        0.13267754018306732,
        0.15854313969612122,
        0.08754641562700272,
        -0.05442391708493233,
        -0.09577425569295883,
        -0.0008070069015957415,
        0.21777881681919098,
        -0.060945749282836914,
        -0.07361902296543121,
        0.04628467932343483,
        0.18397380411624908,
        0.12875787913799286,
        -0.1833711415529251,
        -0.08489331603050232,
        0.03233760595321655,
        0.0927283763885498,
        0.0974707156419754,
        0.04250631853938103,
        -0.07110556960105896,
        0.0995875746011734,
        0.0013116853078827262,
        0.08718942850828171,
        0.045715413987636566,
        0.12167669087648392,
        0.031084317713975906,
        0.12788362801074982,
        -0.24373802542686462,
        0.002721203723922372,
        0.08095625787973404,
        -0.06934750080108643,
        0.04749678075313568,
        -0.022003259509801865,
        -0.15505775809288025,
        0.2084570974111557,
        0.022655479609966278,
        0.12307720631361008,
        -0.18135008215904236,
        -0.20949925482273102,
        -0.16979646682739258,
        0.19319187104701996,
        0.041945092380046844,
        -0.0751853957772255,
        0.1665710210800171,
        -0.11255194991827011,
        0.09894911199808121,
        0.0010558916255831718,
        -0.0020599612034857273,
        -0.003253069007769227,
        0.17373929917812347,
        -0.17949631810188293,
        0.07283399254083633,
        0.16752055287361145,
        -0.1034969687461853,
        0.3185063600540161,
        -0.03243858367204666,
        -0.05916398763656616,
        0.064397893846035,
        0.09254729002714157,
        -0.12761974334716797,
        -0.004462422337383032,
        0.06576164066791534,
        0.09635058790445328,
        -0.23039525747299194,
        -0.1690376251935959,
        0.21436148881912231,
        0.12966616451740265,
        -0.05438612401485443,
        0.04558994993567467,
        -0.16430950164794922,
        -0.042159222066402435,
        0.004519199952483177,
        0.1578320413827896,
        0.11647072434425354,
        0.0007320597069337964,
        0.2930760681629181,
        0.09652206301689148,
        -0.203707754611969,
        0.027860309928655624,
        0.04672982171177864,
        0.08040089160203934,
        -0.021328510716557503,
        0.011008893139660358,
        0.16658234596252441,
        -0.058513764292001724,
        0.07655060291290283,
        0.09334003180265427,
        -0.1417764127254486,
        0.02036324329674244,
        0.0663868635892868,
        0.05775999277830124,
        0.124995656311512,
        0.2549007833003998,
        0.22284434735774994,
        -0.17295806109905243,
        0.13546565175056458,
        -0.1723303198814392,
        -0.12434057891368866,
        -0.06484797596931458,
        0.016239000484347343,
        -0.05207841843366623,
        0.0478985495865345,
        -0.02033083699643612,
        0.059948764741420746,
        -0.15130643546581268,
        -0.09101821482181549,
        0.029896585270762444,
        0.11216775327920914,
        0.1427644044160843,
        -0.05047335848212242,
        -0.11809055507183075,
        0.17914961278438568,
        -0.03020189329981804,
        -0.15354222059249878,
        0.059605542570352554,
        0.17817455530166626,
        -0.04604534059762955,
        0.046366848051548004,
        -0.09387864172458649,
        -0.07640903443098068,
        -0.011132239364087582,
        -0.1554519534111023,
        0.12712399661540985,
        -0.09412800520658493,
        -0.13843247294425964,
        0.08737508207559586,
        0.08576250821352005,
        0.1045176237821579,
        0.06475923955440521,
        0.15026047825813293,
        0.02022036910057068,
        -0.04229654371738434,
        -0.20456892251968384,
        -0.0042404779233038425,
        0.07387010008096695,
        0.03349597007036209,
        0.008655229583382607,
        -0.17098891735076904,
        0.11119072139263153,
        0.13358037173748016,
        -0.2860347032546997,
        -0.3203975558280945,
        0.2162594050168991,
        -0.027700603008270264,
        0.024982251226902008,
        0.041107986122369766,
        0.1313808709383011,
        -0.1757000982761383,
        -0.04447899013757706,
        0.17692400515079498,
        -0.07946638762950897,
        -0.009248431771993637,
        0.050130680203437805,
        -0.18262925744056702,
        -0.12729701399803162,
        -0.1942562311887741,
        0.12354202568531036,
        0.10146115720272064,
        0.06792648881673813,
        -0.25757211446762085,
        0.013270714320242405,
        0.03410669416189194,
        0.038411762565374374,
        0.0755712166428566,
        -0.011737105436623096,
        -0.08640455454587936,
        0.11760994046926498,
        -0.020598335191607475,
        0.0034937281161546707,
        0.09895382076501846,
        0.15125882625579834,
        -0.006331694312393665,
        -0.11339744925498962,
        -0.017866414040327072,
        -0.01649773120880127,
        0.18401265144348145,
        0.20103099942207336,
        0.22871674597263336,
        -0.2704414129257202,
        -0.025046922266483307,
        0.1123158186674118,
        0.017291178926825523,
        0.25823694467544556,
        -0.04720214754343033,
        0.03938943147659302,
        0.3288227319717407,
        -0.1782301664352417,
        0.03183385729789734,
        0.01611882820725441,
        0.16009904444217682,
        -0.16982828080654144,
        0.06321635097265244,
        -0.26533976197242737,
        0.05546753481030464,
        -0.2854233384132385,
        0.37418076395988464,
        -0.3280700743198395,
        -0.2714764177799225,
        0.017882633954286575,
        0.13261717557907104,
        0.1622752994298935,
        0.13483299314975739,
        -0.13227207958698273,
        -0.015694957226514816,
        0.15462131798267365,
        -0.0005517753306776285,
        -0.16271889209747314,
        -0.07148999720811844,
        0.13558314740657806,
        -0.0545804426074028,
        0.10548307001590729,
        -0.0808493122458458,
        -0.2142682522535324,
        0.1607617437839508,
        -0.05311101675033569,
        -0.07266708463430405,
        0.13454990088939667,
        0.04604427516460419,
        0.4220831096172333,
        -0.16866753995418549,
        0.27092456817626953,
        0.05992042273283005,
        0.09491118788719177,
        -0.06595537066459656,
        0.21011969447135925,
        -0.21218329668045044,
        0.03731749951839447,
        0.08125223219394684,
        0.12421194463968277,
        -0.062174081802368164,
        0.09131602197885513,
        -0.15193520486354828,
        0.16573981940746307,
        -0.08074844628572464,
        -0.03529730066657066,
        0.022572871297597885,
        0.012475800700485706,
        0.24392054975032806,
        0.07802775502204895,
        -0.045873064547777176,
        0.015239227563142776,
        -0.09829601645469666,
        -0.0006251810118556023,
        -0.029428040608763695,
        -0.2040165662765503,
        -0.4131050407886505,
        0.07743141800165176,
        -0.12405847758054733,
        -0.02986029163002968,
        0.16430026292800903,
        0.10906559228897095,
        0.13185513019561768,
        -0.03548208624124527,
        -0.06850292533636093,
        -0.19836066663265228,
        -0.019949808716773987,
        0.12137427181005478,
        -0.19274921715259552,
        -0.22826921939849854,
        -0.21352197229862213,
        -0.10821590572595596,
        -0.23360194265842438,
        -0.22420884668827057,
        0.3419290781021118,
        0.08282365649938583,
        0.09642431139945984,
        -0.0809730738401413,
        0.018886985257267952,
        0.16702434420585632,
        0.28022217750549316,
        0.032943472266197205,
        -0.016129234805703163,
        -0.06809879094362259,
        -0.11701308935880661,
        0.20126774907112122,
        0.23022912442684174,
        0.14808647334575653,
        -0.06951630115509033,
        -0.08712738752365112,
        -0.17550495266914368,
        0.0334281288087368,
        -0.1925409585237503,
        -0.15901991724967957,
        0.004602533765137196,
        -0.14890512824058533,
        -0.09873305261135101,
        -0.11561571806669235,
        -0.09561259299516678,
        0.06893245130777359,
        0.028207194060087204,
        0.0609268844127655,
        -0.09223517030477524,
        -0.021024715155363083,
        0.047750767320394516,
        -0.011224295943975449,
        0.043246060609817505,
        0.11913689225912094,
        0.05514006316661835,
        -0.03693365305662155,
        -0.18870054185390472,
        -0.12899382412433624,
        -0.09588780999183655,
        0.24697311222553253,
        0.03967012092471123,
        0.12131799012422562,
        0.15757983922958374,
        -0.06811915338039398,
        -0.10247489809989929,
        0.20914633572101593,
        0.07542123645544052,
        0.07082870602607727,
        -0.18580932915210724,
        0.07154394686222076,
        0.015542818233370781,
        0.013508968986570835,
        0.015409603714942932,
        -0.07215294241905212,
        -0.3034156262874603,
        -0.12041019648313522,
        0.09070245921611786,
        -0.04487892985343933,
        -0.14144688844680786,
        0.038143809884786606,
        -0.12468413263559341,
        0.08799619972705841,
        -0.07800043374300003,
        0.22012585401535034,
        -0.01364871859550476,
        -0.10127341747283936,
        0.1479242593050003,
        -0.0037949117831885815,
        0.09692538529634476,
        0.03969579190015793,
        0.0552920438349247,
        0.09116864204406738,
        0.054069697856903076,
        -0.08036021143198013,
        -0.18423743546009064,
        -0.21441048383712769,
        -0.02129487879574299,
        0.050895921885967255,
        0.021338820457458496,
        -0.013976342044770718,
        -0.023800203576683998,
        0.11444523185491562,
        0.14762040972709656,
        -0.02473028376698494,
        -0.021885009482502937,
        0.11362795531749725,
        0.19211788475513458,
        -0.1604769229888916,
        0.13677795231342316,
        -0.05519761145114899,
        -0.09262480586767197,
        0.10319720208644867,
        -0.11775704473257065,
        0.0515696182847023,
        0.03600996360182762,
        -0.08153244853019714,
        -0.052373483777046204,
        -0.06867662817239761,
        0.07897485047578812,
        -0.002118700882419944,
        -0.10110148042440414,
        0.18494674563407898,
        -0.0664805993437767,
        0.024558767676353455,
        0.25037771463394165,
        -0.10091226547956467,
        0.039615850895643234,
        -0.019662033766508102,
        -0.08939685672521591,
        -0.19420023262500763,
        0.04990570992231369,
        -0.1522182673215866,
        0.06136930361390114,
        0.050123732537031174,
        -0.026343893259763718,
        0.028304623439908028,
        -0.030279647558927536,
        -0.03056144528090954,
        -0.1853773444890976,
        -0.2654655873775482,
        -0.18423399329185486,
        0.04384858161211014,
        -0.047394394874572754,
        -0.16718897223472595,
        -0.39037346839904785,
        -0.07668338716030121,
        0.2549911141395569,
        0.12005224823951721,
        -0.03690677881240845,
        -0.125470831990242,
        0.15296046435832977,
        -0.16299653053283691,
        -0.08188082277774811,
        0.09969016909599304,
        -0.052673209458589554,
        -0.1170719712972641,
        0.23665590584278107,
        0.02832215093076229,
        -0.17640064656734467,
        0.00937537383288145,
        -0.03547767922282219,
        -0.1531093567609787,
        0.154968723654747,
        -0.19507156312465668,
        0.06520247459411621,
        -0.06304319202899933,
        -0.0031807455234229565,
        -0.010850000195205212,
        -0.06660908460617065,
        0.1458704173564911,
        0.017063956707715988,
        -0.015258255414664745,
        0.16931197047233582,
        0.017892921343445778,
        -0.14961576461791992,
        0.1561797857284546,
        0.01775328442454338,
        -0.3604496121406555,
        0.0024282585363835096,
        0.003362962044775486,
        0.10570647567510605,
        -0.17942337691783905,
        0.006253937724977732,
        0.22136858105659485,
        -0.13622188568115234,
        0.15931695699691772,
        -0.1573699563741684,
        0.07160776108503342,
        -0.057888977229595184,
        0.023695407435297966,
        -0.03641434758901596,
        0.2621403634548187,
        -0.33689358830451965,
        0.1346796751022339,
        0.0772167444229126,
        -0.1494249552488327,
        -0.0013342046877369285,
        0.15018264949321747,
        0.018815746530890465,
        -0.13053520023822784,
        -0.08927902579307556,
        0.008905686438083649,
        -0.05819426476955414,
        -0.0278477743268013,
        0.23714889585971832,
        -0.018295472487807274,
        0.06397953629493713,
        0.023145176470279694,
        -0.10734278708696365,
        -0.04209282994270325,
        0.05090132728219032,
        -0.1269390881061554,
        -0.08036191016435623,
        -0.014558172784745693,
        0.09153525531291962,
        0.020197274163365364,
        -0.05161190405488014,
        0.043724462389945984,
        0.024844521656632423,
        0.11657678335905075,
        0.27737361192703247,
        0.2136605978012085,
        -0.0014576056273654103,
        -0.1631884127855301,
        -0.25049054622650146,
        -0.08362101018428802,
        0.07037763297557831,
        0.005699283443391323,
        0.17629091441631317,
        -0.23963607847690582,
        -0.07811025530099869,
        0.13571761548519135,
        -0.15400288999080658,
        0.014179237186908722,
        -0.283332884311676,
        -0.03855888172984123,
        0.16122475266456604,
        0.07633068412542343,
        -0.1867140680551529,
        0.08313171565532684,
        -0.12797404825687408,
        -0.03575548902153969,
        -0.05969461426138878,
        -0.1218334510922432,
        0.11111639440059662,
        -0.060875631868839264,
        0.11392959952354431,
        -0.05149451270699501,
        -0.002833120059221983,
        -0.009294465184211731,
        -0.00027998158475384116,
        0.08661454170942307,
        0.08720651268959045,
        -0.10710515081882477,
        0.016982411965727806,
        0.04416282847523689,
        -0.07795996218919754,
        0.08606736361980438,
        -0.08271346241235733,
        -0.15103623270988464,
        -0.12090510129928589,
        -0.15998327732086182,
        0.1868460476398468,
        -0.0064592184498906136,
        -0.10883151739835739,
        0.012818018905818462,
        -0.2242755889892578,
        -0.14868217706680298,
        0.11277789622545242,
        0.06325148791074753,
        0.06788752973079681,
        -0.0020583062432706356,
        -0.033749058842659,
        0.03287789225578308,
        -0.06058374047279358,
        0.11931860446929932,
        0.12419731169939041,
        -0.04980967938899994,
        0.14462579786777496,
        -0.13243524730205536,
        -0.0700826421380043,
        0.35719725489616394,
        0.06401972472667694,
        0.013721752911806107,
        -0.06925799697637558,
        -0.0663258284330368,
        -0.20116329193115234,
        0.25202417373657227,
        0.005741559900343418,
        -0.022499937564134598,
        0.07587497681379318,
        0.09490545094013214,
        -0.002851182362064719,
        -0.004998065996915102,
        -0.15427930653095245,
        0.12831047177314758,
        0.19406059384346008,
        0.20834395289421082,
        0.10222382843494415,
        0.0781656801700592,
        -0.09974086284637451,
        0.11857625097036362,
        -0.017218532040715218,
        0.0011023994302377105,
        0.031017377972602844,
        0.009002087637782097,
        0.07196780294179916,
        0.13392528891563416,
        -0.03321776166558266,
        -0.020931124687194824,
        -0.2938188910484314,
        -0.12365353852510452,
        0.043385591357946396,
        0.08386111259460449,
        0.24591195583343506,
        0.09532313048839569,
        0.004807612858712673,
        -0.16424569487571716,
        -0.013401567935943604,
        0.23981121182441711,
        0.12779125571250916,
        -0.1653386652469635,
        0.03184578940272331,
        -0.06825414299964905,
        0.041764236986637115,
        0.03469010442495346,
        -0.03685211017727852,
        0.07364588230848312,
        0.04606098309159279,
        -0.33659207820892334,
        -0.1273389309644699,
        -0.037804048508405685,
        0.013861232437193394,
        0.07818345725536346,
        -0.056086666882038116,
        -0.10286267101764679,
        -0.06114272028207779,
        -0.1689615249633789,
        0.12381455302238464,
        -0.03779654577374458,
        -0.13976411521434784,
        0.002767502795904875,
        0.057405609637498856,
        0.08516188710927963,
        0.05629195645451546,
        0.14334885776042938,
        -0.15553802251815796,
        -0.09170827269554138,
        0.2740919888019562,
        0.23006819188594818,
        -0.13037529587745667,
        0.05034956708550453,
        0.11861364543437958,
        -0.17026443779468536,
        0.18993330001831055,
        0.20069362223148346,
        0.040548522025346756,
        -0.215691477060318,
        -0.2703430652618408,
        0.2635030150413513,
        -0.09840092808008194,
        -0.1078573688864708,
        -0.015475564636290073,
        -0.16843201220035553,
        -0.26894909143447876,
        0.3833010196685791,
        -0.02136635035276413,
        -0.0057354639284312725,
        -0.12567277252674103,
        -0.24708548188209534,
        -0.0994565412402153,
        0.11942605674266815,
        0.29902565479278564,
        0.3321443200111389,
        0.10428130626678467,
        0.21163617074489594,
        0.16898545622825623,
        0.009276711381971836,
        0.16831880807876587,
        0.11859390884637833,
        -0.056335099041461945,
        0.07161354273557663,
        0.13633082807064056,
        -0.03309845179319382,
        0.15174944698810577,
        -0.1580764651298523,
        -0.054273832589387894,
        0.026766404509544373,
        0.0022715278901159763,
        -0.159670889377594,
        -0.021997515112161636,
        -0.110871322453022,
        0.10408307611942291,
        0.12812165915966034,
        0.17628812789916992,
        0.08408116549253464,
        0.06913765519857407,
        0.0006577831227332354,
        0.03669261187314987,
        0.05101655423641205,
        -0.21712782979011536,
        -0.03849255293607712,
        0.02556919865310192,
        -0.009945889003574848,
        -0.02048167772591114,
        -0.11649543792009354,
        0.04838820919394493,
        -0.001377508626319468,
        -0.04943528026342392,
        -0.24363744258880615,
        -0.017164327204227448,
        -0.12061340361833572,
        0.047961585223674774,
        -0.12213583290576935,
        -0.1668870449066162,
        -0.14491689205169678,
        -0.14956343173980713,
        0.1046956330537796,
        0.21457108855247498,
        0.04479890316724777,
        0.10103406757116318,
        -0.21031230688095093,
        -0.006012215279042721,
        -0.0057731191627681255,
        -0.07058948278427124,
        -0.0685943141579628,
        -0.1880527287721634,
        -0.15514269471168518,
        0.01678955927491188,
        0.10001328587532043,
        -0.19347120821475983,
        -0.040426649153232574,
        -0.11991910636425018,
        0.0529533326625824,
        0.09229696542024612,
        0.21116407215595245,
        0.12529774010181427,
        0.11144617199897766,
        -0.02926017716526985,
        -0.010310729034245014,
        0.03891272470355034,
        -0.07621435821056366,
        0.06402406841516495,
        0.07145263999700546,
        0.3048906922340393,
        -0.04415235295891762,
        -0.03471491113305092,
        0.07120618224143982,
        0.1094130426645279,
        0.09784281253814697,
        0.0036842678673565388,
        0.1586821973323822,
        -0.0353628471493721,
        -0.4535534381866455,
        -0.19596393406391144,
        0.2678944170475006,
        -0.6269617676734924,
        0.14343878626823425,
        -0.7419424653053284,
        -0.26972541213035583,
        -0.4294373393058777,
        0.8498203158378601,
        -0.7235298156738281,
        -0.45519348978996277,
        -0.6642438769340515,
        0.24712766706943512,
        -0.6172665357589722,
        0.19651852548122406,
        -0.4381546676158905,
        -0.0753876194357872,
        -0.3158290982246399,
        0.09968841075897217,
        0.25095897912979126,
        0.049854472279548645,
        0.055241089314222336,
        -0.23801825940608978,
        -0.2244013547897339,
        -0.01828894019126892,
        0.008147559128701687,
        0.10152135789394379,
        0.1361026167869568,
        0.23762017488479614,
        0.18745020031929016,
        -0.19185954332351685,
        -0.03041796013712883,
        -0.024247610941529274,
        -0.1891794204711914,
        0.024388397112488747,
        -0.07947543263435364,
        -0.27744266390800476,
        0.23387107253074646,
        0.015599443577229977,
        -0.3027907609939575,
        0.2820291817188263,
        -0.10736926645040512,
        0.031369898468256,
        0.2447686493396759,
        0.10678419470787048,
        0.07129764556884766,
        -0.04158896952867508,
        0.14921246469020844,
        0.01621817797422409,
        -0.0755259171128273,
        0.11296051740646362,
        0.1795247495174408,
        0.009672432206571102,
        0.22016525268554688,
        0.08831105381250381,
        0.15998874604701996,
        -0.12886716425418854,
        0.0004510768048930913,
        -0.3918103277683258,
        -0.3199160099029541,
        -0.02753143198788166,
        0.10068457573652267,
        -0.00961795262992382,
        -0.007343374192714691,
        0.09402364492416382,
        -0.01350217591971159,
        -0.023108387365937233,
        -0.12972484529018402,
        -0.020633507519960403,
        0.05829532444477081,
        -0.09813202917575836,
        -0.01353799644857645,
        -0.10331147164106369,
        0.14719697833061218,
        0.13365021347999573,
        0.3672686219215393,
        -0.04097141698002815,
        -0.003200870705768466,
        -0.048415739089250565,
        0.08660352975130081,
        0.30393216013908386,
        -0.10503184795379639,
        -0.1475718766450882,
        -0.14580632746219635,
        0.15643450617790222,
        -0.1278340369462967,
        -0.09825024008750916,
        0.2688423693180084,
        0.0843532383441925,
        0.04828167334198952,
        0.02091659978032112,
        0.39228540658950806,
        -0.19201505184173584,
        -0.034919559955596924,
        -0.10049833357334137,
        -0.02214212156832218,
        -0.1028314158320427,
        -0.20062920451164246,
        -0.1829521656036377,
        -0.1322559267282486,
        0.28477680683135986,
        -0.2870461940765381,
        -0.0564398355782032,
        -0.0758649930357933,
        0.10132413357496262,
        0.20708699524402618,
        0.09612106531858444,
        0.009193617850542068,
        -0.3876397907733917,
        0.037093039602041245,
        0.11086244881153107,
        0.05442121997475624,
        -0.021219339221715927,
        0.05925648286938667,
        0.17363908886909485,
        -0.25050508975982666,
        0.19476120173931122,
        0.22026194632053375,
        -0.24707365036010742,
        -0.2868701219558716,
        0.22696195542812347,
        -0.06535976380109787,
        -0.21590571105480194,
        0.08864276111125946,
        0.017557041719555855,
        -0.050843410193920135,
        -0.25969892740249634,
        0.1255672723054886,
        0.1720460206270218,
        0.0243217833340168,
        -0.04723086580634117,
        0.02596033737063408,
        0.021944161504507065,
        -0.1257408857345581,
        -0.061985138803720474,
        0.08960150182247162,
        -0.027684513479471207,
        0.2524533271789551,
        -0.32845109701156616,
        -0.10159651190042496,
        -0.0934620276093483,
        0.13908356428146362,
        0.17173774540424347,
        -0.01987185887992382,
        -0.1410115361213684,
        0.3740910589694977,
        -0.17972370982170105,
        -0.060478366911411285,
        -0.1931936889886856,
        -0.13211728632450104,
        0.04999907687306404,
        -0.17649006843566895,
        0.09994874894618988,
        -0.026140164583921432,
        0.21555282175540924,
        -0.10373900085687637,
        -0.03244835510849953,
        0.10432031005620956,
        -0.23347792029380798,
        0.1448424756526947,
        -0.17733216285705566,
        -0.05302984640002251,
        -0.16279102861881256,
        0.09267254918813705,
        0.153253436088562,
        -0.12024028599262238,
        0.008802307769656181,
        -0.13671791553497314,
        0.07710184901952744,
        0.11705105751752853,
        0.28712156414985657,
        0.38152778148651123,
        0.16933153569698334,
        0.01874813437461853,
        0.2714812159538269,
        -0.0076921298168599606,
        -0.16480425000190735,
        -0.11237490177154541,
        -0.08373426645994186,
        0.024746181443333626,
        0.1185997724533081,
        -0.12210963666439056,
        -0.054016221314668655,
        -0.10882602632045746,
        0.2651306688785553,
        0.17230992019176483,
        -0.18318957090377808,
        0.16394270956516266,
        0.15258170664310455,
        0.018783004954457283,
        -0.03894569352269173,
        0.07805770635604858,
        0.12492473423480988,
        0.4804302453994751,
        -0.2741330564022064,
        -0.023986700922250748,
        -0.2778536379337311,
        -0.035560864955186844,
        0.12491952627897263,
        0.21446634829044342,
        -0.32882630825042725,
        0.1535959094762802,
        0.2788133919239044,
        -0.07183174788951874,
        0.02184290811419487,
        -0.12985065579414368,
        0.005278291646391153,
        -0.07832374423742294,
        -0.16518516838550568,
        0.03777997940778732,
        -0.3395657539367676,
        0.37370237708091736,
        -0.1911066472530365,
        0.13508844375610352,
        -0.27283787727355957,
        0.1242392286658287,
        -0.09993099421262741,
        -0.03388587385416031,
        -0.1569746881723404,
        -0.21866923570632935,
        0.2365407645702362,
        -0.20032784342765808,
        -0.055404048413038254,
        -0.0012111683608964086,
        0.03277004882693291,
        0.006039667408913374,
        -0.1327473372220993,
        0.11552339792251587,
        -0.10068171471357346,
        -0.08269139379262924,
        -0.0803120881319046,
        -0.12941710650920868,
        0.18345287442207336,
        0.14006032049655914,
        0.19130153954029083,
        0.051432833075523376,
        0.17604298889636993,
        0.047372881323099136,
        0.08190109580755234,
        -0.0419948473572731,
        0.1731618344783783,
        -0.1600995808839798,
        0.2503957450389862,
        -0.1507636308670044,
        -0.010352128185331821,
        -0.4685365557670593,
        0.23337216675281525,
        0.15944580733776093,
        -0.07174787670373917,
        0.08993112295866013,
        -0.16869084537029266,
        -0.023646365851163864,
        -0.24166002869606018,
        0.2998238801956177,
        0.2902871370315552,
        0.102300725877285,
        0.2445344626903534,
        -0.1953406184911728,
        -0.27963685989379883,
        0.12858258187770844,
        -0.26629430055618286,
        0.308256059885025,
        -0.2678632140159607,
        0.06634580343961716,
        0.1588274985551834,
        -0.057704903185367584,
        0.27490153908729553,
        0.2648024559020996,
        -0.24310167133808136,
        0.3163948357105255,
        -0.1514902561903,
        -0.09936212003231049,
        -0.018695391714572906,
        0.05273794010281563,
        -0.058543022722005844,
        -0.03493133559823036,
        -0.14795656502246857,
        0.004851467441767454,
        0.16570182144641876,
        0.08748652040958405,
        0.19417887926101685,
        0.04445786774158478,
        0.09341292083263397,
        -0.1448526829481125,
        0.08969409018754959,
        -0.19516530632972717,
        -0.1294308751821518,
        -0.0970906987786293,
        0.034071020781993866,
        -0.13498350977897644,
        -0.14339692890644073,
        0.05553985759615898,
        -0.2723561227321625,
        0.014771360903978348,
        0.0841614231467247,
        0.3684193193912506,
        -0.11367160826921463,
        -0.0018235204042866826,
        -0.2352851778268814,
        -0.1272849291563034,
        0.21326598525047302,
        -0.058338265866041183,
        -0.07105093449354172,
        0.08968796581029892,
        -0.25887826085090637,
        0.021323222666978836,
        -0.019979966804385185,
        -0.02847965992987156,
        0.03576761484146118,
        0.10414817929267883,
        -0.015672758221626282,
        -0.03677058592438698,
        -0.19094203412532806,
        0.13538222014904022,
        -0.02422105334699154,
        -0.03262181580066681,
        -0.4047033190727234,
        -0.007062428165227175,
        -0.10935411602258682,
        0.11114966124296188,
        -0.09388377517461777,
        -0.220487579703331,
        0.14729875326156616,
        -0.06149329990148544,
        -0.19896969199180603,
        -0.14649353921413422,
        -0.016953157261013985,
        -0.12203643471002579,
        0.1607261598110199,
        -0.062234461307525635,
        0.008235085755586624,
        0.2707226574420929,
        -0.19525474309921265,
        0.17486359179019928,
        -0.3483596444129944,
        -0.03826133534312248,
        0.018700601533055305,
        0.06515240669250488,
        0.09334784746170044,
        0.020510192960500717,
        0.2666679918766022,
        -0.039978399872779846,
        0.04488496482372284,
        -0.3421758711338043,
        0.11568600684404373,
        -0.06804772466421127,
        -0.06058034673333168,
        -0.09670308977365494,
        -0.01337614469230175,
        -0.1798313558101654,
        0.07632030546665192,
        -0.06086999922990799,
        0.2333686202764511,
        -0.05763816833496094,
        0.04479974880814552,
        -0.009352115914225578,
        0.0894305408000946,
        -0.1560763567686081,
        -0.06729284673929214,
        -0.031021524220705032,
        0.03267771005630493,
        -0.028382206335663795,
        -0.20699016749858856,
        0.15434560179710388,
        0.42881128191947937,
        0.15396758913993835,
        0.18808750808238983,
        0.13698235154151917,
        0.0024989445228129625,
        -0.003528374247252941,
        -0.3149215877056122,
        -0.031648118048906326,
        0.1283491849899292,
        -0.12517252564430237,
        -0.0817212164402008,
        0.022442366927862167,
        0.0015881321160122752,
        -0.15277330577373505,
        -0.13612568378448486,
        0.1499972641468048,
        0.027704091742634773,
        0.06255661696195602,
        -0.18689315021038055,
        -0.037878137081861496,
        0.04505513608455658,
        -0.08912482857704163,
        -0.08842363208532333,
        0.16686461865901947,
        0.1207214966416359,
        -0.2218359261751175,
        -0.04218457639217377,
        -0.1835702806711197,
        0.062079209834337234,
        -0.17246463894844055,
        0.03178567811846733,
        0.03834142908453941,
        -0.21487216651439667,
        0.08500529825687408,
        0.11467237770557404,
        -0.14035047590732574,
        0.06843392550945282,
        0.08169238269329071,
        0.16074897348880768,
        -0.08653029799461365,
        -0.08297285437583923,
        -0.08133521676063538,
        0.3642398416996002,
        0.08966253697872162,
        0.20828817784786224,
        -0.1556323915719986,
        -0.011593456380069256,
        0.12400570511817932,
        0.49381715059280396,
        -0.018476378172636032,
        -0.13480861485004425,
        -0.22010956704616547,
        -0.09393620491027832,
        -0.03740484640002251,
        -0.02171114645898342,
        -0.09510023891925812,
        0.41159123182296753,
        0.36127978563308716,
        0.058220140635967255,
        -0.030325904488563538,
        -0.19337637722492218,
        -0.026845742017030716,
        0.16326354444026947,
        -0.5400972366333008,
        0.3114945590496063,
        -0.051507994532585144,
        0.5306119918823242,
        0.23802410066127777,
        -0.058163512498140335,
        0.047354813665151596,
        0.21144190430641174,
        -0.0951429232954979,
        0.10418481379747391,
        -0.05643404647707939,
        0.22977523505687714,
        -0.1557605266571045,
        -0.09439864754676819,
        0.20985552668571472,
        0.03172645345330238,
        -0.10454554110765457,
        0.11744076758623123,
        -0.07407863438129425,
        0.04364513233304024,
        -0.17521394789218903,
        -0.2141934484243393,
        0.0654483512043953,
        0.19265806674957275,
        0.04784835875034332,
        -0.15871398150920868,
        -0.10659409314393997,
        0.09209401905536652,
        0.14652329683303833,
        0.0485353097319603,
        0.10093279927968979,
        0.07512354105710983,
        -0.2463376224040985,
        0.06909512728452682,
        -0.18079774081707,
        0.0740552619099617,
        0.02069389447569847,
        0.012466682121157646,
        0.15505822002887726,
        -0.16751109063625336,
        0.019132914021611214,
        -0.06884043663740158,
        0.21626554429531097,
        -0.11221792548894882,
        0.17560938000679016,
        -0.08663401007652283,
        0.04559537395834923,
        0.005982900038361549,
        -0.1491820216178894,
        -0.12364163249731064,
        0.06030525639653206,
        0.11681345105171204,
        0.08638983219861984,
        0.04525153711438179,
        -0.21226775646209717,
        -0.02012489177286625,
        -0.004707528278231621,
        -0.022496575489640236,
        0.054564327001571655,
        0.04156793653964996,
        0.40502026677131653,
        -0.046473488211631775,
        -0.0351191908121109,
        0.23878934979438782,
        -0.11368374526500702,
        -0.14110144972801208,
        0.15513017773628235,
        0.0050076874904334545,
        -0.15443052351474762,
        -0.0808001309633255,
        -0.02109508402645588,
        -0.0013879906618967652,
        -0.19211038947105408,
        0.10268884152173996,
        0.006245607044547796,
        -0.19517379999160767,
        0.1302337497472763,
        0.004785090684890747,
        -0.08475948870182037,
        0.05435353145003319,
        0.06203881651163101,
        -0.1633758693933487,
        -0.004185696132481098,
        -0.06793919950723648,
        -0.01626172661781311,
        -0.00587516650557518,
        -0.184655100107193,
        0.311664879322052,
        -0.22065633535385132,
        -0.015980668365955353,
        0.23459388315677643,
        0.0371042899787426,
        -0.08620189130306244,
        -0.04561799392104149,
        0.08831638097763062,
        -0.012663374654948711,
        -0.2200968712568283,
        -0.01297660730779171,
        0.154344841837883,
        0.029636716470122337,
        0.03306286409497261,
        0.08183728158473969,
        -0.15696798264980316,
        -0.17948442697525024,
        -0.013711731880903244,
        -0.2149636298418045,
        -0.07303014397621155,
        -0.06803156435489655,
        0.1316482573747635,
        -0.08385160565376282,
        -0.08035598695278168,
        -0.016802486032247543,
        0.09856946021318436,
        0.026956407353281975,
        0.1264619082212448,
        0.042928941547870636,
        -0.18900540471076965,
        -0.2134496122598648,
        0.0476023405790329,
        -0.059228312224149704,
        -0.0681702047586441,
        0.05317914858460426,
        -0.026389900594949722,
        -0.19736191630363464,
        0.12672393023967743,
        0.082758329808712,
        -0.002337621757760644,
        -0.11911258846521378,
        -0.11383826285600662,
        -0.2351333349943161,
        -0.11738670617341995,
        -0.010768835432827473,
        -0.014682210981845856,
        -0.08914128690958023,
        -0.12040986120700836,
        0.2716904580593109,
        -0.058463096618652344,
        0.14878444373607635,
        0.06851597875356674,
        -0.05828152969479561,
        -0.07193829864263535,
        0.05453653261065483,
        0.04418008774518967,
        0.09480643272399902,
        0.005956932902336121,
        0.03698621690273285,
        0.22116294503211975,
        0.24176761507987976,
        0.07384894043207169,
        -0.2019234150648117,
        -0.2615903615951538,
        0.03677082806825638,
        0.07244673371315002,
        -0.13478073477745056,
        0.14656437933444977,
        -0.005018618423491716,
        -0.1724298745393753,
        -0.10142439603805542,
        -0.13119320571422577,
        0.13369640707969666,
        0.08429273217916489,
        -0.1507243514060974,
        0.10396641492843628,
        -0.10625375062227249,
        0.01936020888388157,
        0.2105807512998581,
        -0.030138645321130753,
        0.060069892555475235,
        -0.10216426104307175,
        0.14124947786331177,
        0.07419348508119583,
        0.1508217602968216,
        -0.16989275813102722,
        -0.07083249092102051,
        -0.03829919174313545,
        0.09586824476718903,
        0.06974465399980545,
        0.2506018877029419,
        -0.026604223996400833,
        -0.06179095432162285,
        -0.013355612754821777,
        0.052785780280828476,
        0.1483660787343979,
        0.10458511859178543,
        -0.07210459560155869,
        -0.03422746807336807,
        -0.10719334334135056,
        0.055383529514074326,
        0.04436855763196945,
        -0.13394348323345184,
        0.09734299778938293,
        -0.24300532042980194,
        0.25831156969070435,
        -0.24829156696796417,
        -0.15287938714027405,
        -0.06499037891626358,
        -0.1293603628873825,
        0.02556266263127327,
        0.281779021024704,
        -0.09782444685697556,
        0.05852163955569267,
        0.27112630009651184,
        0.03847008943557739,
        -0.22724276781082153,
        -0.17382563650608063,
        0.016340969130396843,
        -0.15421827137470245,
        0.15731675922870636,
        0.09335990250110626,
        -0.2832549810409546,
        0.0994134470820427,
        0.0017328084213659167,
        -0.18669168651103973,
        0.20434676110744476,
        0.04738851264119148,
        -0.0430140346288681,
        0.05357356742024422,
        0.062125809490680695,
        -0.13751058280467987,
        0.1816919445991516,
        -0.04149286448955536,
        0.08047497272491455,
        0.09680839627981186,
        -0.09404850751161575,
        0.014456904493272305,
        0.45595401525497437,
        -0.13924334943294525,
        0.08615019917488098,
        -0.1495106965303421,
        0.051588065922260284,
        0.0091690793633461,
        -0.12305422127246857,
        -0.23579423129558563,
        0.27402156591415405,
        0.20685896277427673,
        0.09295465797185898,
        -0.15323415398597717,
        -0.11899476498365402,
        0.00013162940740585327,
        0.09631761163473129,
        -0.45665791630744934,
        0.14547954499721527,
        -0.0163054708391428,
        0.30297109484672546,
        0.020774254575371742,
        -0.23901639878749847,
        -0.08093485981225967,
        0.14242462813854218,
        0.11467994749546051,
        0.24415649473667145,
        0.2652853727340698,
        0.07208508998155594,
        0.6103624701499939,
        0.10626094043254852,
        0.01576237753033638,
        0.431840181350708,
        0.13942712545394897,
        -0.13220512866973877,
        0.3028123080730438,
        0.06551796197891235,
        -0.1046261191368103,
        -0.11834993958473206,
        -0.1799672544002533,
        0.0013840816682204604,
        -0.030605820938944817,
        0.25046226382255554,
        -0.09136740863323212,
        -0.38748589158058167,
        -0.2283024936914444,
        0.26823699474334717,
        0.12904664874076843,
        0.351734459400177,
        0.003229002235457301,
        -0.02590823732316494,
        -0.007601405028253794,
        0.12946560978889465,
        0.24925455451011658,
        0.15143638849258423,
        0.037498775869607925,
        0.4260351359844208,
        -0.05372380465269089,
        0.22699536383152008,
        0.40756481885910034,
        0.16354815661907196,
        0.1808731108903885,
        0.34393781423568726,
        0.4494495093822479,
        0.44063928723335266,
        -0.45297449827194214,
        -0.13950301706790924,
        0.28936466574668884,
        0.4073905050754547,
        0.17360299825668335,
        -0.12241891771554947,
        -0.26201361417770386,
        -0.4696441888809204,
        0.21111831068992615,
        0.08470600843429565,
        -0.14567501842975616,
        0.04655938968062401,
        0.028387878090143204,
        0.26200592517852783,
        -0.06335535645484924,
        -0.0017026806017383933,
        -0.33489879965782166,
        -0.1726820170879364,
        -0.04721789062023163,
        0.19592319428920746,
        -0.21561838686466217,
        -0.0331556610763073,
        -0.01338404044508934,
        -0.08157900720834732,
        -0.05154689401388168,
        -0.2828086018562317,
        0.03302532806992531,
        -0.2131524682044983,
        0.004430521745234728,
        0.016623957082629204,
        -0.1724824607372284,
        -0.06169786676764488,
        0.11865044385194778,
        -0.061717450618743896,
        -0.136807382106781,
        0.0785251334309578,
        -0.009123732335865498,
        -0.22523067891597748,
        -0.15372046828269958,
        0.23993512988090515,
        0.005841495003551245,
        0.06771545112133026,
        0.1708821952342987,
        -0.3548166751861572,
        -0.023558519780635834,
        -0.14389994740486145,
        -0.14785327017307281,
        -0.05651276558637619,
        0.121421679854393,
        -0.062308911234140396,
        -0.056408919394016266,
        0.07717648148536682,
        -0.05640793219208717,
        -0.10413390398025513,
        -0.10570605844259262,
        -0.06246546655893326,
        0.08840156346559525,
        0.13451464474201202,
        0.1259375810623169,
        -0.026445604860782623,
        -0.19361291825771332,
        0.13174359500408173,
        -0.012618343345820904,
        -0.1681113839149475,
        0.15642651915550232,
        0.10020289570093155,
        -0.24203823506832123,
        0.07131095975637436,
        0.12150853127241135,
        0.06864674389362335,
        -0.03600704297423363,
        0.06077488139271736,
        0.21328048408031464,
        -0.15737633407115936,
        0.12080049514770508,
        0.27661624550819397,
        -0.060044221580028534,
        -0.012800229713320732,
        0.03235030919313431,
        0.13133126497268677,
        0.049583375453948975,
        0.23631201684474945,
        0.12353675812482834,
        0.036469295620918274,
        -0.07608088105916977,
        0.11529521644115448,
        0.09612910449504852,
        -0.41083601117134094,
        0.22569559514522552,
        -0.128306582570076,
        -0.24941658973693848,
        0.05613158270716667,
        0.11587969213724136,
        -0.24224355816841125,
        -0.03509347885847092,
        -0.2759866416454315,
        0.2629915475845337,
        0.15863671898841858,
        -0.12010382860898972,
        -0.2636760473251343,
        -0.13449367880821228,
        -0.0586126409471035,
        -0.06275933980941772,
        0.04339739307761192,
        -0.022649964317679405,
        -0.005196781828999519,
        0.10225027799606323,
        0.02513068914413452,
        -0.012340791523456573,
        0.09985356032848358,
        -0.14113794267177582,
        -0.015571429394185543,
        0.15962639451026917,
        0.10995370149612427,
        -0.1436033546924591,
        0.1229345053434372,
        -0.03198368102312088,
        -0.256791353225708,
        0.10090353339910507,
        -0.1647872030735016,
        0.22008658945560455,
        0.06666828691959381,
        0.2113860696554184,
        0.02362773008644581,
        -0.16044476628303528,
        -0.21300943195819855,
        -0.02030741237103939,
        -0.07717549800872803,
        -0.06866935640573502,
        -0.014206990599632263,
        0.026510046795010567,
        -0.1407487839460373,
        -0.17575907707214355,
        -0.04738916456699371,
        0.10913887619972229,
        -0.26118484139442444,
        0.13754607737064362,
        -0.11352229118347168,
        0.29020628333091736,
        0.021666793152689934,
        -0.14276808500289917,
        -0.18839864432811737,
        0.1615186482667923,
        0.06985706090927124,
        -0.23271183669567108,
        0.2622526288032532,
        0.018467050045728683,
        0.028136733919382095,
        -0.06491433829069138,
        -0.01435493677854538,
        -0.11954595148563385,
        0.21478767693042755,
        0.19052185118198395,
        -0.058892764151096344,
        -0.21392370760440826,
        0.06272461265325546,
        -0.16598476469516754,
        -0.006738409865647554,
        0.005737686529755592,
        -0.043481096625328064,
        -0.08521470427513123,
        -0.0075323753990232944,
        0.3237973153591156,
        0.06512385606765747,
        0.11193891614675522,
        0.028664415702223778,
        0.16495244204998016,
        -0.007633005268871784,
        -0.004800382535904646,
        -0.05743943899869919,
        -0.03269561380147934,
        -0.00971991941332817,
        0.035383451730012894,
        0.1448858380317688,
        -0.1999080777168274,
        0.06354569643735886,
        -0.14910273253917694,
        0.04743647575378418,
        -0.007373558357357979,
        0.2403101772069931,
        0.04849186912178993,
        0.013312914408743382,
        0.08439765125513077,
        0.0009470608201809227,
        0.035801175981760025,
        -0.2233661711215973,
        0.06486708670854568,
        -0.18293900787830353,
        0.20330989360809326,
        -0.008209975436329842,
        -0.035508450120687485,
        -0.10382267832756042,
        0.14872796833515167,
        -0.20116490125656128,
        -0.076095350086689,
        0.1369873583316803,
        0.08986146003007889,
        0.02955285646021366,
        -0.01178598403930664,
        0.08481744676828384,
        0.4481939375400543,
        0.06041278690099716,
        0.007121875416487455,
        0.028278011828660965,
        0.17685846984386444,
        -0.1322024166584015,
        -0.01732153631746769,
        0.0026058403309434652,
        -0.1094752848148346,
        -0.2855182886123657,
        0.20185980200767517,
        -0.038336798548698425,
        -0.14021824300289154,
        -0.11207178235054016,
        -0.11687573790550232,
        0.23555564880371094,
        -0.10530111193656921,
        0.04044446349143982,
        0.014663568697869778,
        0.06870490312576294,
        0.022017592564225197,
        -0.019767550751566887,
        -0.2149619162082672,
        -0.06361425668001175,
        0.07257060706615448,
        -0.10852625221014023,
        -0.02429589256644249,
        0.018232690170407295,
        -0.11904019862413406,
        -0.1992667317390442,
        -0.15985848009586334,
        0.17411130666732788,
        0.03925715759396553,
        -0.07334331423044205,
        0.4170226752758026,
        -0.21991902589797974,
        0.15687094628810883,
        0.12726926803588867,
        -0.10257337987422943,
        -0.14103588461875916,
        -0.4953630566596985,
        -0.31417548656463623,
        -0.11422169208526611,
        0.18232977390289307,
        -0.018214719370007515,
        0.03591417893767357,
        0.07933775335550308,
        0.11613667756319046,
        0.0518144816160202,
        -0.07797711342573166,
        0.12900234758853912,
        0.0007766720955260098,
        0.2678374648094177,
        -0.07627421617507935,
        -0.030820991843938828,
        -0.1099221333861351,
        0.018528958782553673,
        0.08941111713647842,
        0.0036944816820323467,
        -0.18492086231708527,
        0.08808403462171555,
        -0.12108860909938812,
        -0.0414646677672863,
        -0.025029398500919342,
        -0.015559688210487366,
        -0.09034553170204163,
        0.05816927179694176,
        -0.08871636539697647,
        0.055900830775499344,
        0.017669780179858208,
        -0.10479843616485596,
        0.06496888399124146,
        0.07524998486042023,
        -0.2129083126783371,
        0.10008507966995239,
        -0.08766352385282516,
        0.07456117868423462,
        0.04603705555200577,
        -0.15523886680603027,
        0.2659386992454529,
        -0.13377010822296143,
        -0.08107335865497589,
        0.007775350008159876,
        -0.01562921330332756,
        -0.0747583732008934,
        -0.03449307009577751,
        0.12364636361598969,
        -0.0301765576004982,
        -0.15654265880584717,
        -0.05544579401612282,
        0.12230564653873444,
        0.021489111706614494,
        -0.1155153289437294,
        0.09658876061439514,
        0.057602450251579285,
        0.09098216891288757,
        -0.0024614513386040926,
        -0.04625152051448822,
        0.13122697174549103,
        0.07527895271778107,
        0.34042277932167053,
        0.03584109991788864,
        0.030265294015407562,
        0.07246062904596329,
        0.029888654127717018,
        0.23155701160430908,
        0.026095015928149223,
        -0.08718748390674591,
        0.21292701363563538,
        -0.2632250487804413,
        -0.055864155292510986,
        0.08949881047010422,
        0.06674379855394363,
        0.10594093054533005,
        -0.041925061494112015,
        -0.1478704959154129,
        0.09265448898077011,
        -0.02644331008195877,
        0.07958756387233734,
        -0.01918480359017849,
        -0.18288540840148926,
        -0.4395959973335266,
        -0.05810828134417534,
        0.03582045063376427,
        0.01214023306965828,
        0.04403092339634895,
        -0.1622045487165451,
        0.29188358783721924,
        0.053849466145038605,
        -0.1794898808002472,
        0.2393866628408432,
        -0.1586165428161621,
        -0.004724073223769665,
        0.1877344399690628,
        -0.0695001482963562,
        0.14112374186515808,
        0.06470490247011185,
        -0.05390925705432892,
        0.06883610039949417,
        -0.20348940789699554,
        0.025371888652443886,
        0.0898473933339119,
        -0.014923334121704102,
        0.12197662144899368,
        -0.03753327205777168,
        0.09627129882574081,
        0.016224505379796028,
        -0.07293786853551865,
        -0.007129164878278971,
        0.20403797924518585,
        0.13866648077964783,
        0.12205807864665985,
        -0.028032707050442696,
        -0.051401395350694656,
        -0.04125064238905907,
        -0.01203088741749525,
        -0.04062872380018234,
        -0.009359804913401604,
        -0.6056395769119263,
        0.6649680733680725,
        0.29811665415763855,
        -0.23083451390266418,
        0.28239119052886963,
        -0.28758901357650757,
        -0.21598605811595917,
        0.3322064280509949,
        -0.6331879496574402,
        0.7671805620193481,
        0.6687823534011841,
        -0.08682606369256973,
        -0.05330848693847656,
        0.4158482551574707,
        -0.604239821434021,
        0.298096239566803,
        -0.6261406540870667,
        -0.11014939099550247,
        -0.4428423345088959,
        0.37450170516967773,
        0.45092302560806274,
        0.6795557141304016,
        0.03462667018175125,
        0.1307252049446106,
        0.17333915829658508,
        -0.1498112678527832,
        0.2279718667268753,
        -0.3384273052215576,
        -0.2664162218570709,
        0.021864797919988632,
        0.06433439999818802,
        0.36202049255371094,
        -0.27169397473335266,
        -0.13615363836288452,
        0.19154983758926392,
        0.28900158405303955,
        0.31930050253868103,
        -0.1911327987909317,
        -0.31053394079208374,
        -0.22565396130084991,
        0.010238159447908401,
        -0.1883118897676468,
        -0.0836726650595665,
        0.04740750789642334,
        0.29297417402267456,
        0.2628268599510193,
        0.11186328530311584,
        -0.15720543265342712,
        -0.05911879986524582,
        0.132193461060524,
        -0.016888458281755447,
        -0.01725125126540661,
        -0.396771103143692,
        0.08911728113889694,
        -0.2215893715620041,
        -0.21680296957492828,
        -0.1883261501789093,
        -0.07019767165184021,
        0.08694831281900406,
        0.37284615635871887,
        -0.4149930775165558,
        -0.25537604093551636,
        0.05658959969878197,
        0.24127225577831268,
        0.13539129495620728,
        0.04394849017262459,
        -0.06072670593857765,
        -0.16287243366241455,
        0.24159710109233856,
        -0.31303295493125916,
        0.011053398251533508,
        0.2551083266735077,
        0.0579293891787529,
        0.01526586152613163,
        0.2624979019165039,
        0.05101994052529335,
        0.2541921138763428,
        0.06225864589214325,
        -0.08559270948171616,
        0.030428467318415642,
        -0.1578841656446457,
        0.2670420706272125,
        -0.07268748432397842,
        0.15681615471839905,
        -0.2765837013721466,
        0.039017945528030396,
        0.08856374770402908,
        0.1315268874168396,
        -0.20183691382408142,
        -0.09783405810594559,
        -0.15965323150157928,
        0.008206442929804325,
        -0.35592904686927795,
        -0.05943124368786812,
        -0.12883830070495605,
        -0.25630053877830505,
        -0.011099332012236118,
        -0.020432036370038986,
        -0.1192745640873909,
        -0.0920657142996788,
        -0.306873083114624,
        0.5681368112564087,
        0.42768052220344543,
        -0.1319991797208786,
        -0.401290625333786,
        -0.10779869556427002,
        -0.20216313004493713,
        0.09253504872322083,
        -0.04116414114832878,
        -0.026195820420980453,
        0.05138789862394333,
        0.10993649810552597,
        0.07041771709918976,
        -0.2062462419271469,
        0.08710383623838425,
        0.14061619341373444,
        -0.029937945306301117,
        -0.046918824315071106,
        -0.04161711782217026,
        -0.26688894629478455,
        0.12632174789905548,
        0.0552201084792614,
        -0.15479184687137604,
        0.17550086975097656,
        0.17943739891052246,
        0.05192413553595543,
        0.20997846126556396,
        0.3030940294265747,
        0.06370537728071213,
        -0.288731187582016,
        -0.06698476523160934,
        0.13323773443698883,
        -0.13279353082180023,
        -0.012960808351635933,
        -0.2983599007129669,
        0.18624910712242126,
        0.03519828990101814,
        0.07116614282131195,
        0.251177042722702,
        -0.09012646973133087,
        0.15153102576732635,
        0.28342726826667786,
        0.027668429538607597,
        -0.1254899948835373,
        0.3931798040866852,
        -0.19988368451595306,
        0.008707785047590733,
        0.12906470894813538,
        0.025537407025694847,
        -0.37514257431030273,
        0.028834016993641853,
        -0.11086960136890411,
        0.1680503785610199,
        -0.19541773200035095,
        0.18504488468170166,
        -0.3447860777378082,
        0.051748961210250854,
        -0.2362634390592575,
        -0.022473925724625587,
        0.3100118637084961,
        -0.2810431122779846,
        -0.20474347472190857,
        0.07886649668216705,
        0.07280504703521729,
        0.16269484162330627,
        -0.09474179893732071,
        -0.1811099648475647,
        -0.07464398443698883,
        0.10062190145254135,
        0.07935742288827896,
        -0.11784104257822037,
        -0.031107870861887932,
        0.009095645509660244,
        0.06985106319189072,
        -0.06103599816560745,
        0.5121108293533325,
        -0.297433078289032,
        -0.3102315664291382,
        -0.23737387359142303,
        0.3907736837863922,
        0.0908808782696724,
        0.009952469728887081,
        -0.257065087556839,
        0.2724643349647522,
        0.09628457576036453,
        -0.4362155497074127,
        0.038357265293598175,
        -0.06573276221752167,
        -0.11650611460208893,
        0.2547657787799835,
        0.3817737102508545,
        0.15291722118854523,
        -0.010556487366557121,
        -0.26832669973373413,
        -0.27109038829803467,
        -0.14134815335273743,
        0.1892480105161667,
        0.1479886770248413,
        -0.14353834092617035,
        -0.2701210677623749,
        -0.04258856177330017,
        -0.17830713093280792,
        0.4563450217247009,
        -0.1754121035337448,
        -0.2317512482404709,
        0.14123041927814484,
        0.2653542757034302,
        -0.20324252545833588,
        -0.19889995455741882,
        -0.08072628825902939,
        0.033979322761297226,
        -0.01656743697822094,
        0.06850835680961609,
        -0.5154834389686584,
        -0.5972931981086731,
        0.0312538705766201,
        -0.0802086815237999,
        -0.06778789311647415,
        0.2848253846168518,
        0.08305831253528595,
        0.052162155508995056,
        0.04867297783493996,
        0.0637311041355133,
        -0.19876430928707123,
        0.2641828954219818,
        -0.20800040662288666,
        0.05898250639438629,
        0.01812751777470112,
        -0.13467982411384583,
        0.018435077741742134,
        -0.11232200264930725,
        0.00941556878387928,
        0.08888517320156097,
        0.03384705260396004,
        -0.28565970063209534,
        0.058197926729917526,
        0.18412074446678162,
        -0.21552665531635284,
        0.06060461327433586,
        -0.19816122949123383,
        0.4670560657978058,
        0.07024242728948593,
        -0.15703041851520538,
        -0.4421483874320984,
        -0.39122292399406433,
        0.3769623637199402,
        -0.004482329823076725,
        0.2103450447320938,
        0.09883549064397812,
        0.21112516522407532,
        0.2668062150478363,
        -0.11311579495668411,
        -0.007090487517416477,
        -0.2712455093860626,
        -0.3068854510784149,
        -0.13205471634864807,
        0.05013590306043625,
        -0.13504990935325623,
        -0.2573168873786926,
        -0.10591871291399002,
        -0.07297427952289581,
        -0.261902779340744,
        -0.045654669404029846,
        0.15970443189144135,
        0.04201195016503334,
        0.05175164341926575,
        0.41078028082847595,
        -0.34263625741004944,
        0.14396703243255615,
        -0.0038407205138355494,
        0.1076662614941597,
        0.04263673350214958,
        0.07015149295330048,
        0.06553857028484344,
        0.05863996222615242,
        -0.08973730355501175,
        0.15282085537910461,
        0.09367788583040237,
        -0.02635444514453411,
        -0.027580689638853073,
        -0.12862877547740936,
        0.12956658005714417,
        0.09544314444065094,
        0.09072519838809967,
        0.175691619515419,
        -0.027450310066342354,
        -0.030634522438049316,
        0.030490044504404068,
        0.02837494947016239,
        0.08630337566137314,
        0.00635523721575737,
        -0.03126206994056702,
        -0.18679337203502655,
        -0.06855928152799606,
        -0.2744140028953552,
        -0.30862346291542053,
        -0.030626080930233,
        0.17423804104328156,
        0.23372089862823486,
        -0.1161811575293541,
        -0.30980557203292847,
        -0.20244744420051575,
        -0.017022602260112762,
        -0.003396211192011833,
        0.29831451177597046,
        0.26489612460136414,
        -0.044842980802059174,
        -0.1692146509885788,
        -0.16194897890090942,
        0.3650553524494171,
        0.34353676438331604,
        0.0609428808093071,
        -0.32479479908943176,
        -0.03236285597085953,
        -0.14937740564346313,
        0.04545898735523224,
        0.05607860907912254,
        -0.03146824240684509,
        -0.08340736478567123,
        0.08385384827852249,
        -0.16199105978012085,
        -0.3542225956916809,
        -0.13290326297283173,
        -0.1600358486175537,
        -0.11807583272457123,
        -0.08222246170043945,
        0.08123090118169785,
        -0.026327623054385185,
        -0.1390809267759323,
        -0.11959688365459442,
        -0.04469745606184006,
        0.19571329653263092,
        -0.14905107021331787,
        -0.08695737272500992,
        0.3747998774051666,
        -0.005951127968728542,
        0.09713992476463318,
        -0.03329332917928696,
        0.33350372314453125,
        0.06077549234032631,
        -0.2977781891822815,
        0.13453097641468048,
        0.3504829406738281,
        0.1809217929840088,
        0.05498280003666878,
        0.2269488424062729,
        0.013471797108650208,
        0.12098448723554611,
        0.10464078933000565,
        0.027096616104245186,
        -0.011734912171959877,
        -0.026297783479094505,
        -0.093809574842453,
        -0.16397419571876526,
        0.17748746275901794,
        -0.11040788888931274,
        -0.21923218667507172,
        -0.2117220014333725,
        -0.1044360026717186,
        0.03326360881328583,
        -0.021037904545664787,
        -0.2330520749092102,
        -0.08823944628238678,
        -0.019564896821975708,
        0.16423337161540985,
        0.003909819759428501,
        0.131106436252594,
        -0.04770061746239662,
        0.05849558115005493,
        -0.07628356665372849,
        0.012563599273562431,
        0.06329645216464996,
        -0.09336325526237488,
        -0.10970049351453781,
        -0.11832360178232193,
        0.10995732247829437,
        -0.2165904939174652,
        0.018115006387233734,
        0.04771475866436958,
        0.08585399389266968,
        -0.1216362938284874,
        0.1202126070857048,
        -0.3201262354850769,
        -0.09830261021852493,
        -0.2652561366558075,
        0.16622480750083923,
        0.09001612663269043,
        -0.16942612826824188,
        -0.28182581067085266,
        -0.07397638261318207,
        -0.31064876914024353,
        0.11618945002555847,
        0.06982207298278809,
        0.11179427802562714,
        -0.012835255824029446,
        0.06411664932966232,
        -0.113980233669281,
        0.05777258798480034,
        -0.09590442478656769,
        -0.19982106983661652,
