{
    "version": "0.5.0",
    "architecture": "WaveNet",
    "config": {
        "layers": [
            {
                "input_size": 1,
                "condition_size": 1,
                "head_size": 8,
                "channels": 16,
                "kernel_size": 3,
                "dilations": [
                    1,
                    2,
                    4,
                    8,
                    16,
                    32,
                    64,
                    128,
                    256,
                    512
                ],
                "activation": "Tanh",
                "gated": false,
                "head_bias": false
            },
            {
                "input_size": 16,
                "condition_size": 1,
                "head_size": 1,
                "channels": 8,
                "kernel_size": 3,
                "dilations": [
                    1,
                    2,
                    4,
                    8,
                    16,
                    32,
                    64,
                    128,
                    256,
                    512
                ],
                "activation": "Tanh",
                "gated": false,
                "head_bias": true
            }
        ],
        "head": null,
        "head_scale": 0.02
    },
    "weights": [
        -0.020095117390155792,
        0.5692317485809326,
        -0.8732438683509827,
        -0.7938530445098877,
        -0.31384485960006714,
        0.21389223635196686,
        0.003024084959179163,
        0.7990499138832092,
        -0.013652964495122433,
        0.2648196220397949,
        -0.29447057843208313,
        -0.21116815507411957,
        -1.0297456979751587,
        -0.7647998929023743,
        -0.24655228853225708,
        0.19795477390289307,
        0.08361014723777771,
        0.3123708963394165,
        -0.2969323694705963,
        -0.13122299313545227,
        -0.18970462679862976,
        0.19349054992198944,
        0.037186067551374435,
        0.34661802649497986,
        -0.09137382358312607,
        0.08542408049106598,
        0.3691388964653015,
        -0.2061486691236496,
        -0.022778552025556564,
        0.20318569242954254,
        -0.13921421766281128,
        0.06861422955989838,
        -0.3118562698364258,
        0.022191885858774185,
        -0.07567130774259567,
        0.0950729250907898,
        -0.2706512212753296,
        0.05221931263804436,
        -0.17421598732471466,
        0.1382654458284378,
        0.07250496745109558,
        0.16384194791316986,
        -0.09350273013114929,
        -0.1997472047805786,
        -0.33197638392448425,
        0.02113416977226734,
        0.15324336290359497,
        0.31188711524009705,
        -0.14865295588970184,
        0.05328929424285889,
        0.3107534348964691,
        0.03590379282832146,
        0.12886539101600647,
        0.2604689300060272,
        0.027387259528040886,
        -0.011042320169508457,
        0.26922109723091125,
        -0.18639394640922546,
        -0.034480612725019455,
        0.15956169366836548,
        -0.012790180742740631,
        -0.01249323133379221,
        -0.34283486008644104,
        0.20063745975494385,
        -0.03054524026811123,
        0.15173666179180145,
        -0.2520712912082672,
        0.06620291620492935,
        -0.13350056111812592,
        0.2719552218914032,
        -0.14000603556632996,
        0.1720288097858429,
        -0.06691349297761917,
        0.09213583171367645,
        0.34902486205101013,
        0.001033867010846734,
        -0.004651400726288557,
        0.09455418586730957,
        -0.13066983222961426,
        -0.053653933107852936,
        -0.3401130735874176,
        0.2639828026294708,
        -0.006152448244392872,
        -0.026286134496331215,
        -0.22951166331768036,
        -0.00037762135616503656,
        -0.24803078174591064,
        0.05522879958152771,
        0.01458675879985094,
        0.11716340482234955,
        -0.11775629967451096,
        0.10935144871473312,
        -0.10653185099363327,
        0.20326228439807892,
        -0.17756256461143494,
        0.11768030375242233,
        -0.06410948932170868,
        -0.013281147927045822,
        0.08723204582929611,
        -0.24252580106258392,
        0.11011359095573425,
        0.32324203848838806,
        -0.18682196736335754,
        -0.06109581142663956,
        0.08916332572698593,
        -0.13185709714889526,
        -0.14043863117694855,
        0.10265140980482101,
        -0.14324301481246948,
        0.08982957899570465,
        -0.2704775929450989,
        0.3236982822418213,
        -0.17736870050430298,
        0.2882683575153351,
        0.11186608672142029,
        -0.024648133665323257,
        -0.16493095457553864,
        0.008276206441223621,
        -0.07812616229057312,
        0.15100622177124023,
        0.053580302745103836,
        -0.09047744423151016,
        0.04766153544187546,
        0.06802386045455933,
        -0.22988979518413544,
        0.05182066187262535,
        -0.02947692759335041,
        0.017936399206519127,
        -0.16418416798114777,
        -0.12503720819950104,
        -0.057557303458452225,
        0.14512506127357483,
        -0.11152827739715576,
        0.0899871215224266,
        -0.013422567397356033,
        -0.01642000675201416,
        -0.04700670391321182,
        0.15272538363933563,
        0.06833986937999725,
        0.18229220807552338,
        0.0049969530664384365,
        0.07907239347696304,
        0.043277084827423096,
        0.1062009260058403,
        -0.12462424486875534,
        -0.15887883305549622,
        0.22838057577610016,
        0.01188113447278738,
        -0.17112036049365997,
        0.008212591521441936,
        -0.13544341921806335,
        -0.2180274873971939,
        0.10000748932361603,
        0.08577556908130646,
        -0.011512598022818565,
        -0.015237283892929554,
        0.09379250556230545,
        -0.016636958345770836,
        -0.25760382413864136,
        -0.10009980201721191,
        0.14247047901153564,
        0.0989106297492981,
        -0.22122693061828613,
        -0.2830221354961395,
        -0.14272496104240417,
        0.0821126326918602,
        0.08833453059196472,
        0.18286646902561188,
        -0.20671488344669342,
        0.14660704135894775,
        0.2543918490409851,
        -0.1367160677909851,
        0.29051336646080017,
        0.1644538789987564,
        -0.21957755088806152,
        -0.045208606868982315,
        -0.13099247217178345,
        0.024982815608382225,
        0.22204500436782837,
        -0.05270194634795189,
        -0.0507773831486702,
        -0.18410256505012512,
        -0.02328984998166561,
        0.11874528974294662,
        0.21035747230052948,
        0.137841135263443,
        -0.1440182328224182,
        -0.18353162705898285,
        -0.2301206737756729,
        0.1724000871181488,
        0.26131075620651245,
        0.2200442999601364,
        -0.18681854009628296,
        0.15540237724781036,
        0.005104932934045792,
        -0.17714805901050568,
        0.07333378493785858,
        0.17770306766033173,
        -0.16298680007457733,
        0.1562322974205017,
        0.12860950827598572,
        0.008887289091944695,
        0.040888868272304535,
        0.013522464781999588,
        -0.1680687516927719,
        -0.09678369760513306,
        -0.14484886825084686,
        0.2514996826648712,
        -0.0056460462510585785,
        -0.07449241727590561,
        0.19265738129615784,
        0.06469418853521347,
        0.16513533890247345,
        -0.16712678968906403,
        -0.09314209222793579,
        -0.13120390474796295,
        0.019800541922450066,
        -0.1676637977361679,
        -0.030152039602398872,
        0.017838679254055023,
        -0.10008030384778976,
        0.0032994539942592382,
        0.1934167593717575,
        0.0794864073395729,
        0.0032671361695975065,
        -0.07400503009557724,
        -0.13893169164657593,
        -0.043329570442438126,
        0.13744544982910156,
        0.0713384672999382,
        0.14865078032016754,
        -0.014569279737770557,
        -0.0638246163725853,
        0.021853039041161537,
        0.24514655768871307,
        -0.009588799439370632,
        0.19509555399417877,
        -0.25110679864883423,
        -0.14279523491859436,
        -0.0917721763253212,
        0.19253535568714142,
        0.03419702872633934,
        -0.16854743659496307,
        0.15704816579818726,
        -0.019717715680599213,
        -0.28831037878990173,
        0.23792114853858948,
        -0.213017538189888,
        -0.14264068007469177,
        0.11550229042768478,
        -0.16408808529376984,
        -0.11760864406824112,
        0.2556077241897583,
        0.038939330726861954,
        0.02963450737297535,
        -0.2437041848897934,
        -0.29191166162490845,
        0.15860135853290558,
        -0.030647538602352142,
        0.037289414554834366,
        -0.16751684248447418,
        0.057458411902189255,
        -0.05492131784558296,
        0.18721741437911987,
        0.0772758200764656,
        -0.1795259416103363,
        0.03718851879239082,
        0.07031937688589096,
        -0.013225438073277473,
        0.12757915258407593,
        -0.036590930074453354,
        0.04988262429833412,
        -0.21204636991024017,
        -0.0017103637801483274,
        -0.12309533357620239,
        -0.034252505749464035,
        0.14544843137264252,
        0.03488476201891899,
        -0.09343691915273666,
        0.012101764790713787,
        -0.0927603617310524,
        0.018560150638222694,
        -0.05781099200248718,
        0.24096742272377014,
        -0.06356398016214371,
        0.0810527354478836,
        -0.17221903800964355,
        0.12039770185947418,
        -0.00013128617138136178,
        -0.1320769488811493,
        -0.003352412721142173,
        0.08756175637245178,
        -0.08633242547512054,
        0.07501531392335892,
        -0.004870106466114521,
        -0.2200046330690384,
        0.1861865371465683,
        -0.07304252684116364,
        -0.06576218456029892,
        0.031535256654024124,
        -0.041007086634635925,
        0.18770746886730194,
        -0.22551435232162476,
        -0.03651703894138336,
        -0.07052090018987656,
        -0.06021186336874962,
        0.15401482582092285,
        0.1787024736404419,
        0.021345680579543114,
        -0.11600299924612045,
        -0.23411677777767181,
        0.00764116644859314,
        0.14567963778972626,
        -0.16890917718410492,
        0.08553368598222733,
        0.1940712183713913,
        -0.19029763340950012,
        0.04075655713677406,
        0.16525715589523315,
        0.11127381026744843,
        -0.024438660591840744,
        -0.08716630935668945,
        -0.17594830691814423,
        0.03562009707093239,
        0.1695833057165146,
        0.2450249344110489,
        0.053923413157463074,
        -0.07890218496322632,
        -0.01699192263185978,
        -0.005140536464750767,
        0.011915893293917179,
        -0.01609334722161293,
        0.1016048938035965,
        -0.021463027223944664,
        -0.20779059827327728,
        0.09046830981969833,
        0.21263672411441803,
        0.03935755416750908,
        0.16948772966861725,
        0.22713233530521393,
        -0.15044814348220825,
        -0.020123332738876343,
        0.21596373617649078,
        -0.0359329916536808,
        -0.04966675490140915,
        0.23475012183189392,
        -0.04086741805076599,
        0.1140655130147934,
        0.009101995266973972,
        0.1673450618982315,
        -0.1324135661125183,
        -0.04632982611656189,
        -0.17107336223125458,
        -0.1280554234981537,
        0.07593345642089844,
        0.21584837138652802,
        0.13606245815753937,
        0.05080994591116905,
        -0.2529372572898865,
        -0.15895605087280273,
        -0.08195417374372482,
        -0.2973167896270752,
        -0.3059476613998413,
        0.13163964450359344,
        -0.07780637592077255,
        -0.043207067996263504,
        0.14411425590515137,
        0.007469977717846632,
        0.07453162223100662,
        -0.05503001809120178,
        -0.19619625806808472,
        -0.02763696201145649,
        -0.08323552459478378,
        0.08321837335824966,
        0.049370478838682175,
        -0.09981582313776016,
        -0.01951674558222294,
        -0.03166556730866432,
        0.15894433856010437,
        0.2627652585506439,
        0.30243611335754395,
        -0.0727934017777443,
        -0.0825553685426712,
        -0.05336776003241539,
        0.0737873762845993,
        -0.0019330076174810529,
        -0.09362060576677322,
        0.1305687427520752,
        -0.20666754245758057,
        -0.12228813022375107,
        0.032825518399477005,
        -0.19290682673454285,
        -0.26851150393486023,
        -0.057830505073070526,
        -0.2581392824649811,
        -0.07860345393419266,
        0.12771792709827423,
        0.17284809052944183,
        0.09087470918893814,
        0.039356525987386703,
        0.0610245056450367,
        -0.061223097145557404,
        0.006253451574593782,
        0.199428990483284,
        0.16796010732650757,
        -0.1437273919582367,
        0.06779247522354126,
        -0.008109626360237598,
        -0.021581945940852165,
        0.009344881400465965,
        -0.19797134399414062,
        0.010711487382650375,
        0.05876259133219719,
        -0.09349116683006287,
        -0.05817876383662224,
        0.010274815373122692,
        0.06323791295289993,
        -0.0742361918091774,
        0.019597217440605164,
        0.11134139448404312,
        0.04117738828063011,
        -0.016862932592630386,
        0.12332447618246078,
        0.03567090630531311,
        0.03475039079785347,
        -0.18927673995494843,
        0.05133809149265289,
        -0.04386373981833458,
        0.03674214333295822,
        0.000786782125942409,
        -0.16724295914173126,
        -0.05486193671822548,
        0.16443300247192383,
        -0.04820433259010315,
        -0.1884341537952423,
        0.005310967098921537,
        -0.04133957251906395,
        -0.22726619243621826,
        0.10368786752223969,
        -0.2032269537448883,
        -0.2506600022315979,
        -0.10184714943170547,
        -0.09068398922681808,
        -0.002960274461656809,
        -0.09588275849819183,
        0.18173779547214508,
        0.0068998392671346664,
        -0.046422362327575684,
        -0.09962635487318039,
        -0.1865154355764389,
        0.2435758113861084,
        0.1943037360906601,
        0.240362286567688,
        0.008967571891844273,
        -0.20776307582855225,
        0.019074073061347008,
        0.07024651020765305,
        -0.045268021523952484,
        -0.2152780145406723,
        0.023372558876872063,
        -0.25944969058036804,
        -0.14766941964626312,
        0.1006351113319397,
        -0.01683037169277668,
        0.13166509568691254,
        0.0017014616169035435,
        -0.028203660622239113,
        -0.09070581197738647,
        -0.02097488008439541,
        0.0682302862405777,
        0.16288208961486816,
        0.0778883770108223,
        -0.014389167539775372,
        -0.06804931163787842,
        0.15290455520153046,
        -0.03230936825275421,
        -0.03811158984899521,
        -0.012283478863537312,
        -0.18518969416618347,
        -0.020575396716594696,
        -0.0273224376142025,
        -0.1754087507724762,
        -0.19840146601200104,
        0.16043996810913086,
        -0.13004864752292633,
        0.010171080939471722,
        0.1530953347682953,
        -0.037384696304798126,
        -0.09198430180549622,
        0.02568279206752777,
        -0.1420382261276245,
        -0.07080249488353729,
        0.1379219889640808,
        0.04967325180768967,
        0.18781311810016632,
        -0.1372593194246292,
        -0.3963174819946289,
        -0.048865195363759995,
        0.29512059688568115,
        0.4416344463825226,
        -0.153611958026886,
        -0.02165648527443409,
        -0.23275040090084076,
        0.10528340190649033,
        0.24586695432662964,
        -0.3833819329738617,
        0.06746502965688705,
        0.1865910142660141,
        -0.3467794954776764,
        0.07183660566806793,
        0.08812838792800903,
        0.3704424500465393,
        -0.0746845155954361,
        -0.1935107558965683,
        -0.13009107112884521,
        0.04445836320519447,
        0.02958216518163681,
        0.3151632249355316,
        0.06039455905556679,
        -0.14279013872146606,
        -0.22246821224689484,
        -0.0033221947960555553,
        0.19578917324543,
        0.1924506425857544,
        -0.11801078915596008,
        -0.21596939861774445,
        -0.16047966480255127,
        -0.009487646631896496,
        0.13640154898166656,
        -0.3617265522480011,
        0.1818968504667282,
        0.29005250334739685,
        -0.4154725670814514,
        -0.09590605646371841,
        0.017131078988313675,
        -0.3081510663032532,
        -0.010601366870105267,
        0.039294347167015076,
        -0.34403809905052185,
        0.05179179087281227,
        0.05177183821797371,
        0.371014267206192,
        -0.0742059051990509,
        -0.246405228972435,
        0.1585019826889038,
        -0.09083787351846695,
        0.13726986944675446,
        -0.07365532964468002,
        0.18374893069267273,
        -0.007831769995391369,
        -0.053880706429481506,
        -0.3667096793651581,
        0.2847372889518738,
        -0.009629333391785622,
        -0.2006770372390747,
        0.13056989014148712,
        0.04691273346543312,
        -0.26998063921928406,
        0.2467251867055893,
        -0.08589441329240799,
        0.0680009126663208,
        -0.23420442640781403,
        0.051040250808000565,
        -0.17022362351417542,
        0.13651125133037567,
        0.057306062430143356,
        0.19665317237377167,
        -0.16365894675254822,
        0.18840594589710236,
        -0.17633011937141418,
        0.2814491391181946,
        -0.002184369135648012,
        0.1791120022535324,
        -0.2517131567001343,
        0.07897806912660599,
        -0.09717459976673126,
        0.10029863566160202,
        -0.040292393416166306,
        -0.15335972607135773,
        0.30617910623550415,
        0.03850451484322548,
        -0.3510134518146515,
        0.009826639667153358,
        0.11242865025997162,
        -0.24860915541648865,
        0.06899020075798035,
        0.10885374248027802,
        -0.17510457336902618,
        0.262448251247406,
        0.03079853393137455,
        0.26343482732772827,
        -0.3172028660774231,
        -0.33000603318214417,
        0.1999933272600174,
        0.17989744246006012,
        0.2271638810634613,
        -0.19767633080482483,
        0.05512358248233795,
        -0.020928993821144104,
        0.1958118975162506,
        -0.04991896077990532,
        -0.21313759684562683,
        -0.032731954008340836,
        0.21106590330600739,
        -0.22767944633960724,
        0.00982581079006195,
        0.1627199798822403,
        0.07721132785081863,
        -0.13784466683864594,
        -0.09034799039363861,
        -0.20631331205368042,
        -0.09851731359958649,
        0.19062365591526031,
        0.091184101998806,
        -0.01563713140785694,
        0.050882305949926376,
        -0.08883506059646606,
        0.09823159873485565,
        0.2279626429080963,
        0.1769460141658783,
        -0.1429283171892166,
        0.04659800976514816,
        -0.11925379931926727,
        -0.07531953603029251,
        0.03587578982114792,
        -0.2550419569015503,
        0.2029733955860138,
        0.06875114887952805,
        -0.2906203866004944,
        0.05792871117591858,
        0.16523465514183044,
        -0.12203505635261536,
        0.12041135877370834,
        0.09723049402236938,
        -0.10512488335371017,
        0.033115338534116745,
        0.021019861102104187,
        0.07451269775629044,
        -0.23402684926986694,
        -0.09197955578565598,
        -0.062306080013513565,
        0.24369283020496368,
        -0.13250991702079773,
        -0.04291204735636711,
        -0.30934378504753113,
        0.2673589587211609,
        -0.0315546914935112,
        0.3359799087047577,
        -0.23535732924938202,
        0.021203381940722466,
        0.2952568531036377,
        -0.1803990751504898,
        0.17722679674625397,
        0.11449984461069107,
        -0.26138439774513245,
        -0.10660061240196228,
        -0.17326903343200684,
        0.26622065901756287,
        -0.057460855692625046,
        0.24116268754005432,
        -0.19613970816135406,
        -0.08776996284723282,
        -0.10952898859977722,
        0.006888670846819878,
        0.05973387137055397,
        0.334587961435318,
        -0.179520845413208,
        0.05893842875957489,
        -0.24944478273391724,
        0.2580937445163727,
        -0.09132135659456253,
        0.1859680563211441,
        -0.15378805994987488,
        0.09388499706983566,
        0.2537057101726532,
        -0.03816036880016327,
        0.03553607314825058,
        0.21321940422058105,
        -0.02062956988811493,
        0.02013162150979042,
        0.3448006808757782,
        -0.22187726199626923,
        0.03454285115003586,
        0.19903342425823212,
        -0.0676022469997406,
        0.0375593863427639,
        -0.24741727113723755,
        0.08397894352674484,
        -0.20263855159282684,
        0.17874574661254883,
        -0.16753122210502625,
        0.09892474859952927,
        -0.1286582499742508,
        0.24566538631916046,
        -0.17419493198394775,
        0.07676120847463608,
        -0.012009096331894398,
        -0.29899856448173523,
        0.238119438290596,
        -0.0957644060254097,
        -0.2528129518032074,
        0.2708815038204193,
        -0.23285190761089325,
        0.225606307387352,
        -0.2801661789417267,
        0.10504744201898575,
        -0.1901950240135193,
        0.26771441102027893,
        -0.27270108461380005,
        0.28006431460380554,
        -0.2241799682378769,
        0.04405774176120758,
        -0.30859655141830444,
        0.08390028774738312,
        0.027889057993888855,
        0.16363486647605896,
        -0.18783122301101685,
        0.15814949572086334,
        -0.10029146075248718,
        0.3135981857776642,
        -0.00785038061439991,
        -0.31333988904953003,
        0.15941865742206573,
        -0.21281735599040985,
        -0.27192530035972595,
        0.24308763444423676,
        0.021169161424040794,
        -0.30490317940711975,
        0.3015294373035431,
        -0.18559463322162628,
        -0.20896270871162415,
        0.328637033700943,
        -0.1373586356639862,
        0.24247682094573975,
        -0.34196752309799194,
        0.25917190313339233,
        -0.27169737219810486,
        -0.20854565501213074,
        0.3195773959159851,
        0.19113047420978546,
        0.01645728386938572,
        -0.21970678865909576,
        -0.17251475155353546,
        -0.17496703565120697,
        0.2891790270805359,
        -0.16431096196174622,
        -0.03701351583003998,
        0.1471841186285019,
        -0.31226828694343567,
        -0.17410434782505035,
        0.1223425418138504,
        0.26320236921310425,
        0.22374320030212402,
        -0.10909942537546158,
        -0.1616707444190979,
        -0.033205121755599976,
        0.1560937464237213,
        0.3954772353172302,
        0.07239539176225662,
        -0.32130515575408936,
        -0.24399730563163757,
        -0.017049778252840042,
        0.11663654446601868,
        0.4137195646762848,
        0.17007337510585785,
        -0.3438992202281952,
        -0.30633121728897095,
        0.0012096697464585304,
        0.11701030284166336,
        -0.3176935315132141,
        -0.06385847181081772,
        0.1228872537612915,
        -0.21093475818634033,
        -0.0592411532998085,
        0.31120193004608154,
        -0.3853754699230194,
        0.012917676940560341,
        0.1440466046333313,
        -0.13693489134311676,
        -0.26142430305480957,
        0.09979938715696335,
        0.4105774164199829,
        0.12304307520389557,
        -0.294558048248291,
        -0.021483974531292915,
        -0.06294459849596024,
        -0.01802094466984272,
        -0.1839868128299713,
        0.024353615939617157,
        0.07777427136898041,
        0.04301682859659195,
        0.06032629683613777,
        0.11590370535850525,
        0.1320492923259735,
        -0.023364730179309845,
        -0.07089131325483322,
        0.0016075123567134142,
        -0.06245223432779312,
        -0.00984792411327362,
        0.04479798302054405,
        0.5020010471343994,
        -0.31693732738494873,
        0.8029965758323669,
        -0.6324299573898315,
        -0.12171321362257004,
        0.8763500452041626,
        0.9048000574111938,
        -0.5874351859092712,
        0.1544521301984787,
        0.0632699728012085,
        -0.5880277156829834,
        -0.4776902198791504,
        0.20420554280281067,
        -0.586696982383728,
        0.27582576870918274,
        0.22131164371967316,
        -0.09146342426538467,
        0.2153894156217575,
        -0.021716218441724777,
        0.10912563651800156,
        0.22490763664245605,
        -0.08137316256761551,
        0.11357219517230988,
        0.010413141921162605,
        -0.054605625569820404,
        -0.042705241590738297,
        0.04045993834733963,
        -0.16907626390457153,
        0.07477683573961258,
        0.033649057149887085,
        0.22864800691604614,
        0.053296804428100586,
        0.1521698534488678,
        -0.07033078372478485,
        -0.19919182360172272,
        0.1000715047121048,
        -0.13326279819011688,
        0.01001854706555605,
        -0.1310696303844452,
        -0.06594537198543549,
        0.02825201489031315,
        0.16887228190898895,
        -0.27013760805130005,
        -0.2890714406967163,
        -0.0017785554518923163,
        -0.033030860126018524,
        0.05739770084619522,
        -0.03240656480193138,
        0.3367273509502411,
        0.3214387595653534,
        0.03841933235526085,
        0.3026162385940552,
        -0.20511378347873688,
        -0.06716865301132202,
        0.04538023844361305,
        -0.3521193265914917,
        -0.14543895423412323,
        -0.25264742970466614,
        0.08312730491161346,
        -0.46539825201034546,
        0.1912466585636139,
        0.49152126908302307,
        0.1428772211074829,
        -0.10090405493974686,
        0.09253513067960739,
        -0.2386292666196823,
        -0.09204145520925522,
        -0.24569518864154816,
        0.02807431109249592,
        0.03760642185807228,
        0.015467729419469833,
        0.11608725041151047,
        -0.14111700654029846,
        0.07759006321430206,
        0.01570965349674225,
        0.03560807555913925,
        0.07353644073009491,
        0.14732235670089722,
        -0.2476489394903183,
        0.03174872323870659,
        -0.0028583745006471872,
        -0.21373245120048523,
        -0.21573536098003387,
        0.18281769752502441,
        0.13671308755874634,
        0.1420687437057495,
        0.14377418160438538,
        -0.3042154312133789,
        0.07812091708183289,
        0.24031135439872742,
        -0.16906499862670898,
        0.2867560386657715,
        0.05986122414469719,
        0.1781005561351776,
        -0.3007214665412903,
        0.11408359557390213,
        -0.40872785449028015,
        -0.17622005939483643,
        0.019258197396993637,
        -0.004702865146100521,
        0.28927502036094666,
        0.1598215252161026,
        0.25046899914741516,
        0.20840205252170563,
        0.2174757719039917,
        0.04959467425942421,
        -0.11257597804069519,
        0.13495288789272308,
        -0.05049455910921097,
        -0.2776496708393097,
        0.04633817449212074,
        0.1703260987997055,
        -0.0050445846281945705,
        0.08504204452037811,
        0.36186927556991577,
        0.14771723747253418,
        -0.2881231904029846,
        -0.1317434459924698,
        0.1146298497915268,
        0.05123959854245186,
        0.11635778844356537,
        -0.27601832151412964,
        -0.397473007440567,
        0.07793470472097397,
        0.1394258290529251,
        -0.29218342900276184,
        0.03700920194387436,
        -0.3382091522216797,
        0.227234348654747,
        0.1262671947479248,
        0.2624469995498657,
        -0.21636714041233063,
        -0.28890904784202576,
        0.20047414302825928,
        0.2436976283788681,
        0.05196593329310417,
        0.1217247024178505,
        -0.19799034297466278,
        0.14508530497550964,
        -0.3260609805583954,
        0.10104912519454956,
        -0.14156414568424225,
        -0.07438241690397263,
        0.035166118294000626,
        -0.20502761006355286,
        -0.07704555988311768,
        -0.280641108751297,
        -0.2421671450138092,
        0.05739988014101982,
        -0.2743677794933319,
        -0.194133460521698,
        -0.002642265288159251,
        -0.19335447251796722,
        -0.23504656553268433,
        0.19683538377285004,
        0.35862991213798523,
        -0.04500066488981247,
        -0.21674862504005432,
        -0.012539589777588844,
        -0.04550189897418022,
        -0.4323366582393646,
        -0.137991264462471,
        0.26547178626060486,
        -0.3437504172325134,
        -0.12465575337409973,
        0.05051690340042114,
        0.2821308672428131,
        0.024601513519883156,
        0.1333572119474411,
        0.294320285320282,
        0.23885568976402283,
        0.21645569801330566,
        0.20091529190540314,
        -0.016951672732830048,
        -0.08308646827936172,
        0.1572340428829193,
        0.2592746615409851,
        0.31008046865463257,
        -0.21439430117607117,
        0.1743917018175125,
        -0.09617020189762115,
        -0.17583461105823517,
        0.023153087124228477,
        -0.13402149081230164,
        0.008086174726486206,
        -0.20847713947296143,
        -0.2649764120578766,
        -0.1541064828634262,
        -0.11384275555610657,
        0.23714329302310944,
        0.02028452232480049,
        0.1169193685054779,
        0.21786603331565857,
        0.06143302470445633,
        0.09877727925777435,
        0.1376602202653885,
        -0.12083255499601364,
        -0.09029016643762589,
        -0.12347298860549927,
        -0.22694215178489685,
        -0.0791570246219635,
        -0.3335355520248413,
        -0.2506290674209595,
        -0.29329824447631836,
        -0.09194313734769821,
        0.2981885075569153,
        -0.36962583661079407,
        -0.38742440938949585,
        -0.316886842250824,
        -0.18390899896621704,
        -0.03271869197487831,
        0.004875447601079941,
        0.11670026928186417,
        -0.38388219475746155,
        -0.02857271581888199,
        0.2034338116645813,
        0.22792783379554749,
        -0.015987098217010498,
        0.026164671406149864,
        0.5652850270271301,
        0.1611478626728058,
        -0.3118826746940613,
        -0.2483537346124649,
        0.1922338455915451,
        -0.05207125470042229,
        -0.15386761724948883,
        -0.18191483616828918,
        0.20255403220653534,
        -0.14318890869617462,
        -0.0011011288734152913,
        0.11226624995470047,
        0.011589202098548412,
        -0.07652106881141663,
        -0.1888999044895172,
        0.03042331337928772,
        0.22572188079357147,
        -0.1870480477809906,
        -0.0005061306292191148,
        -0.3615874648094177,
        -0.005908808670938015,
        -0.12816448509693146,
        0.3191528618335724,
        -0.06317754089832306,
        -0.08222516626119614,
        0.22106140851974487,
        -0.020492715761065483,
        0.23364271223545074,
        0.14801624417304993,
        -0.34185996651649475,
        0.14055530726909637,
        0.23364725708961487,
        0.09928738325834274,
        0.34589603543281555,
        0.25101369619369507,
        -0.09211589395999908,
        0.16479294002056122,
        0.3422847390174866,
        0.12959064543247223,
        0.4036162197589874,
        -0.1873820722103119,
        0.009608538821339607,
        0.5155515074729919,
        0.256107360124588,
        0.3203951418399811,
        -0.05175896733999252,
        -0.0226611141115427,
        0.16662944853305817,
        -0.48042353987693787,
        0.22661128640174866,
        0.19293582439422607,
        0.46324893832206726,
        0.22398771345615387,
        0.03748929128050804,
        -0.027385566383600235,
        0.20244622230529785,
        -0.1222071647644043,
        -0.12788714468479156,
        -0.029188308864831924,
        0.0861121416091919,
        -0.02214641496539116,
        0.033274512737989426,
        -0.1201690137386322,
        0.10007087886333466,
        -0.04025361314415932,
        0.015976063907146454,
        0.1481747329235077,
        0.007657357957214117,
        -0.09063548594713211,
        0.03372417390346527,
        0.06622231006622314,
        -0.08702738583087921,
        0.22624711692333221,
        -0.01576964184641838,
        0.11008665710687637,
        -0.03955980762839317,
        -0.04523569345474243,
        -0.03799506276845932,
        -0.29066064953804016,
        -0.07177986949682236,
        -0.11344946920871735,
        -0.21514903008937836,
        -0.2213708758354187,
        -0.08063408732414246,
        0.250900000333786,
        0.08914694935083389,
        0.19342033565044403,
        0.09434039890766144,
        -0.08521326631307602,
        0.17814597487449646,
        0.22130605578422546,
        0.07864464819431305,
        -0.018560420721769333,
        -0.246745303273201,
        0.15866592526435852,
        0.0009545271750539541,
        -0.15855072438716888,
        0.11870896071195602,
        -0.029480617493391037,
        -0.165949285030365,
        -0.1336500197649002,
        -0.05139187350869179,
        -0.2693271040916443,
        -0.34991031885147095,
        -0.1546948254108429,
        -0.48511889576911926,
        0.08219786733388901,
        0.09147065132856369,
        -0.14079822599887848,
        0.010360374115407467,
        -0.1021406501531601,
        -0.36822235584259033,
        0.17407812178134918,
        -0.09897375106811523,
        0.2069265991449356,
        0.10599538683891296,
        -0.04674563184380531,
        -0.08359649032354355,
        0.11555785685777664,
        0.1872628927230835,
        -0.11825782805681229,
        -0.016609137877821922,
        -0.02174835279583931,
        -0.06216510385274887,
        -0.08041270077228546,
        0.3069353699684143,
        -0.13400322198867798,
        0.15526129305362701,
        -0.034234270453453064,
        0.03537481650710106,
        -0.1797858625650406,
        0.10907264798879623,
        -0.09805549681186676,
        -0.058870915323495865,
        -0.20874179899692535,
        0.12275191396474838,
        -0.214382603764534,
        0.019628651440143585,
        0.21807660162448883,
        -0.08457805216312408,
        -0.11509662121534348,
        -0.22588792443275452,
        0.18580695986747742,
        -0.09704437851905823,
        0.11156737804412842,
        0.13927386701107025,
        -0.22837616503238678,
        0.02667214907705784,
        -0.023957619443535805,
        0.18884870409965515,
        -0.08536843955516815,
        -0.2038835734128952,
        0.31399038434028625,
        -0.322994589805603,
        0.34760990738868713,
        -0.0033369259908795357,
        -0.0677313581109047,
        0.03316063806414604,
        0.0916946679353714,
        -0.15706978738307953,
        0.09736853092908859,
        0.013165650889277458,
        0.12689082324504852,
        0.19923155009746552,
        -0.22437240183353424,
        -0.11610464751720428,
        0.09396378695964813,
        -0.04923168942332268,
        0.16874252259731293,
        0.2120445817708969,
        -0.09022367000579834,
        -0.11620984971523285,
        0.07212795317173004,
        0.04752969741821289,
        0.07410978525876999,
        0.0009982326300814748,
        -0.11085066199302673,
        0.12493803352117538,
        -0.020088978111743927,
        0.12549912929534912,
        0.04619375988841057,
        0.11036039143800735,
        0.10453952848911285,
        0.13172616064548492,
        -0.2204580008983612,
        -0.11741290241479874,
        -0.04753320664167404,
        -0.08712272346019745,
        0.0972500592470169,
        0.09278072416782379,
        -0.017019884660840034,
        0.12469755858182907,
        -0.04595337063074112,
        0.12182581424713135,
        -0.14480452239513397,
        -0.21709857881069183,
        -0.1780647188425064,
        0.10620582103729248,
        0.03360661491751671,
        -0.14679378271102905,
        0.12600556015968323,
        0.1237809807062149,
        -0.03420829772949219,
        -0.008230465464293957,
        0.04111052677035332,
        -0.05046156421303749,
        0.11051640659570694,
        -0.14935727417469025,
        0.28270238637924194,
        0.11047131568193436,
        -0.21997562050819397,
        0.21846580505371094,
        0.06733004003763199,
        -0.07062215358018875,
        0.19807498157024384,
        -0.371181845664978,
        -0.07380849868059158,
        -0.018501948565244675,
        -0.04327264055609703,
        0.09851896017789841,
        0.010561235249042511,
        -0.28500935435295105,
        0.07761546224355698,
        0.14363786578178406,
        -0.17969034612178802,
        -0.029105547815561295,
        -0.13703171908855438,
        -0.017212575301527977,
        -0.10459499061107635,
        0.022068483754992485,
        0.037910860031843185,
        0.10358864814043045,
        0.07125479727983475,
        0.06863653659820557,
        -0.14827361702919006,
        0.062211886048316956,
        0.08841504901647568,
        -0.0023624373134225607,
        -0.22458595037460327,
        0.13782893121242523,
        0.12469680607318878,
        -0.1529848277568817,
        0.026632849127054214,
        0.12145914137363434,
        -0.045974500477313995,
        -0.08102284371852875,
        0.15052317082881927,
        0.12741032242774963,
        0.20283085107803345,
        0.07051748037338257,
        -0.08007568120956421,
        0.11642218381166458,
        0.06633929163217545,
        -0.21982452273368835,
        -0.0747511088848114,
        -0.041574157774448395,
        0.17983844876289368,
        -0.045063190162181854,
        0.08346496522426605,
        0.2452617585659027,
        -0.08134692162275314,
        -0.12325523793697357,
        0.07754706591367722,
        -0.03540770709514618,
        0.24392004311084747,
        0.06685401499271393,
        0.07880085706710815,
        -0.2988654673099518,
        -0.09566714614629745,
        -0.021898644044995308,
        -0.2006712406873703,
        0.11580973863601685,
        0.08470837771892548,
        -0.07536110281944275,
        -0.002049744129180908,
        -0.022457987070083618,
        0.08027240633964539,
        0.25347238779067993,
        -0.13384272158145905,
        0.16067196428775787,
        -0.27794158458709717,
        0.028542958199977875,
        0.19397079944610596,
        0.11233463138341904,
        0.05257323756814003,
        0.0062619466334581375,
        0.36828574538230896,
        0.003174923826009035,
        0.02878001146018505,
        0.05109482258558273,
        -0.07163888961076736,
        -0.08403526991605759,
        -0.24490627646446228,
        0.0603996217250824,
        -0.27045997977256775,
        -0.16730672121047974,
        0.2185291349887848,
        -0.36251774430274963,
        0.2348988652229309,
        0.01661948300898075,
        -0.05543553829193115,
        -0.032204769551754,
        0.10817881673574448,
        -0.17747457325458527,
        0.2330668866634369,
        -0.20622828602790833,
        0.215585857629776,
        0.133186936378479,
        -0.1255521923303604,
        -0.041633203625679016,
        0.07471630722284317,
        -0.1418299674987793,
        -0.23446860909461975,
        0.019108014181256294,
        -0.09132997691631317,
        0.13532432913780212,
        0.012648309580981731,
        0.12966054677963257,
        0.0010479328921064734,
        0.0917021855711937,
        0.04862735792994499,
        -0.04185830056667328,
        0.022480962797999382,
        0.05624067410826683,
        -0.12064363062381744,
        -0.09150631725788116,
        -0.06593810021877289,
        0.12014839053153992,
        -0.20313499867916107,
        -0.018303435295820236,
        -0.043387673795223236,
        -0.1907951384782791,
        0.08160706609487534,
        0.21048285067081451,
        0.3019392788410187,
        0.06103973090648651,
        -0.04325655475258827,
        -0.04447551071643829,
        -0.10372013598680496,
        0.33659815788269043,
        0.09025432914495468,
        0.1452433317899704,
        0.4028490483760834,
        -0.15162259340286255,
        0.16841061413288116,
        0.054858364164829254,
        0.33211979269981384,
        0.17146238684654236,
        0.0434456542134285,
        -0.07550308108329773,
        0.1514643281698227,
        -0.0868462473154068,
        0.2598572373390198,
        -0.09772204607725143,
        -0.20599424839019775,
        -0.05652131885290146,
        -0.09581290185451508,
        -0.05495055019855499,
        0.2680606544017792,
        0.04122766852378845,
        0.15433435142040253,
        0.15623867511749268,
        0.019575048238039017,
        -0.17209170758724213,
        -0.062262438237667084,
        0.14897780120372772,
        -0.07011965662240982,
        -0.09548966586589813,
        -0.10276978462934494,
        -0.23264619708061218,
        0.0006392900249920785,
        -0.13334229588508606,
        0.3691916763782501,
        0.1616559624671936,
        0.09654182195663452,
        0.2074890285730362,
        -0.018987486138939857,
        0.20827935636043549,
        0.15553592145442963,
        0.14977304637432098,
        -0.059841983020305634,
        -0.005593730136752129,
        -0.07296127080917358,
        0.10199107974767685,
        0.15054604411125183,
        0.054571881890296936,
        0.0028005444910377264,
        -0.10087602585554123,
        -0.09001574665307999,
        0.11299417912960052,
        -0.3188229203224182,
        -0.06378176808357239,
        -0.0752657875418663,
        0.014078919775784016,
        0.0929127186536789,
        0.2854668200016022,
        -0.046262845396995544,
        0.09382462501525879,
        -0.05552595108747482,
        -0.24728290736675262,
        0.05356071516871452,
        -0.16389869153499603,
        -0.016798485070466995,
        0.016545724123716354,
        -0.12895530462265015,
        -0.012281982228159904,
        0.08907650411128998,
        0.023396864533424377,
        0.07558675855398178,
        -0.03181707486510277,
        0.006321881897747517,
        -0.19640934467315674,
        0.08226250857114792,
        0.13255198299884796,
        -0.18916864693164825,
        -0.1668357402086258,
        -0.160394087433815,
        -0.13114884495735168,
        -0.19527220726013184,
        -0.23142683506011963,
        0.3887881934642792,
        -0.07217513769865036,
        -0.05492859706282616,
        0.01700909063220024,
        0.009106499142944813,
        0.18349312245845795,
        0.23726977407932281,
        -0.030921461060643196,
        -0.013268755748867989,
        -0.04960149526596069,
        -0.1185142993927002,
        0.23075571656227112,
        0.18285943567752838,
        0.039782196283340454,
        -0.07880836725234985,
        -0.10341161489486694,
        -0.07406828552484512,
        0.03977294638752937,
        -0.3309781551361084,
        -0.05034282058477402,
        0.040512632578611374,
        -0.12476509809494019,
        -0.10645176470279694,
        -0.04063485190272331,
        -0.15109196305274963,
        0.02928813546895981,
        -0.04128037020564079,
        0.14592717587947845,
        0.029255760833621025,
        -0.14160685241222382,
        0.06023062765598297,
        -0.010257197543978691,
        -0.05421244725584984,
        0.07868298143148422,
        0.2688043713569641,
        -0.00015980757598299533,
        -0.2299962192773819,
        -0.2565619945526123,
        -0.22804784774780273,
        0.18537744879722595,
        0.05818028748035431,
        0.12956121563911438,
        0.16589580476284027,
        0.019915247336030006,
        -0.10069529712200165,
        0.16705961525440216,
        0.09351877868175507,
        0.05498620495200157,
        -0.25061309337615967,
        0.10540483891963959,
        0.05545724183320999,
        0.06078730523586273,
        -0.06051746755838394,
        -0.050614386796951294,
        -0.32949015498161316,
        -0.09024758636951447,
        0.14845457673072815,
        0.11660060286521912,
        -0.17397332191467285,
        0.01745559647679329,
        -0.05077571049332619,
        0.11840024590492249,
        -0.11222418397665024,
        0.18398523330688477,
        -0.0750662088394165,
        -0.1227291077375412,
        0.1131419837474823,
        -0.05815465375781059,
        0.07238555699586868,
        0.25650182366371155,
        0.14008545875549316,
        -0.04842793568968773,
        0.0681152492761612,
        -0.1028652936220169,
        -0.19498009979724884,
        -0.03776831924915314,
        0.013990511186420918,
        0.16358159482479095,
        -0.22074493765830994,
        -0.001991001656278968,
        -0.003934989217668772,
        0.23182111978530884,
        0.08984986692667007,
        -0.007808709051460028,
        -0.05127733200788498,
        0.1492818146944046,
        0.03762605041265488,
        -0.1317877322435379,
        -0.03055889718234539,
        0.08128371834754944,
        -0.04492080584168434,
        0.12027761340141296,
        0.004625058267265558,
        0.06993452459573746,
        -0.06464787572622299,
        -0.0019057797035202384,
        -0.07785799354314804,
        -0.00987459346652031,
        -0.009204025380313396,
        0.025212204083800316,
        0.07925553619861603,
        0.17274175584316254,
        -0.024324139580130577,
        0.07353027164936066,
        0.044486843049526215,
        -0.0652766078710556,
        0.09516019374132156,
        -0.022241277620196342,
        -0.059469256550073624,
        -0.026606569066643715,
        0.020531848073005676,
        -0.051281001418828964,
        0.0033199216704815626,
        0.19420717656612396,
        0.030798371881246567,
        -0.1125999167561531,
        0.07140514254570007,
        -0.13739746809005737,
        -0.14452438056468964,
        0.024950461462140083,
        -0.21744993329048157,
        -0.009836570359766483,
        0.07884550839662552,
        0.1452198624610901,
        -0.2813780903816223,
        0.14908838272094727,
        0.17893436551094055,
        0.12997406721115112,
        -0.1259460747241974,
        0.035385895520448685,
        -0.08400313556194305,
        -0.18952630460262299,
        -0.26011958718299866,
        -0.0021468012128025293,
        -0.09811751544475555,
        0.2448718249797821,
        0.011852365918457508,
        -0.013493809849023819,
        -0.08444643765687943,
        -0.017286479473114014,
        -0.04313519224524498,
        -0.07185832411050797,
        -0.04318862035870552,
        -0.24339278042316437,
        -0.1835526078939438,
        -0.00429676054045558,
        0.12285558134317398,
        -0.04858040064573288,
        0.19370438158512115,
        0.17434853315353394,
        -0.23443089425563812,
        -0.025286627933382988,
        0.20960655808448792,
        0.0021940518636256456,
        0.10255511850118637,
        0.08844097703695297,
        -0.18478809297084808,
        -0.19049730896949768,
        0.04390173777937889,
        0.38871318101882935,
        0.046908847987651825,
        -0.17649394273757935,
        0.26040762662887573,
        0.12320875376462936,
        -0.1740065962076187,
        0.12512174248695374,
        0.3345876634120941,
        0.011762335896492004,
        0.1767321228981018,
        0.06567707657814026,
        -0.0028584133833646774,
        0.1697004735469818,
        -0.07914899289608002,
        -0.25191599130630493,
        -0.2345937341451645,
        -0.45542144775390625,
        0.020792359486222267,
        0.1044122651219368,
        -0.013735239394009113,
        -0.11004474014043808,
        -0.07231707870960236,
        -0.17331290245056152,
        -0.23303765058517456,
        0.29473426938056946,
        0.21286994218826294,
        0.007491801865398884,
        0.09611166268587112,
        0.07729332149028778,
        -0.03439445048570633,
        0.05181014537811279,
        0.0428442507982254,
        -0.108780637383461,
        -0.4324672520160675,
        0.030460752546787262,
        0.20934247970581055,
        0.05463824048638344,
        -0.11474433541297913,
        0.01955963298678398,
        -0.2000826895236969,
        0.06430606544017792,
        0.2305033951997757,
        0.2748543322086334,
        -0.02865973301231861,
        -0.18358398973941803,
        -0.4003797769546509,
        0.06608898192644119,
        0.059421755373477936,
        0.4048355519771576,
        0.14891372621059418,
        -0.25232499837875366,
        0.2381344735622406,
        0.09797990322113037,
        -0.160451740026474,
        -0.04890579730272293,
        0.017127232626080513,
        -0.04157436266541481,
        0.2760850787162781,
        0.06961526721715927,
        -0.14532549679279327,
        0.02471047081053257,
        0.14052870869636536,
        -0.08839694410562515,
        -0.42364880442619324,
        -0.06473128497600555,
        0.20572085678577423,
        -0.07592064887285233,
        0.19549481570720673,
        -0.14034602046012878,
        0.007728988770395517,
        -0.004159098491072655,
        -0.09411374479532242,
        0.19729411602020264,
        0.1041405126452446,
        -0.07720054686069489,
        0.042759381234645844,
        0.03195687383413315,
        -0.15808501839637756,
        0.14954103529453278,
        -0.1545180380344391,
        -0.1845823973417282,
        -0.17840170860290527,
        -0.10953807085752487,
        0.17212550342082977,
        -0.017050961032509804,
        -0.062200553715229034,
        0.09152037650346756,
        -0.16907846927642822,
        -0.07068008929491043,
        0.16706112027168274,
        -0.03781885653734207,
        0.10987469553947449,
        -0.08782326430082321,
        -0.09503244608640671,
        0.06848713010549545,
        -0.10096074640750885,
        0.25245219469070435,
        0.13963326811790466,
        -0.006374625954777002,
        0.2615866959095001,
        -0.24042750895023346,
        0.0005386426928453147,
        0.13855169713497162,
        -0.037765707820653915,
        -0.0630960613489151,
        0.024259163066744804,
        -0.037353917956352234,
        -0.14173740148544312,
        0.1237378865480423,
        -0.07296854257583618,
        -0.10795314610004425,
        0.03386743739247322,
        0.17714156210422516,
        0.056170061230659485,
        0.25463709235191345,
        -0.08291469514369965,
        -0.00557289645075798,
        -0.08094577491283417,
        0.10041563212871552,
        0.2105596363544464,
        0.10290715098381042,
        0.06345352530479431,
        0.17234431207180023,
        0.019754188135266304,
        0.030718689784407616,
        0.09754707664251328,
        -0.07732564210891724,
        0.10705964267253876,
        0.12049698084592819,
        -0.08282951265573502,
        -0.24155472218990326,
        -0.29517415165901184,
        -0.06867191940546036,
        0.18100906908512115,
        0.18196998536586761,
        0.08006028831005096,
        -0.08883026987314224,
        -0.16040483117103577,
        0.04466165974736214,
        -0.17077304422855377,
        0.2346770316362381,
        0.13983961939811707,
        -0.27626118063926697,
        0.06242175027728081,
        -0.03410863131284714,
        0.22911161184310913,
        0.09876146167516708,
        -0.13082142174243927,
        0.3467710316181183,
        0.07849281281232834,
        0.004590544383972883,
        -0.2838667333126068,
        0.03715382516384125,
        0.05920327454805374,
        0.13736817240715027,
        -0.06001434475183487,
        0.32896777987480164,
        -0.034435950219631195,
        -0.25762686133384705,
        0.05308901146054268,
        -0.167249396443367,
        -0.026078656315803528,
        -0.10645226389169693,
        0.18053428828716278,
        -0.34107592701911926,
        0.05517696589231491,
        0.28589361906051636,
        -0.052435941994190216,
        -0.11979624629020691,
        0.06784559041261673,
        -0.020462781190872192,
        -0.017645392566919327,
        -0.019692692905664444,
        -0.05105510354042053,
        -0.024628646671772003,
        0.03621608763933182,
        0.10555294901132584,
        0.08873111009597778,
        -0.06047951430082321,
        -0.047624241560697556,
        -0.08900460600852966,
        0.14085620641708374,
        0.11437182873487473,
        0.03705710545182228,
        0.002193884225562215,
        -0.09760493040084839,
        0.07678063958883286,
        -0.058987054973840714,
        0.01267916802316904,
        -0.04280329868197441,
        -0.004645177628844976,
        0.0716954842209816,
        0.048695389181375504,
        0.08549100160598755,
        0.09382585436105728,
        0.13624101877212524,
        -0.056803297251462936,
        0.036331359297037125,
        -0.0548698827624321,
        -0.1470494568347931,
        0.025118693709373474,
        -0.17524860799312592,
        -0.11677759885787964,
        -0.0060872528702020645,
        -0.13976657390594482,
        -0.11645042896270752,
        -0.26430535316467285,
        0.2552611529827118,
        0.13247723877429962,
        -0.10093700140714645,
        -0.02453848533332348,
        -0.0327024906873703,
        -0.22273536026477814,
        -0.03558472543954849,
        0.04448681324720383,
        0.028004785999655724,
        0.11650901287794113,
        0.03341488912701607,
        0.023624103516340256,
        0.15330791473388672,
        0.08563421666622162,
        -0.12954427301883698,
        0.04681062698364258,
        0.03719417005777359,
        0.06034955382347107,
        -0.19927425682544708,
        -0.13845379650592804,
        0.053061459213495255,
        -0.06614319980144501,
        0.09253542870283127,
        -0.1979047656059265,
        -0.07768580317497253,
        -0.1663898080587387,
        -0.04512368142604828,
        -0.057774126529693604,
        -0.03721187263727188,
        -0.17483308911323547,
        -0.12729911506175995,
        0.13385604321956635,
        0.18901149928569794,
        0.14682406187057495,
        0.09014631062746048,
        -0.17886948585510254,
        0.10723450779914856,
        -0.026905247941613197,
        0.03257869929075241,
        0.03530534356832504,
        -0.032116759568452835,
        -0.02950485236942768,
        0.04976034536957741,
        0.12544651329517365,
        -0.14968377351760864,
        0.20893700420856476,
        -0.17880724370479584,
        0.0016212471527978778,
        0.027960892766714096,
        0.09343384206295013,
        0.15249744057655334,
        0.25316092371940613,
        0.09261909127235413,
        -0.01439783163368702,
        0.086428202688694,
        -0.1164444088935852,
        0.1475672870874405,
        0.27674850821495056,
        0.2556596100330353,
        -0.08081047981977463,
        -0.03813758119940758,
        0.10691098123788834,
        0.09891602396965027,
        0.1495262086391449,
        0.04864630103111267,
        0.03262510150671005,
        -0.0905546322464943,
        -0.24764645099639893,
        0.05205931514501572,
        0.4761286675930023,
        -0.4430675804615021,
        0.24275143444538116,
        -0.8251565098762512,
        -0.3132650554180145,
        -0.37075865268707275,
        0.8874699473381042,
        -1.1883246898651123,
        -0.4814218282699585,
        -0.7429177165031433,
        0.2722090184688568,
        -0.9367862939834595,
        0.4096131920814514,
        -0.6343722939491272,
        -0.06415127962827682,
        -0.13321763277053833,
        0.13191527128219604,
        0.41021567583084106,
        0.26343971490859985,
        0.05099666863679886,
        -0.24351301789283752,
        -0.10792790353298187,
        -0.15787625312805176,
        -0.1418183445930481,
        0.10637921094894409,
        0.044244587421417236,
        0.3551570177078247,
        -0.12832777202129364,
        0.1875969022512436,
        0.030057726427912712,
        -0.05159582942724228,
        -0.10701000690460205,
        -0.17936637997627258,
        0.16754260659217834,
        -0.30761030316352844,
        0.18253818154335022,
        -0.17847664654254913,
        -0.3361268937587738,
        0.3705129623413086,
        -0.09652987867593765,
        0.24924114346504211,
        0.46468567848205566,
        0.28923603892326355,
        -0.044308293610811234,
        0.21067394316196442,
        0.3256831467151642,
        -0.08748601377010345,
        0.010773984715342522,
        -0.09091472625732422,
        0.23468120396137238,
        0.12424510717391968,
        0.07319144904613495,
        -0.13890621066093445,
        0.07047989964485168,
        -0.08629859983921051,
        0.09778517484664917,
        -0.301547646522522,
        -0.25516605377197266,
        0.24054770171642303,
        -0.02307116985321045,
        0.3472873568534851,
        0.12172604352235794,
        0.12858757376670837,
        0.026101958006620407,
        -0.5551897287368774,
        0.041328247636556625,
        -0.20745591819286346,
        -0.15792766213417053,
        -0.16461747884750366,
        -0.11111841350793839,
        -0.061224762350320816,
        0.16007205843925476,
        0.0637533962726593,
        0.31023940443992615,
        0.3488392233848572,
        -0.35957902669906616,
        0.04533926770091057,
        0.1639360785484314,
        0.36773642897605896,
        -0.06122468784451485,
        -0.035653021186590195,
        0.10180871933698654,
        0.03306415677070618,
        -0.07870570570230484,
        0.026423698291182518,
        0.3467813730239868,
        0.08192217350006104,
        0.0986538827419281,
        -0.0010843256022781134,
        0.3873920440673828,
        0.06426952034235,
        0.20252776145935059,
        0.0114595303311944,
        -0.1697216033935547,
        -0.12807674705982208,
        -0.24332115054130554,
        -0.2892374098300934,
        -0.016749368980526924,
        -0.07532163709402084,
        -0.14615358412265778,
        0.0903293713927269,
        0.04128720238804817,
        0.039882779121398926,
        0.24540552496910095,
        0.02853497676551342,
        -0.0805780291557312,
        -0.2424475997686386,
        0.18212838470935822,
        0.11977288872003555,
        -0.04661604389548302,
        -0.020157532766461372,
        0.07332031428813934,
        0.2120322734117508,
        -0.3129657506942749,
        0.2083083838224411,
        0.20284074544906616,
        -0.3017064332962036,
        -0.3167436122894287,
        0.3854028284549713,
        -0.1414526104927063,
        -0.218491330742836,
        -0.016570542007684708,
        0.014759124256670475,
        -0.2907607853412628,
        -0.29773014783859253,
        0.1492365151643753,
        0.1669827401638031,
        -0.01450923178344965,
        0.042673997581005096,
        0.06952044367790222,
        0.10420415550470352,
        -0.03578023239970207,
        -0.08830486983060837,
        0.030047979205846786,
        0.017440488561987877,
        0.2661154568195343,
        -0.20743995904922485,
        -0.036722928285598755,
        -0.11164821684360504,
        0.04012008383870125,
        0.17479000985622406,
        0.05307016149163246,
        -0.054798759520053864,
        0.03902119770646095,
        -0.14937947690486908,
        -0.028540605679154396,
        -0.22831889986991882,
        -0.3664603531360626,
        -0.02166878990828991,
        -0.12979301810264587,
        0.07251409441232681,
        0.04099414497613907,
        0.23733234405517578,
        -0.020045170560479164,
        -0.032199226319789886,
        0.09196320921182632,
        -0.06505312770605087,
        0.29196035861968994,
        -0.1441119760274887,
        -0.23617883026599884,
        -0.025150617584586143,
        0.3790619373321533,
        0.03880257532000542,
        -0.17759919166564941,
        0.023190557956695557,
        -0.15382586419582367,
        0.08610187470912933,
        -0.015831846743822098,
        0.15836408734321594,
        0.36334046721458435,
        0.42118391394615173,
        -0.1544521600008011,
        0.30373334884643555,
        -0.044594209641218185,
        -0.12132052332162857,
        -0.11270033568143845,
        -0.17654985189437866,
        0.36952975392341614,
        0.10400478541851044,
        -0.2605805993080139,
        -0.0847238227725029,
        -0.06013347581028938,
        0.21108487248420715,
        0.14049705862998962,
        -0.25638097524642944,
        0.08631526678800583,
        0.2726215720176697,
        -0.2078389823436737,
        0.11415871977806091,
        0.12314271926879883,
        0.1583033949136734,
        0.3028779625892639,
        -0.08581864088773727,
        -0.23211120069026947,
        -0.1161353811621666,
        -0.045112743973731995,
        0.12044920772314072,
        0.24074581265449524,
        -0.25846385955810547,
        0.2373933494091034,
        0.2719475030899048,
        -0.04026155546307564,
        0.11968778818845749,
        -0.20908159017562866,
        -0.2592223584651947,
        -0.1277516782283783,
        -0.13209432363510132,
        -0.4147892892360687,
        -0.3124302923679352,
        -0.020068975165486336,
        -0.04631457105278969,
        0.04368218034505844,
        -0.18530867993831635,
        0.12078436464071274,
        -0.08413127809762955,
        -0.10702767223119736,
        -0.10118438303470612,
        -0.12075061351060867,
        0.0443914569914341,
        -0.0530862994492054,
        -0.14136682450771332,
        0.00652866018936038,
        -0.008676720783114433,
        0.12219193577766418,
        -0.18599925935268402,
        0.11474273353815079,
        -0.1549786627292633,
        0.004166821949183941,
        -0.04277918487787247,
        -0.07345689088106155,
        0.13366198539733887,
        0.20588012039661407,
        0.09086890518665314,
        -0.034106023609638214,
        0.11440305411815643,
        0.2443893551826477,
        -0.1312585324048996,
        -0.0013509602285921574,
        0.13368575274944305,
        0.10067104548215866,
        0.15976643562316895,
        -0.03869912028312683,
        -0.16650791466236115,
        -0.04410013183951378,
        0.3374602198600769,
        0.15723617374897003,
        -0.18649353086948395,
        0.2366809993982315,
        -0.04992029443383217,
        0.22718365490436554,
        0.05172046273946762,
        0.1616428792476654,
        0.27605894207954407,
        0.05025172606110573,
        0.26923736929893494,
        -0.22579318284988403,
        0.10660704225301743,
        0.1647433489561081,
        -0.13376343250274658,
        0.11311950534582138,
        -0.13515448570251465,
        0.194260373711586,
        0.025276005268096924,
        -0.2112196683883667,
        0.2660813331604004,
        0.1886553317308426,
        -0.14858360588550568,
        0.293624609708786,
        0.4451211392879486,
        -0.19372446835041046,
        -0.06251972168684006,
        0.049152493476867676,
        0.04278614744544029,
        -0.08491819351911545,
        -0.24451865255832672,
        -0.002381879836320877,
        0.2916145324707031,
        0.07254905253648758,
        0.13050337135791779,
        0.07946130633354187,
        0.13217566907405853,
        -0.2368985265493393,
        0.08868362754583359,
        -0.1601017862558365,
        -0.2775154113769531,
        -0.20434468984603882,
        0.09048968553543091,
        -0.21462181210517883,
        -0.1606009155511856,
        -0.04077672213315964,
        -0.3024810254573822,
        -0.0761982873082161,
        0.30013027787208557,
        0.37563446164131165,
        0.046561162918806076,
        0.09526664018630981,
        -0.24402673542499542,
        -0.24238397181034088,
        0.02917184680700302,
        -0.07781235128641129,
        -0.0780327171087265,
        0.07436008751392365,
        -0.16189463436603546,
        0.0665392056107521,
        0.12704069912433624,
        0.2190682739019394,
        0.1309213489294052,
        0.14860358834266663,
        0.03508155047893524,
        -0.04349423944950104,
        -0.10589305311441422,
        0.124045729637146,
        -0.01070964615792036,
        0.0782824382185936,
        -0.4347771406173706,
        -0.11071798950433731,
        0.04312855750322342,
        0.034741826355457306,
        -0.1748843938112259,
        -0.03307715058326721,
        0.21402432024478912,
        -0.21590343117713928,
        -0.1171802207827568,
        -0.03370102122426033,
        0.011807109229266644,
        -0.14952942728996277,
        0.10619121044874191,
        -0.07314978539943695,
        0.00638324161991477,
        0.06871221214532852,
        -0.1834554672241211,
        -0.20368030667304993,
        -0.47667208313941956,
        -0.08233609795570374,
        0.01649528183043003,
        0.013336925767362118,
        0.0992710068821907,
        -0.07346775382757187,
        0.1507139950990677,
        -0.19840595126152039,
        0.29134663939476013,
        0.2797650098800659,
        0.22814054787158966,
        -0.0453072190284729,
        -0.055270783603191376,
        -0.1211894303560257,
        0.03224168345332146,
        -0.04019932821393013,
        -0.01040136069059372,
        -0.017808441072702408,
        0.06543181091547012,
        0.007703886833041906,
        0.25484520196914673,
        -0.1981651484966278,
        -0.016584251075983047,
        -0.0017437260830774903,
        0.0008397341589443386,
        0.0986628457903862,
        0.19067254662513733,
        0.06345164775848389,
        -0.21819941699504852,
        0.06963220238685608,
        0.1649044305086136,
        0.1431930512189865,
        0.37640491127967834,
        0.2828296720981598,
        0.06673664599657059,
        -0.2521577477455139,
        -0.0774507224559784,
        -0.16720257699489594,
        0.05191905051469803,
        0.2096426784992218,
        -0.054695915430784225,
        -0.0847214013338089,
        0.010244132950901985,
        -0.26104095578193665,
        -0.20797231793403625,
        0.10846678167581558,
        0.222057044506073,
        -0.01555979996919632,
        -0.2487802654504776,
        -0.003981709945946932,
        -0.12364436686038971,
        -0.12325134873390198,
        -0.20358094573020935,
        0.12325076758861542,
        -0.1446787565946579,
        -0.29337403178215027,
        -0.1834694743156433,
        -0.22874023020267487,
        0.19820111989974976,
        -0.1540277600288391,
        -0.1643030047416687,
        -0.04656468704342842,
        -0.02046075463294983,
        -0.24770379066467285,
        0.03190285339951515,
        0.02948731929063797,
        0.2790255546569824,
        0.013130041770637035,
        0.15809059143066406,
        -0.051837727427482605,
        -0.12397272884845734,
        -0.1436135321855545,
        0.25985854864120483,
        0.2166464626789093,
        0.15338194370269775,
        -0.1338346004486084,
        0.024593425914645195,
        -0.08456964790821075,
        0.21697771549224854,
        -0.12046859413385391,
        -0.16227124631404877,
        -0.19288070499897003,
        0.09313521534204483,
        0.09677145630121231,
        -0.43168172240257263,
        0.0024640755727887154,
        0.24654977023601532,
        0.12978260219097137,
        0.22617022693157196,
        0.0369805283844471,
        -0.3158228397369385,
        -0.12885135412216187,
        -0.03837341442704201,
        -0.084416963160038,
        0.0073866164311766624,
        -0.543882429599762,
        0.21866421401500702,
        0.020351151004433632,
        -0.019931074231863022,
        -0.07751396298408508,
        0.1608836054801941,
        -0.17780795693397522,
        -0.06073658913373947,
        -0.09409580379724503,
        0.39064469933509827,
        0.4490928649902344,
        -0.2598625123500824,
        0.1300327032804489,
        -0.10777340084314346,
        -0.09680381417274475,
        -0.0062159462831914425,
        -0.2438390851020813,
        -0.06095191091299057,
        -0.0995112955570221,
        -0.1767900586128235,
        0.017884058877825737,
        0.11240629851818085,
        0.16297097504138947,
        -0.26000601053237915,
        0.05004804581403732,
        -0.010861442424356937,
        0.129458948969841,
        0.01242543663829565,
        0.06301487237215042,
        0.09949979931116104,
        -0.015038232319056988,
        -0.4665634334087372,
        -0.22035986185073853,
        0.008853460662066936,
        -0.06246751546859741,
        -0.013781577348709106,
        -0.037970852106809616,
        -0.25638648867607117,
        0.022995859384536743,
        0.30585211515426636,
        0.08069517463445663,
        -0.022348079830408096,
        0.1454964429140091,
        0.01089975144714117,
        0.10287873446941376,
        0.16535840928554535,
        -0.24083083868026733,
        0.15817971527576447,
        -0.1518866866827011,
        -0.0011739101028069854,
        0.42042088508605957,
        0.17771628499031067,
        -0.1928614228963852,
        0.03160551190376282,
        -0.04494680464267731,
        0.10478578507900238,
        0.02785799466073513,
        0.10592752695083618,
        0.1430674046278,
        -0.14071200788021088,
        0.01406820211559534,
        0.21683834493160248,
        -0.1214081197977066,
        -0.03160432353615761,
        0.13781191408634186,
        -0.10623989254236221,
        -0.02153298817574978,
        -0.09835564345121384,
        0.04121638834476471,
        -0.16063620150089264,
        0.024113507941365242,
        0.13383273780345917,
        0.01610574685037136,
        -0.18551065027713776,
        0.08225761353969574,
        -0.03389347717165947,
        -0.02943972684442997,
        0.024237601086497307,
        0.03796549141407013,
        -0.06851557642221451,
        0.056584134697914124,
        -0.07646893709897995,
        0.0386313870549202,
        -0.04035297781229019,
        -0.03734373673796654,
        0.4366833567619324,
        -0.14702531695365906,
        -0.2263256013393402,
        0.014550699852406979,
        -0.16796903312206268,
        -0.11215151101350784,
        0.04176013916730881,
        0.04814523458480835,
        0.015483931638300419,
        -0.13498184084892273,
        0.08792533725500107,
        0.3527780771255493,
        -0.271078884601593,
        -0.1152639240026474,
        0.0785900354385376,
        -0.10224925726652145,
        0.014331383630633354,
        -0.05306137353181839,
        -0.15435737371444702,
        0.044033925980329514,
        0.26212844252586365,
        -0.03214454650878906,
        0.006536292843520641,
        -0.023262785747647285,
        -0.02015320025384426,
        0.2162146419286728,
        0.10564453899860382,
        -0.06919435411691666,
        0.006014562211930752,
        -0.10860063880681992,
        -0.30121082067489624,
        0.10202772915363312,
        -0.2483683079481125,
        0.15111882984638214,
        0.00125325086992234,
        0.04940222576260567,
        -0.28211015462875366,
        0.0795704647898674,
        -0.056078240275382996,
        0.06609178334474564,
        -0.11288335919380188,
        0.04213844984769821,
        -0.30263397097587585,
        -0.04687683656811714,
        0.009118640795350075,
        0.06171803176403046,
        0.14928819239139557,
        0.0873405858874321,
        0.30999457836151123,
        0.012052220292389393,
        0.039443887770175934,
        0.08131169527769089,
        0.10936734080314636,
        -0.07753011584281921,
        0.13452422618865967,
        0.2134205549955368,
        0.2665350139141083,
        0.09003621339797974,
        -0.10921746492385864,
        0.1287483125925064,
        -0.02658013254404068,
        0.01267081219702959,
        -0.12583200633525848,
        -0.0908828005194664,
        -0.0017358530312776566,
        0.14864479005336761,
        0.004001626744866371,
        0.06558997184038162,
        0.0682583823800087,
        -0.6589456796646118,
        0.05739755183458328,
        -0.06231886148452759,
        0.22883841395378113,
        -0.005508688744157553,
        -0.09107035398483276,
        0.15790492296218872,
        0.0928785651922226,
        0.049837443977594376,
        0.22677817940711975,
        0.11467697471380234,
        0.02892383560538292,
        -0.14531071484088898,
        -0.12168088555335999,
        0.17767058312892914,
        0.03848426416516304,
        -0.20725955069065094,
        -0.10802070796489716,
        0.06717998534440994,
        0.26324740052223206,
        -0.07791075110435486,
        0.47403693199157715,
        -0.12189427018165588,
        -0.1800568848848343,
        -0.18262344598770142,
        -0.12956778705120087,
        -0.07481516897678375,
        -0.16221658885478973,
        -0.0600150004029274,
        -0.19078987836837769,
        0.286257803440094,
        0.13739421963691711,
        -0.09343017637729645,
        -0.187868133187294,
        -0.021361853927373886,
        -0.39266279339790344,
        0.4884333610534668,
        -0.09352775663137436,
        0.36102578043937683,
        0.04328535497188568,
        0.3159596920013428,
        0.029356418177485466,
        0.20519837737083435,
        -0.13582581281661987,
        0.060198549181222916,
        0.13977020978927612,
        -0.0052345250733196735,
        -0.048874691128730774,
        -0.0597841702401638,
        0.32064539194107056,
        -0.14716662466526031,
        0.09516792744398117,
        0.012521588243544102,
        -0.1446971744298935,
        0.007209592033177614,
        -0.07855286449193954,
        -0.03405248373746872,
        0.08416911959648132,
        0.10267037898302078,
        -0.05690906196832657,
        -0.06841862946748734,
        -0.12376682460308075,
        -0.14708667993545532,
        0.03554708883166313,
        0.050061553716659546,
        0.10983780771493912,
        0.2364080846309662,
        -0.07508070021867752,
        -0.1930057257413864,
        0.26038360595703125,
        -0.2302650511264801,
        0.2082751989364624,
        0.0791674330830574,
        0.11388035863637924,
        -0.04685546085238457,
        -0.11123920977115631,
        -0.2871808707714081,
        0.26549503207206726,
        0.3476036787033081,
        0.32013294100761414,
        -0.07539138942956924,
        -0.07443572580814362,
        -0.06723245233297348,
        -0.02234770730137825,
        -0.02835249714553356,
        0.05619353428483009,
        -0.28387880325317383,
        0.14189106225967407,
        -0.15738409757614136,
        -0.1944732666015625,
        -0.20312939584255219,
        0.06233125180006027,
        0.011637094430625439,
        0.03566889837384224,
        0.2913121283054352,
        0.1968270242214203,
        -0.01529395766556263,
        0.11131670325994492,
        -0.0146907614544034,
        0.1940774768590927,
        0.18248936533927917,
        0.20023363828659058,
        0.28485623002052307,
        0.04521485045552254,
        0.016672402620315552,
        -0.431684285402298,
        -0.22624126076698303,
        -0.45425331592559814,
        -0.14135059714317322,
        0.028862500563263893,
        0.12618207931518555,
        -0.33879849314689636,
        -0.3044147193431854,
        -0.005077633541077375,
        -0.014662452042102814,
        0.31518206000328064,
        0.04650064557790756,
        -0.17168352007865906,
        0.07493511587381363,
        -0.14181242883205414,
        -0.1308765411376953,
        -0.015676390379667282,
        0.3189809322357178,
        0.7990443110466003,
        0.1605687439441681,
        -0.26975002884864807,
        -0.36626318097114563,
        -0.11234475672245026,
        -0.03526877984404564,
        0.17850346863269806,
        0.4556106626987457,
        0.6211589574813843,
        0.3827759623527527,
        -0.14915312826633453,
        0.46049314737319946,
        -0.08347893506288528,
        0.07810618728399277,
        -0.11403895169496536,
        -0.18933770060539246,
        -0.19513562321662903,
        0.08978221565485,
        0.07743854820728302,
        0.06763970106840134,
        0.025611629709601402,
        0.26434439420700073,
        0.0532456710934639,
        -0.13953858613967896,
        -0.028169721364974976,
        -0.18604068458080292,
        -0.11942057311534882,
        -0.0368032306432724,
        -0.050620801746845245,
        -0.07810413837432861,
        -0.11635495722293854,
        0.029434211552143097,
        0.010828415863215923,
        0.10406095534563065,
        -0.12435752153396606,
        0.147077739238739,
        -0.16406692564487457,
        0.015675507485866547,
        -0.08540090918540955,
        -0.08507814258337021,
        0.067886121571064,
        0.14863528311252594,
        -0.2255028486251831,
        0.08101227879524231,
        0.020053550601005554,
        0.07181140780448914,
        -0.09999237954616547,
        -0.16004826128482819,
        0.28884223103523254,
        -0.24974384903907776,
        -0.36473751068115234,
        0.138358935713768,
        -0.1225249394774437,
        -0.15712328255176544,
        -0.05665062740445137,
        -0.028454914689064026,
        -0.19624872505664825,
        0.0867457315325737,
        -0.17797693610191345,
        0.26247063279151917,
        -0.19325408339500427,
        -0.18626482784748077,
        -0.11542890965938568,
        -0.058370206505060196,
        -0.0035076960921287537,
        0.03697722405195236,
        0.026792233809828758,
        0.20479322969913483,
        -0.19199629127979279,
        -0.23677951097488403,
        0.22228054702281952,
        0.06374979019165039,
        0.0035625381860882044,
        0.1389046311378479,
        0.07311742007732391,
        -0.3525708019733429,
        0.10941477864980698,
        0.12805603444576263,
        0.3227114975452423,
        -0.0326150618493557,
        0.15404631197452545,
        0.20475070178508759,
        -0.05333200469613075,
        0.04615779221057892,
        0.14383167028427124,
        -0.04948706552386284,
        -0.015218726359307766,
        0.03383386507630348,
        0.0655471682548523,
        0.03939708694815636,
        0.08877402544021606,
        -0.037503644824028015,
        -0.014745981432497501,
        -0.20588470995426178,
        0.03401975706219673,
        0.1705906093120575,
        -0.3971133232116699,
        0.0605500154197216,
        -0.1427345722913742,
        0.10616588592529297,
        0.04237505421042442,
        0.10099075734615326,
        -0.3104560375213623,
        0.0229566041380167,
        -0.06533097475767136,
        -0.00030256249010562897,
        -0.040897972881793976,
        -0.20124562084674835,
        -0.1281777024269104,
        -0.2307043969631195,
        -0.08008203655481339,
        -0.22574977576732635,
        -0.0009099931339733303,
        -0.12697310745716095,
        -0.30652374029159546,
        -0.043043989688158035,
        0.1495215892791748,
        -0.01658998616039753,
        -0.024118483066558838,
        -0.06648815423250198,
        -0.05851893499493599,
        -0.007804808206856251,
        0.06038288027048111,
        0.08799184858798981,
        0.06495274603366852,
        -0.07979138940572739,
        -0.0552460178732872,
        0.05062470957636833,
        -0.052012547850608826,
        -0.0015034718671813607,
        0.19634932279586792,
        0.20697718858718872,
        0.10192213952541351,
        -0.054316725581884384,
        -0.27416613698005676,
        -0.10650590807199478,
        -0.16424943506717682,
        -0.027938855811953545,
        -0.12343508005142212,
        -0.13029733300209045,
        -0.06027566269040108,
        0.06261540204286575,
        -0.1570741981267929,
        0.1694675087928772,
        0.0682118758559227,
        -0.030339814722537994,
        0.29160183668136597,
        -0.08267632126808167,
        0.18159955739974976,
        -0.13608472049236298,
        -0.2170676738023758,
        0.14246200025081635,
        0.10269377380609512,
        -0.05574844777584076,
        0.17629383504390717,
        -0.16631269454956055,
        -0.029420388862490654,
        -0.07111681997776031,
        0.020884783938527107,
        0.037886880338191986,
        0.24245531857013702,
        0.1437782496213913,
        0.049692027270793915,
        -0.09297287464141846,
        0.2455902099609375,
        -0.03212587535381317,
        -0.13571618497371674,
        0.11321461200714111,
        -0.04856074973940849,
        -0.02405068464577198,
        0.029575420543551445,
        0.14798995852470398,
        0.05418645218014717,
        -0.02358182892203331,
        0.15563808381557465,
        0.05650995671749115,
        -0.19716227054595947,
        -0.030988063663244247,
        -0.16796448826789856,
        0.02681881934404373,
        -0.05690709501504898,
        -0.011671504005789757,
        0.1830560266971588,
        -0.14233972132205963,
        0.06523286551237106,
        -0.17900040745735168,
        0.05905051529407501,
        0.035351499915122986,
        0.2775789201259613,
        0.07897726446390152,
        0.00452945614233613,
        0.2002885490655899,
        -0.1769886165857315,
        0.2480105757713318,
        0.18701843917369843,
        0.050881389528512955,
        -0.07480227947235107,
        0.1430947631597519,
        0.07970354706048965,
        0.027142098173499107,
        0.055611588060855865,
        0.20557820796966553,
        -0.12827372550964355,
        -0.18668200075626373,
        0.2704677879810333,
        0.22071613371372223,
        0.16072843968868256,
        0.006220666691660881,
        -0.04247257485985756,
        0.12796227633953094,
        -0.05503498390316963,
        -0.10158634185791016,
        -0.07006030529737473,
        -0.056375838816165924,
        0.13007864356040955,
        -0.16527695953845978,
        -0.03838524967432022,
        0.23357993364334106,
        -0.12610234320163727,
        -0.1490977704524994,
        0.29988038539886475,
        0.026522016152739525,
        0.16771036386489868,
        -0.037848059087991714,
        0.20065616071224213,
        0.3195315897464752,
        -0.22527335584163666,
        -0.003786570392549038,
        0.07806634157896042,
        -0.02193193882703781,
        0.09156259149312973,
        0.14801785349845886,
        0.054849885404109955,
        -0.10288841277360916,
        -0.0740956962108612,
        0.0020549430046230555,
        0.04229431599378586,
        -0.08445316553115845,
        -0.06162148341536522,
        -0.26185598969459534,
        -0.27090612053871155,
        0.11805441230535507,
        -0.07479486614465714,
        0.113505057990551,
        -0.16024141013622284,
        0.09342647343873978,
        0.10200203955173492,
        -0.07726483047008514,
        -0.17400377988815308,
        -0.29283347725868225,
        0.30417391657829285,
        -0.15103434026241302,
        -0.30996474623680115,
        0.0025702386628836393,
        0.1562739610671997,
        0.032738953828811646,
        0.058373432606458664,
        0.08275636285543442,
        -0.130612313747406,
        -0.04220855236053467,
        -0.05699163302779198,
        -0.0647611990571022,
        0.03878624737262726,
        -0.1003475934267044,
        -0.11765995621681213,
        0.008650992065668106,
        -0.1327204704284668,
        -0.010173398070037365,
        -0.058873213827610016,
        0.15645380318164825,
        0.03588419035077095,
        -0.05061020702123642,
        0.17807354032993317,
        -0.001042852527461946,
        -0.08391138911247253,
        0.07060565054416656,
        0.07642976194620132,
        0.06820005178451538,
        -0.09193097800016403,
        -0.2834419310092926,
        -0.05498025193810463,
        0.33826252818107605,
        -0.0786004588007927,
        -0.0853363499045372,
        0.01847265101969242,
        -0.017587434500455856,
        0.04088032990694046,
        -0.3134002983570099,
        0.17996783554553986,
        -0.16390147805213928,
        -0.16761142015457153,
        -0.10966082662343979,
        -0.13692016899585724,
        -0.09395384788513184,
        -0.16584263741970062,
        0.02420603483915329,
        -0.3882961571216583,
        0.03336210176348686,
        0.04079993814229965,
        0.2455623298883438,
        -0.14126555621623993,
        0.021285932511091232,
        0.10499779134988785,
        0.07304864376783371,
        0.11186794936656952,
        -0.03834972158074379,
        0.09598790109157562,
        0.14687594771385193,
        0.12099958956241608,
        0.16628411412239075,
        -0.04754308983683586,
        -0.16657300293445587,
        0.14795361459255219,
        0.11122249811887741,
        -0.0384681411087513,
        0.19226685166358948,
        0.0442798025906086,
        0.17963097989559174,
        -0.15291908383369446,
        0.06228433549404144,
        -0.09946474432945251,
        0.07908903062343597,
        -0.03775620460510254,
        0.12772704660892487,
        -0.01144279632717371,
        0.14755497872829437,
        -0.02732272259891033,
        0.0444830060005188,
        -0.02867058664560318,
        -0.09824138879776001,
        -0.08011219650506973,
        0.0528419055044651,
        -0.008516089990735054,
        -0.009965257719159126,
        -0.0819595456123352,
        -0.15448519587516785,
        0.40463727712631226,
        0.07909613847732544,
        -0.1963331401348114,
        0.07739346474409103,
        -0.1294860541820526,
        -0.14538279175758362,
        0.1963324248790741,
        -0.13751451671123505,
        0.24511973559856415,
        -0.052574675530195236,
        0.052237123250961304,
        0.09971856325864792,
        -0.23404215276241302,
        0.07565637677907944,
        0.16654343903064728,
        0.022378643974661827,
        0.14946720004081726,
        -0.03187742829322815,
        0.09821635484695435,
        -0.019551383331418037,
        -0.08406469970941544,
        -0.027473783120512962,
        0.13950839638710022,
        0.10746140778064728,
        -0.010913459584116936,
        0.07211751490831375,
        -0.1826140284538269,
        -0.020637715235352516,
        -0.0184533279389143,
        -0.0373193733394146,
        -0.029133755713701248,
        -0.43406400084495544,
        0.7510704398155212,
        -0.058376897126436234,
        -0.29644981026649475,
        0.20706112682819366,
        -0.15317153930664062,
        -0.13684073090553284,
        0.36252298951148987,
        -0.4543881416320801,
        0.9303504824638367,
        0.9043804407119751,
        -0.26748961210250854,
        -0.4214392304420471,
        0.5495796203613281,
        -0.5788176655769348,
        0.37894442677497864,
        -0.30214840173721313,
        -0.11710473895072937,
        -0.3063853085041046,
        0.13359422981739044,
        0.35044389963150024,
        0.20321090519428253,
        -0.003325993660837412,
        0.2634892761707306,
        0.22789490222930908,
        0.10218876600265503,
        0.2793275713920593,
        -0.3722399175167084,
        -0.1554872989654541,
        0.10160176455974579,
        -0.05864649638533592,
        0.37738868594169617,
        -0.16604165732860565,
        -0.05092098191380501,
        0.29641956090927124,
        0.1892925351858139,
        0.2895856499671936,
        -0.22988466918468475,
        -0.2798525094985962,
        -0.17369188368320465,
        0.19984851777553558,
        -0.15665176510810852,
        -0.015948280692100525,
        0.07686657458543777,
        0.07604537904262543,
        0.0635569766163826,
        0.0941118374466896,
        -0.06638570129871368,
        -0.3342553973197937,
        0.21290694177150726,
        -0.05048380047082901,
        -0.10324694216251373,
        -0.13873423635959625,
        -0.14388883113861084,
        -0.11536002904176712,
        -0.1535501629114151,
        -0.13004691898822784,
        0.04724697023630142,
        0.1634569764137268,
        0.3933936655521393,
        -0.15412351489067078,
        -0.1605166494846344,
        -0.07700680941343307,
        0.3692549169063568,
        0.0708271935582161,
        0.12334456294775009,
        0.038679175078868866,
        -0.2605460286140442,
        0.12960584461688995,
        -0.044111642986536026,
        0.18422779440879822,
        0.23142975568771362,
        -0.1218511238694191,
        0.19691383838653564,
        0.24076181650161743,
        0.24322262406349182,
        0.1721045970916748,
        0.13356158137321472,
        -0.16500231623649597,
        -0.012241336517035961,
        -0.21004538238048553,
        0.40596452355384827,
        -0.09124092012643814,
        0.29440978169441223,
        -0.10004834830760956,
        -0.14990809559822083,
        -0.011774883605539799,
        0.06790290027856827,
        -0.04710732027888298,
        -0.18654678761959076,
        0.03961453214287758,
        -0.04483254626393318,
        -0.2499532848596573,
        -0.04826679453253746,
        -0.1843557208776474,
        -0.3005204498767853,
        -0.14697478711605072,
        0.11165957897901535,
        -0.18450316786766052,
        -0.2769886553287506,
        -0.1530291736125946,
        0.08286750316619873,
        0.038528744131326675,
        -0.1779749095439911,
        -0.2935079038143158,
        0.09343889355659485,
        -0.008428014814853668,
        -0.01759980246424675,
        0.2931971848011017,
        0.1693802773952484,
        0.0016314510721713305,
        0.2340613454580307,
        0.24129363894462585,
        -0.29087209701538086,
        0.024866264313459396,
        0.23130793869495392,
        -0.018895959481596947,
        0.06811650842428207,
        0.07692141085863113,
        -0.1513446718454361,
        0.2869028151035309,
        0.05422903224825859,
        -0.175405353307724,
        0.17106303572654724,
        0.4223669767379761,
        0.10984829068183899,
        0.2710357904434204,
        0.0750059112906456,
        0.2926556169986725,
        -0.3112644553184509,
        -0.24492831528186798,
        0.17044603824615479,
        -0.15427687764167786,
        0.1659262776374817,
        -0.15896743535995483,
        0.13209909200668335,
        -0.03601288050413132,
        -0.0673241913318634,
        0.1867949664592743,
        -0.14392274618148804,
        -0.2744128406047821,
        0.20059368014335632,
        -0.04188762232661247,
        -0.0977475717663765,
        0.34698405861854553,
        -0.06159742549061775,
        -0.023147104308009148,
        0.4900617003440857,
        -0.09168469905853271,
        -0.36778226494789124,
        -0.03124716319143772,
        -0.2297586053609848,
        0.19401343166828156,
        -0.5389272570610046,
        0.18147507309913635,
        -0.19326524436473846,
        -0.12478189915418625,
        0.018831320106983185,
        0.0979049950838089,
        0.32818201184272766,
        -0.0643395408987999,
        -0.19750115275382996,
        0.33406075835227966,
        -0.05464204400777817,
        0.19878415763378143,
        -0.19076651334762573,
        -0.015233466401696205,
        -0.0555129274725914,
        0.03489243611693382,
        0.15165390074253082,
        -0.01249963790178299,
        -0.0254660751670599,
        -0.06079835444688797,
        0.070133738219738,
        -0.07684587687253952,
        0.3501690626144409,
        0.0703594759106636,
        -0.3054828345775604,
        -0.2244894653558731,
        0.3575478196144104,
        -0.17551758885383606,
        0.290705144405365,
        0.004623210057616234,
        0.3188875913619995,
        0.08578333258628845,
        -0.5009631514549255,
        0.01836027391254902,
        0.10084851831197739,
        -0.5147587656974792,
        0.1299738883972168,
        0.3895602524280548,
        0.15314741432666779,
        -0.17766886949539185,
        -0.22338899970054626,
        0.23014985024929047,
        -0.20456045866012573,
        0.28380340337753296,
        0.3381929099559784,
        0.27790457010269165,
        0.01282188855111599,
        -0.19015073776245117,
        0.04152289032936096,
        0.29422712326049805,
        -0.3527992069721222,
        -0.07038470357656479,
        0.16280657052993774,
        0.04255068674683571,
        -0.21040105819702148,
        -0.45359840989112854,
        0.024177953600883484,
        0.14019380509853363,
        -0.22149625420570374,
        0.16063623130321503,
        -0.15683211386203766,
        -0.32941141724586487,
        0.17218366265296936,
        -0.245400071144104,
        0.07188940793275833,
        0.1352246105670929,
        0.03312592953443527,
        0.07616356760263443,
        -0.05456140264868736,
        -0.11476124823093414,
        -0.10088852047920227,
        0.1816285252571106,
        -0.12202733010053635,
        -0.15118508040905,
        -0.07237910479307175,
        -0.12205953150987625,
        0.11547176539897919,
        0.06140536069869995,
        -0.022622063755989075,
        0.03839875012636185,
        0.12283533066511154,
        -0.25656652450561523,
        0.059828273952007294,
        0.09682147204875946,
        -0.21889545023441315,
        0.01821676455438137,
        0.02909030206501484,
        -0.03809841722249985,
        0.006182685494422913,
        -0.32075318694114685,
        -0.25968578457832336,
        -0.14716662466526031,
        0.15412940084934235,
        -0.36733850836753845,
        0.29312214255332947,
        0.018471170216798782,
        0.12642329931259155,
        0.23476047813892365,
        -0.15056166052818298,
        -0.345403790473938,
        0.06274619698524475,
        -0.255296915769577,
        -0.1086076945066452,
        -0.3800503611564636,
        -0.07909008115530014,
        -0.5364139080047607,
        -0.10851822793483734,
        0.022969253361225128,
        -0.32856300473213196,
        -0.1225762888789177,
        0.12236414849758148,
        0.16954545676708221,
        0.22669759392738342,
        0.3355320990085602,
        -0.2828671634197235,
        -0.15639908611774445,
        -0.02237055078148842,
        0.09275460243225098,
        -0.0028841441962867975,
        0.10384906083345413,
        0.02896209806203842,
        0.03466695547103882,
        -0.18672119081020355,
        0.07431825995445251,
        0.14605945348739624,
        -0.10856746137142181,
        -0.16106389462947845,
        -0.09274180233478546,
        0.058124564588069916,
        0.059551842510700226,
        0.135745108127594,
        0.22573469579219818,
        -0.13461248576641083,
        -0.05460353195667267,
        -0.06563664227724075,
        0.06836134940385818,
        0.08640444278717041,
        0.03048764169216156,
        -0.09123314172029495,
        -0.10614359378814697,
        0.15253494679927826,
        -0.21226094663143158,
        0.077650286257267,
        0.16246841847896576,
        -0.02934696152806282,
        0.05218885466456413,
        -0.12843811511993408,
        -0.21191425621509552,
        -0.3278025686740875,
        0.03917388245463371,
        0.00912480428814888,
        0.0851837545633316,
        0.17234766483306885,
        0.00987536646425724,
        -0.04187462851405144,
        -0.0831705629825592,
        0.1715693175792694,
        0.14515912532806396,
        0.02441410906612873,
        -0.13612768054008484,
        -0.3030688166618347,
        -0.03693847730755806,
        0.08784312754869461,
        -0.17265476286411285,
        0.11437276005744934,
        -0.00442747725173831,
        0.10185696184635162,
        -0.19732536375522614,
        -0.25958046317100525,
        -0.06617113947868347,
        -0.20423930883407593,
        0.21077026426792145,
        0.09180834144353867,
        0.19226166605949402,
        -0.04842890426516533,
        -0.13743488490581512,
        -0.2708580195903778,
        -0.08055920898914337,
        -0.08792382478713989,
        -0.14371110498905182,
        -0.22400781512260437,
        -0.07773681730031967,
        0.08631017059087753,
        0.09070247411727905,
        -0.024864790961146355,
        0.16596204042434692,
        0.02859335206449032,
        0.019734082743525505,
        -0.2954743504524231,
        0.03019489347934723,
        0.11164052039384842,
        0.05077745392918587,
        -0.07618565112352371,
        0.17809991538524628,
        0.03634887561202049,
        0.005552641116082668,
        0.14337755739688873,
        0.024723578244447708,
        -0.2845613360404968,
        -0.10128045827150345,
        -0.16887196898460388,
        0.10802481323480606,
        -0.02020791359245777,
        0.01772710122168064,
        -0.26484379172325134,
        -0.14720849692821503,
        -0.16409242153167725,
        0.17844298481941223,
        -0.281075119972229,
        -0.053916946053504944,
        -0.17471063137054443,
        0.030426327139139175,
        -0.07604065537452698,
        0.13855251669883728,
        -0.1133495345711708,
        0.152065709233284,
        0.3176170587539673,
        -0.006972395349293947,
        -0.07933169603347778,
        0.006014831364154816,
        0.058636125177145004,
        -0.22782015800476074,
        0.2530878782272339,
        -0.2170301228761673,
        0.03485432639718056,
        -0.0018795336363837123,
        -0.012520529329776764,
        -0.1109105721116066,
        -0.13162793219089508,
        0.2306412011384964,
        -0.25957974791526794,
        -0.022150909528136253,
        0.08591505885124207,
        0.14627721905708313,
        -0.0989053025841713,
        -0.28356799483299255,
        0.02789071761071682,
        -0.19745056331157684,
        0.1678808480501175,
        0.12883517146110535,
        -0.15704995393753052,
        -0.08167865872383118,
        0.1750071495771408,
        0.0737743079662323,
        -0.01113145425915718,
        -0.030467942357063293,
        -0.10511230677366257,
        -0.1157001405954361,
        -0.12007638812065125,
        0.08311310410499573,
        -0.13214214146137238,
        0.10403444617986679,
        -0.006324082147330046,
        0.01486863475292921,
