{"version": "0.5.1", "metadata": {"date": {"year": 2023, "month": 4, "day": 30, "hour": 21, "minute": 26, "second": 33}, "loudness": -16.57292938232422, "gain": 0.7974043495006549, "name": null, "modeled_by": null, "gear_type": null, "gear_make": null, "gear_model": null, "tone_type": null}, "architecture": "WaveNet", "config": {"layers": [{"input_size": 1, "condition_size": 1, "head_size": 8, "channels": 16, "kernel_size": 3, "dilations": [1, 2, 4, 8, 16, 32, 64, 128, 256, 512], "activation": "Tanh", "gated": false, "head_bias": false}, {"input_size": 16, "condition_size": 1, "head_size": 1, "channels": 8, "kernel_size": 3, "dilations": [1, 2, 4, 8, 16, 32, 64, 128, 256, 512], "activation": "Tanh", "gated": false, "head_bias": true}], "head": null, "head_scale": 0.02}, "weights": [-0.026884345337748528, 0.4434220492839813, -0.8581002354621887, -0.6844409108161926, -0.43449339270591736, 0.2520025074481964, -0.017783550545573235, 0.867479681968689, -0.17626126110553741, 0.16132228076457977, -0.2798042297363281, 0.0024641428608447313, -0.9378410577774048, -0.7049926519393921, -0.4137517511844635, 0.016789061948657036, 0.02929529920220375, 0.16096921265125275, -0.16398094594478607, -0.2055724859237671, 0.10421840846538544, 0.12198366969823837, 0.1035950630903244, 0.048866357654333115, -0.024684522300958633, 0.14834943413734436, 0.07111560553312302, -0.1375221461057663, 0.05439530685544014, -0.08636511117219925, -0.04779971390962601, -0.007115527987480164, -0.037188347429037094, -0.061642345041036606, 0.030833426862955093, -0.13551664352416992, -0.02336333878338337, -0.014412334188818932, 0.12113375216722488, 0.0702686607837677, 0.17933101952075958, -0.10160785913467407, 0.053098563104867935, -0.27245327830314636, -0.04861485958099365, -0.07477505505084991, 0.22125700116157532, 0.02701474167406559, -0.059685543179512024, -0.02308829128742218, -0.09198620170354843, 0.01872909627854824, 0.19128741323947906, -0.039510585367679596, 0.09369028359651566, 0.052377745509147644, -0.029301727190613747, -0.11079490929841995, 0.03419380262494087, -0.13069556653499603, 0.06791321188211441, -0.05426035448908806, -0.08927905559539795, -0.04546710476279259, -0.06236331909894943, -0.17643840610980988, 0.03523118793964386, -0.1354764997959137, -0.10250965505838394, 0.12009570002555847, 0.05763797461986542, 0.13560260832309723, 0.07022117078304291, 0.2830168902873993, 0.30950963497161865, 0.1383102387189865, 0.19333072006702423, 0.060580749064683914, 0.021598942577838898, -0.2500774562358856, -0.31456053256988525, 0.11258130520582199, 0.17628255486488342, -0.06384871155023575, -0.014297988265752792, -0.19413326680660248, -0.21429327130317688, -0.08086030185222626, 0.19888576865196228, 0.08599153161048889, 0.04769536852836609, -0.08801621198654175, -0.0803179070353508, 0.04288031533360481, 0.010910184122622013, 0.07759086787700653, 0.06850741803646088, 0.08356715738773346, -0.01308436132967472, -0.1354914903640747, 0.3028135597705841, 0.2845061421394348, -0.04831183701753616, 0.13208739459514618, 0.051052313297986984, 0.010727752931416035, 0.04896393045783043, 0.06525575369596481, -0.005898864474147558, -0.07523777335882187, -0.1398780792951584, 0.1660384088754654, -0.21656422317028046, 0.1388951689004898, -0.06229357793927193, -0.2639969289302826, 0.044249728322029114, -0.029078595340251923, 0.15549242496490479, -0.05302058905363083, 0.09658685326576233, 0.14628206193447113, -0.154435396194458, 0.10824141651391983, 0.009377215057611465, -0.16273881494998932, 0.014399082399904728, -0.21354712545871735, 0.024495992809534073, -0.1616656631231308, 0.040861211717128754, -0.08387778699398041, -0.09738236665725708, -0.14662708342075348, 0.18731890618801117, -0.05530982464551926, 0.19384287297725677, -0.06561031192541122, 0.1132257878780365, -0.06194120645523071, 0.20795299112796783, 0.03887059539556503, 0.2773135006427765, -0.08698534220457077, -0.07393231242895126, 0.005850207060575485, -0.004493940621614456, -0.03304969519376755, 0.06418479233980179, -0.19643086194992065, -0.09727706015110016, 0.017512688413262367, -0.11230652779340744, 0.1220276951789856, 0.2157265990972519, -0.21914951503276825, 0.1362074762582779, -0.14167188107967377, 0.06916753202676773, -0.10833887755870819, 0.06304999440908432, 0.07314237952232361, -0.00852573849260807, -0.07836657762527466, 0.012901042588055134, -0.01892540417611599, -0.10548064112663269, 0.027213282883167267, -0.11394782364368439, -0.05234108120203018, 0.09798483550548553, -0.042194876819849014, 0.07824739068746567, 0.013076984323561192, -0.12443172186613083, 0.1425546109676361, 0.017570674419403076, -0.07540492713451385, 0.06909289211034775, -0.14601315557956696, 0.012247571721673012, 0.013445206917822361, 0.1342194676399231, 0.024741876870393753, -0.019994189962744713, -0.010627607814967632, -0.05350080132484436, 0.02781064435839653, -0.0778149738907814, 0.07464583218097687, 0.06775712966918945, 0.0614626370370388, -0.10164044797420502, -0.023276537656784058, -0.11221957206726074, -0.009003343991935253, -0.12597624957561493, 0.021933233365416527, -0.0682467594742775, -0.047772251069545746, -0.025629187002778053, 0.10621760040521622, -0.14909668266773224, -0.12942808866500854, -0.0715675801038742, 0.07220350205898285, -0.044717587530612946, 0.138294517993927, -0.04124085232615471, 0.0003887453058268875, -0.23838937282562256, 0.049751318991184235, 0.13855428993701935, -0.06285922974348068, -0.07476954162120819, -0.09704262018203735, -0.07202787697315216, -0.15014274418354034, -7.99947065388551e-06, -0.07922910153865814, -0.07946549355983734, 0.028383789584040642, 0.09754563122987747, 0.07088591903448105, -0.012930627912282944, 0.03461785241961479, -0.06873936206102371, -0.0638974979519844, 0.06432244181632996, 0.05369650572538376, 0.11850054562091827, 0.08090861141681671, -0.033769942820072174, 0.01507252361625433, 0.14357759058475494, -0.018433140590786934, 0.18576249480247498, -0.13865703344345093, -0.1225907951593399, -0.06181313470005989, 0.10280968993902206, 0.0568360835313797, -0.16041119396686554, 0.017535576596856117, -0.0010590901365503669, -0.25643283128738403, 0.14103896915912628, -0.19143110513687134, -0.11255459487438202, 0.017061179503798485, -0.14942629635334015, -0.09488996118307114, 0.1622256487607956, 0.04415005072951317, 9.582133498042822e-05, -0.13818179070949554, -0.13501815497875214, 0.021773114800453186, -0.12932302057743073, -0.07126107811927795, -0.11597467958927155, 0.08565908670425415, 0.04276313632726669, 0.1314447820186615, 0.047042395919561386, -0.07640545815229416, -0.014816489070653915, 0.0404135026037693, 0.09520749002695084, 0.07158190757036209, -0.06250715255737305, -0.056615009903907776, -0.17708046734333038, 0.014066014438867569, 0.014900349080562592, 0.026833288371562958, 0.28185439109802246, -0.06454002857208252, -0.043007079511880875, 0.0429404079914093, 0.021294647827744484, -0.029952485114336014, -0.073945052921772, 0.12865976989269257, -0.015096897259354591, 0.10613023489713669, -0.07423849403858185, 0.07247371226549149, -0.02348710037767887, 0.08154793083667755, 0.03653222694993019, 0.10917381197214127, 0.01556357927620411, 0.019744474440813065, -0.03707490116357803, -0.11883144825696945, 0.12470608204603195, -0.10950049757957458, 0.028601398691534996, -0.022308820858597755, -0.06823211163282394, 0.06495784968137741, -0.11410178989171982, -0.033159930258989334, -0.10084743052721024, -0.22454050183296204, 0.02224564366042614, -0.1049555242061615, -0.05044320598244667, 0.01918238215148449, 0.04367006942629814, 0.07547132670879364, 0.00896515417844057, 0.1097797229886055, 0.15324312448501587, 0.05566883832216263, 0.09009330719709396, 0.10397734493017197, 0.020811187103390694, -0.16306132078170776, -0.09977825731039047, 0.0388127863407135, -0.01807505264878273, 0.06358444690704346, 0.027787137776613235, -0.03700451925396919, -0.01866043545305729, 0.05552472919225693, 0.24847909808158875, 0.048368215560913086, -0.14984621107578278, -0.30302420258522034, 0.026314089074730873, 0.11228294670581818, 0.054887931793928146, 0.1463388204574585, 0.06138350069522858, 0.22955916821956635, 0.18333685398101807, 0.047347430139780045, 0.12981636822223663, 0.04677295684814453, 0.0787462517619133, 0.2450001835823059, 0.012673870660364628, 0.09025304019451141, 0.2265021651983261, 0.17324766516685486, -0.13387706875801086, -0.031096989288926125, -0.07794444262981415, 0.20259609818458557, -0.0234972070902586, 0.14675328135490417, 0.07507113367319107, 0.01259117666631937, 0.037264011800289154, 0.14725978672504425, -0.05167906731367111, -0.05491465702652931, -0.17657208442687988, -0.09310884773731232, -0.20313777029514313, 0.03511463478207588, 0.12951697409152985, 0.04774017259478569, 0.03787672147154808, -0.17889267206192017, -0.01235385611653328, 0.05819052457809448, 0.00812438689172268, 0.08076834678649902, -0.12734031677246094, -0.11914348602294922, -0.0508204847574234, -0.001182892476208508, 0.17786000669002533, 0.03273044526576996, 0.028777455911040306, 0.0717637911438942, 0.22611543536186218, 0.05167589336633682, 0.1136452928185463, 0.04414232075214386, -0.02552070841193199, 0.13287197053432465, 0.007744756992906332, 0.06303222477436066, -0.002599303610622883, -0.01902773790061474, -0.06409810483455658, 0.014625843614339828, -0.16905781626701355, -0.16024655103683472, -0.06419269740581512, 0.007866953499615192, 0.02251606620848179, -0.09295636415481567, -0.0722464993596077, 0.10305996984243393, 0.06524976342916489, -0.03155231475830078, -0.09542448818683624, 0.14600639045238495, 0.0643148422241211, -0.069316565990448, 0.121627077460289, 0.10085466504096985, -0.08719437569379807, 0.06949824839830399, -0.08654121309518814, -0.05454244837164879, 0.1148204356431961, 0.0064544775523245335, -0.1303120106458664, -0.05214804783463478, -0.04640724137425423, -0.008944391272962093, -0.01027605403214693, 0.12054798752069473, -0.0370728000998497, -0.07560607045888901, 0.012132452800869942, 0.10206031799316406, 0.09809387475252151, -0.10700294375419617, -0.034204721450805664, -0.1109519675374031, -0.06930825114250183, 0.07304173707962036, -0.10983172804117203, 0.05566013231873512, 0.10212653130292892, 0.050915829837322235, -0.053510963916778564, -0.05767188221216202, 0.017477739602327347, -0.11752798408269882, 0.03783616051077843, -0.14388960599899292, -0.14376100897789001, -0.17201495170593262, -0.03851890191435814, 0.09849978238344193, -0.160441592335701, 0.21304382383823395, -0.009908813051879406, 0.07758139818906784, 0.035038016736507416, -0.2388850301504135, 0.30484676361083984, 0.26481232047080994, -0.04384414106607437, 0.11223655939102173, -0.29299259185791016, 0.29263171553611755, -0.04789405316114426, -0.12385346740484238, 0.06096135079860687, -0.09211907535791397, -0.33816641569137573, 0.11903126537799835, -0.023459086194634438, 0.06088477373123169, -0.14059780538082123, 0.1147899255156517, -0.003161098575219512, 0.14025144279003143, -0.10302981734275818, 0.150750532746315, -0.11537965387105942, 0.18790525197982788, -0.09120971709489822, 0.17587436735630035, -0.006001938134431839, 0.03625795245170593, -0.30826234817504883, 0.11221741139888763, -0.2745928466320038, 0.24010664224624634, -0.1621464043855667, -0.019645648077130318, 0.19121259450912476, 0.16141749918460846, -0.20921486616134644, 0.28626197576522827, 0.03944209963083267, -0.11629493534564972, 0.17960289120674133, -0.09673359245061874, -0.23004978895187378, 0.1898556500673294, 0.016416849568486214, 0.11314491927623749, 0.05404988303780556, 0.12668021023273468, -0.007675485219806433, -0.1647835522890091, 0.1442667841911316, 0.3436378240585327, -0.2967463433742523, 0.14259688556194305, -0.1567860245704651, 0.23561714589595795, 0.07219228148460388, -0.30029982328414917, 0.20061101019382477, 0.013792437501251698, -0.2647125720977783, 0.2061598300933838, -0.08632319420576096, 0.30581724643707275, -0.1873050034046173, -0.009137747809290886, 0.03939630463719368, 0.33782798051834106, 0.07141733914613724, 0.23875023424625397, -0.07369297742843628, 0.031971048563718796, -0.1625412255525589, 0.12322873622179031, 0.01568625681102276, 0.11630446463823318, -0.23166698217391968, -0.024091893807053566, -0.08520792424678802, 0.1198500245809555, -0.03699745610356331, -0.10162650048732758, 0.3787931203842163, 0.1892041265964508, -0.3328896760940552, 0.03879531845450401, -0.15469089150428772, -0.22672311961650848, 0.1183016374707222, -0.14117185771465302, -0.277249276638031, 0.18098539113998413, -0.12131735682487488, 0.22928909957408905, -0.147243469953537, -0.055436767637729645, 0.06569897383451462, 0.1155349388718605, -0.11173123121261597, 0.062594935297966, -0.0766625925898552, 0.05967335402965546, -0.18117304146289825, -0.09828010201454163, 0.2290058732032776, -0.13802243769168854, 0.06560741364955902, 0.07391190528869629, -0.08771614730358124, -0.004443518351763487, 0.16869401931762695, 0.06603208184242249, -0.1648213416337967, -0.15560366213321686, -0.17681480944156647, -0.0028584161773324013, -0.12495563924312592, 0.18645158410072327, -0.06604575365781784, -0.10950365662574768, 0.019207090139389038, 0.07327251881361008, 0.17440088093280792, 0.14348261058330536, -0.07075612246990204, -0.17139211297035217, -0.056838613003492355, 0.15628056228160858, 0.02933453768491745, -0.14754456281661987, 0.11810801178216934, 0.2785246670246124, -0.08747192472219467, -0.08052601665258408, -0.04425636678934097, -0.01331811398267746, 0.024226002395153046, 0.010137923993170261, -0.015442208386957645, 0.09242846816778183, 0.19808468222618103, 0.11824944615364075, -0.04694176837801933, -0.15558886528015137, -0.10224008560180664, -0.08033987134695053, 0.07346539199352264, 0.18264487385749817, -0.30676349997520447, 0.10339480638504028, 0.007272049318999052, 0.2959551215171814, -0.10372679680585861, -0.18378499150276184, 0.06641863286495209, 0.15566523373126984, -0.18963995575904846, 0.1048370972275734, 0.09520121663808823, 0.04772370308637619, -0.24610793590545654, -0.04659666866064072, -0.08566951006650925, 0.05230458453297615, 0.13927894830703735, 0.06191439926624298, -0.11870408803224564, 0.10073941946029663, -0.06162157654762268, 0.20815643668174744, 0.13490037620067596, 0.1346730887889862, -0.2482541799545288, 0.10659589618444443, -0.09722606092691422, 0.019633295014500618, -0.030670983716845512, -0.13606823980808258, 0.3194572925567627, 0.015988456085324287, -0.2593630850315094, 0.15585701167583466, 0.1119997575879097, -0.089347705245018, 0.21351607143878937, 0.034593306481838226, -0.08034984022378922, 0.12259514629840851, -0.04406573995947838, 0.03192351385951042, -0.17063485085964203, 0.1220756471157074, -0.10606499761343002, -0.0027489732019603252, 0.14983569085597992, -0.03371315076947212, -0.15820510685443878, 0.1689339578151703, -0.0360046848654747, 0.18285471200942993, -0.1530144065618515, 0.008570518344640732, 0.13937526941299438, -0.09791062027215958, 0.1600179523229599, -0.04276331514120102, -0.1661086529493332, -0.09753365069627762, -0.031395576894283295, 0.1726311892271042, -0.06670650839805603, 0.08015961945056915, -0.07627981156110764, -0.07846192270517349, 0.04321453720331192, -0.07493270933628082, 0.02245652675628662, 0.1785084754228592, -0.0830082893371582, 0.0779685452580452, -0.10208610445261002, 0.157722607254982, -0.1028573289513588, 0.029374664649367332, -0.07983563095331192, 0.03433418273925781, 0.07153701037168503, 0.06783506274223328, 0.02501782588660717, 0.05774807929992676, 0.06254084408283234, 0.006505886092782021, 0.18820077180862427, -0.1354786902666092, 0.025978749617934227, 0.04670075699687004, 0.018656272441148758, 0.039492301642894745, -0.04660441353917122, -0.03177199140191078, 0.09280972182750702, 0.10060617327690125, -0.1612963080406189, 0.05748405680060387, 0.24903839826583862, -0.019550345838069916, -0.13849923014640808, -0.28898391127586365, 0.26607054471969604, -0.25353071093559265, -0.11836260557174683, 0.18525327742099762, -0.20786619186401367, -0.09702781587839127, 0.04364129155874252, 0.16961559653282166, 0.053564704954624176, -0.17652809619903564, -0.07624974846839905, 0.014662718400359154, 0.09678979218006134, 0.2419431209564209, 0.13488079607486725, -0.23234350979328156, -0.2397434264421463, -0.2739551365375519, 0.33424505591392517, 0.10119663923978806, 0.15744972229003906, -0.12609536945819855, -0.03987675905227661, -0.015545959584414959, 0.2982478737831116, -0.1262306272983551, -0.09353698790073395, 0.04297054558992386, -0.23082739114761353, -0.11789879947900772, 0.2982194423675537, -0.2629844844341278, -0.06359274685382843, 0.0917220488190651, -0.17152749001979828, -0.029647786170244217, 0.13821996748447418, 0.13598661124706268, -0.03298969939351082, -0.10494399815797806, 0.06554188579320908, -0.29522716999053955, 0.20328892767429352, -0.08379552513360977, -0.3789549469947815, 0.044106319546699524, 0.09607437998056412, 0.22293418645858765, 0.023002121597528458, 0.10432049632072449, 0.35833004117012024, -0.1189352348446846, -0.04412727802991867, 0.21483926475048065, -0.16743186116218567, 0.0193980373442173, -0.15240798890590668, 0.1609436571598053, 0.02205417864024639, 0.3006433844566345, -0.09286881983280182, 0.1282794177532196, -0.3241792619228363, -0.05801907926797867, -0.03357550874352455, 0.3495578169822693, -0.19816584885120392, 0.1571316421031952, -0.21118071675300598, -0.055418554693460464, -0.06143277883529663, 0.37584736943244934, -0.17231927812099457, -0.10448645800352097, 0.25706568360328674, -0.13681906461715698, 0.060323797166347504, 0.3376553952693939, 0.04767141863703728, -0.1139388382434845, 0.405243843793869, -0.131707563996315, 0.12265416979789734, 0.11876723915338516, -0.17820391058921814, 0.08411171287298203, -0.1808273196220398, 0.11357090622186661, -0.006145009305328131, -0.16350826621055603, -0.055345069617033005, -0.09612665325403214, 0.06261388957500458, 0.02008586749434471, -0.06172892823815346, -0.008929538540542126, 0.10733356326818466, 0.1541600227355957, -0.04488954693078995, 0.021255536004900932, 0.002135476330295205, -0.07713484764099121, -0.07414425164461136, 0.12894229590892792, 0.4545498192310333, -0.44849973917007446, 0.7678288817405701, -0.727783739566803, -0.028297586366534233, 0.9114078879356384, 1.0311675071716309, -0.4953675866127014, 0.21909765899181366, 0.16416704654693604, -0.4168335795402527, -0.43915876746177673, 0.24441003799438477, -0.667100191116333, 0.010980121791362762, 0.46649110317230225, -0.18599112331867218, 0.12139228731393814, -0.09654993563890457, 0.17902861535549164, 0.2521190047264099, -0.17270003259181976, -0.011504842899739742, 0.020592566579580307, -0.08841372281312943, -0.09933552145957947, 0.07741578668355942, 0.10477403551340103, 0.1412700116634369, 0.033461105078458786, 0.2573593854904175, 0.004555206745862961, -0.11177753657102585, -0.10650312900543213, -0.3708016872406006, 0.1844819188117981, -0.0008839679649099708, -0.0788198709487915, -0.3931686282157898, 0.12057962268590927, -0.09463619440793991, 0.36929959058761597, 0.16888779401779175, 0.18447652459144592, 0.3091239333152771, 0.027197368443012238, 0.06730000674724579, 0.3210364580154419, 0.09153134375810623, 0.06674288958311081, 0.04279860109090805, 0.14242559671401978, -0.09963421523571014, -0.14084389805793762, -0.02520945481956005, -0.02017178200185299, -0.005106104537844658, -0.18461111187934875, 0.22340360283851624, -0.27682286500930786, -0.06515521556138992, 0.22471828758716583, 0.020608140155673027, 0.04884461686015129, 0.20979394018650055, -0.1772378385066986, 0.04160412400960922, -0.2066231667995453, -0.004093235824257135, 0.12832419574260712, -0.01669633947312832, -0.08795071393251419, -0.14377570152282715, 0.05725742131471634, -0.21599642932415009, 0.016442861407995224, 0.055291250348091125, 0.1471041589975357, -0.2112516462802887, 0.0621849000453949, -0.22150298953056335, -0.2663831412792206, -0.3254074156284332, 0.21569664776325226, 0.20095784962177277, -0.007136314641684294, -0.24836920201778412, 0.03517788276076317, 0.01685451529920101, 0.1990300714969635, -0.17595499753952026, 0.30751603841781616, -0.06478665769100189, 0.1497860699892044, -0.13032832741737366, 0.15494467318058014, -0.09095903486013412, -0.08528611809015274, 0.11869034916162491, 0.05317861586809158, 0.27485156059265137, 0.3286328911781311, 0.0886915847659111, 0.09077262133359909, 0.21194085478782654, 0.0580575056374073, 0.035590216517448425, -0.1386355310678482, 0.07754229754209518, -0.18899546563625336, 0.2371051013469696, 0.018438421189785004, -0.03780865669250488, 0.28745943307876587, 0.17696169018745422, 0.2509552836418152, -0.3103533387184143, -0.4614042341709137, 0.04228419438004494, 0.23103442788124084, -0.0860275849699974, -0.5136305689811707, -0.2654983699321747, 0.2406352162361145, -0.32935449481010437, -0.04653412476181984, -0.02570457197725773, -0.31490176916122437, 0.20717753469944, 0.11717398464679718, 0.26576653122901917, -0.1605432629585266, -0.2458868771791458, 0.19754083454608917, 0.26241400837898254, 0.053326305001974106, 0.13456150889396667, -0.22379861772060394, 0.27015256881713867, -0.20861178636550903, 0.158935546875, -0.1266961544752121, -0.04004037752747536, -0.045914337038993835, -0.31446585059165955, 0.008983881212770939, -0.42212584614753723, -0.12075818330049515, 0.025651052594184875, -0.2734827995300293, -0.12023072689771652, 0.07734900712966919, -0.27825528383255005, -0.2793551981449127, 0.31884580850601196, 0.31525173783302307, 0.5298856496810913, -0.03287344053387642, 0.052590858191251755, 0.11596403270959854, -0.12848491966724396, 0.1589714139699936, 0.14289790391921997, -0.2373940497636795, -0.3541813790798187, 0.1005142331123352, 0.17311346530914307, -0.13982270658016205, 0.04495536908507347, 0.33275848627090454, -0.040805384516716, 0.028143232688307762, 0.08934110403060913, 0.24973201751708984, -0.22126810252666473, -0.023664511740207672, 0.11732134222984314, 0.2779521048069, -0.2563706040382385, 0.15981508791446686, -0.1819622665643692, -0.23317664861679077, 0.03922601789236069, -0.05647702515125275, -0.0024806377477943897, -0.20699329674243927, -0.09412723034620285, -0.015219028107821941, -0.02197277918457985, 0.1909964233636856, -0.15474452078342438, 0.42301878333091736, -0.043464358896017075, -0.21184249222278595, 0.3351016938686371, -0.05400795117020607, 0.22817640006542206, -0.059057608246803284, 0.03294830769300461, -0.04949861764907837, 0.062189411371946335, -0.27345892786979675, -0.13827387988567352, -0.18443189561367035, -0.329834908246994, -0.016268057748675346, -0.044113460928201675, -0.3237888813018799, 0.00819401629269123, -0.0987887904047966, 0.10367066413164139, -0.004831561353057623, 0.04568459466099739, -0.056341953575611115, 0.1484871655702591, 0.018197158351540565, 0.2251519411802292, 0.030863825231790543, -0.1680288016796112, 0.03612640127539635, 0.21692529320716858, -0.18951542675495148, -0.3016353249549866, 0.47220760583877563, -0.03746657818555832, -0.10828424990177155, -0.19855843484401703, 0.16308896243572235, -0.2302567958831787, 0.06529050320386887, 0.19967375695705414, 0.05637000873684883, -0.10964205116033554, -0.17344559729099274, -0.03877599909901619, 0.08478889614343643, -0.13250727951526642, 0.03514901548624039, -0.4020134210586548, 0.4409298896789551, -0.14432300627231598, 0.30422064661979675, -0.0862690731883049, -0.07206486165523529, 0.018964257091283798, -0.0017104046419262886, 0.07498190551996231, 0.09858211874961853, -0.29575610160827637, 0.028227152302861214, -0.012188682332634926, -0.10885493457317352, -0.12822358310222626, 0.2343168705701828, -0.3066342771053314, 0.08466704189777374, 0.2506113052368164, -0.01678888499736786, 0.2803542912006378, -0.19909022748470306, -0.07692151516675949, 0.36450013518333435, 0.2577182352542877, -0.06710828095674515, 0.030483264476060867, -0.056182265281677246, -0.04594143480062485, -0.3343924283981323, 0.43301689624786377, 0.11026810109615326, 0.06288764625787735, -0.164449542760849, 0.13040444254875183, -0.18036527931690216, 0.21065907180309296, -0.1827453076839447, -0.16555967926979065, -0.10160443186759949, 0.1884772628545761, -0.038431309163570404, 0.09594158828258514, -0.0566338449716568, 0.014020943082869053, 0.002113563008606434, 0.06764259934425354, 0.09150159358978271, -0.051210641860961914, 0.06084772199392319, -0.10337281972169876, 0.0038630240596830845, -0.18794290721416473, 0.08196116983890533, -0.2560935616493225, 0.11750048398971558, -0.13066744804382324, -0.07568342983722687, 0.24837058782577515, -0.15747268497943878, -0.06448189169168472, 0.09517835080623627, -0.15066765248775482, -0.1749805361032486, 0.22628618776798248, 0.23696908354759216, 0.0211174413561821, -0.1808558702468872, -0.2222406566143036, -0.15363894402980804, 0.16671431064605713, 0.09865764528512955, 0.005887402221560478, -0.4263399839401245, -0.15462739765644073, -0.08267965167760849, 0.04304146766662598, -0.07732553780078888, 0.09544677287340164, -0.11393961310386658, -0.25129929184913635, -0.12283330410718918, 0.26936614513397217, 0.01227726973593235, 0.11559472233057022, -0.16073159873485565, -0.11838594824075699, -0.005413873586803675, 0.24214647710323334, -0.130671888589859, 0.020431378856301308, 0.10968483239412308, -0.23434385657310486, -0.0034450560342520475, 0.2510029971599579, 0.24394382536411285, 0.06669829785823822, -0.2663385272026062, 0.048359304666519165, -0.08107974380254745, 0.10807450115680695, -0.22415167093276978, 0.1922580599784851, -0.028097495436668396, -0.07979235053062439, 0.07281506806612015, 0.14817927777767181, -0.18440018594264984, 0.023350238800048828, -0.12270745635032654, -0.0664682611823082, -0.1221594586968422, 0.0133850472047925, -0.08783279359340668, -0.28779715299606323, -0.09079306572675705, 0.21674829721450806, -0.2367510199546814, 0.08331270515918732, 0.11042051762342453, -0.0059159062802791595, 0.022740142419934273, -0.11326427757740021, -0.06069180369377136, -0.03218564763665199, -0.21541380882263184, 0.16483788192272186, -0.47704097628593445, -0.06394413113594055, 0.19111111760139465, -0.02913142740726471, 0.15094506740570068, -0.3675541579723358, 0.23526085913181305, -0.13008135557174683, -0.02752798981964588, -0.07594954967498779, -0.08790098875761032, 0.20505639910697937, -0.004018827341496944, -0.1428126096725464, 0.14203238487243652, -0.009380488656461239, 0.004069179762154818, 0.12439578026533127, -0.08597594499588013, -0.17452645301818848, -0.19345439970493317, 0.12210996448993683, 0.03194693475961685, 0.17398327589035034, -0.10945189744234085, 0.10848107933998108, 0.13792684674263, -0.18417367339134216, 0.2573484778404236, 0.11175183951854706, -0.18093791604042053, 0.26805379986763, 0.11255114525556564, -0.07529649138450623, -0.20111314952373505, -0.06801821291446686, 0.3531325161457062, 0.15992316603660583, -0.15337145328521729, -0.4188310503959656, -0.21062365174293518, -0.23943361639976501, 0.3934684693813324, 0.02761683613061905, 0.01815967820584774, -0.263212114572525, 0.15375849604606628, -0.12360427528619766, 0.15704146027565002, 0.09771808236837387, -0.022494889795780182, -0.15726742148399353, -0.021701866760849953, -0.18151140213012695, 0.20966261625289917, 0.20538043975830078, 0.05799563601613045, -0.3082291781902313, 0.10620227456092834, 0.03982536867260933, -0.13951192796230316, 0.13509367406368256, 0.18212001025676727, -0.08880697935819626, -0.2194247543811798, 0.018208825960755348, 0.357026606798172, -0.20271526277065277, -0.07689774036407471, 0.2856212854385376, -0.14035719633102417, 0.08357648551464081, 0.17022575438022614, 0.2535642385482788, -0.08140502125024796, -0.23636901378631592, 0.31995466351509094, 0.22132019698619843, -0.010438214987516403, 0.15226060152053833, 0.016394035890698433, -0.012016678228974342, -0.301998496055603, 0.028599942103028297, 0.11529679596424103, 0.14435391128063202, 0.10116230696439743, -0.14657215774059296, -0.283655047416687, -0.030573194846510887, 0.13658945262432098, 0.1812412440776825, -0.05630551651120186, 0.012305785901844501, 0.14714552462100983, -0.3570142388343811, -0.31423282623291016, 0.3630053400993347, -0.031928665935993195, -0.10684827715158463, 0.008554591797292233, 0.049490027129650116, 0.31933829188346863, 0.17066052556037903, 0.13452866673469543, -0.19438894093036652, 0.19569286704063416, -0.15232637524604797, -0.2216254621744156, 0.20026473701000214, -0.004854849074035883, 0.026272021234035492, -0.0429074652493, 0.04071357846260071, 0.16894540190696716, -0.1697717308998108, 0.1877719759941101, 0.06838182359933853, -0.066399946808815, 0.04209974780678749, -0.10422582179307938, -0.03255201876163483, 0.14312198758125305, -0.03162959963083267, -0.21572774648666382, -0.008209562860429287, 0.007019790355116129, -0.1613532155752182, -0.011641841381788254, -0.13438235223293304, -0.1612360030412674, 0.06026944890618324, -0.07811222225427628, 0.19265104830265045, 0.03140665963292122, 0.16578759253025055, 0.12243202328681946, -0.05790897458791733, 0.11552520841360092, 0.0795838013291359, 0.22598344087600708, -0.004186169244349003, 0.18583036959171295, -0.43916359543800354, 0.011110269464552402, 0.17312569916248322, -0.09849442541599274, -0.009435441344976425, -0.2149694412946701, 0.024702392518520355, 0.047037433832883835, -0.18774151802062988, -0.1627712845802307, 0.013204803690314293, 0.06995271146297455, -0.05575896054506302, 0.03649679571390152, 0.04557659849524498, -0.14028750360012054, -0.10315763205289841, 0.15138298273086548, -0.16805025935173035, -0.1352267563343048, -0.21264314651489258, 0.027137229219079018, 0.02336016856133938, -0.16524383425712585, -0.3412156105041504, -0.02270670235157013, 0.06626623123884201, -0.13715045154094696, 0.11395437270402908, 0.14031463861465454, 0.1052856594324112, 0.12225936353206635, 0.045196786522865295, -0.08146654814481735, 0.012255116365849972, 0.033771466463804245, 0.1217222809791565, -0.008660250343382359, 0.15792475640773773, -0.08191097527742386, -0.13041524589061737, 0.05401533469557762, 0.03993431106209755, 0.10402525961399078, 0.11033571511507034, -0.15799200534820557, -0.10484569519758224, 0.32479625940322876, -0.28126639127731323, 0.048943959176540375, 0.21366257965564728, -0.060453835874795914, 0.12796536087989807, 0.17142188549041748, 0.42611342668533325, 0.17163774371147156, 0.22242136299610138, -0.01851074770092964, 0.14682379364967346, 0.09886440634727478, -0.2670840919017792, 0.11049100756645203, 0.09664297103881836, -0.009177541360259056, -0.07134818285703659, -0.05035146698355675, 0.24625612795352936, 0.09664247184991837, -0.10466751456260681, -0.025598833337426186, 0.22929155826568604, -0.13430865108966827, 0.367095023393631, -0.015709370374679565, -0.013097922317683697, 0.009540366008877754, 0.05146957188844681, 0.1221764087677002, -0.030394116416573524, -0.10910788178443909, -0.23831909894943237, 0.1823268085718155, -0.08266542851924896, 0.12377685308456421, -0.06736306101083755, 0.22505280375480652, 0.050017017871141434, -0.19085805118083954, -0.14608632028102875, 0.04835829511284828, -0.02267112210392952, 0.059364061802625656, -0.10238279402256012, -0.005479964893311262, -0.12056919187307358, 0.1957128345966339, 0.2722383737564087, 0.08665193617343903, 0.1665208488702774, 0.10975441336631775, -0.08964651077985764, -0.062209613621234894, -0.3417888283729553, -0.03648277744650841, 0.2749699652194977, 0.21932922303676605, 0.1152670755982399, 0.08617839962244034, 0.2252350151538849, -0.17898567020893097, -0.011653129011392593, 0.2219010293483734, -0.07075735181570053, 0.008848851546645164, -0.14402689039707184, 0.024194471538066864, -0.08583740144968033, 0.11117614805698395, 0.0004329426446929574, 0.07760461419820786, -0.2463301122188568, -0.19272828102111816, -0.12911276519298553, -0.031108330935239792, 0.16604450345039368, -0.12977005541324615, -0.12298469990491867, -0.051340073347091675, -0.12111858278512955, -0.26940563321113586, -0.10047256201505661, 0.21608532965183258, 0.07883509993553162, -0.060066577047109604, 0.04808118939399719, -0.0910646915435791, 0.08938102424144745, 0.1189776286482811, 0.03458911553025246, -0.07294340431690216, -0.028585156425833702, -0.20657587051391602, 0.11812154203653336, 0.08647610247135162, -0.01742398552596569, -0.13255366683006287, -0.053927432745695114, -0.25141608715057373, 0.06435059010982513, 0.03426089137792587, 0.1110166609287262, 0.02445169910788536, -0.21659183502197266, -0.044443123042583466, 0.04160402715206146, -0.2325116991996765, -0.09147432446479797, -0.05385485291481018, -0.0437462292611599, -0.05814707651734352, 0.1712595820426941, 0.01364791952073574, 0.0661693662405014, -0.059990208595991135, 0.21865397691726685, 0.10059951990842819, 0.14313022792339325, -0.35847654938697815, -0.4826696813106537, 0.02140364795923233, 0.3770211935043335, 0.07774229347705841, 0.17317421734333038, 0.14159436523914337, -0.09412075579166412, -0.24435792863368988, 0.14901193976402283, -0.13921450078487396, -0.05562328174710274, -0.2720099091529846, 0.06867706030607224, -0.0036803423427045345, 0.2634758949279785, -0.04637550190091133, -0.22547267377376556, -0.411670982837677, 0.05748148635029793, 0.04152350872755051, 0.1860380321741104, -0.28215935826301575, 0.16578194499015808, -0.2530859410762787, 0.3014164865016937, -0.08139844238758087, 0.14012141525745392, -0.039660342037677765, -0.09516392648220062, -0.012374361045658588, 0.09620128571987152, -0.10537264496088028, 0.2977449893951416, 0.2575661242008209, 0.17396356165409088, 0.17800214886665344, -0.012899928726255894, -0.10509510338306427, 0.05914813280105591, -0.1326463669538498, -0.039233848452568054, -0.16068202257156372, 0.20532676577568054, -0.10412738472223282, 0.12411738187074661, -0.014444486238062382, -0.10512177646160126, 0.11109655350446701, 0.3941679894924164, -0.0899302139878273, -0.19504421949386597, 0.10202358663082123, -0.10643244534730911, -0.038073502480983734, 0.19189536571502686, 0.05327179282903671, 0.13438983261585236, 0.19364836812019348, -0.0971897691488266, -0.028124600648880005, -0.2251148521900177, 0.08642198890447617, -0.0590282641351223, -0.02637707255780697, 0.11075270175933838, -0.11828590929508209, -0.10081890225410461, 0.22934624552726746, 0.05054125189781189, 0.38125118613243103, -0.09820643067359924, -0.23142878711223602, 0.12247097492218018, 0.11363314092159271, -0.15125364065170288, 0.2285074144601822, 0.05760807543992996, 0.12279994040727615, -0.4719129204750061, 0.36732473969459534, -0.03427852690219879, 0.09692574292421341, -0.029821891337633133, -0.17948482930660248, 0.2502044141292572, -0.015874842181801796, -0.16384154558181763, 0.0653081089258194, -0.02429182641208172, 0.006744383834302425, -0.15045727789402008, 0.1411430835723877, 0.02645021490752697, 0.13546590507030487, -0.20702646672725677, -0.043201230466365814, 0.0883171334862709, -0.03779378533363342, -0.06569065153598785, -0.02969253621995449, 0.1479368656873703, -0.16913321614265442, -0.022275341674685478, 0.07754695415496826, -0.05397608503699303, -0.02613293193280697, -0.03973885998129845, 0.09999629855155945, 0.144334614276886, -0.058045148849487305, -0.12770217657089233, 0.036602627485990524, 0.21114908158779144, 0.019804418087005615, 0.13276812434196472, 0.005785519722849131, -0.10294410586357117, -0.08962215483188629, 0.16766631603240967, 0.05976763367652893, -0.009581790305674076, 0.044450078159570694, 0.019232826307415962, -0.12880976498126984, 0.013980847783386707, 0.010488760657608509, 0.0815672054886818, -0.16820739209651947, -0.08086298406124115, 0.030177533626556396, 0.14181526005268097, -0.07239532470703125, -0.11341693252325058, 0.12155386805534363, -0.03413044288754463, -0.03406655415892601, 0.032333556562662125, -0.0066366191022098064, -0.1367425173521042, -0.07415204495191574, 0.15875224769115448, -0.13615624606609344, 0.03636229410767555, 4.162618552072672e-06, 0.2332075834274292, -0.19931745529174805, -0.17985670268535614, 0.23021021485328674, 0.11702446639537811, -0.021869638934731483, 0.06770696491003036, -0.016910314559936523, -0.11051566153764725, 0.1029251366853714, -0.16117699444293976, 0.1325165182352066, -0.051866017282009125, -0.040627527981996536, -0.24127496778964996, -0.17257370054721832, 0.09289006143808365, 0.17421655356884003, 0.0525696761906147, 0.01043091993778944, 0.024042699486017227, -0.09263227134943008, -0.07846203446388245, -0.2365984320640564, 0.33317896723747253, -0.07113330811262131, -0.1838865727186203, 0.2255391776561737, -0.06513462215662003, 0.04208771511912346, -0.23726369440555573, 0.10711896419525146, -0.0012451520888134837, 0.07379413396120071, 0.13634458184242249, 0.08329379558563232, 0.21412815153598785, -0.05324907228350639, -0.04438617825508118, 0.21093012392520905, -0.1500004678964615, 0.012668408453464508, 0.018595611676573753, 0.18452604115009308, -0.1751011162996292, 0.031459156423807144, 0.04527818039059639, 0.0684610903263092, 0.04086467996239662, -0.10566181689500809, 0.16233260929584503, 0.056652672588825226, -0.1997419148683548, 0.0078115095384418964, -0.002158551709726453, -0.1445518434047699, 0.30222928524017334, 0.03360920771956444, -0.14153489470481873, -0.15998488664627075, -0.1594063937664032, 0.26310819387435913, 0.1490897387266159, -0.019760612398386, 0.05013153702020645, -0.15585929155349731, -0.08062383532524109, 0.20593401789665222, 0.03332321718335152, 0.1553833931684494, 0.10463595390319824, 0.025867238640785217, 0.06492211669683456, -0.35171669721603394, 0.22596250474452972, 0.14102867245674133, -0.1702752709388733, 0.009400058537721634, -0.2972410023212433, 0.028103532269597054, 0.07072781026363373, -0.16188064217567444, -0.19044890999794006, 0.08123811334371567, 0.004500274080783129, -0.2232261449098587, 0.20346400141716003, -0.07171191275119781, -0.17151480913162231, -0.03812791779637337, 0.07662252336740494, 0.08741425722837448, -0.020677203312516212, -0.009881852194666862, -0.00027021425194106996, -0.003492203075438738, 0.008131739683449268, 0.14595553278923035, 0.1441032588481903, -0.12543395161628723, 0.10132566839456558, -0.0387888140976429, 0.005904334131628275, 0.05792424827814102, -0.003114420687779784, 0.0445973239839077, 0.16727542877197266, -0.05200803652405739, 0.15172059834003448, -0.0256147850304842, -0.08165380358695984, 0.14960455894470215, -0.14154362678527832, 0.12393509596586227, 0.04244113713502884, 0.03714523836970329, 0.0014744284562766552, -0.04638297110795975, 0.0386752150952816, 0.07566704601049423, -0.3783454895019531, 0.32101354002952576, -0.001147552626207471, -0.07129508256912231, -0.03377639502286911, -0.0655902549624443, 0.24299408495426178, -0.09543246030807495, -0.15268747508525848, -0.03847920894622803, 0.1194034218788147, 0.10254083573818207, 0.0563892163336277, -0.00479705398902297, 0.013303208164870739, -0.1599886566400528, -0.05191732943058014, -0.06411155313253403, -0.06756959855556488, 0.07824719697237015, 0.14098547399044037, 0.03727304935455322, 0.09888714551925659, -0.03996690362691879, 0.11312944442033768, -0.2848292887210846, -0.163203164935112, 0.35767585039138794, 0.0419427789747715, -0.3234441578388214, -0.12333489209413528, -0.12814287841320038, -0.17887459695339203, 0.23491068184375763, -0.09377747029066086, 0.3311481475830078, -0.3426514267921448, -0.033880796283483505, -0.28658348321914673, 0.37424707412719727, 0.13332751393318176, 0.05140377953648567, -0.42699456214904785, -0.08629565685987473, -0.10698319226503372, 0.20602191984653473, 0.0009700208902359009, 0.001858184696175158, -0.40803080797195435, 0.0018576126312837005, -0.1522742062807083, 0.3034633994102478, 0.020175838842988014, 0.1065792664885521, -0.21024169027805328, 0.03220298886299133, 0.11211251467466354, 0.2573412358760834, 0.17786982655525208, -0.06276590377092361, 0.23402893543243408, 0.08069104701280594, -0.2305620014667511, 0.20157234370708466, -0.1642661690711975, 0.14176400005817413, -0.31074661016464233, 0.051331691443920135, -0.07823844254016876, -0.03172667697072029, -0.11270676553249359, 0.23455534875392914, 0.1676771193742752, 0.07292681932449341, -0.054531026631593704, 0.08020996302366257, 0.04764561727643013, 0.11589693278074265, 0.16452492773532867, -0.026606976985931396, 0.031981006264686584, 0.10172350704669952, -0.007191526237875223, 0.0380902923643589, -0.24860461056232452, -0.01563526690006256, -0.07670845091342926, 0.11572269350290298, -0.22870038449764252, 0.031636886298656464, -0.1643258035182953, -0.08347823470830917, -0.06440259516239166, -0.008430179208517075, -0.010352972894906998, -0.29585838317871094, 0.15716077387332916, 0.12951120734214783, -0.03744995594024658, 0.25362494587898254, -0.12766705453395844, 0.08284187316894531, -0.0490109883248806, 0.2108149528503418, -0.042472511529922485, -0.0763041228055954, 0.0335070863366127, -0.007084102835506201, 0.21571743488311768, -0.11005238443613052, -0.02269747294485569, 0.053138427436351776, 0.019550496712327003, 0.054468486458063126, 0.17971371114253998, 0.253986120223999, 0.22159600257873535, 0.13140791654586792, -0.07471205294132233, -0.0382806770503521, -0.04554981365799904, 0.07425370812416077, 0.20464983582496643, 0.15303973853588104, 0.115809865295887, -0.08036255836486816, 0.06764035671949387, 0.1985049992799759, 0.04888245090842247, 0.033733367919921875, 0.3152426779270172, -0.1254355013370514, -0.8317996859550476, 0.3117961287498474, 0.6911927461624146, -0.47114914655685425, 0.27127495408058167, -1.060900330543518, -0.28020092844963074, -0.45994341373443604, 0.7995110154151917, -0.9979071021080017, -0.5669843554496765, -0.9896905422210693, 0.5570095777511597, -0.861472487449646, 0.25006818771362305, -0.7514551281929016, -0.08708517998456955, 0.0039805942215025425, -0.16569660604000092, 0.106450155377388, -0.059501681476831436, 0.054062582552433014, -0.5251033306121826, 0.06425159424543381, -0.13446877896785736, 0.12095481157302856, 0.21079784631729126, -0.14088882505893707, -0.09105200320482254, 0.1756592094898224, -0.3639358878135681, -0.08304135501384735, 0.08200883865356445, -0.25871196389198303, -0.04089350998401642, -0.19405058026313782, -0.23088374733924866, 0.2294805496931076, -0.02006533183157444, -0.012289890088140965, 0.43261048197746277, -0.3719819188117981, 0.1395113468170166, -0.015283812768757343, 0.019216086715459824, 0.03176805004477501, 0.00489121163263917, 0.07195007055997849, 0.03443509340286255, -0.28155797719955444, -0.01877572573721409, 0.24108748137950897, 0.015479940921068192, -0.06513157486915588, -0.08231648802757263, 0.14907893538475037, -0.22045595943927765, 0.07221205532550812, -0.05772874876856804, -0.2730215787887573, -0.14648319780826569, 0.06673987209796906, 0.09620504826307297, -0.06582829356193542, 0.28064024448394775, -0.05106480419635773, -0.4057236611843109, -0.4286637008190155, -0.03142040967941284, 0.028020594269037247, -0.17478707432746887, 0.06648214906454086, -0.0180039219558239, 0.023870794102549553, 0.15467405319213867, 0.11205101013183594, 0.17503350973129272, 0.012388650327920914, 0.00018224665836896747, -0.07862377911806107, 0.8255782723426819, -0.18543465435504913, -0.6049286723136902, -0.4572787284851074, 0.23224510252475739, 0.18956045806407928, -0.08641070127487183, 0.3628526031970978, 0.10676214098930359, 0.286518931388855, 0.0147187365218997, 0.38151034712791443, -0.39054083824157715, 0.13483543694019318, -0.029108591377735138, -0.11384714394807816, -0.19927607476711273, -0.0008230154635384679, -0.16864058375358582, -0.2757319211959839, -0.1043844223022461, -0.23349696397781372, 0.05361874774098396, -0.1645125299692154, 0.2555714249610901, 0.2850484848022461, -0.1206403598189354, 0.10005126893520355, -0.08553413301706314, -0.23342087864875793, 0.2417789250612259, 0.20212364196777344, 0.12695130705833435, -0.03591059520840645, 0.3092787265777588, -0.12577712535858154, -0.2931710183620453, 0.20272867381572723, -0.08340790122747421, -0.24560415744781494, 0.1796080470085144, -0.1347735971212387, -0.20874522626399994, 0.17560048401355743, -0.01907893642783165, 0.13303744792938232, -0.21564881503582, 0.37362584471702576, 0.12998326122760773, -0.15044982731342316, -0.022276869043707848, -0.10758929699659348, -0.0008280646870844066, -0.07567957043647766, -0.11000897735357285, 0.10595526546239853, -0.10386508703231812, 0.40991413593292236, -0.12777361273765564, 0.005012417212128639, -0.33981433510780334, 0.2776787281036377, 0.1352575123310089, 0.15145765244960785, 0.3707469701766968, 0.05756751075387001, -0.4762250781059265, -0.45647454261779785, -0.17257481813430786, -0.0653262659907341, -0.1539088487625122, 0.04797617718577385, -0.24298979341983795, 0.25564661622047424, 0.37858766317367554, -0.03433902934193611, -0.46950867772102356, 0.29440441727638245, -0.20703372359275818, 0.2267286628484726, -0.18687835335731506, 0.3496558666229248, 0.08652271330356598, -0.013248932547867298, -0.11612945050001144, -0.19098040461540222, 0.08033987879753113, -0.11346389353275299, 0.02707425132393837, -0.07233308255672455, 0.12727577984333038, 0.30213361978530884, 0.08309544622898102, -0.07315011322498322, 0.1521630436182022, -0.0043510496616363525, -0.09945335239171982, -0.2174890786409378, -0.09883338212966919, 0.1673775017261505, 0.2592734694480896, 0.01050499826669693, -0.09843553602695465, 0.02541855350136757, -0.02211848646402359, 0.19690845906734467, -0.06728444993495941, -0.04341863468289375, -0.04129193723201752, 0.10438775271177292, -0.1251794695854187, -0.027709944173693657, 0.11921936273574829, 0.32801198959350586, -0.3533529043197632, -0.12550309300422668, -0.1979503035545349, -0.1831776648759842, 0.044258758425712585, 0.23185177147388458, -0.16616100072860718, 0.09766298532485962, 0.18656182289123535, -0.13177528977394104, 0.05255699157714844, -0.02473336271941662, -0.03686096891760826, -0.2641395330429077, -0.07288499176502228, -0.2886240780353546, -0.2621450126171112, 0.43117353320121765, 0.11789645999670029, 0.3948504626750946, -0.3192753493785858, 0.22395743429660797, -0.055216506123542786, -0.33214271068573, -0.04404439404606819, -0.7177318334579468, -0.05031690374016762, 0.2563481628894806, -0.24747176468372345, -0.23932212591171265, 0.14965440332889557, 0.08882234245538712, -0.12954382598400116, 0.31734025478363037, -0.2703351378440857, 0.04627230018377304, 0.11386553943157196, -0.07254357635974884, 0.1824377030134201, 0.31179267168045044, 0.007898814044892788, 0.17716024816036224, 0.10377504676580429, -0.0696481391787529, 0.27323123812675476, 0.004031030926853418, 0.08688835054636002, 0.04715942591428757, 0.054617173969745636, -0.038998279720544815, -0.17957265675067902, -0.036466922610998154, 0.24064303934574127, -0.020276881754398346, 0.052803777158260345, 0.12015394866466522, -0.10745203495025635, -0.00034162052907049656, -0.1044711321592331, 0.11721821129322052, 0.3398886024951935, 0.21282805502414703, 0.25300133228302, -0.1414753496646881, -0.336646169424057, -0.11793038994073868, -0.018406951799988747, -0.25738951563835144, -0.5072300434112549, 0.41165563464164734, -0.2557338774204254, -0.2728304862976074, 0.45027458667755127, -0.1403415948152542, -0.3651391565799713, 0.24644288420677185, -0.637935221195221, -0.4146648347377777, -0.03471093997359276, -0.19549669325351715, -0.12087945640087128, -0.06275574862957001, -0.19697707891464233, -0.06412065774202347, 0.28569310903549194, -0.01086412649601698, 0.21028199791908264, 0.2691492736339569, -0.060793355107307434, -0.16365429759025574, 0.1904420703649521, -0.29178887605667114, -0.2842496633529663, -0.009810187853872776, 0.21132022142410278, -0.2672729194164276, -0.17439709603786469, -0.23146510124206543, -0.08125132322311401, -0.24635003507137299, -0.1519722044467926, -0.02922484651207924, 0.008540469221770763, 0.31741687655448914, 0.01790740340948105, -0.18055850267410278, 0.2020399272441864, 0.20727679133415222, 0.025186605751514435, 0.22930924594402313, 0.19014394283294678, -0.1239669993519783, -0.19758911430835724, 0.13365480303764343, 0.12856581807136536, 0.07482146471738815, 0.20342108607292175, -0.2861426770687103, 0.029184717684984207, 0.3103346824645996, 0.09284330159425735, -0.21795475482940674, 0.36362195014953613, 0.10185794532299042, -0.26416411995887756, 0.030918877571821213, -0.012481741607189178, 0.17465919256210327, -0.12771713733673096, -0.06761481612920761, -0.04381788522005081, -0.7727874517440796, 0.18932776153087616, -0.2136952430009842, 0.1639665961265564, -0.02092697098851204, -0.11091870069503784, 0.1744079440832138, -0.11467484384775162, 0.39407023787498474, -0.40285682678222656, -0.06792152673006058, -0.0006403654115274549, -0.19970320165157318, 0.1594243049621582, -0.17755888402462006, 0.09255725145339966, -0.17523302137851715, 0.08541295677423477, -0.03155254200100899, -0.04201153293251991, -0.03266890347003937, -0.11059322208166122, 0.1550443023443222, 0.10847005248069763, -0.08443766087293625, 0.1847774237394333, 0.2167324423789978, 0.2433410882949829, 0.09394130855798721, 0.0997685119509697, -0.16554191708564758, 0.05569811165332794, 0.026577739045023918, -0.1535550057888031, 0.002617624821141362, -0.07858168333768845, -0.17231005430221558, -0.06596331298351288, 0.13471831381320953, 0.19433847069740295, 0.020525414496660233, 0.13343191146850586, -0.09008901566267014, -0.10189945995807648, -0.09769115597009659, -0.19895903766155243, 0.08906203508377075, 0.033323805779218674, 0.035379815846681595, -0.20212098956108093, 0.047169409692287445, -0.027246471494436264, -0.18186542391777039, -0.021733134984970093, 0.11229752749204636, -0.024277789518237114, 0.10372493416070938, -0.1463107466697693, 0.1383003443479538, 0.15954986214637756, 0.10086177289485931, -0.2794174551963806, 0.10993880778551102, 0.047168027609586716, -0.03752816841006279, 0.05466474965214729, 0.04914381355047226, 0.3139001429080963, -0.021220406517386436, 0.06940224021673203, 0.2463938146829605, 0.0354311428964138, -0.05576253682374954, 0.3374292552471161, 0.11658944934606552, -0.04969167709350586, -0.0477946512401104, -0.05564884841442108, 0.13546156883239746, 0.18745797872543335, 0.08691232651472092, 0.07056523114442825, 0.11020191758871078, 0.20331574976444244, 0.16087298095226288, 0.3513084053993225, 0.005424845032393932, -0.03404412046074867, -0.16751864552497864, -0.3026263415813446, 0.019391756504774094, 0.1342066377401352, 0.16523528099060059, 0.09556055068969727, -0.1613542139530182, -0.013093959540128708, 0.4724544584751129, 0.03398153930902481, -0.22207677364349365, -0.04832252487540245, 0.2899395823478699, -0.05769699811935425, -0.24049480259418488, 0.1397811621427536, 0.06249363720417023, 0.1641523689031601, -0.06273646652698517, -0.01328218076378107, -0.21864621341228485, 0.25943344831466675, -0.13894380629062653, 0.1278895139694214, -0.1725357323884964, 0.10407126694917679, 0.23591026663780212, -0.2265934944152832, 0.16977527737617493, 0.2395249903202057, 0.14702017605304718, 0.059819869697093964, 0.04307727888226509, 0.01107375044375658, 0.04947567358613014, 0.06254099309444427, 0.22238041460514069, 0.021746741607785225, 0.07075293362140656, -0.1602553278207779, 0.05175663158297539, 0.12278161197900772, 0.10354427993297577, 0.009712433442473412, 0.055177342146635056, 0.019114883616566658, -0.2603670060634613, -0.19380775094032288, -0.2548094391822815, 0.18659289181232452, 0.2077857255935669, -0.0370364710688591, 0.1887068897485733, -0.038301777094602585, 0.0397479273378849, 0.4378560185432434, -0.20225894451141357, -0.054008062928915024, 0.2949499189853668, 0.114969901740551, 0.04104965925216675, 0.06713145971298218, 0.14649972319602966, 0.02622566558420658, -0.007815690711140633, -0.12691909074783325, 0.15282650291919708, 0.23268891870975494, -0.12365369498729706, -0.11629149317741394, -0.09199908375740051, 0.0022142946254462004, 0.16802582144737244, -0.049166563898324966, 0.020175080746412277, 0.09959987550973892, -0.19891045987606049, -0.210981085896492, -0.19273881614208221, -0.27478110790252686, -0.24264709651470184, 0.09088419377803802, 0.07561057806015015, 0.17161384224891663, -0.20808570086956024, -0.3003281354904175, -0.15007419884204865, 0.2158513367176056, -0.013708913698792458, -0.04562748596072197, -0.2054082155227661, -0.11103755980730057, -0.3932817876338959, 0.22973646223545074, 0.2062704861164093, 0.24726437032222748, -0.07915882766246796, -0.19139304757118225, -0.12425978481769562, 0.25603222846984863, 0.046148721128702164, 0.019993584603071213, -0.1997273713350296, -0.010845639742910862, 0.013929006643593311, 0.5998615622520447, -0.18351958692073822, -0.14532507956027985, 0.33655914664268494, -0.13252416253089905, -0.16384874284267426, 0.24255268275737762, 0.1320337951183319, -0.1185290738940239, -0.05681871995329857, 0.17835445702075958, -0.05502483248710632, -0.27493104338645935, -0.10026730597019196, -0.015704236924648285, 0.15087102353572845, -0.16999036073684692, -0.11670126020908356, 0.031093386933207512, 0.02398170344531536, -0.25408539175987244, 0.012030674144625664, 0.017335355281829834, -0.1658409982919693, 0.02805645950138569, 0.04710424318909645, -0.05596165731549263, 0.01593414507806301, -0.14545230567455292, 0.045968860387802124, 0.15865276753902435, 0.11864528805017471, -0.12297721952199936, 0.025732195004820824, 0.06052781268954277, -0.09348104894161224, -0.10768786817789078, -0.27637940645217896, 0.023758133873343468, 0.023315882310271263, -0.09947708994150162, 0.007723608054220676, 0.10803508013486862, 0.1615358144044876, 0.003830745117738843, -0.17504312098026276, -0.23768970370292664, -0.23385486006736755, -0.30855807662010193, -0.19838273525238037, -0.005469503812491894, 0.15796610713005066, -0.1790134459733963, -0.10570314526557922, 0.030974287539720535, 0.3064960837364197, -0.14644277095794678, -0.24553729593753815, -0.038952577859163284, -0.025493556633591652, -0.04369684308767319, 0.004060923121869564, 0.27227598428726196, 0.23739008605480194, 0.10353284329175949, -0.12697196006774902, -0.04842011258006096, -0.2346591353416443, 0.143438920378685, -0.12880147993564606, -0.1648845076560974, -0.04440174996852875, -0.006501794792711735, -0.0010931360302492976, 0.1560078263282776, -0.024525389075279236, -0.14987824857234955, -0.11652883142232895, -0.13191813230514526, 0.26265475153923035, 0.1398279070854187, -0.20835193991661072, -0.3103366494178772, -0.05185380578041077, 0.06273172795772552, 0.06435003876686096, 0.15976016223430634, -0.017785988748073578, -0.22948400676250458, 0.0006537419394589961, -0.03926431015133858, 0.0072945826686918736, -0.11744215339422226, -0.18886104226112366, 0.1976311206817627, 0.01951942779123783, 0.04689313471317291, -0.08523045480251312, -0.1134931743144989, 0.10653369128704071, -0.18257632851600647, 0.013302067294716835, 0.17633701860904694, 0.0940220057964325, -0.06003722548484802, -0.12400472164154053, -0.060868315398693085, 0.2245670109987259, -0.15593114495277405, 0.10535836219787598, -0.12770935893058777, 0.15617072582244873, -0.12986133992671967, 0.1359122395515442, -0.005924959201365709, -0.18910394608974457, 0.016743317246437073, 0.04794400930404663, -0.1404324173927307, 0.08624718338251114, -0.052234601229429245, 0.1640617996454239, 0.06321350485086441, -0.0952400490641594, 0.040268316864967346, -0.008722804486751556, 0.12770891189575195, 0.015912741422653198, 0.13037633895874023, -0.14179736375808716, -0.10348668694496155, 0.11192188411951065, -0.05708283185958862, 0.06137619540095329, 0.08558090776205063, -0.04417022690176964, 0.08440014719963074, -0.08516864478588104, -0.019943594932556152, -0.07076887786388397, 0.15960903465747833, -0.06514257937669754, -0.07214268296957016, 0.4468764066696167, 0.3553639054298401, -0.12706120312213898, -0.10629000514745712, 0.03551724553108215, -0.007781681139022112, -0.16117866337299347, -0.08329290896654129, -0.18626677989959717, 0.14207324385643005, 0.027353474870324135, -0.12986856698989868, -0.14814597368240356, -0.2300010770559311, 0.30809900164604187, -0.19967465102672577, -0.1635495126247406, -0.22529006004333496, -0.14048358798027039, 0.04561502858996391, 0.003277794923633337, 0.03545209765434265, -0.13048267364501953, -0.13010473549365997, -0.021530073136091232, 0.012457293458282948, -0.052665043622255325, -0.08819977939128876, -0.19671359658241272, 0.1009005457162857, -0.02536747232079506, 0.23622924089431763, 0.09415323287248611, -0.33686843514442444, -0.10927025973796844, 0.29756271839141846, 0.07876841723918915, 0.2359135001897812, 0.3185117542743683, 0.33413591980934143, 0.302215576171875, -0.32996267080307007, -0.3170812129974365, -0.1121704950928688, 0.02854926511645317, 0.1843692660331726, -0.10901108384132385, 0.1257205754518509, 0.3084883987903595, 0.21109995245933533, -0.17897814512252808, -0.1691904366016388, 0.22967295348644257, -0.09807807952165604, -0.16691063344478607, 0.004476060159504414, 0.27064165472984314, 0.2055901139974594, -0.113059401512146, -0.08372242748737335, -0.16301795840263367, -0.02296266332268715, 0.04485635459423065, 0.24783863127231598, -0.020921573042869568, 0.11713290959596634, 0.11848121881484985, 0.08023618906736374, -0.07453373819589615, -0.030683647841215134, 0.011231327429413795, -0.06052729859948158, 0.03880760818719864, 0.12989762425422668, -0.08915812522172928, 0.022940773516893387, 0.06428724527359009, -0.22170594334602356, 0.033850446343421936, -0.26363059878349304, -0.09069133549928665, -0.1713900864124298, -0.06448930501937866, -0.1446382850408554, -0.248174786567688, 0.058278437703847885, 0.034630533307790756, -0.09913481026887894, -0.05550298094749451, 0.15533287823200226, 0.12381033599376678, 0.0018013623775914311, -0.0625825747847557, 0.07018178701400757, 0.013614975847303867, -0.08364970982074738, -0.03939250484108925, 0.04237208515405655, 0.07348553836345673, 0.028235746547579765, 0.04370139166712761, 0.07504665851593018, 0.278617262840271, -0.09238112717866898, 0.07710650563240051, -0.19629137217998505, -0.02687990665435791, -0.21867603063583374, -0.024299511685967445, 0.3973407447338104, 0.01801299676299095, 0.18084777891635895, 0.006234017200767994, 0.22595727443695068, 0.08527979999780655, -0.12419874966144562, -0.30795061588287354, -0.06806120276451111, 0.247063547372818, 0.10838671028614044, -0.247914120554924, 0.022724531590938568, -0.20188358426094055, 0.06146227568387985, 0.04135025665163994, 0.15165361762046814, 0.05606882646679878, -0.4334816634654999, -0.15786106884479523, 0.1535891741514206, 0.09483730047941208, -0.03327186405658722, 0.005442130845040083, -0.07664551585912704, -0.11481211334466934, 0.036639127880334854, -0.04424278065562248, 0.3154713213443756, 0.08125291019678116, -0.20662732422351837, -0.11939831078052521, -0.19486911594867706, 0.299517422914505, 0.10717998445034027, -0.06637811660766602, 0.7102438807487488, 0.356781929731369, -0.10043536126613617, -0.4163433313369751, 0.1803751140832901, 0.22987811267375946, -0.42409607768058777, -0.22663502395153046, -0.28578701615333557, 0.2654326260089874, 0.14647169411182404, -0.04086310416460037, 0.017050044611096382, -0.18583089113235474, 0.029547786340117455, 0.14245830476284027, -0.0070034717209637165, -0.07854972779750824, 0.21527618169784546, -0.04115460067987442, -0.16132843494415283, 0.052920255810022354, 0.13133648037910461, -0.10732477903366089, 0.16524171829223633, 0.0063635073602199554, 0.01584268920123577, -0.053731516003608704, -0.060525063425302505, 0.07287345826625824, 0.2457537204027176, 0.2006358653306961, -0.09988244622945786, -0.3086860179901123, -0.0987677201628685, -0.03142459690570831, -0.008867933414876461, -0.2931313216686249, 0.2524905502796173, -0.24650372564792633, -0.2113628089427948, -0.1812361627817154, 0.01209983229637146, 0.23567135632038116, -0.067946657538414, -0.002613708609715104, -0.05837588384747505, -0.14537425339221954, -0.058830227702856064, -0.2189367115497589, -0.14955635368824005, 0.24287548661231995, -0.208857461810112, -0.20750750601291656, 0.19684350490570068, 0.20290321111679077, -0.15476876497268677, -0.15401910245418549, 0.000344238243997097, -0.3068181574344635, 0.1838735044002533, -0.017874063923954964, 0.22913697361946106, -0.12418073415756226, -0.07644892483949661, -0.11289630085229874, -0.15981538593769073, 0.08387603610754013, 0.11294129490852356, 0.0747159868478775, 0.1385136842727661, 0.17739486694335938, 0.095606230199337, 0.20141349732875824, 0.1389380693435669, 0.1992226243019104, -0.24461854994297028, 0.202101469039917, -0.2069048136472702, 0.20893928408622742, -0.024256689473986626, 0.002506016753613949, 0.1244237869977951, -0.08321719616651535, 0.014199362136423588, -0.17038023471832275, 0.02546095661818981, 0.0027801962569355965, -0.007609521970152855, 0.09437206387519836, -0.08823204785585403, 0.24658328294754028, -0.057471152395009995, 0.051283542066812515, 0.07944978773593903, -0.13890686631202698, -0.029047278687357903, 0.1280791312456131, 0.21014663577079773, 0.006581995636224747, -0.047766897827386856, 0.25150710344314575, -0.23326750099658966, 0.20635434985160828, -0.213322252035141, 0.0829140916466713, -0.16936449706554413, -0.06714379787445068, 0.0526217445731163, -0.2605535686016083, 0.011777609586715698, -0.12236996740102768, 0.055324848741292953, -0.05111326277256012, -0.3763570189476013, -0.8583974242210388, -0.2293417900800705, 0.1910826414823532, -0.7413942217826843, -0.10688664019107819, 0.04126764088869095, 0.10030235350131989, -0.08758702129125595, 0.1184939444065094, -0.08230671286582947, 0.0659039095044136, -0.09018675982952118, 0.15434114634990692, -0.08221397548913956, -0.08196927607059479, -0.36991095542907715, -0.06612835079431534, -0.01879015378654003, 0.5937232375144958, 0.022725073620676994, 0.2361862063407898, 0.005212879739701748, -0.1705821007490158, -0.34187760949134827, -0.22344882786273956, 0.031176995486021042, 0.08827713876962662, 0.3743550181388855, 0.9372103214263916, 0.28121545910835266, 0.07919745147228241, 0.007883628830313683, -0.25865888595581055, 0.007927320897579193, -0.05929501727223396, -0.20358741283416748, -0.4342751204967499, -0.12479259073734283, 0.10108748823404312, 0.1951434165239334, 0.6154667139053345, 0.29573825001716614, 0.24622032046318054, -0.5024557709693909, -0.045296426862478256, 0.09131725877523422, 0.40407469868659973, 0.23514309525489807, -0.346591055393219, -0.33551013469696045, -0.15349352359771729, -0.4196069836616516, -0.3134211003780365, -0.22002510726451874, -0.14188794791698456, -0.5762037038803101, -0.2585460841655731, 0.034596461802721024, -0.2072056084871292, 0.1100601926445961, 0.5735034346580505, 0.21885628998279572, 0.039692968130111694, 0.1251620054244995, -0.19326312839984894, 0.08064018189907074, 0.18259626626968384, -0.319548636674881, -0.3155783414840698, 0.20164167881011963, 0.24493461847305298, 0.16167977452278137, -0.4356924295425415, 0.17858627438545227, -0.16452015936374664, -0.40790221095085144, 0.3402565121650696, -0.21082188189029694, -0.11536216735839844, -0.15704096853733063, 0.0642634779214859, 0.07255218923091888, -0.21571612358093262, 0.024796629324555397, -0.019054342061281204, 0.37328144907951355, -0.0584096722304821, -0.13177698850631714, 0.038416676223278046, 0.18367253243923187, 0.06502022594213486, 0.13612879812717438, 0.09149777889251709, -0.0631956160068512, 0.04633207246661186, -0.07284031808376312, -0.15504847466945648, 0.28022393584251404, 0.16580478847026825, -0.06760282814502716, 0.2534075379371643, 0.009285266511142254, 0.09800130873918533, 0.06596234440803528, 0.07663340121507645, 0.1099696084856987, 0.11892013251781464, -0.06289607286453247, -0.19095616042613983, 0.0984572172164917, 0.18301263451576233, -0.17320886254310608, -0.07465330511331558, -0.14394845068454742, 0.06183086335659027, 0.008938136510550976, 0.03317534178495407, 0.014802259393036366, -0.1365237534046173, -0.047971732914447784, -0.07267352193593979, 0.22995243966579437, 0.3261670470237732, -0.5189107656478882, 0.26707762479782104, -0.3080649971961975, 0.09458650648593903, 0.08427397906780243, -0.16853278875350952, 0.2713735103607178, 0.0016402006149291992, -0.11543089151382446, -0.34522154927253723, -0.007031574845314026, 0.2714596688747406, 0.17933544516563416, -0.06474393606185913, 0.12207894027233124, -0.19645057618618011, 0.07791801542043686, -0.03654705360531807, -0.09040597826242447, 0.00427898159250617, 0.5089937448501587, -0.11125078052282333, 0.041780319064855576, 0.006963125895708799, -0.15107204020023346, 0.17087960243225098, -0.07307129353284836, -0.06082428619265556, -0.20461995899677277, -0.4280194044113159, 0.5664843320846558, 0.4048648178577423, -0.816093385219574, 0.12671972811222076, -0.4055856764316559, -0.09045781940221786, 0.37301740050315857, -0.792350709438324, 1.4213910102844238, 0.5343640446662903, 0.22567284107208252, -0.12378767132759094, -0.0036633876152336597, -0.576004683971405, 0.45966607332229614, -0.16427652537822723, 0.09165359288454056, -0.20678560435771942, 0.07018689066171646, 0.39775773882865906, 0.08318762481212616, -0.031213654205203056, 0.2941320538520813, 0.0030458448454737663, 0.34232792258262634, 0.35599154233932495, -0.11898120492696762, 0.030788592994213104, -0.11012227833271027, -0.21332255005836487, 0.5242823362350464, -0.005269358400255442, 0.06853817403316498, 0.29957717657089233, 0.22193598747253418, 0.10857714712619781, -0.1740284264087677, -0.25074389576911926, -0.4240724742412567, 0.09217630326747894, 0.09581805765628815, -0.21857993304729462, 0.08382103592157364, 0.4215051233768463, -0.1129603460431099, 0.05316288396716118, 0.19725744426250458, -0.1708156168460846, 0.013210766948759556, -0.04450340196490288, 0.028626251965761185, -0.22773221135139465, 0.09846403449773788, -0.15041019022464752, -0.24637290835380554, 0.05114372819662094, -0.07951250672340393, 0.08628849685192108, -0.048410505056381226, -0.05029292032122612, -0.4106520712375641, 0.34293732047080994, 0.3899933695793152, 0.12681353092193604, 0.06770943105220795, 0.018894625827670097, 0.26159748435020447, 0.293780118227005, -0.24782899022102356, 0.14086556434631348, 0.2228734791278839, -0.10528136789798737, 0.15379604697227478, 0.3026333749294281, 0.07213957607746124, -0.15114502608776093, 0.2630961835384369, -0.3981761932373047, -0.3194237947463989, -0.42512866854667664, 0.3087810277938843, -0.5109130144119263, 0.2581242620944977, -0.07224451005458832, 0.1177748590707779, 0.07995424419641495, 0.455852746963501, -0.03598489239811897, -0.7337791919708252, 0.11519990116357803, -0.5379387140274048, -0.3000703454017639, 1.0269336700439453, -0.19198928773403168, -0.6744280457496643, -0.004700338002294302, -0.039223670959472656, -0.37541845440864563, -0.13282807171344757, -0.1144498884677887, 0.17458055913448334, 0.1641957312822342, 0.20039145648479462, -0.16881063580513, 0.27756214141845703, 0.01838107407093048, -0.5693055987358093, 0.39616525173187256, 0.6325196623802185, 0.2923903465270996, 0.1977076232433319, 0.2402917891740799, -0.16398419439792633, 0.15498128533363342, 0.4026394784450531, 0.06049955263733864, 0.313899427652359, -0.20438604056835175, -0.45234712958335876, 0.26820915937423706, 0.30041030049324036, -0.19541066884994507, 0.35357892513275146, -0.08348848670721054, -0.171919047832489, -0.03935827687382698, 0.5161628723144531, 0.029411833733320236, -0.18298234045505524, 0.13871502876281738, 0.2907997965812683, -0.12300671637058258, 0.16220414638519287, 0.061103738844394684, -0.22984883189201355, 0.10770735144615173, -0.06741568446159363, 0.2346646934747696, 0.007027281913906336, 0.4435601532459259, -0.332820326089859, 0.3937055468559265, -0.2882568836212158, -0.12797686457633972, 0.15999825298786163, -0.22189804911613464, 0.3725658655166626, -0.04392433166503906, -0.09170136600732803, -0.11893145740032196, 0.0702308714389801, 0.09864653646945953, -0.31254395842552185, 0.22398275136947632, -0.5237601399421692, 0.12251076847314835, 0.4335898458957672, -0.12407870590686798, 0.13349203765392303, -0.027976179495453835, -0.16913869976997375, 0.21137763559818268, -0.23957303166389465, 0.09516424685716629, -0.16703858971595764, -0.21732132136821747, -0.09644363820552826, 0.10586413741111755, 0.6975687742233276, -0.12818355858325958, 0.08134619146585464, -0.18378132581710815, 0.044735267758369446, -0.19331009685993195, 0.33771654963493347, -0.15702302753925323, -0.08354444801807404, -0.15359348058700562, 0.3405759334564209, -0.05616642162203789, 0.16656222939491272, -0.06261816620826721, 0.19383735954761505, 0.0020435790065675974, -0.45938268303871155, 0.07304947823286057, 0.020810626447200775, -0.1887824982404709, 0.1265692561864853, 0.04527517408132553, 0.15729479491710663, 0.3465883135795593, -0.16472136974334717, 0.06502600014209747, 0.20493154227733612, 0.4367530941963196, 0.282107412815094, 0.09646603465080261, -0.06561694294214249, -0.3293054401874542, 0.12388414144515991, 0.30474933981895447, 0.05698292702436447, 0.006669307127594948, 0.11252367496490479, 0.07370965927839279, -0.2734891176223755, 0.14637251198291779, -0.1019364446401596, -0.10722517967224121, 0.48508089780807495, 0.24119065701961517, -0.31758570671081543, -0.359264075756073, 0.14381638169288635, 0.029864704236388206, 0.08963891863822937, 0.07167897373437881, -0.27142828702926636, 0.02156943641602993, 0.4282492697238922, -0.42264601588249207, -0.5401444435119629, 0.3379417955875397, -0.20388837158679962, 0.02722286432981491, 0.06069551780819893, -0.3235207498073578, 0.06551715731620789, -0.21299096941947937, -0.07848775386810303, 0.055487990379333496, 0.13068535923957825, -0.3212128281593323, 0.020660772919654846, -0.03453866019845009, -0.18049082159996033, 0.19964754581451416, 0.2716219425201416, 0.20710693299770355, -0.09262819588184357, 0.18925292789936066, -0.1581612080335617, -0.16483250260353088, -0.11428520828485489, -0.28124016523361206, -0.0488688200712204, 0.2627670466899872, 0.09371007978916168, 0.0676816776394844, -0.014580735936760902, 0.14973878860473633, -0.27328217029571533, 0.0038730495143681765, 0.012606099247932434, 0.06407234072685242, 0.03130057826638222, -0.35108959674835205, 0.037268660962581635, 0.3256075084209442, 0.10190650075674057, -0.2869381904602051, 0.23040875792503357, 0.01157135609537363, 0.25941264629364014, 0.3632294833660126, 0.057889509946107864, -0.014617647975683212, -0.012869357131421566, -0.031919460743665695, 0.10189128667116165, -0.15993455052375793, -0.13154835999011993, 0.22191166877746582, 0.14178283512592316, 0.36122220754623413, 0.24747362732887268, -0.5072084665298462, 0.004014912061393261, 0.08051605522632599, -0.009643380530178547, 0.04660014063119888, 0.35807886719703674, 0.13570696115493774, -0.10760004073381424, -0.07240258902311325, 0.3447476327419281, -0.09335404634475708, -0.06809374690055847, -0.05745534971356392, 0.09186981618404388, 0.11139019578695297, 0.06379824876785278, 0.027424905449151993, 0.1329050064086914, -0.005716042127460241, -0.06625362485647202, -0.06869693845510483, 0.07890909165143967, -0.11059850454330444, -0.09662842005491257, 0.2651921808719635, 0.10985598713159561, 0.05154716223478317, -0.12158163636922836, -0.09323948621749878, 0.08849675208330154, 0.0007928975974209607, 0.46078965067863464, -0.19389653205871582, -0.026081671938300133, 0.01079822052270174, 0.09675232321023941, 0.012411801144480705, 0.09501028805971146, 0.038581520318984985, -0.28109461069107056, -0.13791225850582123, 0.12099751085042953, 0.23301340639591217, -0.19461102783679962, -0.25442278385162354, -0.2327151596546173, -0.15069063007831573, -0.0015738068614155054, -0.2009875774383545, 0.04454277828335762, 0.07276032865047455, -0.27938517928123474, -0.10788880288600922, -0.007672758772969246, 0.3450978100299835, -0.016693416982889175, 0.06694953143596649, -0.07292374968528748, 0.1650422364473343, 0.0024292480666190386, 0.2893955409526825, -0.11886510998010635, -0.2614719867706299, 0.1393352895975113, -0.1480199247598648, 0.01132181752473116, -0.13453154265880585, 0.09519730508327484, 0.2038656771183014, -0.21488241851329803, -0.19608339667320251, 0.25493839383125305, -0.024941561743617058, -0.0981348305940628, 0.18171438574790955, 0.011197191663086414, 0.16943149268627167, -0.1384439468383789, 0.20265299081802368, 0.2234276533126831, -0.32884782552719116, 0.1096736341714859, -0.024559862911701202, 0.041364043951034546, 0.03132461756467819, 0.1824556589126587, 0.1312585026025772, -0.04662199318408966, -0.17489807307720184, -0.04228167235851288, 0.04161805287003517, -0.021751292049884796, -0.01871674694120884, -0.21166308224201202, -0.09487084299325943, 0.06853730976581573, -0.04020681977272034, 0.08700084686279297, -0.23797288537025452, 0.21103785932064056, 0.08700612187385559, -0.026513751596212387, -0.09553321450948715, 0.169300839304924, 0.020104432478547096, -0.23904959857463837, -0.14133059978485107, 0.16048528254032135, 0.17773738503456116, -0.04595367610454559, -0.2960953712463379, -0.006536088418215513, 0.008740389719605446, -0.03964001312851906, -0.16657067835330963, 0.03232152760028839, 0.05069569870829582, 0.05641580745577812, -0.12274690717458725, 0.018596744164824486, -0.10006096959114075, -0.12193664908409119, 0.1832294911146164, 0.13444256782531738, 0.13040690124034882, -0.24177277088165283, 0.026334751397371292, -0.02596786804497242, -0.18742096424102783, 0.0859474390745163, 0.06627204269170761, -0.05409655719995499, 0.1970188468694687, -0.1079273447394371, -0.038002192974090576, 0.06229254603385925, -0.013399415649473667, -0.19493305683135986, -0.21558785438537598, -0.10558196902275085, 0.05771557614207268, -0.15283158421516418, 0.23772944509983063, -0.13572897017002106, 0.052823033183813095, 0.016994820907711983, -0.18788477778434753, 0.22403296828269958, -0.13078883290290833, -0.17749622464179993, -0.218171626329422, 0.03768564760684967, 0.1406034678220749, 0.17752239108085632, 0.2263626903295517, -0.05990006774663925, -0.1379784792661667, 0.0662187933921814, 0.2699317932128906, -0.0037706629373133183, 0.083771251142025, 0.0917544811964035, 0.16130279004573822, 0.17018288373947144, -0.015178053639829159, 0.031229127198457718, 0.24384869635105133, -0.1398504376411438, 0.01085840817540884, -0.1254238337278366, -0.21357066929340363, 0.009655559435486794, -0.02913672663271427, 0.13694743812084198, 0.11634062230587006, -0.09633862972259521, 0.20972655713558197, -0.2528359889984131, 0.18858486413955688, -0.0832812711596489, -0.17742709815502167, -0.07019896060228348, 0.07780733704566956, -0.11525047570466995, 0.2666330635547638, 0.0681077316403389, 0.16255035996437073, 0.17268624901771545, -0.05653642863035202, -0.03945687413215637, 0.25107261538505554, -0.05355299264192581, -0.10227330774068832, 0.10355938225984573, 0.020244233310222626, -0.2967149317264557, 0.06694107502698898, 0.017857147380709648, 0.07665515691041946, 0.04733514040708542, -0.15564179420471191, 0.21862640976905823, 0.07997796684503555, 0.15903492271900177, 0.19237364828586578, 0.030362403020262718, -0.01852702721953392, 0.009733823128044605, 0.07123374938964844, -0.13940824568271637, 0.18663986027240753, 0.06083908677101135, 0.2332993894815445, 0.3152044713497162, -0.14348986744880676, 0.06913508474826813, -0.22926181554794312, 0.08811620622873306, 0.42246800661087036, -0.03289426863193512, -0.21454085409641266, -0.08609099686145782, 0.027334492653608322, -0.04952700808644295, 0.28726011514663696, 0.12009939551353455, -0.37676307559013367, -0.11648513376712799, -0.42254263162612915, -0.21907229721546173, -0.20702692866325378, 0.07522471994161606, -0.11335808783769608, -0.28601741790771484, -0.22096587717533112, -0.2555656433105469, -0.13137616217136383, -0.03041929565370083, -0.2660355567932129, -0.10364526510238647, -0.06414005160331726, -0.13423962891101837, -0.15944397449493408, 0.026288267225027084, -0.0694323256611824, -0.035871777683496475, 0.053684912621974945, -0.29915204644203186, -0.017230987548828125, -0.26311030983924866, -0.25156041979789734, 0.019901825115084648, -0.03200626000761986, -0.14650404453277588, -0.17154882848262787, 0.14911514520645142, 0.08289898186922073, -0.015332936309278011, -0.2869401276111603, -0.22020672261714935, -0.2041558027267456, 0.18929630517959595, -0.37066054344177246, -0.08775288611650467, -0.2048303782939911, -0.08279731124639511, 0.4758683145046234, 0.11160791665315628, 0.039595138281583786, -0.0905470997095108, -0.41353839635849, -0.5109656453132629, 0.9601293802261353, 0.006239545997232199, -0.556942343711853, 0.23287595808506012, 0.12477236241102219, 0.4120897054672241, -0.06800573319196701, 0.11512012034654617, -0.13728590309619904, -0.29168519377708435, -0.06195486709475517, -0.10554251074790955, 0.26207736134529114, 0.08585313707590103, -0.44438380002975464, -0.05090069770812988, 0.15855208039283752, -0.004534662701189518, -0.1707804948091507, 0.11171027272939682, 0.004900677595287561, -0.2177436351776123, -0.10580960661172867, -0.05324868485331535, 0.19310623407363892, 0.24338504672050476, 0.10541146248579025, -0.20101100206375122, -0.23396961390972137, -0.04230227693915367, 0.1237432137131691, -0.12915188074111938, 0.14212097227573395, 0.07892147451639175, -0.034632474184036255, -0.010081387124955654, -0.20745395123958588, 0.0034443694166839123, 0.2545284032821655, -0.06278597563505173, 0.04867732524871826, -0.03141283243894577, 0.05651730298995972, -0.2484821081161499, -0.15363313257694244, 0.011928968131542206, 0.03399055451154709, -0.027168499305844307, -0.06407792121171951, -0.287049800157547, 0.29805588722229004, -0.00038621228304691613, -0.04554896056652069, 0.042246218770742416, 0.07307682186365128, 0.01140031311661005, 0.17201785743236542, 0.11948107928037643, 0.07016114145517349, -0.12083353102207184, -0.19935984909534454, 0.18041399121284485, 0.0438816174864769, -0.11346577852964401, -0.24587488174438477, 0.02518615312874317, 0.010104638524353504, -0.22128619253635406, 0.1539321094751358, 0.1421058028936386, 0.16203443706035614, -0.035661060363054276, -0.299577534198761, 0.050079911947250366, -0.17982545495033264, -0.2687337100505829, -0.04015568271279335, 0.0015317561337724328, 0.29988348484039307, -0.16586844623088837, 0.00846164207905531, 0.28257349133491516, 0.006524247583001852, 0.14964722096920013, -0.06085100769996643, 0.20064346492290497, 0.920712411403656, -0.2641715705394745, -0.05175136774778366, -0.2403542697429657, -0.3610524833202362, -0.1083650216460228, -0.2056254893541336, 0.2849268317222595, 0.014566781930625439, 0.13378937542438507, -0.32910552620887756, 0.07649855315685272, 0.494707852602005, -0.0919589102268219, -0.2939930558204651, -0.44886934757232666, 0.38282501697540283, -0.08825406432151794, 0.3416501581668854, 0.09786005318164825, 0.16318568587303162, -0.08190660178661346, -0.11494968086481094, 0.03979574516415596, -0.027586720883846283, 0.045025017112493515, -0.1486595720052719, -0.15768112242221832, 0.2441524863243103, -0.16058987379074097, -0.023856917396187782, 0.2593875825405121, 0.16767138242721558, -0.20951730012893677, -0.2434014081954956, -0.22679296135902405, 0.11952167749404907, 0.19771218299865723, 0.21892251074314117, -0.07326480746269226, -0.08581637591123581, 0.11702808737754822, -0.1909845620393753, 0.029868045821785927, -0.21631458401679993, -0.09869049489498138, 0.012630941346287727, -0.1892446130514145, -0.45105013251304626, 0.10795365273952484, -0.05754566565155983, 0.11573601514101028, 0.08419839292764664, 0.1070808544754982, -0.020309649407863617, -0.23714374005794525, 0.027872750535607338, 0.01855270005762577, 0.21555234491825104, 0.23422496020793915, -0.4505390524864197, -0.007120359688997269, 0.19510553777217865, 0.3286387622356415, -0.20022518932819366, 0.13714571297168732, -0.3649568557739258, -0.08885908126831055, -0.0312446691095829, -0.04616370052099228, 0.011315316893160343, 0.045034024864435196, -0.11395040154457092, -0.18544991314411163, 0.10016091167926788, 0.14221027493476868, -0.14734624326229095, 0.24046728014945984, 0.07152109593153, -0.14249950647354126, -0.16490937769412994, -0.08710474520921707, 0.21598871052265167, -0.20870254933834076, 0.09026061743497849, 0.08099254220724106, 0.1592382937669754, -0.13347525894641876, -0.10651198029518127, 0.13788531720638275, 0.04842066764831543, -0.10868947952985764, -0.02006513811647892, -0.09230931848287582, 0.048308297991752625, -0.0034155684988945723, 0.048438429832458496, 0.2747481167316437, -0.18665556609630585, -0.043686505407094955, -0.06880604475736618, 0.028574159368872643, -0.03901262953877449, -0.11676737666130066, 0.07508444041013718, 0.41530168056488037, -0.17166545987129211, 0.014112618751823902, 0.16401293873786926, -0.11365903168916702, -0.05219891294836998, -0.21759192645549774, -0.1139867752790451, -0.027094712480902672, 0.14130744338035583, -0.03622998297214508, -0.2827039957046509, -0.15459074079990387, -0.05773380398750305, -0.15337182581424713, -0.08351975679397583, -0.004204449709504843, 0.03468752279877663, 0.14907607436180115, -0.18681439757347107, 0.15659700334072113, 0.10412780940532684, -0.23973135650157928, -0.13282981514930725, -0.009207467548549175, 0.06513367593288422, 0.2046893835067749, -0.04469482973217964, -0.10455384850502014, 0.01005048118531704, -0.03218826651573181, -0.04685155674815178, -0.24967725574970245, -0.09667176008224487, 0.19399307668209076, 0.18133653700351715, 0.020555099472403526, -0.3159598708152771, -0.07450175285339355, -0.1736622452735901, -0.1612979769706726, 0.15748175978660583, 0.2584027051925659, 0.18137671053409576, -0.022608138620853424, 0.2789539396762848, 0.15441642701625824, -0.12093057483434677, -0.19073882699012756, 0.09732222557067871, -0.1523672342300415, 0.25427916646003723, 0.18446432054042816, -0.20199322700500488, 0.07451901584863663, 0.1665468066930771, -0.16223226487636566, -0.023019395768642426, -0.19011004269123077, 0.14420214295387268, 0.08137483894824982, -0.25734955072402954, -0.247575581073761, 0.1380530446767807, 0.010064453817903996, -0.15283754467964172, 0.1468224972486496, 0.36920619010925293, -0.16624586284160614, 0.14234916865825653, 0.148579940199852, 0.2460610270500183, 0.332237184047699, 0.11122434586286545, -0.14529600739479065, 0.09244825690984726, 0.19558890163898468, 0.20847482979297638, 0.0747516006231308, -0.25960639119148254, 0.08616470545530319, -0.0066544064320623875, -0.06848497688770294, -0.06939426064491272, -0.01641092076897621, 0.1425408124923706, -0.09882772713899612, -0.10530529916286469, 0.1773984581232071, -0.20012708008289337, -0.07747980207204819, 0.20876123011112213, 0.10181082785129547, -0.06729021668434143, -0.2596225440502167, -0.4390881657600403, -0.2612951695919037, -0.14848008751869202, 0.16696570813655853, 0.04616236686706543, 0.010576829314231873, -0.0027626717928797007, 0.02775421552360058, 0.07306577265262604, 0.20689816772937775, -0.23377300798892975, -0.10846206545829773, -0.0454428568482399, -0.09086412191390991, 0.16462811827659607, 0.01322916243225336, 0.29832252860069275, -0.07057347148656845, 0.28292912244796753, -0.053621191531419754, -0.1343632936477661, 0.08399765193462372, -0.16611069440841675, -0.274809330701828, -0.08079192787408829, -0.01652419939637184, 0.1977546215057373, -0.11255411803722382, 0.06345286220312119, -0.046486493200063705, 0.1228526383638382, -0.04272244870662689, -0.01165805384516716, 0.2461996227502823, -0.07167418301105499, -0.004669992718845606, -0.26025059819221497, -0.0015585297951474786, -0.16248174011707306, -0.3746703565120697, 0.24017567932605743, 0.06157953292131424, 0.13899631798267365, 0.4568065106868744, -0.08507027477025986, 0.031326305121183395, 0.022595278918743134, -0.12203866988420486, 0.27559706568717957, -0.2866917848587036, 0.26781803369522095, -0.4099428355693817, 0.4095534384250641, -0.04729630798101425, 0.19219617545604706, -0.01642681658267975, -0.13090963661670685, -0.04416018724441528, -0.2678562104701996, 0.014765358529984951, -0.2682275176048279, 0.1412232220172882, 0.25348860025405884, -0.012195113115012646, 0.28474482893943787, -0.189118891954422, 0.3535482883453369, -0.024818532168865204, -0.014858817681670189, 0.1963667869567871, -0.07631735503673553, 0.0239570252597332, -0.1179579496383667, 0.3587718904018402, 0.1434020698070526, 0.18454620242118835, 1.5100154087122064e-05, 0.012756004929542542, -0.027584180235862732, 0.10262391716241837, 0.12437735497951508, -0.2433461993932724, 0.009923717938363552, 0.24956165254116058, 0.15673159062862396, 0.055850785225629807, -0.038541924208402634, 0.03217998147010803, -0.10063263028860092, 0.30268722772598267, 0.09177550673484802, 0.10651649534702301, -0.07810761779546738, -0.23250652849674225, 0.037322577089071274, 0.28220921754837036, 0.18966074287891388, -0.15281356871128082, -0.0803256556391716, -0.24899619817733765, -0.0960250049829483, 0.6584953665733337, -0.07005340605974197, -0.08679863065481186, 0.11658857762813568, -0.05237453058362007, -0.04482223093509674, 0.3165486454963684, 0.1628531515598297, -0.06762421131134033, -0.20490409433841705, -0.05539342761039734, -0.03434739261865616, -0.00041141323163174093, -0.18196997046470642, -0.08767297118902206, 0.2649686634540558, -0.17869973182678223, -0.08527076244354248, 0.2718479633331299, 0.11337032169103622, 0.09294095635414124, -0.01551029272377491, 0.02321656048297882, 0.002857588930055499, 0.045514341443777084, -0.060139406472444534, 0.11685420572757721, 0.218652606010437, -0.08608827739953995, 0.10711720585823059, 0.21103820204734802, -0.002117871306836605, 0.04252501577138901, 0.10190251469612122, -0.16092035174369812, 0.167758047580719, -0.19779162108898163, 0.16580702364444733, -0.13357743620872498, -0.2872375249862671, 0.03333331644535065, -0.1909889429807663, 0.20019958913326263, 0.00741355586796999, -0.04843512549996376, -0.009542827494442463, -0.2886294722557068, 0.26377013325691223, 0.008762842044234276, -0.18887603282928467, -0.1065097227692604, 0.0066555761732161045, -0.059922900050878525, 0.16769008338451385, 0.22482937574386597, 0.1940341293811798, -0.051011018455028534, -0.18785731494426727, -0.16562923789024353, 0.04394393041729927, -0.16459660232067108, -0.09396892786026001, 0.10082060098648071, 0.11975976079702377, -0.14333592355251312, 0.041769661009311676, 0.13011422753334045, 0.08425239473581314, -0.02485588751733303, -0.14635570347309113, 0.011903625912964344, 0.18055883049964905, 0.06807383894920349, -0.11261074244976044, 0.22098201513290405, 0.1323518306016922, -0.11542730778455734, 0.011797706596553326, -0.09788328409194946, 0.19056618213653564, 0.22993575036525726, 0.12221059948205948, -0.024831749498844147, 0.45808088779449463, -0.03718012943863869, -0.04380951449275017, -0.1143706887960434, 0.1903938353061676, -0.019471053034067154, 0.01416765432804823, -0.036897122859954834, -0.011360364966094494, 0.22051715850830078, 0.03633787855505943, 0.021932978183031082, 0.4986509680747986, 0.04608515650033951, -0.34859418869018555, -0.2561511695384979, 0.007090806029736996, -0.13463225960731506, 0.33764123916625977, -0.16313448548316956, 0.03882685303688049, -0.1613471806049347, -0.20025239884853363, 0.011123639531433582, 0.017276806756854057, -0.03860896825790405, -0.14129680395126343, 0.12149662524461746, 0.19040456414222717, 0.034453343600034714, 0.2318250834941864, 0.13787801563739777, -0.018863948062062263, -0.03389504924416542, 0.08073490113019943, -0.10688105970621109, -0.03810500726103783, 0.1246766448020935, 0.04300157353281975, 0.2885935604572296, -0.018795549869537354, 0.02046968787908554, -0.1447933465242386, 0.13775412738323212, 0.18393324315547943, -0.10946465283632278, 0.003646513679996133, 0.011358920484781265, 0.21219119429588318, -0.06597929447889328, 0.37479710578918457, 0.6797521114349365, 0.13293324410915375, 0.6578163504600525, -0.9942644834518433, -0.5328481197357178, 0.18136583268642426, 0.2848975658416748, -0.14439043402671814, 0.27020731568336487, 0.09902364760637283, -1.0058270692825317, 0.52068030834198, 0.3688902258872986, -0.9495119452476501, 0.09699884057044983, -0.30805227160453796, -0.1837746649980545, -0.05247308686375618, 0.23067951202392578, -0.24509359896183014, 0.06287992745637894, 0.16416896879673004, -0.2444644272327423, 0.06552021950483322, -0.27425745129585266, 0.07053624838590622, -0.20637644827365875, 0.032322511076927185, 0.3027794361114502, -0.39466604590415955, 0.06606845557689667, 0.029359737411141396, -0.1784725785255432, -0.2274407297372818, 0.18643955886363983, -0.016030319035053253, 0.1434648633003235, 0.055256664752960205, 0.17691835761070251, -0.3590238094329834, -0.12039056420326233, 0.06467694789171219, -0.38900935649871826, 0.1095004752278328, -0.16121353209018707, -0.001726217451505363, 0.1764409989118576, 0.24684923887252808, -0.16899451613426208, 0.08494582027196884, -0.1606365442276001, -0.18313628435134888, 0.053944800049066544, -0.06229008734226227, -0.19236209988594055, -0.0612274631857872, 0.26809161901474, 0.06198274344205856, 0.06770365685224533, -0.4278484582901001, -0.17333583533763885, 0.054783258587121964, 0.01961386390030384, 0.2813838720321655, 0.210107684135437, -0.17005695402622223, -0.4114813506603241, 0.23100921511650085, -0.03618113696575165, 0.21567551791667938, 0.2992502748966217, 0.420932799577713, -0.4484764635562897, -0.46727973222732544, 0.7153989672660828, -0.2727547585964203, 0.09111376851797104, 0.17831064760684967, 0.11859197169542313, -0.26878297328948975, 0.21760989725589752, -0.04964181035757065, 0.008713419549167156, -0.025612181052565575, 0.019776595756411552, 0.055745143443346024, -0.04872860014438629, -0.2994254231452942, 0.3128437399864197, 0.14354448020458221, 0.09475554525852203, 0.26589256525039673, -0.4065043032169342, -0.24878829717636108, -0.19453340768814087, -0.19103164970874786, -0.2787943482398987, 0.24196776747703552, 0.3617793917655945, -0.23013430833816528, -0.028103839606046677, 0.19552510976791382, -0.2830147445201874, -0.011735758744180202, 0.2951424717903137, 0.2165081650018692, -0.09023316949605942, 0.42137783765792847, 0.11004705727100372, -0.06318723410367966, -0.2877703905105591, -0.12478294968605042, -0.337600439786911, -0.21633844077587128, -0.3564114272594452, 0.23280499875545502, -0.2587369382381439, -0.30500707030296326, 0.5459375977516174, 0.5403988361358643, -0.5150362849235535, 0.10018336027860641, 0.03912739455699921, -0.14658363163471222, -0.06822122633457184, 0.12045855075120926, 0.003346547018736601, -0.2523280680179596, -0.04932549595832825, 0.16936688125133514, -0.03347679600119591, 0.2457808405160904, 0.2379542738199234, -0.30318978428840637, -0.2786727845668793, 0.09179496765136719, 0.18219424784183502, -0.014413903467357159, -0.0813252404332161, 0.13880161941051483, -0.1637679636478424, -0.26441657543182373, 0.15230393409729004, 0.3869177997112274, -0.38205578923225403, 0.14205975830554962, 0.0843341052532196, -0.10842032730579376, 0.1425626575946808, 0.15320365130901337, -0.27643826603889465, -0.2502050995826721, 0.06835514307022095, -0.012226361781358719, -0.24548156559467316, -0.06350181996822357, 0.015323258936405182, 0.07686597108840942, 0.04959709569811821, -0.12417014688253403, 0.013601137325167656, 0.405544251203537, -0.07837172597646713, 0.012201919220387936, -0.24737755954265594, 0.0691184401512146, -0.2745431959629059, 0.1561741828918457, -0.20896467566490173, -0.08222351968288422, 0.2229582518339157, -0.08875444531440735, 0.3578449487686157, -0.35207387804985046, 0.051672376692295074, -0.003326783422380686, -0.06626898795366287, 0.2660493552684784, -0.06497861444950104, -0.16348955035209656, -0.1062675416469574, 0.05782699212431908, -0.01988222822546959, -0.3749927282333374, 0.3335871994495392, 0.01127968356013298, -0.07859569042921066, -0.0023038170766085386, -0.16439813375473022, 0.18084731698036194, 0.0696837306022644, -0.09484041482210159, 0.27568870782852173, 0.1329067200422287, -0.24868203699588776, -0.014932775869965553, 0.03233136236667633, -0.21865218877792358, 0.043796103447675705, 0.02448023296892643, -0.1360434591770172, -0.1100931167602539, 0.43062299489974976, -0.0028525141533464193, -0.17176908254623413, 0.6218445897102356, -0.1364239752292633, -0.03309740498661995, 0.061999522149562836, 0.42835548520088196, 0.4183466136455536, -0.0726475790143013, -0.16065208613872528, 0.07537396997213364, -0.34227803349494934, 0.008328828029334545, 0.5536669492721558, 0.08441402018070221, 0.13430029153823853, -0.0829082503914833, -0.14584344625473022, 0.11954465508460999, -0.08782630413770676, -0.29201844334602356, -0.26875489950180054, 0.14701659977436066, 0.14023664593696594, 0.19404371082782745, 0.04871029034256935, 0.08284197747707367, 0.03961596637964249, -0.015945570543408394, -0.0437103807926178, 0.4282127916812897, -0.19185352325439453, -0.05351478233933449, -0.3477485179901123, -0.01291121356189251, -0.1050853580236435, -0.05185769870877266, 0.2516384422779083, -0.12619024515151978, -0.015517829917371273, 0.4287193715572357, -0.19491153955459595, -0.23733432590961456, 0.23938311636447906, 0.24676303565502167, -0.23078115284442902, 0.0719333365559578, -0.25457891821861267, -0.2443559467792511, -0.05289708822965622, 0.08641332387924194, 0.10835481435060501, 0.36820316314697266, -0.18391822278499603, 0.47066882252693176, -0.07534653693437576, -0.23383350670337677, -0.14687490463256836, -0.38366806507110596, 0.09990303963422775, 0.10823876410722733, -0.16470013558864594, 0.21706171333789825, -0.5816428065299988, 0.10204413533210754, 0.2259712964296341, -0.12446759641170502, 0.21176984906196594, 0.12633366882801056, -0.11966630816459656, -0.3722151219844818, -0.011617950163781643, 0.17773371934890747, 0.051581863313913345, 0.21013660728931427, 0.05301143601536751, -0.43266674876213074, -0.24731265008449554, 0.29472124576568604, 0.02229333482682705, -0.038249146193265915, 0.21233171224594116, -0.17471212148666382, -0.1840415894985199, -0.14492669701576233, 0.16020505130290985, 0.11660351604223251, 0.24702483415603638, -0.16469185054302216, -0.09887954592704773, -0.10191497206687927, 0.2942664921283722, 0.214528426527977, -0.03889111429452896, -0.1617051064968109, 0.04865103214979172, 0.17611835896968842, -0.07226640731096268, 0.13815727829933167, -0.06454779952764511, 0.08595097064971924, -0.10415050387382507, -0.08660145848989487, 0.1054711788892746, 0.08725597709417343, 0.10162756592035294, 0.5176604390144348, 0.24219007790088654, 0.04015020653605461, 0.09130813926458359, -0.0303825531154871, -0.07784273475408554, 0.3226214051246643, 0.006513658445328474, 0.13688653707504272, 0.27473294734954834, 0.13954943418502808, -0.14162909984588623, -0.04231060668826103, 0.018757201731204987, 0.006807507481426001, 0.19041872024536133, 0.30089136958122253, 0.21075335144996643, 0.015731047838926315, -0.08313754200935364, -0.1059277281165123, 0.22659005224704742, 0.017176220193505287, 0.06449820101261139, 0.14970912039279938, 0.4294920563697815, -0.3146679103374481, 0.05438832566142082, 0.40110573172569275, 0.151595339179039, 0.05350016430020332, -0.3155065178871155, 0.08653554320335388, -0.20176365971565247, -0.23197458684444427, -0.015646668151021004, 0.0008470254251733422, 0.23924550414085388, 0.12849363684654236, 0.07736537605524063, -0.005658076144754887, -0.0966443344950676, -0.014628191478550434, 0.14811405539512634, -0.2399117648601532, -0.15257027745246887, 0.04246055707335472, 0.34016934037208557, -0.143072247505188, -0.11841180175542831, -0.09671199321746826, -0.13710738718509674, 0.13472770154476166, 0.08880077302455902, 0.007920883595943451, 0.1378934532403946, 0.16065570712089539, -0.01483162958174944, -0.29281145334243774, 0.01625431329011917, -0.11274359375238419, -0.049788154661655426, -0.11041232198476791, -0.05541961267590523, -0.21933674812316895, -0.12087544798851013, -0.01651429943740368, -0.11384272575378418, 0.23933053016662598, 0.10254624485969543, -0.19264627993106842, 0.06282933801412582, -0.03009199909865856, 0.2551441788673401, -0.00917817372828722, 0.11485820263624191, 0.02743845246732235, 0.16272258758544922, 0.06782256066799164, 0.19270317256450653, 0.04806411638855934, 0.09647289663553238, 0.01603386178612709, 0.04486158490180969, -0.31750988960266113, -0.006404797546565533, 0.11003381013870239, -0.173993319272995, -0.0813002958893776, 0.09868546575307846, 0.1441524773836136, 0.050645675510168076, 0.031378645449876785, 0.16385017335414886, -0.05883801728487015, -0.19369138777256012, -0.06956415623426437, -0.11846590787172318, -0.11671838909387589, 0.22009789943695068, -0.1389172077178955, -0.2683108150959015, 0.2431146204471588, -0.13309219479560852, 0.12364748865365982, 0.27631792426109314, 0.1729898303747177, -0.04055711627006531, -0.28644323348999023, 0.15334664285182953, 0.25793564319610596, 0.043268121778964996, -0.07064259052276611, 0.19028067588806152, 0.32057157158851624, 0.0363757461309433, -0.03980303928256035, 0.12543390691280365, 0.03668120503425598, 0.051165856420993805, 0.11033358424901962, -0.03481791540980339, -0.18072177469730377, -0.28127607703208923, -0.3126366436481476, 0.010695083998143673, -0.13278619945049286, 0.10052596777677536, -0.29787421226501465, 0.1787969470024109, 0.22604399919509888, -0.09410972893238068, -0.12306928634643555, -0.11320663243532181, 0.03822409361600876, -0.1768581122159958, -0.02263423427939415, 0.17244188487529755, -0.030897432938218117, -0.09515800327062607, 0.09878464043140411, 0.24537348747253418, 0.013621490448713303, 0.11314430087804794, -0.09674181044101715, -0.24966099858283997, -0.0715741366147995, 0.010014603845775127, 0.03643717244267464, -0.10898829996585846, -0.07804343849420547, 0.019901273772120476, 0.13327209651470184, 0.01476492453366518, 0.037076231092214584, -0.2421540915966034, -0.0781724750995636, 0.10270335525274277, 0.22919736802577972, 0.04352634772658348, 0.0723106861114502, 0.014783882535994053, 0.08271501213312149, 0.1046239510178566, -0.2566417157649994, 0.084659643471241, 0.017809515818953514, 0.11011932045221329, -0.1819922924041748, -0.10662031173706055, 0.10520610213279724, -0.08554169535636902, 0.03247407078742981, -0.08734861761331558, 0.03391817584633827, 0.15184971690177917, -0.05927647650241852, -0.01847386173903942, 0.08082070201635361, -0.11742018163204193, -0.31465384364128113, -0.09324383735656738, -0.01534703653305769, -0.02419479750096798, 0.17031404376029968, 0.36940667033195496, 0.14681729674339294, -0.0936448723077774, 0.34040915966033936, 0.2477075755596161, 0.02088768035173416, -0.1822405457496643, -0.10693252831697464, 0.23819008469581604, 0.052160587161779404, 0.15020838379859924, 0.13138049840927124, 0.1574225127696991, 0.041746724396944046, 0.06439320743083954, -0.0894353836774826, -0.09864762425422668, 0.0021234203595668077, -0.3822418749332428, -0.06556669622659683, -0.26344069838523865, -0.036959998309612274, -0.31633421778678894, -0.043117452412843704, 0.011287801899015903, 0.12431814521551132, 0.10492372512817383, -0.0829908549785614, -0.02406579814851284, 0.016856223344802856, -0.1525135189294815, -0.03412436321377754, -0.017491167411208153, 0.09982388466596603, -0.2098597288131714, 0.018329815939068794, 0.14395183324813843, 0.14592722058296204, 0.11319877952337265, -0.13496290147304535, 0.22617127001285553, 0.0653681606054306, -0.19404804706573486, -0.19780333340168, -0.07844387739896774, -0.023466555401682854, -0.13768212497234344, -0.029654663056135178, 0.27363482117652893, -0.15743739902973175, -0.10354813933372498, 0.33411088585853577, 0.22088873386383057, -0.03185088187456131, -0.3549608588218689, -0.0528908297419548, 0.12670889496803284, -0.04048798233270645, 0.19184602797031403, -0.06932418793439865, -0.0654410794377327, -0.14306192100048065, 0.10532485693693161, -0.11987617611885071, 0.26900315284729004, 0.06531796604394913, -0.1361263394355774, -0.28566643595695496, 0.03834718093276024, 0.16585569083690643, 0.10452776402235031, 0.035338062793016434, -0.13837137818336487, 0.07098416239023209, 0.05286378040909767, -0.27213534712791443, 0.08271769434213638, 0.20938394963741302, -0.2972939610481262, -0.058149512857198715, -0.07179075479507446, 0.2283710092306137, 0.1001911610364914, -0.0012710986193269491, -0.31126120686531067, -0.1486997902393341, 0.05058260262012482, 0.15728570520877838, -0.22881212830543518, -0.043668635189533234, 0.23535148799419403, 0.11633233726024628, 0.03574911132454872, -0.09721661359071732, 0.3575144112110138, 0.12647485733032227, -0.24058201909065247, 0.2719571590423584, 0.0028167988639324903, 0.15030528604984283, -0.13358823955059052, 0.1265496015548706, 0.2837119698524475, -0.20536117255687714, 0.17263269424438477, -0.09294535219669342, -0.20899498462677002, -0.10772712528705597, 0.27758389711380005, -0.11014498025178909, -0.056705497205257416, -0.04927724227309227, -0.218051940202713, 0.13341757655143738, 0.2721756100654602, 0.19121266901493073, 0.030398385599255562, -0.17590871453285217, 0.0019799042493104935, 0.18883319199085236, 0.22935828566551208, -0.15085652470588684, 