{"version": "0.5.1", "metadata": {"date": {"year": 2023, "month": 4, "day": 29, "hour": 2, "minute": 31, "second": 8}, "loudness": -13.88315200805664, "gain": 0.8523456327843513, "name": null, "modeled_by": null, "gear_type": null, "gear_make": null, "gear_model": null, "tone_type": null}, "architecture": "WaveNet", "config": {"layers": [{"input_size": 1, "condition_size": 1, "head_size": 8, "channels": 16, "kernel_size": 3, "dilations": [1, 2, 4, 8, 16, 32, 64, 128, 256, 512], "activation": "Tanh", "gated": false, "head_bias": false}, {"input_size": 16, "condition_size": 1, "head_size": 1, "channels": 8, "kernel_size": 3, "dilations": [1, 2, 4, 8, 16, 32, 64, 128, 256, 512], "activation": "Tanh", "gated": false, "head_bias": true}], "head": null, "head_scale": 0.02}, "weights": [-0.011827344074845314, 0.6461824774742126, -1.142709493637085, -0.8053211569786072, -0.4448586702346802, 0.4290534555912018, 0.00038527941796928644, 0.9646106362342834, -0.0013703294098377228, 0.19626016914844513, -0.2813504934310913, -0.3366011381149292, -1.1854944229125977, -0.626462459564209, -0.5558586120605469, 0.051940370351076126, 0.11552111804485321, 0.2428560107946396, -0.34043580293655396, -0.15387161076068878, -0.13016316294670105, 0.293664813041687, 0.053628187626600266, 0.28173816204071045, -0.2134239226579666, 0.09846965968608856, 0.3018772304058075, -0.32392391562461853, -0.0018465431639924645, 0.14759424328804016, -0.225746288895607, 0.04913310334086418, -0.2601546347141266, 0.1358126401901245, -0.052743375301361084, -0.008949634619057178, -0.34103986620903015, 0.03785978630185127, -0.1103062704205513, 0.2585583031177521, 0.05312841385602951, 0.04723494499921799, -0.1846798062324524, -0.20517119765281677, -0.2563348114490509, 0.1314975619316101, 0.16474665701389313, 0.24387085437774658, -0.2693813145160675, 0.10656993091106415, 0.288723886013031, -0.03909069672226906, 0.14758895337581635, 0.19976359605789185, -0.08549006283283234, 0.002713562920689583, 0.2019830197095871, -0.2954331040382385, -0.009664474986493587, 0.10664193332195282, -0.11674706637859344, -0.00474355835467577, -0.26530560851097107, 0.24354740977287292, 0.10857539623975754, -0.013325097039341927, -0.2787594497203827, -0.06956984102725983, 0.04858949035406113, 0.38375550508499146, -0.012451192364096642, -0.01911229081451893, -0.20142851769924164, 0.21735188364982605, 0.15890610218048096, -0.12798544764518738, 0.13275134563446045, -0.08133836090564728, -0.2273021936416626, -0.1791001558303833, -0.161676824092865, 0.3930216431617737, 0.13220517337322235, -0.16967424750328064, -0.2810395061969757, -0.12641718983650208, -0.06041141226887703, 0.18765205144882202, 0.08727329969406128, -0.09107039123773575, -0.20918811857700348, -0.011998945847153664, 0.08597104996442795, 0.32136037945747375, -0.056548651307821274, -0.07177663594484329, -0.1950511634349823, 0.14617390930652618, -0.06394167244434357, -0.3347337245941162, 0.24018900096416473, 0.13788650929927826, -0.31214821338653564, 0.06673236191272736, -0.09909463673830032, -0.2508285641670227, -0.008425616659224033, -0.07373593747615814, -0.26172712445259094, -0.035925231873989105, -0.09920631349086761, 0.33801716566085815, -0.035563625395298004, -0.06318454444408417, 0.24561643600463867, -0.1351597011089325, 0.1751515418291092, -0.11108184605836868, 0.035248614847660065, -0.17011743783950806, 0.18716412782669067, 0.022591307759284973, -0.2705250680446625, 0.1986556202173233, -0.11615090072154999, -0.28931552171707153, 0.08634356409311295, -0.08952328562736511, 0.1510464996099472, -0.2542549669742584, 0.043617088347673416, -0.09514801949262619, 0.10052552819252014, -0.02332189679145813, 0.30259427428245544, -0.14630728960037231, 0.08783116936683655, -0.07833711057901382, 0.2258971929550171, 0.06960225105285645, 0.313260942697525, -0.05728106573224068, 0.15444384515285492, -0.19831278920173645, 0.013506862334907055, -0.04455927014350891, -0.11058398336172104, 0.13057155907154083, -0.05679566413164139, -0.31554126739501953, -0.009509456343948841, -0.10788934677839279, -0.2281927466392517, 0.2059563249349594, 0.09510956704616547, -0.34743455052375793, 0.21706566214561462, -0.17025116086006165, 0.18075652420520782, -0.1944543421268463, 0.004259664099663496, 0.06363867968320847, -0.18525834381580353, -0.1611950546503067, -0.09126008301973343, 0.0722707211971283, -0.021233750507235527, 0.11731569468975067, -0.20692789554595947, 0.033051714301109314, 0.19215451180934906, -0.13451190292835236, 0.15871676802635193, 0.11064429581165314, -0.2089458703994751, 0.04644258692860603, -0.07850036025047302, 0.011670580133795738, 0.10145383328199387, -0.08674536645412445, -0.10436134785413742, -0.07191941142082214, 0.04242159053683281, 0.11719806492328644, 0.09880337119102478, 0.09542787075042725, -0.13658761978149414, -0.06524026393890381, -0.1740201860666275, 0.16913631558418274, 0.1592356264591217, 0.1584780067205429, -0.185589998960495, 0.03677660971879959, -0.03479255735874176, -0.1507520079612732, -0.043676722794771194, 0.11296480894088745, -0.15892167389392853, 0.03658675774931908, 0.07007144391536713, 0.01974911242723465, -0.0700262263417244, -0.031065629795193672, -0.15793848037719727, 0.08585353195667267, -0.11915653198957443, 0.19955891370773315, -0.1084170788526535, 0.0496111698448658, 0.1944546103477478, 0.16948695480823517, 0.01693953201174736, -0.19101688265800476, -0.19088523089885712, 0.028790347278118134, 0.05983546003699303, -0.26415687799453735, 0.12745897471904755, 0.05483384057879448, -0.20716065168380737, 0.14193275570869446, 0.20754751563072205, 0.18651656806468964, -0.14176593720912933, -0.10761067271232605, -0.24213846027851105, 0.02635682187974453, 0.18190784752368927, 0.1697969287633896, -0.00670267641544342, -0.05127734690904617, -0.16539043188095093, 0.11909157037734985, 0.23500484228134155, 0.09410113841295242, 0.046821001917123795, -0.2818952202796936, -0.240621879696846, 0.0622943714261055, 0.23087206482887268, -0.11168407648801804, -0.05456501618027687, 0.16141174733638763, -0.12111565470695496, -0.13609455525875092, 0.26892003417015076, -0.31234654784202576, 0.008019506931304932, 0.14152950048446655, -0.2745589315891266, 0.023554397746920586, 0.2857305109500885, 0.12513324618339539, -0.09727132320404053, -0.2206059694290161, -0.10637462884187698, -0.03692825138568878, 0.023886175826191902, -0.13135911524295807, 0.0009512616088613868, -0.006561906076967716, 0.10330186784267426, 0.02419133298099041, 0.14538583159446716, -0.021719304844737053, -0.12808869779109955, 0.1339300572872162, 0.15739308297634125, -0.04001067951321602, 0.025496218353509903, -0.09514310210943222, -0.05097172409296036, -0.06679981201887131, -0.03573053330183029, -0.19500823318958282, 0.26611870527267456, -0.122161865234375, 0.06787675619125366, -0.0526961050927639, 0.05862941965460777, -0.11329472810029984, 0.049370672553777695, 0.08800072968006134, 0.10481861233711243, 0.013747606426477432, -0.024956347420811653, -0.04323110729455948, 0.06617752462625504, 0.04404323548078537, -0.16119474172592163, 0.15881329774856567, 0.0776427835226059, -0.08613259345293045, 0.06094510108232498, -0.05966794490814209, 0.015078321099281311, -0.01637844368815422, 0.09115050733089447, -0.13531702756881714, 0.023499177768826485, -0.029049497097730637, 0.007892770692706108, -0.06574879586696625, 0.11340265721082687, -0.3464863896369934, 0.24473027884960175, 0.020726671442389488, 0.3162265419960022, -0.19469766318798065, -0.07708775252103806, -0.2723638713359833, 0.23581530153751373, -0.010431143455207348, -0.1897098869085312, 0.28191179037094116, -0.029917050153017044, -0.2552264928817749, 0.23674596846103668, -0.0408165380358696, 0.25344449281692505, -0.17789731919765472, -0.019306078553199768, -0.16973787546157837, 0.34281182289123535, 0.08646233379840851, 0.3285285234451294, -0.16560165584087372, 0.18666164577007294, -0.17495930194854736, 0.12349851429462433, -0.18316656351089478, 0.35674840211868286, -0.11325161159038544, -0.053283385932445526, -0.17247459292411804, 0.30480509996414185, 0.19366510212421417, -0.13533517718315125, 0.2969014048576355, 0.0075560021214187145, -0.3029046058654785, 0.29759034514427185, 0.12178115546703339, -0.33045777678489685, 0.3092297315597534, 0.11185919493436813, -0.18004216253757477, 0.0934499055147171, -0.049929216504096985, 0.20740452408790588, -0.10639370232820511, 0.10852121561765671, -0.1779147982597351, 0.01754266954958439, -0.03955180197954178, 0.1845363825559616, 0.08047483116388321, 0.005988286808133125, -0.18969132006168365, -0.09428248554468155, -0.03806334361433983, -0.3364700973033905, 0.11652230471372604, 0.18113581836223602, -0.09744303673505783, 0.10525611788034439, -0.24730627238750458, 0.11583251506090164, -0.032722167670726776, 0.03744779899716377, -0.09053163975477219, -0.09561902284622192, -0.17591948807239532, 0.08015294373035431, -0.08527714759111404, 0.2546609044075012, -0.007735654711723328, 0.1507006287574768, -0.008280406706035137, 0.32274752855300903, -0.05840644612908363, 0.17532534897327423, -0.07671215385198593, 0.06403256207704544, 0.250544011592865, -0.1637500673532486, 0.0794067308306694, 0.051946934312582016, -0.15753908455371857, 0.013371679000556469, 0.07033665478229523, -0.29972705245018005, -0.08036086708307266, -0.004953750409185886, -0.1346449851989746, 0.09737444669008255, -0.1617426574230194, 0.15857431292533875, 0.1169540286064148, 0.055588264018297195, -0.060717519372701645, 0.05554411560297012, 0.19811971485614777, 0.12528489530086517, -0.20959261059761047, 0.06563820689916611, 0.0518045648932457, 0.05452357977628708, 0.012347747571766376, -0.14009463787078857, 0.0843018963932991, 0.06315601617097855, -0.05399782955646515, 0.0013308548368513584, 0.015925297513604164, 0.009878423064947128, -0.14342394471168518, -0.0012384172296151519, 0.09396465867757797, 0.15560732781887054, -0.01940966583788395, 0.06315106898546219, -0.03636709228157997, 0.07965749502182007, -0.10463524609804153, 0.14167478680610657, -0.055623896420001984, -0.02049678936600685, -0.07228527963161469, -0.17279638350009918, 0.0019067361718043685, 0.23538556694984436, -0.05148685351014137, -0.1636757105588913, 0.05436953157186508, -0.03954736888408661, -0.17204874753952026, 0.17177921533584595, -0.1983240842819214, -0.1974492371082306, -0.03873538225889206, -0.0955597460269928, 0.034681644290685654, -0.02805398590862751, 0.16748932003974915, 0.013970484957098961, -0.08478231728076935, 0.06181921064853668, -0.15997162461280823, 0.3141200542449951, 0.06042083725333214, 0.17676562070846558, -0.07030706852674484, -0.0796235203742981, 0.09471695125102997, 0.16121529042720795, 0.08445683866739273, -0.14163629710674286, 0.11126025021076202, -0.1266741156578064, -0.09367316961288452, 0.1686900556087494, -0.13782422244548798, 0.06477557122707367, -0.08513348549604416, 0.0747217983007431, -0.10194665938615799, 0.0931740403175354, -0.05820712074637413, 0.08998668193817139, -0.008207757025957108, 0.14448527991771698, -7.997961802175269e-05, 0.23538987338542938, -0.17323997616767883, -0.11747749149799347, -0.10398142039775848, -0.05494195967912674, 0.058621298521757126, 0.06616993248462677, -0.05196625366806984, -0.1513967663049698, 0.23458309471607208, -0.00012596762098837644, 0.08142167329788208, 0.2368694245815277, 0.09407252818346024, -0.023140976205468178, 0.10244718939065933, -0.019336899742484093, -0.017323683947324753, 0.21924714744091034, -0.15036047995090485, 0.17134924232959747, -0.17995452880859375, -0.15922805666923523, -0.11260617524385452, 0.21278154850006104, 0.24739719927310944, -0.04147693142294884, 0.08518285304307938, -0.029925940558314323, 0.004980496130883694, 0.15038487315177917, -0.17840494215488434, -0.03197304159402847, 0.09151407331228256, -0.1518799215555191, -0.04018733650445938, -0.024054039269685745, 0.18656212091445923, 0.03650771081447601, -0.08677759021520615, 0.03846064209938049, 0.07069608569145203, 0.06507036089897156, 0.11372813582420349, 0.1619844287633896, -0.04558688774704933, -0.04766393080353737, -0.11604398488998413, 0.07651805877685547, -0.010618758387863636, -0.01734108105301857, -0.11597933620214462, 0.04282350093126297, -0.10642275214195251, 0.04358344525098801, -0.19856029748916626, 0.0410165973007679, 0.15464717149734497, -0.2160750776529312, -0.20179705321788788, -0.08488476276397705, -0.10458225756883621, -0.117405965924263, -0.06631030142307281, -0.160280242562294, -0.059444308280944824, -0.05295183137059212, 0.10673888027667999, 0.044928912073373795, -0.10832393914461136, 0.020430468022823334, 0.287643700838089, -0.17199885845184326, 0.0289897620677948, -0.2140665501356125, 0.2233506739139557, -0.160643070936203, 0.02168920636177063, 0.05313354730606079, -0.11388034373521805, 0.18563972413539886, -0.0990568995475769, -0.06047304347157478, 0.12056096643209457, 0.0023463056422770023, 0.03258981928229332, -0.2981284260749817, 0.008390475995838642, -0.05987842008471489, 0.2039773315191269, -0.20414122939109802, 0.1615600734949112, -0.18853633105754852, 0.06458653509616852, 0.054159048944711685, 0.12297464162111282, -0.03030579909682274, 0.10844836384057999, -0.19101735949516296, -0.0022534504532814026, -0.03254774212837219, 0.2739992141723633, -0.13943086564540863, -0.1494249850511551, 0.22905820608139038, 0.05902179330587387, -0.06457407772541046, 0.039992544800043106, -0.2179161161184311, 0.013729159720242023, 0.1455075889825821, -0.1599472463130951, 0.0018536559073254466, 0.210720494389534, 0.023119285702705383, 0.17422813177108765, -0.14089970290660858, -0.005601827520877123, 0.02987607941031456, -0.04752488061785698, 0.2011021077632904, -0.09178607165813446, 0.07766827195882797, 0.03533634915947914, 0.2972671091556549, -0.07495234161615372, -0.02489730902016163, 0.10319477319717407, -0.29804039001464844, 0.23741891980171204, 0.08705709129571915, -0.27624887228012085, 0.1664455533027649, -0.23602299392223358, 0.12510134279727936, -0.12007151544094086, 0.06356737017631531, -0.3187928795814514, 0.21481280028820038, -0.2250356525182724, 0.2510226368904114, 0.026094883680343628, 0.18148744106292725, -0.13262763619422913, 0.2312842309474945, -0.14529089629650116, 0.10817954689264297, 0.019999008625745773, 0.19678814709186554, -0.3317246437072754, 0.06592024117708206, 0.05955818295478821, -0.07616959512233734, 0.08132778108119965, 0.027457494288682938, -0.21245504915714264, 0.18755722045898438, 0.19566559791564941, -0.15021102130413055, 0.11352285742759705, 0.20814429223537445, -0.2434653490781784, 0.038955725729465485, -0.3235330283641815, 0.07871328294277191, -0.08078877627849579, -0.19332613050937653, 0.09097462892532349, 0.15449903905391693, 0.14980731904506683, -0.1322421282529831, 0.04846710339188576, -0.21331897377967834, 0.16251511871814728, -0.020521942526102066, -0.1618875116109848, 0.1252986192703247, 0.037484217435121536, -0.02328776940703392, -0.06728607416152954, -0.039764486253261566, 0.0590507835149765, -0.023738959804177284, 0.03539661318063736, -0.1751009225845337, 0.11349258571863174, 0.046755529940128326, 0.09820074588060379, 0.06315379589796066, -0.2056783139705658, -0.07473276555538177, 0.19397152960300446, 0.054818909615278244, 0.22970640659332275, -0.09868186712265015, 0.018140271306037903, -0.2554614245891571, 0.03372354060411453, 0.07653854042291641, -0.10416124016046524, 0.08550640940666199, 0.1913181096315384, -0.15520837903022766, 0.03461194783449173, 0.19056186079978943, -0.16972142457962036, 0.16907894611358643, -0.004054331220686436, -0.15250706672668457, 0.03249228000640869, 0.153778076171875, 0.23452000319957733, -0.06489455699920654, -0.2092769294977188, 0.4976615011692047, 0.03522783890366554, -0.053209494799375534, -0.5397089123725891, 0.09281222522258759, 0.2028360366821289, 0.45589321851730347, -0.14032626152038574, 0.0306074321269989, 0.3364950716495514, 0.028225695714354515, -0.0550704151391983, 0.37853381037712097, 0.050857268273830414, -0.19040337204933167, -0.41079843044281006, -0.08580084890127182, 0.059017833322286606, 0.4211413562297821, 0.08269886672496796, -0.21700523793697357, -0.3537748157978058, -0.015704017132520676, 0.00329508725553751, 0.2808524966239929, -0.12537124752998352, 0.03699123114347458, -0.4724719226360321, 0.01932203210890293, 0.1296256184577942, 0.5339056253433228, 0.11257851123809814, 0.030922910198569298, 0.37446272373199463, -0.0014551549684256315, -0.1413959562778473, 0.36800718307495117, 0.03596404567360878, 0.06911882013082504, 0.3318183720111847, 0.0873042568564415, -0.14576219022274017, 0.42106953263282776, 0.11391798406839371, -0.0994628369808197, -0.4182838499546051, -0.10741940140724182, 0.19239483773708344, 0.36898887157440186, -0.489438533782959, 0.05684122443199158, -0.47903725504875183, 0.31602001190185547, 0.04477855563163757, 0.47767406702041626, -0.48535746335983276, 0.028949545696377754, 0.4830765128135681, -0.3380167782306671, -0.11234154552221298, 0.3629089295864105, -0.47342419624328613, -0.14943280816078186, -0.37132611870765686, 0.5440123081207275, 0.14809130132198334, 0.3978053629398346, -0.2941662073135376, -0.023695383220911026, -0.2535947263240814, 0.37719032168388367, -0.062022700905799866, 0.33133435249328613, -0.19970808923244476, -0.08118133991956711, -0.22687089443206787, 0.4521612823009491, -0.08621295541524887, 0.31539109349250793, -0.30608436465263367, -0.14293338358402252, 0.34760406613349915, -0.38487353920936584, -0.16164004802703857, 0.4452730417251587, -0.36422473192214966, 0.048199597746133804, 0.26734670996665955, -0.28647008538246155, -0.1259467601776123, 0.5155745148658752, -0.5755878686904907, -0.16203339397907257, -0.31484487652778625, 0.42794206738471985, -0.0017982249846681952, -0.013455638661980629, -0.274562269449234, -0.04639601334929466, -0.12453043460845947, 0.06113738194108009, 0.04729948565363884, -0.07574140280485153, 0.012178389355540276, 0.11058918386697769, 0.1655312180519104, -0.12110228836536407, 0.017627764493227005, 0.0030144015327095985, 0.0028481073677539825, 0.35517096519470215, -0.591671884059906, 0.6251596808433533, -0.18006135523319244, 0.6774628758430481, -0.6329045295715332, -0.1613239049911499, 0.8129447102546692, 0.8205709457397461, -0.576532781124115, 0.08241456001996994, -0.02525879628956318, -0.49323418736457825, -0.26254338026046753, 0.17556528747081757, -0.7910571098327637, 0.23453381657600403, 0.4769628047943115, 0.10530456900596619, 0.28975406289100647, 0.004193209111690521, 0.14458878338336945, 0.2602241039276123, -0.08452772349119186, 0.13720117509365082, -0.27415943145751953, -0.0481778085231781, -0.10549436509609222, 0.11241501569747925, 0.1712585836648941, -0.15927578508853912, 0.03736628592014313, 0.059759996831417084, -0.07547522336244583, 0.21649488806724548, 0.0775517076253891, -0.24632646143436432, 0.08340279012918472, -0.21905696392059326, -0.10627848654985428, -0.10013162344694138, 0.15327779948711395, -0.03783465176820755, 0.01458761841058731, -0.25198987126350403, -0.0325411781668663, 0.20004655420780182, -0.1193370372056961, 0.6388445496559143, 0.09350860118865967, 0.07099607586860657, 0.221040278673172, -0.003533748909831047, 0.21255885064601898, -0.234017014503479, -0.1328284740447998, 0.06865477561950684, -0.33420801162719727, -0.08268905431032181, -0.24842381477355957, 0.17626439034938812, -0.0564294308423996, -0.06793154031038284, 0.2795310914516449, 0.08858568221330643, -0.03584625944495201, -0.028168851509690285, -0.24399222433567047, 0.08712349086999893, -0.29598191380500793, 0.040657710283994675, 0.18369615077972412, 0.22296150028705597, 0.22492140531539917, -0.06303372979164124, 0.09128327667713165, 0.02145576663315296, -0.20222461223602295, 0.18555504083633423, 0.13257798552513123, -0.10161427408456802, -0.1857975721359253, -0.3402051627635956, -0.4248690605163574, -0.261573851108551, 0.1998605728149414, 0.2929363548755646, 0.05039796605706215, 0.07835493236780167, -0.19137291610240936, 0.07962624728679657, 0.3047066926956177, -0.21412208676338196, 0.3311762511730194, -0.16927887499332428, 0.24012288451194763, -0.25716814398765564, 0.13964912295341492, -0.15848231315612793, 0.03326242044568062, 0.19397279620170593, -0.01899988390505314, 0.2050260603427887, 0.19490309059619904, 0.32131659984588623, 0.15691663324832916, 0.23095430433750153, -0.0024549844674766064, -0.17658592760562897, -0.17309445142745972, -0.01995924860239029, -0.201874241232872, 0.20108948647975922, 0.44163042306900024, 0.31123414635658264, 0.23219716548919678, 0.20308800041675568, 0.1978178173303604, -0.40358850359916687, -0.13068222999572754, 0.11623556166887283, 0.1334463208913803, -0.005521705839782953, -0.41476497054100037, -0.24447622895240784, 0.006230635102838278, 0.396991491317749, -0.19080750644207, 0.3175751268863678, -0.5251607894897461, 0.21640731394290924, 0.06319405883550644, 0.2752622663974762, -0.19617439806461334, -0.1301080882549286, 0.11032459884881973, 0.21797360479831696, 0.06028231605887413, 0.14120018482208252, -0.15463735163211823, 0.21683362126350403, -0.08543924987316132, 0.0854429081082344, -0.17595316469669342, -0.1280757188796997, 0.2327733337879181, 0.04416744410991669, 0.08559132367372513, -0.2997837960720062, -0.16743828356266022, 0.1465395838022232, -0.04615483060479164, -0.3612158000469208, -0.26605963706970215, -0.22888091206550598, -0.24399776756763458, 0.24648252129554749, 0.23729322850704193, -0.2633694112300873, -0.07819349318742752, -0.11708638817071915, -0.3040963411331177, -0.5034604072570801, -0.17334884405136108, 0.24371999502182007, -0.349666029214859, -0.13322284817695618, 0.011662635020911694, 0.2347307801246643, -0.09638594835996628, 0.09838525205850601, 0.4042251408100128, 0.04041433334350586, 0.09809326380491257, 0.0907512828707695, 0.09237437695264816, -0.2165561020374298, 0.48198071122169495, 0.09356307983398438, 0.22023619711399078, -0.18731540441513062, 0.039582259953022, -0.026640208438038826, -0.03820190206170082, 0.07566120475530624, -0.12341423332691193, 0.06770480424165726, -0.1103120893239975, -0.09763795137405396, -0.04927421361207962, -0.15710748732089996, 0.06633508950471878, -0.15525129437446594, -0.08332760632038116, -0.211222305893898, -0.21072299778461456, 0.17122329771518707, -0.05342783406376839, 0.1026681438088417, -0.045523542910814285, 0.06641802936792374, 0.17060860991477966, 0.031248129904270172, -0.06911156326532364, 0.09006820619106293, -0.16622786223888397, 0.08658956736326218, 0.15539178252220154, -0.3522179424762726, -0.1545615941286087, -0.1857820302248001, -0.20440761744976044, 0.16031062602996826, -0.07920625805854797, 0.2540212869644165, -0.05351140722632408, 0.11157894134521484, 0.1012187972664833, 0.2898722290992737, 0.1738818734884262, 0.0069957817904651165, 0.14034168422222137, -0.0704183578491211, -0.13923217356204987, -0.4062223732471466, 0.27107688784599304, -0.0015567707596346736, -0.1357911378145218, -0.10012178122997284, 0.13691508769989014, -0.3496500551700592, 0.23685145378112793, 0.19473235309123993, 0.1386633813381195, -0.1350748986005783, -0.07979029417037964, -0.08813171088695526, -0.04600157216191292, 0.05748846009373665, -0.15143795311450958, -0.1598903238773346, 0.44173797965049744, -0.1259608119726181, 0.34055057168006897, -0.03428679704666138, -0.06855450570583344, -0.1134837195277214, 0.0123324329033494, 0.14615941047668457, 0.15396995842456818, -0.32019147276878357, 0.10272413492202759, -0.043305642902851105, -0.2063024789094925, 0.27278682589530945, 0.1568790227174759, -0.2769748568534851, 0.2725003659725189, 0.20625518262386322, 0.1855609267950058, 0.1889341026544571, -0.09869103133678436, -0.2103375941514969, 0.19904634356498718, 0.11178715527057648, 0.2957986295223236, -0.06311514973640442, -0.2128410041332245, -0.10254363715648651, -0.22258101403713226, 0.1524202972650528, 0.059502918273210526, 0.21386000514030457, -0.1730763018131256, 0.0468326210975647, -0.2520372271537781, 0.07917283475399017, -0.24062608182430267, 0.01933620125055313, 0.006890749558806419, 0.01868349500000477, 0.06001576408743858, -0.09606048464775085, 0.07919032871723175, 0.07036460936069489, 0.00479851895943284, 0.12520602345466614, 0.19036008417606354, 0.14183375239372253, -0.025915244594216347, 0.03219500184059143, -0.0766557827591896, -0.061369799077510834, 0.19180753827095032, -0.15664803981781006, 0.12520641088485718, -0.11540644615888596, -0.20110449194908142, 0.054300181567668915, -0.22423453629016876, -0.03254244476556778, 0.03663773834705353, -0.3462221920490265, -0.048236630856990814, 0.05083612725138664, 0.24166110157966614, 0.07474453002214432, 0.0075355046428740025, 0.0396452471613884, -0.2592550218105316, 0.09896320849657059, 0.1365169733762741, 0.16138529777526855, -0.17485328018665314, 0.11978297680616379, 0.05397668480873108, -0.1333768367767334, -0.18997514247894287, 0.15863150358200073, -0.11966485530138016, -0.07778508961200714, -0.33574342727661133, -0.15021812915802002, -0.3274868130683899, -0.050110068172216415, 0.09992372244596481, -0.5209415555000305, 0.05117643624544144, -0.11886150389909744, -0.2619555592536926, -0.06020040437579155, -0.22892002761363983, -0.3609192967414856, -0.024237100034952164, -0.11037629842758179, 0.465747207403183, -0.16682016849517822, -0.04316400736570358, -0.05349297448992729, -0.04570992290973663, 0.02056596241891384, -0.07071775943040848, -0.21229898929595947, 0.11892563104629517, -0.0306925680488348, -0.11470376700162888, 0.15450862050056458, -0.09917890280485153, 0.16051416099071503, -0.051520537585020065, 0.07599876075983047, 0.17655175924301147, -0.04841608926653862, -0.24878118932247162, -0.10502511262893677, -0.10407183319330215, 0.21514590084552765, -0.3195783495903015, 0.009637887589633465, 0.08584190160036087, 0.0010145483538508415, -0.006474892608821392, 0.001985482405871153, -0.31573203206062317, -0.06652775406837463, 0.001621342496946454, 0.20259405672550201, -0.20830824971199036, 0.11645380407571793, -0.08654212206602097, 0.04391947388648987, -0.25234371423721313, 0.2526603639125824, 0.12090783566236496, -0.26889148354530334, 0.5096431374549866, -0.12717598676681519, -0.1510404646396637, 0.06870050728321075, -0.014413959346711636, -0.3147817552089691, 0.1191842332482338, -0.22556531429290771, 0.04528798907995224, -0.15039855241775513, 0.06856288760900497, -0.01797010563313961, -0.1546994000673294, 0.08242125809192657, 0.275076687335968, 0.080866239964962, -0.06672927737236023, 0.06318540126085281, -0.003967878874391317, 0.17208443582057953, 0.2387596070766449, -0.003676442429423332, 0.023581938818097115, 0.20090797543525696, 0.0738968625664711, 0.11177028715610504, -0.17149363458156586, 0.285614013671875, 0.03918403759598732, 0.231549933552742, -0.3088395893573761, -0.04986157640814781, -0.08328311890363693, 0.05385976657271385, 0.0734778642654419, 0.24126389622688293, -0.4252852499485016, 0.04957191273570061, -0.15523798763751984, 0.2613781690597534, -0.12899337708950043, -0.04368828609585762, -0.2665533423423767, 0.08989833295345306, 0.04318214952945709, 0.013405237346887589, 0.2279738187789917, -0.0008340919739566743, 0.33081215620040894, 0.05089803785085678, -0.21553432941436768, 0.3363499939441681, 0.09657253324985504, -0.2377016544342041, 0.31249237060546875, 0.15633364021778107, -0.12981447577476501, -0.056596238166093826, 0.15633349120616913, -0.09111472219228745, -0.2773064970970154, -0.17254161834716797, -0.22503666579723358, 0.22878791391849518, 0.0489511713385582, 0.07292897254228592, -0.08252441883087158, -0.3036147952079773, 0.2292967438697815, 0.1829698234796524, -0.19583988189697266, 0.11651197820901871, -0.3071749806404114, -0.01293276995420456, -0.11112014949321747, 0.16995801031589508, 0.0990593209862709, -0.037225574254989624, 0.3006957769393921, 0.015319155529141426, -0.20657560229301453, -0.034366853535175323, 0.16734322905540466, 0.06197137385606766, -0.631338894367218, -0.06861720979213715, 0.21856819093227386, -0.19769582152366638, 0.0874825119972229, 0.03320412337779999, -0.229778453707695, -0.15296314656734467, 0.40690597891807556, -0.05046401545405388, -0.005066219251602888, 0.43274566531181335, -0.11081568151712418, -0.15572120249271393, 0.14876700937747955, -0.10929878056049347, -0.14018526673316956, 0.1369565725326538, -0.16620014607906342, 0.0977357029914856, -0.1921008676290512, 0.3940444886684418, 0.11060072481632233, -0.27798688411712646, -0.15222273766994476, 0.11746778339147568, 0.19771766662597656, 0.27397868037223816, 0.09019643068313599, -0.035656582564115524, 0.033841319382190704, -0.09912463277578354, -0.1319086253643036, -0.03578437492251396, 0.030041640624403954, -0.03212747350335121, -0.11562325805425644, -0.1446135938167572, -0.06154137849807739, -0.1341494470834732, 0.12911050021648407, 0.17423973977565765, -0.023177962750196457, -0.045825276523828506, -0.008943467400968075, 0.16493722796440125, 0.17628994584083557, -0.07490691542625427, 0.26567673683166504, -0.1685582548379898, -0.11111490428447723, -0.23906081914901733, 0.1150444746017456, 0.07342873513698578, -0.059776969254016876, -0.13446713984012604, -0.17270821332931519, -0.1725323647260666, 0.11848139017820358, -0.2952122986316681, -0.4918052554130554, 0.018398359417915344, 0.07047537714242935, -0.22070156037807465, 0.11994032561779022, 0.00841492135077715, -0.4003438949584961, -0.09459294378757477, 0.14495694637298584, 0.04197780415415764, 0.013807843439280987, 0.04668349772691727, -0.0010646168375387788, -0.0837668776512146, -0.3271724283695221, 0.08522418886423111, 0.08653082698583603, -0.19613425433635712, 0.07134299725294113, 0.03308769315481186, -0.09597086161375046, 0.18715818226337433, 0.009338265284895897, -0.1394495666027069, 0.18917788565158844, -0.04830572009086609, 0.29702070355415344, -0.5971036553382874, -0.006858054548501968, -0.08380834758281708, -0.07419981807470322, 0.005861304700374603, 0.20856788754463196, -0.3288451135158539, 0.11914346367120743, 0.14274181425571442, 0.784898042678833, -0.02980281412601471, 0.28163161873817444, -0.222765251994133, -0.09213901311159134, -0.002131287707015872, 0.2770483195781708, 0.1715589314699173, 0.26004350185394287, -0.01079410221427679, -0.060344818979501724, 0.3364303410053253, -0.003359091468155384, 0.011762013658881187, 0.13106364011764526, -0.5072562098503113, 0.16713233292102814, 0.09646377712488174, -0.002795114181935787, -0.15095020830631256, -0.1710488200187683, -0.11326596885919571, 0.070931077003479, 0.13649050891399384, 0.09651055186986923, 0.1349179595708847, 0.34901541471481323, 0.09605243057012558, -0.04065587371587753, 0.09187176823616028, -0.16389338672161102, 0.1797787994146347, 0.05922945961356163, -0.0667053610086441, -0.052778955549001694, -0.2368667721748352, 0.10896924883127213, -0.10924486815929413, 0.05008501559495926, 0.30910003185272217, 0.10412461310625076, 0.39010927081108093, -0.21768735349178314, 0.12694084644317627, -0.0853804275393486, 0.23104192316532135, -0.025858474895358086, 0.5324945449829102, -0.2948596179485321, -0.12308747321367264, -0.15294736623764038, 0.1772444248199463, -0.014690680429339409, 0.3062036633491516, -0.13405446708202362, 0.06834579259157181, -0.4450843036174774, 0.06162093207240105, 0.12005963176488876, -0.6110383868217468, 0.3052269220352173, 0.04975271597504616, -0.24421018362045288, 0.2628881633281708, -0.15865935385227203, -0.4613571763038635, 0.03906366974115372, -0.02025015838444233, 0.369437038898468, -0.16401751339435577, 0.14226467907428741, -0.1092008501291275, 0.0990634635090828, -0.0917031466960907, 0.017230689525604248, -0.07322774082422256, 0.19052986800670624, -0.1809336394071579, 0.017614448443055153, 0.2811334729194641, -0.022679943591356277, 0.005537797696888447, -0.03796426206827164, 0.003719526110216975, -0.09698377549648285, -0.2334277331829071, 0.1321546584367752, -0.06138738989830017, -0.01164024043828249, -0.05296066403388977, -0.17308345437049866, 0.18408198654651642, 0.1281084418296814, 0.006385034415870905, -0.12075651437044144, 0.02949731983244419, -0.26711875200271606, -0.04385989531874657, 0.21165548264980316, 0.2156742364168167, -0.1115197092294693, 0.09711902588605881, -0.029811976477503777, 0.10346968472003937, 0.11063278466463089, -0.0013658814132213593, -0.06925301998853683, -0.056124139577150345, 0.07741662859916687, -0.11001816391944885, -0.23983778059482574, 0.03828970342874527, 0.12597806751728058, 0.12322616577148438, 0.08170181512832642, 0.07118258625268936, -0.11147761344909668, -0.07387533783912659, 0.16127394139766693, 0.08420555293560028, -0.0531044527888298, 0.038430001586675644, -0.01777811534702778, -0.18395620584487915, -0.36343106627464294, 0.3083801567554474, 0.08303342759609222, 0.01608903892338276, 0.024838047102093697, 0.038644444197416306, -0.14021505415439606, 0.03921521082520485, 0.05387866497039795, -0.03428741171956062, 0.03728436678647995, -0.11808720976114273, -0.12011199444532394, 0.07930555194616318, 0.10837839543819427, -0.0659295991063118, -0.2653822600841522, -0.2076583057641983, 0.1917342096567154, -0.20498126745224, -0.0060240644961595535, 0.25382840633392334, -0.12085576355457306, -0.023640047758817673, -0.08128779381513596, 0.16461524367332458, -0.05030398815870285, 0.12688668072223663, -0.16711947321891785, 0.017249025404453278, 0.32463768124580383, 0.09594086557626724, -0.009597038850188255, 0.2039889395236969, 0.47047561407089233, -0.0471949502825737, -0.01794138178229332, 0.15695732831954956, -0.12904232740402222, 0.3173793852329254, 0.044177282601594925, -0.005125510506331921, -0.18835288286209106, 0.29343143105506897, -0.07182448357343674, -0.09174467623233795, -0.2700600326061249, 0.08469526469707489, 0.04434634745121002, -0.24519270658493042, 0.02634623646736145, -0.22882859408855438, -0.06915609538555145, 0.21476373076438904, -0.15462997555732727, 0.18565885722637177, 0.03705130144953728, -0.0694073960185051, -0.08505323529243469, -0.2737395763397217, 0.21280960738658905, -0.11106830090284348, 0.1094931811094284, 0.04253527894616127, -0.04648127034306526, -0.12614542245864868, 0.33309003710746765, 0.3857949674129486, 0.18993763625621796, 0.014414611272513866, -0.012810136191546917, -0.18991036713123322, 0.12566566467285156, -0.1574501395225525, -0.08190635591745377, -0.06693439185619354, 0.17667214572429657, 0.05957493185997009, -0.1524285525083542, 0.10076328366994858, -0.21939609944820404, -0.205887570977211, -0.2031264454126358, -0.20224051177501678, -0.05838844180107117, -0.060000237077474594, -0.16891708970069885, 0.030186092481017113, -0.3198363482952118, 0.025173936039209366, -0.1509711593389511, -0.09943586587905884, 0.08498898148536682, -0.1408727765083313, -0.2587261199951172, -0.3142227828502655, -0.17439880967140198, -0.012185493484139442, 0.11808877438306808, 0.14995168149471283, -0.09867025911808014, 0.10995957255363464, 0.013300946913659573, -0.027480972930788994, 0.3643881380558014, -0.12971580028533936, -0.03592490777373314, -0.12969110906124115, -0.16308334469795227, -0.060307979583740234, -0.1503003090620041, 0.1987094283103943, -0.029742643237113953, -0.08384985476732254, 0.011970920488238335, -0.0963091030716896, -0.28240343928337097, 0.3367661237716675, -0.08891115337610245, 0.02351120300590992, -0.16687238216400146, 0.10966545343399048, 0.002774806460365653, 0.16631588339805603, 0.0889480859041214, 0.6525363326072693, -0.20822352170944214, 0.07673274725675583, 0.7450809478759766, 0.02576998807489872, -0.040228791534900665, 0.08657068014144897, 0.01384858787059784, -0.18431656062602997, 0.6062765717506409, -0.17174646258354187, 0.033589012920856476, -0.5061330199241638, -0.01684132218360901, 0.04095820337533951, 0.011480309069156647, -0.11817055940628052, 0.11828824877738953, -0.027139075100421906, -0.1592673808336258, -0.0027300817891955376, 0.03292335569858551, 0.09904593229293823, 0.08369437605142593, -0.030290426686406136, -0.029449699446558952, -0.07550360262393951, -0.06522727012634277, -0.08294925093650818, -0.039045847952365875, 0.4879968464374542, 0.09929827600717545, 0.16093026101589203, -0.16274209320545197, 0.10400329530239105, 0.10914259403944016, 0.3477570116519928, 0.09151873737573624, 0.3005046546459198, -0.41599246859550476, -0.02547566592693329, -0.326408714056015, 0.20256632566452026, -0.024370426312088966, -0.0004977085627615452, -0.10148120671510696, -0.20698095858097076, -0.3340680003166199, -0.14968757331371307, -0.08940542489290237, -0.4317276179790497, -0.12132614105939865, -0.10055471956729889, -0.10455608367919922, 0.08949976414442062, -0.2722225487232208, -0.2030656933784485, -0.041411541402339935, -0.29186853766441345, 0.1330045759677887, 0.18935243785381317, 0.13514450192451477, -0.10370732098817825, -0.023372964933514595, -0.12373176962137222, 0.1483619660139084, 0.14951522648334503, -0.08835428953170776, 0.08390476554632187, 0.04879121109843254, -0.2085706889629364, 0.04510150104761124, 0.08908801525831223, 0.010425616055727005, 0.03010755218565464, -0.16149720549583435, -0.01506364718079567, 0.045640572905540466, -0.03966892138123512, 0.2106090635061264, -0.03761777654290199, -0.01967974752187729, -0.10921967774629593, -0.1311158388853073, -0.1179145872592926, 0.09751500189304352, -0.15794289112091064, -0.05188603699207306, 0.041008830070495605, -0.03191477805376053, 0.003441194072365761, -0.025217756628990173, 0.1493803709745407, 0.021608825773000717, -0.17759014666080475, 0.03566676378250122, -0.23278088867664337, -0.04994530230760574, 0.005406316835433245, -0.2429613620042801, 0.12288746237754822, 0.048941969871520996, -0.15434959530830383, -0.2680470645427704, 0.07451911270618439, -0.1612585335969925, 0.01340053603053093, 0.22075627744197845, 0.29264187812805176, -0.02684168331325054, -0.0703720822930336, -0.07599053531885147, 0.015366734936833382, -0.04920172318816185, 0.19550737738609314, 0.06285291165113449, 0.02977997623383999, -0.04500079154968262, -0.029660539701581, -0.19432848691940308, 0.023076782003045082, -0.13976618647575378, -0.16060611605644226, -0.06652253866195679, -0.0536009781062603, 0.04330659285187721, -0.17570462822914124, 0.003689149161800742, -0.11260475218296051, 0.260885626077652, 0.060292456299066544, 0.15298399329185486, -0.09322037547826767, 0.09673914313316345, -0.003148406045511365, -0.05236642435193062, 0.05929569900035858, 0.19411936402320862, -0.21769016981124878, 0.1644820123910904, -0.06047709658741951, 0.011532815173268318, -0.04394753277301788, 0.05835703760385513, 0.05341440811753273, -0.17272697389125824, -0.06138322874903679, -0.26784756779670715, -0.1421564668416977, 0.3189634382724762, -0.013787164352834225, -0.020842788740992546, 0.06227973476052284, -0.17396555840969086, -0.2068571001291275, -0.07222191989421844, 0.03951245918869972, 0.07371677458286285, 0.006352636963129044, -0.13701288402080536, -0.17034879326820374, -0.1514177918434143, 0.17994114756584167, -0.24272364377975464, -0.06454868614673615, 0.24564357101917267, -0.13362574577331543, 0.036054812371730804, -0.08656897395849228, -0.10943122953176498, -0.0042690434493124485, 0.2137845754623413, 0.11060582846403122, 0.21411840617656708, -0.49404650926589966, -0.06488415598869324, -0.030929729342460632, 0.31674307584762573, 0.0849733054637909, -0.03395841643214226, -0.3901945948600769, -0.0459323525428772, -0.17354857921600342, -0.11823201924562454, -0.44037288427352905, -0.02965530753135681, -0.37895068526268005, 0.1307043880224228, -0.022087333723902702, 0.0065663596615195274, -0.14555302262306213, 0.2171943634748459, 0.07263650000095367, -0.12021301686763763, 0.19705955684185028, -0.17655104398727417, -0.015547242015600204, 0.05710636079311371, -0.3169034421443939, -0.18018023669719696, -0.24520620703697205, -0.229476660490036, -0.25281473994255066, 0.06979719549417496, 0.013935182243585587, -0.06893227249383926, -0.029890315607190132, 0.1560942828655243, -0.014049137942492962, 0.0749804899096489, 0.07905974984169006, 0.044777266681194305, 0.010135183110833168, 0.05623047426342964, -0.1462702751159668, 0.05813046917319298, 0.12716223299503326, -0.15449833869934082, -0.05088233947753906, 0.02381826937198639, 0.02496487833559513, -0.01124088279902935, -0.040713947266340256, 0.1736336350440979, 0.039583683013916016, 0.1501077562570572, -0.2771132290363312, 0.02942272089421749, -0.25180530548095703, 0.03856835886836052, -0.14697961509227753, -0.0166433434933424, -0.24477450549602509, -0.12086903303861618, 0.06613344699144363, 0.22888034582138062, -0.0039724912494421005, -0.03546343371272087, -0.4409423768520355, -0.12640656530857086, -0.007377933245152235, -0.12349238246679306, -0.09984340518712997, -0.16685038805007935, -0.02523547224700451, 0.07710079848766327, -0.08118943870067596, -0.2438744157552719, -0.036154281347990036, -0.19267305731773376, -0.08054054528474808, 0.07612594217061996, 0.18485845625400543, 0.10416470468044281, 0.10053876042366028, 0.08549896627664566, -0.06938270479440689, 0.10900426656007767, -0.11909099668264389, 0.09243522584438324, 0.13798531889915466, 0.08808305859565735, -0.07411916553974152, -0.045561376959085464, 0.15354591608047485, 0.08612202107906342, 0.051202088594436646, 0.05061674863100052, 0.3772931694984436, -0.02881643921136856, -0.27608901262283325, 0.4030584990978241, 0.33918827772140503, -0.541956901550293, 0.34765365719795227, -1.0716259479522705, -0.21387913823127747, -0.41199806332588196, 0.8604130744934082, -0.7741518616676331, -0.6537610292434692, -0.8740239143371582, 0.05599614977836609, -0.7632058262825012, 0.33673569560050964, -0.6570500135421753, 0.005031723529100418, -0.18570490181446075, -0.06717802584171295, 0.5051959753036499, 0.1755571812391281, 0.12230321764945984, -0.30949726700782776, -0.05833230912685394, -0.3824903666973114, -0.17718660831451416, -0.03003537841141224, 0.30748337507247925, 0.19053839147090912, 0.13062793016433716, 0.009989759884774685, 0.009895404800772667, 0.19302703440189362, -0.09703531861305237, 0.004233105573803186, -0.059312429279088974, -0.1867094784975052, 0.16219767928123474, 0.08158191293478012, -0.23127001523971558, -0.021092232316732407, -0.0420067124068737, 0.1286410689353943, 0.3370280861854553, 0.12064151465892792, 0.0031586363911628723, 0.28919482231140137, 0.30571478605270386, -0.1279352754354477, -0.21334637701511383, -0.24346868693828583, 0.24353604018688202, -0.01556400302797556, 0.43601346015930176, -0.22672763466835022, -0.15104463696479797, 0.05485270917415619, 0.21449336409568787, -0.1914471834897995, -0.3001498281955719, 0.21540100872516632, 0.3586449921131134, 0.39132237434387207, 0.2692562937736511, 0.39768385887145996, -0.017252223566174507, -0.32561740279197693, 0.09340431541204453, -0.1723318248987198, -0.128444641828537, 0.06631194055080414, 0.1149359941482544, -0.6895080804824829, 0.2670995891094208, 0.04333724081516266, 0.47318241000175476, 0.08523687720298767, -0.12649381160736084, 0.07193101942539215, 0.06388281285762787, 0.32868683338165283, 0.0004356118442956358, -0.20969536900520325, -0.2512580454349518, 0.10671784728765488, -0.0016462262719869614, 0.06343136727809906, 0.3663772642612457, -0.16472826898097992, -0.19736450910568237, -0.16574262082576752, 0.22417756915092468, -0.3293439745903015, 0.06338918954133987, -0.32910028100013733, -0.07759930193424225, -0.3440448045730591, -0.17448918521404266, -0.23371098935604095, 0.043748002499341965, 0.04009435698390007, 0.03539247810840607, -0.2704293131828308, -0.5622736811637878, 0.4951019585132599, 0.45385485887527466, -0.04882502928376198, -0.3093113601207733, 0.11046959459781647, -0.0041360254399478436, 0.3318207561969757, 0.1493266522884369, 0.060888905078172684, 0.017997145652770996, 0.4050089120864868, -0.19440680742263794, 0.16180062294006348, 0.04064735770225525, -0.14140360057353973, -0.0744701698422432, -0.009082182310521603, -0.20881521701812744, -0.1952100247144699, 0.28366369009017944, -0.0640287920832634, -0.3699316382408142, -0.09341377764940262, 0.12137658894062042, 0.1870155930519104, 0.13913965225219727, 0.09231403470039368, -0.1628640741109848, 0.15829125046730042, -0.06396964192390442, -0.17099200189113617, -0.1014074981212616, 0.059013109654188156, 0.03947470337152481, -0.23908597230911255, 0.04183492437005043, -0.1126861423254013, -0.04942626506090164, 0.0744168683886528, -0.03831179812550545, -0.016979414969682693, 0.15402698516845703, -0.05448312684893608, -0.07466741651296616, -0.22384819388389587, -0.1526259034872055, 0.01754012703895569, -0.04253905639052391, 0.07400722801685333, 0.06429994851350784, 0.2708562910556793, -0.14475344121456146, 0.07336580008268356, 0.08861830830574036, 0.15378010272979736, 0.29644402861595154, 0.07042224705219269, -0.07617823779582977, 0.17284485697746277, 0.15050449967384338, 0.250241756439209, -0.4462015926837921, 0.501907467842102, -0.12765376269817352, -0.0565582811832428, -0.13058197498321533, 0.013371528126299381, 0.4424007534980774, 0.1365985870361328, -0.18148118257522583, -0.055444180965423584, -0.12004733085632324, -0.1526438444852829, -0.19379770755767822, -0.11910663545131683, 0.2555614709854126, 0.16146360337734222, -0.07982516288757324, -0.08344422280788422, -0.04224436357617378, 0.29115501046180725, 0.014688223600387573, -0.22125940024852753, 0.15619710087776184, 0.07470279932022095, 0.044926490634679794, 0.12018026411533356, 0.09192725270986557, 0.2524801790714264, 0.41064003109931946, -0.35034921765327454, -0.22009709477424622, -0.2057855725288391, 0.029432617127895355, 0.03018728271126747, 0.23389416933059692, -0.08230892568826675, 0.05375923961400986, 0.3339829742908478, -0.028596173971891403, -0.07278203219175339, -0.13033759593963623, 0.0671682208776474, -0.20572540163993835, -0.17278388142585754, -0.23443403840065002, -0.23170171678066254, 0.2678492069244385, 0.06504999101161957, -0.04971890524029732, -0.3206440806388855, 0.10464728623628616, -0.24206982553005219, -0.03837539628148079, -0.335391104221344, -0.1616544872522354, 0.08157067000865936, -0.2298518270254135, -0.10879166424274445, -0.06975792348384857, 0.0791253000497818, -0.007357635069638491, -0.08578673005104065, 0.4551895260810852, -0.20420172810554504, 0.06597717106342316, 0.021091939881443977, -0.18722714483737946, 0.5658953785896301, 0.20187699794769287, 0.11965344101190567, -0.11807853728532791, 0.3187711536884308, -0.03608255088329315, 0.3631475269794464, -0.03583385795354843, -0.09882082790136337, 0.5193888545036316, 0.28825145959854126, 0.06425174325704575, -0.21105077862739563, -0.23622983694076538, 0.26040026545524597, -0.10450096428394318, 0.045425113290548325, 0.23097603023052216, 0.026800863444805145, -0.03128238394856453, 0.07767646014690399, -0.06919732689857483, 0.3904310464859009, 0.23472712934017181, 0.008592662401497364, 0.16654324531555176, -0.2502312958240509, 0.009010788053274155, -0.3730795681476593, 0.3254617750644684, -0.625349223613739, 0.2889770269393921, 0.2569817900657654, 0.08881523460149765, 0.4886365830898285, 0.0025881780311465263, -0.3438490927219391, 0.3246075510978699, -0.08229901641607285, -0.4126816391944885, -0.06263725459575653, -0.12381940335035324, -0.06259988993406296, -0.26961302757263184, 0.09863539785146713, 0.004929274320602417, 0.08951083570718765, 0.24872690439224243, -0.03244631364941597, 0.13718830049037933, -0.03376920893788338, -0.22254624962806702, 0.13384951651096344, -0.4151045083999634, -0.19034944474697113, -0.08179666846990585, 0.5455314517021179, 0.3531091511249542, 0.060723599046468735, 0.04366447404026985, -0.1489003449678421, -0.1539195477962494, 0.19737912714481354, 0.05503793805837631, -0.03820464015007019, 0.15631648898124695, -0.4205244779586792, 0.11684759706258774, 0.1600830852985382, -0.14065100252628326, 0.08657142519950867, -0.08517327159643173, 0.6155369877815247, -0.25221550464630127, -0.07733389735221863, -0.13285475969314575, -0.0805119127035141, -0.19511058926582336, 0.043028574436903, -0.2739846706390381, -0.047103483229875565, 0.07504276931285858, 0.03508108854293823, -0.14274567365646362, -0.009298627264797688, -0.1661045104265213, 0.3108638525009155, 0.33350908756256104, -0.03853703290224075, -0.3462677597999573, -0.09027701616287231, 0.2486334890127182, 0.5459898710250854, 0.35382434725761414, 0.22054150700569153, 0.11592703312635422, 0.3779243528842926, 0.12066368013620377, 0.01868363656103611, 0.2344658225774765, -0.23558370769023895, -0.027151571586728096, -0.21068347990512848, 0.21435661613941193, -0.6613171696662903, -0.29721465706825256, 0.09323734045028687, -0.16638684272766113, 0.011914958246052265, -0.3367394804954529, -0.012073194608092308, 0.0728166252374649, 0.01739904284477234, -0.1620713472366333, -0.3875404894351959, -0.19937661290168762, 0.1533128023147583, -0.11084055155515671, 0.01989353448152542, -0.23899035155773163, 0.2515755891799927, -0.1306060254573822, 0.0015547205694019794, -0.16044071316719055, 0.2036891132593155, -0.08257202059030533, -0.06401687115430832, 0.039642855525016785, -0.0010745215695351362, -0.05323947221040726, -0.24138596653938293, 0.1365031599998474, 0.06969095766544342, -0.008759444579482079, -0.04585714265704155, -0.07478994876146317, -0.03781827911734581, -0.20138102769851685, -0.37698376178741455, -0.27631106972694397, -0.022921040654182434, 0.012606683187186718, -0.046517614275217056, -0.25819242000579834, -0.19343258440494537, -0.4618311822414398, 0.27301663160324097, 0.05739499256014824, -0.3158324658870697, 0.0010271983919665217, -0.10206148028373718, 0.027304135262966156, 0.07547897100448608, -0.23053504526615143, -0.038464803248643875, 0.29858770966529846, -0.2645801901817322, -0.4951052665710449, 0.340982049703598, -0.2362593710422516, -0.13864585757255554, -0.3813086748123169, -0.4344288408756256, -0.33326271176338196, -0.3987884521484375, -0.03275960683822632, 0.1201322004199028, 1.036145567893982, -0.30879056453704834, -0.10915651172399521, 0.3993421196937561, 0.27366551756858826, -0.3028962314128876, -0.11681577563285828, 0.41611501574516296, 0.4007134437561035, 0.14007604122161865, -0.12255870550870895, 0.007503265514969826, -0.158793643116951, 0.57649165391922, 0.17583970725536346, 0.32495105266571045, 0.23198238015174866, -0.11195061355829239, -1.0504333972930908, -0.42257142066955566, 0.564532458782196, 0.043906696140766144, 0.24596074223518372, 0.37804117798805237, 0.23256561160087585, -0.3689105212688446, -0.09936998784542084, 0.4894641935825348, -0.22661231458187103, -0.3945412337779999, -0.026943134143948555, -1.158442497253418, 0.3610686659812927, -0.057203419506549835, -0.2071944624185562, -0.12249846011400223, -0.13850979506969452, 0.29469233751296997, -0.05307083576917648, 0.08120623975992203, 0.2768602669239044, -0.18711668252944946, 0.2933062016963959, -0.0017956404481083155, 0.005801540333777666, 0.12069818377494812, -0.28838300704956055, 0.021630804985761642, -0.20373113453388214, 0.06196729093790054, -0.02541648969054222, 0.1083517074584961, -0.021154845133423805, -0.18035881221294403, -0.08486403524875641, -0.02562014013528824, 0.14075882732868195, 0.01197454147040844, 0.24335233867168427, 0.0354682020843029, -0.22537653148174286, -0.2846251428127289, -0.12030753493309021, -0.0032595572993159294, -0.040160756558179855, -0.1503819078207016, 0.16726136207580566, 0.0696365162730217, -0.01070423237979412, 0.21507401764392853, -0.277709424495697, -0.04508237540721893, 0.024636339396238327, 0.1555732637643814, -0.00041779709863476455, -0.12461865693330765, 0.28115034103393555, 0.11270614713430405, 0.019630007445812225, 0.21691375970840454, -0.011577323079109192, 0.31642359495162964, 0.024877984076738358, 0.02028537355363369, -0.0019876330625265837, -0.05220115929841995, 0.07915441691875458, 0.04868105798959732, -0.03310171514749527, -0.16541440784931183, 0.25038817524909973, 0.49009549617767334, 0.0023490008898079395, -0.28237563371658325, 0.38100218772888184, -0.1226099357008934, 0.3345029056072235, -0.21005409955978394, 0.04993847385048866, -0.1564296931028366, -0.07090644538402557, 0.16565807163715363, -0.0033151409588754177, -0.055038586258888245, 0.11614353954792023, -0.06760905683040619, -0.27164986729621887, -0.0023361966013908386, 0.08613761514425278, 0.22605575621128082, -0.024754060432314873, 0.13763339817523956, 0.043932877480983734, 0.06848710030317307, -0.23345652222633362, -0.004143992438912392, -0.20881585776805878, -0.04655228927731514, 0.20506468415260315, -0.20264194905757904, 0.17460393905639648, -0.21917062997817993, 0.1795884370803833, 0.23039941489696503, -0.3989308178424835, 0.3423100411891937, 0.045759644359350204, -0.4856143891811371, -0.02186257392168045, 0.018259914591908455, -0.05844328925013542, -0.21133644878864288, 0.04510036110877991, -0.015746911987662315, -0.13202537596225739, -0.07055782526731491, -0.018984993919730186, -0.19957540929317474, -0.10016658157110214, 0.05794170871376991, -0.06980228424072266, 0.11002205312252045, 0.15166334807872772, 0.1627090722322464, 0.0630047395825386, 0.2489379644393921, -0.007057212293148041, -0.10374213755130768, -0.1947101205587387, -0.06240494176745415, -0.07085353136062622, -0.16006189584732056, 0.07967222481966019, 0.08165574073791504, 0.03598315641283989, -0.14473208785057068, -0.2136918604373932, -0.16197963058948517, -0.07928220927715302, 0.03120375983417034, -0.023404311388731003, -0.15148422122001648, 0.051487263292074203, 0.3089055120944977, 0.071751669049263, -0.19041243195533752, -0.395206481218338, -0.36468806862831116, -0.17231978476047516, 0.02688082866370678, -0.13763856887817383, -0.17148873209953308, -0.030530596151947975, -0.1534242480993271, 0.20730431377887726, 0.04351154342293739, 0.09048669785261154, -0.013732682913541794, -0.3086499869823456, 0.04677697271108627, 0.01653372123837471, -0.11222277581691742, 0.07248853147029877, 0.012893659062683582, -0.1448090821504593, 0.0007838020101189613, -0.04630424082279205, 0.29376867413520813, 0.197556734085083, -0.06932336091995239, -0.03139710798859596, 0.12532958388328552, 0.20367909967899323, 0.35562586784362793, -0.22382208704948425, -0.036594461649656296, 0.07988613843917847, 0.0074066235683858395, 0.20843994617462158, 0.12092690169811249, -0.1971573382616043, -0.1386646032333374, -0.1847877949476242, 0.12162657827138901, 0.07194165140390396, 0.2530374526977539, -0.12464674562215805, -0.1722133308649063, -0.03433438390493393, -0.029219046235084534, -0.10457964241504669, -0.23126262426376343, -0.20300404727458954, -0.12638980150222778, 0.3054945766925812, 0.23259779810905457, 0.05138181522488594, -0.04997972771525383, 0.17247708141803741, -0.146494522690773, 0.20979616045951843, -0.06680145114660263, 0.006148610729724169, -0.21181745827198029, -0.08835606276988983, 0.16727086901664734, 0.12080489844083786, -0.16404306888580322, 0.17129060626029968, 0.058306142687797546, -0.058062151074409485, 0.0621170736849308, 0.11319005489349365, -0.12067761272192001, -0.10518749058246613, -0.12886573374271393, 0.006763343699276447, -0.19047589600086212, -0.0959152802824974, -0.008909551426768303, -0.09958695620298386, 0.2444213479757309, 0.24922288954257965, -0.06297888606786728, -0.09729330241680145, -0.20712363719940186, -0.18605563044548035, 0.1304672509431839, 0.08807647973299026, -0.00993093941360712, 0.10865630954504013, -0.1061042994260788, -0.09024534374475479, 0.05866190791130066, -0.0922083780169487, 0.21567362546920776, -0.2398597151041031, -0.14525409042835236, 0.011942550539970398, 0.11734963953495026, 0.08820734918117523, 0.03829050809144974, -0.18248704075813293, -0.1347436010837555, -0.00018797657685354352, -0.12792742252349854, -0.0566081777215004, 0.09998918324708939, -0.11160025000572205, 0.18051503598690033, -0.19529201090335846, -0.05320997163653374, 0.1915382444858551, -0.047413796186447144, -0.07621496915817261, 0.10409751534461975, 0.25268420577049255, 0.14911247789859772, -0.21827301383018494, 0.07177584618330002, 0.10860668867826462, -0.3296363651752472, -0.006542922463268042, 0.1071903184056282, -0.02634969726204872, -0.447468638420105, -0.42378920316696167, 0.03884410858154297, -0.2704969346523285, 0.014681697823107243, -0.17039594054222107, 0.30558836460113525, 0.05891219526529312, -0.1386055052280426, -0.08439651876688004, -0.12026984989643097, 0.29758673906326294, 0.2812803089618683, 0.08567029237747192, -0.07096739858388901, -0.147819384932518, 0.06445541232824326, 0.3921264111995697, 0.16358114778995514, 0.022825812920928, -0.1950904279947281, -0.0832996740937233, 0.21280528604984283, -0.15825003385543823, -0.395242840051651, -0.26949238777160645, 0.04283960908651352, 0.14592495560646057, 0.12393048405647278, -0.13607613742351532, 0.054599080234766006, 0.009530128911137581, -0.22007906436920166, -0.0209831390529871, 0.06939807534217834, -0.17802561819553375, -0.06107954680919647, -0.2994074523448944, -0.09701377898454666, -0.09750757366418839, -0.013794617727398872, 0.23482646048069, -0.10459389537572861, -0.11890145391225815, 0.2514287233352661, -0.13635919988155365, 0.24216899275779724, -0.20706017315387726, 0.07560113817453384, 0.14894427359104156, -0.05517229437828064, 0.19591988623142242, -0.45717576146125793, 0.025191238150000572, -0.2439252883195877, -0.04912877082824707, -0.01623036153614521, 0.19559882581233978, -0.16145196557044983, -0.2027062177658081, -0.1554841697216034, -0.23189102113246918, 0.16437716782093048, 0.2937822639942169, -0.02051948383450508, -0.09858093410730362, -0.03284149616956711, -0.2796637713909149, 0.11258082836866379, -0.005429140292108059, 0.5016118288040161, -0.11092068254947662, 0.1256469041109085, 0.005446042865514755, -0.07878037542104721, -0.12759026885032654, -0.17444010078907013, 0.23166947066783905, -0.10523616522550583, 0.2217910885810852, -0.07482720166444778, 0.03568277135491371, 0.22003021836280823, -0.023266589269042015, -0.06848885118961334, -0.3336208164691925, -0.10296936333179474, -0.1582593023777008, 0.0761181190609932, 0.17916171252727509, -0.13598404824733734, 0.10664639621973038, 0.11863457411527634, 0.05292415991425514, -0.01811859756708145, 0.1075347289443016, 0.23429226875305176, 0.1380050629377365, 0.1470101922750473, 0.0923304632306099, 0.00029596639797091484, -0.48687177896499634, -0.16029739379882812, 0.03660685569047928, 0.024896400049328804, 0.1539267748594284, 0.04437648132443428, -0.1265149563550949, -0.14391344785690308, 0.10261896252632141, -0.0038642664439976215, 0.07975225150585175, -0.08032488077878952, -0.015263436362147331, -0.08548633754253387, -0.023993458598852158, 0.3007754385471344, 0.10349772125482559, -0.009441519156098366, -0.13245587050914764, 0.363453209400177, 0.15911105275154114, 0.09745296835899353, -0.03913315013051033, -0.1851375699043274, -0.006300873123109341, -0.15545544028282166, 0.21095404028892517, -0.15542930364608765, 0.18084390461444855, -0.10612518340349197, -0.22884944081306458, 0.14417482912540436, 0.07680539786815643, 0.21742583811283112, -0.11177948117256165, -0.1297045350074768, 0.22688522934913635, -0.019727535545825958, 0.01763225346803665, 0.32614797353744507, -0.03923072665929794, 0.20948347449302673, 0.17758600413799286, 0.07574472576379776, 0.07769353687763214, -0.08297186344861984, -0.17554445564746857, -0.17953196167945862, 0.19151127338409424, -0.09441136568784714, 0.1406349241733551, 0.2202007919549942, 0.23631206154823303, -0.07805069535970688, -0.19512878358364105, -0.22624419629573822, -0.013769702985882759, -0.05355756729841232, 0.012640873901546001, -0.017943061888217926, -0.17311787605285645, -0.18697574734687805, 0.08725140988826752, 0.06519478559494019, 0.2689324915409088, -0.03270487114787102, -0.024372952058911324, 0.07920796424150467, 0.03568215295672417, 0.01569526642560959, -0.0994272455573082, -0.06004248186945915, 0.3536541163921356, -0.2452176809310913, -0.18085099756717682, 0.24211125075817108, 0.17155121266841888, -0.006614948157221079, -0.11448708921670914, -0.12239077687263489, -0.12604747712612152, 0.16228221356868744, 0.11899468302726746, 0.01174464076757431, -0.0550566241145134, -0.02235901914536953, -0.1852976530790329, 0.06522168219089508, -0.038664981722831726, 0.10755491256713867, 0.13962353765964508, 0.023907704278826714, 0.18763655424118042, -0.06836672127246857, 0.3574809432029724, -0.6494666934013367, 0.11183792352676392, 0.0855007991194725, 0.2275252640247345, -0.007315678056329489, 0.09850625693798065, -0.14882494509220123, 0.020313505083322525, -0.02139868028461933, -0.14436990022659302, 0.11963736265897751, 0.012030980549752712, -0.021807018667459488, -0.048340409994125366, 0.26139137148857117, 0.14984172582626343, 0.025065332651138306, -0.3447435796260834, 0.3720601201057434, 0.40047094225883484, 0.0487976111471653, -0.08886232227087021, -0.04906729981303215, 0.2044377475976944, 0.099186971783638, 0.2730228304862976, 0.3019389808177948, -0.1982993185520172, -0.03356346860527992, 0.08108518272638321, 0.26771456003189087, 0.28763625025749207, -0.18084974586963654, -0.054791159927845, 0.26392805576324463, 0.22217626869678497, 0.009453575126826763, -0.08548641949892044, 0.19813649356365204, 0.015961715951561928, -0.20013613998889923, 0.21549314260482788, 0.08197422325611115, 0.026979301124811172, 0.1781001091003418, 0.06742946803569794, 0.045844677835702896, 0.08559317141771317, -0.08584099262952805, -0.23109416663646698, 0.0833592563867569, 0.03031439147889614, 0.0008444276172667742, -0.04550761729478836, 0.02234538272023201, -0.02464647963643074, 0.05777860805392265, 0.0030196583829820156, 0.022471552714705467, -0.10531952232122421, -0.04487096145749092, 0.011445942334830761, -0.007697754539549351, -0.10656056553125381, -0.12107739597558975, 0.01794443465769291, 0.12593819200992584, 0.25369852781295776, -0.3915445804595947, 0.018782760947942734, -0.2813931107521057, -0.09189500659704208, 0.03696221485733986, -0.1780078262090683, 0.0432635098695755, 0.1557057648897171, -0.4999280571937561, -0.13097339868545532, -0.09151902794837952, 0.31100165843963623, 0.006210737861692905, 0.44972750544548035, -0.14871908724308014, -0.14779405295848846, 0.21214653551578522, -0.08347097039222717, -0.058554407209157944, 0.3710026741027832, -0.036217499524354935, 0.01388898678123951, -0.2684968113899231, -0.036353785544633865, 0.10582160204648972, -0.3202248811721802, 0.007416445761919022, -0.3424958884716034, 0.80441814661026, -0.5162336826324463, -0.33342039585113525, -0.3043787479400635, -0.2039210945367813, 0.08011025935411453, -0.09150104969739914, 0.03596075624227524, -0.015135723166167736, -0.04142145812511444, -0.07912705838680267, 0.15743088722229004, -0.5396612882614136, 0.13016624748706818, -0.3597230911254883, 0.10234974324703217, -0.2701919972896576, -0.02280537411570549, -0.08314311504364014, -0.33820924162864685, 0.2208307683467865, -0.01364681776612997, 0.10567328333854675, -0.2952607572078705, 0.14617083966732025, -0.32680433988571167, -0.3625160753726959, -0.1238178163766861, 0.16662797331809998, -0.0935581773519516, 0.9385866522789001, -0.32917529344558716, 0.02037191018462181, 0.14992353320121765, 0.1619320809841156, -0.07009918987751007, -0.15388299524784088, 0.2798926532268524, -0.13447241485118866, -0.06070103868842125, 0.2459465116262436, -0.17184962332248688, 0.07372872531414032, 0.1885921210050583, -0.04923507198691368, 0.21397508680820465, -0.0707821175456047, 0.3765175938606262, -0.24731752276420593, -0.002210592618212104, -0.009771588258445263, 0.04141873121261597, 0.14711491763591766, 0.12400240451097488, 0.09632653743028641, -0.02820744179189205, 0.031997017562389374, -0.1597130000591278, 0.12834486365318298, 0.009588574059307575, 0.134844571352005, -0.20866961777210236, -0.10285385698080063, -0.10469203442335129, 0.10640924423933029, -0.17773181200027466, -0.08075274527072906, 0.124567411839962, -0.19759729504585266, 0.2818296551704407, -0.3120949864387512, -0.022577621042728424, -0.0736292377114296, 0.11149261891841888, 0.1791425198316574, -0.30377739667892456, 0.042815569788217545, -0.2541937232017517, -0.3435836136341095, 0.2860746383666992, -0.037390775978565216, 0.04578318074345589, 0.14155758917331696, -0.038617074489593506, -0.004961154889315367, 0.004011364188045263, -0.13022321462631226, -0.034676071256399155, 0.23142576217651367, -0.006017838604748249, 0.059927817434072495, -0.019640488550066948, -0.17965200543403625, -0.09567395597696304, 0.03233270347118378, 0.011271530762314796, -0.16131001710891724, -0.5604701042175293, 1.0258984565734863, 0.39533504843711853, -0.35437464714050293, 0.09046296775341034, -0.2045649290084839, 0.11528356373310089, 0.9458137154579163, -1.0193123817443848, 0.8848658800125122, 0.6254482269287109, -0.17157527804374695, -0.2989792227745056, 0.033708274364471436, -0.8883172869682312, 0.18790456652641296, -0.19205226004123688, 0.10789478570222855, -0.2345859557390213, 0.24652034044265747, 0.33112645149230957, 0.1521652489900589, 0.11159948259592056, 0.05327514559030533, 0.24383854866027832, 0.15143659710884094, 0.05984504893422127, -0.08392403274774551, -0.03445513918995857, -0.008110028691589832, -0.13894298672676086, 0.10391239076852798, 0.33630916476249695, 0.04512087255716324, -0.06386114656925201, 0.2895664572715759, 0.2190321534872055, 0.05550125241279602, -0.21718910336494446, -0.2334906905889511, -0.001014894456602633, -0.0059648179449141026, -0.15586668252944946, 0.03636650741100311, 0.18564444780349731, -0.1361052542924881, -0.1626279503107071, 0.11546139419078827, -0.06857563555240631, 0.038549527525901794, -0.3603483736515045, 0.08726672828197479, -0.08110848069190979, -0.009395935572683811, -0.19308023154735565, -0.2581963539123535, 0.27741539478302, -0.07874041050672531, 0.26915663480758667, 0.3137763738632202, -0.1312500387430191, 0.10040318220853806, 0.22262991964817047, 0.1466735601425171, -0.44546836614608765, 0.20578533411026, 0.07970474660396576, -0.21923618018627167, 0.07116685062646866, -0.3418046236038208, 0.39348679780960083, 0.2062721848487854, -0.0531793013215065, 0.007380475755780935, 0.3305392861366272, 0.02780272625386715, 0.0027124613989144564, 0.02462434023618698, -0.2632974684238434, 0.12530167400836945, 0.013642050325870514, 0.13988111913204193, 0.03352615609765053, 0.021569961681962013, -0.219310462474823, 0.004642024170607328, -0.11101919412612915, 0.24433687329292297, -0.05225956067442894, -0.1543826013803482, 0.046146903187036514, -0.0747557058930397, -0.2068193405866623, 0.12279081344604492, -0.11537397652864456, 0.10355439782142639, 0.07973058521747589, 0.01259812992066145, -0.22395147383213043, -0.048512157052755356, 0.0741022601723671, 0.4064382016658783, 0.019434861838817596, -0.1475425809621811, 0.013855567201972008, 0.28574228286743164, -0.12763439118862152, 0.14578503370285034, 0.273537278175354, 0.1801079958677292, 0.3816303312778473, -0.017497263848781586, 0.3953641951084137, -0.2047492265701294, -0.03285812959074974, -0.049213677644729614, -0.044910117983818054, -0.01061864010989666, -0.06046434864401817, -0.23846623301506042, -0.025295792147517204, 0.34294426441192627, -0.1465102881193161, -0.08832363784313202, -0.019520120695233345, 0.32878953218460083, -0.1388663500547409, 0.12866690754890442, 0.08865193277597427, -0.1909674108028412, -0.12777714431285858, -0.02122545801103115, -0.08558325469493866, 0.10784559696912766, -0.11450860649347305, -0.00019361518207006156, 0.07997538894414902, 0.23244807124137878, 0.28285127878189087, -0.06607576459646225, 0.18578267097473145, 0.01578361727297306, 0.2777732312679291, -0.23392407596111298, -0.10371159017086029, -0.08042368292808533, 0.06651443243026733, 0.42462748289108276, -0.05721762403845787, -0.10127701610326767, 0.36124876141548157, -0.1782292127609253, 0.20461870729923248, -0.18731732666492462, 0.2147742360830307, -0.1960049569606781, -0.170707568526268, -0.056710321456193924, 0.037223074585199356, 0.265738308429718, -0.12452983856201172, -0.2256494015455246, 0.36768004298210144, 0.18911665678024292, 0.1643858253955841, -0.17548143863677979, -0.10813192278146744, 0.10124507546424866, -0.15670552849769592, 0.06456094980239868, -0.1322440356016159, -0.11586815118789673, 0.0069411988370120525, 0.02507411688566208, -0.19698819518089294, 0.21867084503173828, -0.17497621476650238, -0.1538608819246292, -0.23591236770153046, -0.048960451036691666, 0.07838868349790573, 0.13701209425926208, 0.26366373896598816, 0.2853894829750061, 0.042332328855991364, -0.3159233629703522, -0.008362249471247196, -0.05555418133735657, -0.03851868212223053, 0.2734561562538147, 0.4735366702079773, -0.2633664011955261, -0.38673698902130127, -0.19541577994823456, -0.040941573679447174, 0.09147660434246063, 0.1145881712436676, 0.20662568509578705, -0.07223138958215714, -0.28015682101249695, -0.028495483100414276, -0.004140297882258892, 0.5061237812042236, -0.16833354532718658, -0.3618936538696289, 0.3129136860370636, -0.06214834377169609, 0.07859967648983002, 0.25399842858314514, -0.31100720167160034, -0.015808049589395523, 0.021601581946015358, 0.29335445165634155, -0.07082779705524445, 0.1097223237156868, 0.13566911220550537, -0.19458529353141785, 0.17402318120002747, -0.067352794110775, -0.09569907933473587, 0.19890552759170532, -0.4763665199279785, 0.16767147183418274, -0.17738425731658936, -0.15093648433685303, -0.1230662390589714, -0.028121713548898697, -0.01645379327237606, 0.018992001190781593, 0.06472919136285782, 0.1413741409778595, 0.10714150220155716, 0.13479077816009521, -0.24204905331134796, -0.19160355627536774, -0.16088642179965973, 0.3165943920612335, 0.15728864073753357, 0.31279656291007996, -0.06478060036897659, 0.1089438647031784, -0.0827062726020813, -0.1617330014705658, -0.09314718842506409, 0.014894643798470497, 0.19453813135623932, -0.426265686750412, 0.30056431889533997, 0.1775812953710556, 0.2490861415863037, 0.10101664066314697, 0.022113623097538948, 0.17977122962474823, 0.014466742984950542, 0.13160718977451324, -0.08884367346763611, -0.022990262135863304, -0.06424520164728165, -0.35643014311790466, 0.018030358478426933, 0.0868840366601944, -0.04124310985207558, -0.3812910318374634, -0.00565006397664547, 0.2782045602798462, 0.43031826615333557, 0.05761213228106499, -0.05833661928772926, -0.10713255405426025, 0.07211718708276749, 0.076457180082798, 0.05934971570968628, 0.018311381340026855, 0.08788277208805084, -0.11550753563642502, -0.005387322045862675, 0.21675552427768707, 0.0777149572968483, 0.061395853757858276, -0.24354039132595062, -0.08706050366163254, -0.04681362584233284, 0.06868860870599747, 0.07455186545848846, -0.044378142803907394, -0.022297870367765427, 0.050768814980983734, 0.1211453378200531, -0.2921312153339386, -0.08142935484647751, -0.019049430266022682, -0.0861559808254242, 0.15320080518722534, 0.20842841267585754, -0.36694711446762085, 0.002765902318060398, -0.004792756401002407, -0.1931658387184143, -0.05896404758095741, 0.11652664840221405, 0.044771622866392136, -0.1215963214635849, 0.09817065298557281, -0.10823612660169601, 0.043678417801856995, 0.15292775630950928, -0.0023330501280725002, 0.05729173496365547, -0.2617183327674866, 0.10155945271253586, 0.04208999499678612, -0.04755453020334244, -0.2638247013092041, -0.06646718084812164, -0.13452039659023285, 0.15873771905899048, -0.07529380172491074, -0.42307329177856445, -0.40055084228515625, 0.12724751234054565, 0.3334295153617859, -0.21116790175437927, -0.05619705095887184, 0.09370725601911545, 0.001972127938643098, 0.08845038712024689, -0.1933140605688095, -0.2905343770980835, -0.167922705411911, 0.015135941095650196, -0.3019574284553528, -0.1398743838071823, 0.14795084297657013, -0.17817333340644836, 0.0292393509298563, -0.06028865650296211, 0.3157617747783661, 0.11735464632511139, 0.3159192204475403, -0.21943481266498566, -0.03399898484349251, -0.021302130073308945, -0.3126474916934967, -0.00971788540482521, -0.34375014901161194, -0.4540526866912842, -0.029495153576135635, -0.0231986865401268, -0.21722352504730225, 0.2158212810754776, 0.3872304856777191, -0.5669318437576294, 0.16762493550777435, -0.02013178914785385, 0.22433032095432281, 0.013235527090728283, -0.04678203538060188, 0.024421656504273415, -0.10515428334474564, 0.09536892175674438, 0.21304196119308472, 0.0834767073392868, 0.19754913449287415, 0.42598429322242737, 0.010952658951282501, 0.07102471590042114, 0.1743772178888321, -0.008838198147714138, -0.12544776499271393, -0.1556878387928009, -0.24875308573246002, 0.08551289141178131, 0.13810814917087555, -0.4396200180053711, -0.015014934353530407, -0.05920838192105293, -0.2231391966342926, 0.02616102434694767, 0.3233148455619812, -0.002896571531891823, -0.2651090621948242, -0.11637354642152786, 0.04018140956759453, 0.2834906280040741, -0.5483964085578918, -0.0732952132821083, 0.015601836144924164, 0.06268424540758133, -0.13693809509277344, -0.11809643357992172, 0.1348557323217392, -0.028368404135107994, -0.05758790299296379, 0.42920172214508057, -0.17256955802440643, 0.13539530336856842, -0.2373175323009491, -0.058528754860162735, -0.18809810280799866, -0.13138896226882935, -0.18399377167224884, -0.07494588941335678, 0.07175263017416, -0.07853930443525314, -0.03878048062324524, -0.23087142407894135, 0.18084828555583954, -0.07331480085849762, 0.278635710477829, -0.008245518431067467, -0.0237586572766304, 0.07670988887548447, 0.06700003892183304, 0.05696534737944603, -0.11741458624601364, 0.16540057957172394, -0.07964538037776947, 0.18033729493618011, -0.14451824128627777, 0.3281787037849426, 0.02854374423623085, -0.22090040147304535, -0.13988882303237915, 0.01070957537740469, -0.058287620544433594, 0.05839895084500313, -0.024985190480947495, -0.09087683260440826, -0.07160203158855438, 0.2275608777999878, 0.14424534142017365, -0.060505207628011703, -0.13205485045909882, 0.17734307050704956, 0.12559154629707336, 0.02605624683201313, -0.017090437933802605, 0.18383832275867462, -0.06612513214349747, -0.09755261242389679, 0.3389514684677124, 0.04442710429430008, -0.33003324270248413, 0.0059969015419483185, -0.0025674551725387573, -0.11112222075462341, -0.19898414611816406, -0.14786702394485474, 0.01281630527228117, 0.26157328486442566, 0.0032230415381491184, -0.03474981710314751, -0.13571478426456451, -0.04418615624308586, 0.28910619020462036, 0.18551303446292877, -0.11328943818807602, -0.13007867336273193, -0.14975614845752716, -0.03205198794603348, 0.07303253561258316, 0.13340677320957184, 0.07547200471162796, -0.0822640135884285, 0.14406147599220276, 0.08860472589731216, 0.2840364873409271, 0.07687363028526306, 0.15075087547302246, -0.04672686383128166, 0.24312835931777954, 0.04839670658111572, -0.23939086496829987, -0.03509073331952095, 0.0378752127289772, 0.08891813457012177, -0.32533740997314453, 0.1517513394355774, 0.15379104018211365, 0.005452501121908426, -0.01690107025206089, -0.043391283601522446, 0.027246426790952682, 0.20538745820522308, -0.052047282457351685, -0.17043504118919373, 0.4990979731082916, 0.0013270891504362226, -0.09955264627933502, -0.3425169587135315, 0.010264740325510502, 0.07752159982919693, -0.16553381085395813, -0.04840920493006706, -0.0672696903347969, 0.2693835496902466, 0.25713518261909485, -0.15132354199886322, -0.022436780855059624, 0.10797763615846634, 0.07829241454601288, -0.04743307828903198, -0.03434121981263161, -0.1501093953847885, 0.20966169238090515, -0.09579747915267944, -0.15225949883460999, -0.5484462380409241, 0.029885469004511833, 0.15955789387226105, 0.12009807676076889, -0.06454194337129593, -0.22024565935134888, -0.04923291504383087, -0.03974200040102005, -0.13544462621212006, 0.15843376517295837, -0.012266600504517555, -0.019913967698812485, -0.0038607041351497173, -0.11886488646268845, 0.08022650331258774, -0.3834596872329712, 0.05636109784245491, 0.04548497498035431, 0.10793279111385345, -0.05391435697674751, -0.06550540030002594, 0.09310285747051239, -0.07775621116161346, -0.1487148255109787, 0.12729845941066742, -0.24828004837036133, -0.05034448206424713, 0.5141981840133667, 0.003501421306282282, -0.19709157943725586, 0.1422075778245926, -0.2166552096605301, 0.08045435696840286, -0.15021203458309174, -0.03927052393555641, -0.03939483314752579, -0.12760093808174133, -0.003455944824963808, -0.06424650549888611, 0.020979829132556915, -0.09467417746782303, 0.028300849720835686, -0.16765549778938293, 0.04274259880185127, -0.11597969383001328, 0.21637986600399017, -0.09818919003009796, -0.07857061177492142, -0.08528491109609604, -0.0207002405077219, 0.02390643022954464, 0.04448499158024788, -0.13593050837516785, 0.07820253074169159, 0.06528893858194351, 0.08878830820322037, -0.05873405933380127, 0.012516768649220467, -0.21619930863380432, 0.04499812051653862, 0.06899528950452805, -0.08861031383275986, -0.044790834188461304, 0.22190293669700623, -0.025849206373095512, 0.03476511687040329, 0.17415475845336914, -0.016738999634981155, 0.25064361095428467, -0.1139143854379654, -0.22764769196510315, -0.11468911170959473, -0.2642820179462433, 0.1518399715423584, 0.005306413397192955, -0.03196100518107414, 0.21254128217697144, -0.04144373536109924, -0.432101845741272, 0.06750920414924622, -0.10371249914169312, 0.10395122319459915, -0.0568934828042984, -0.20538856089115143, -0.027883052825927734, 0.14233076572418213, -0.1524984985589981, -0.09845594316720963, -0.023266129195690155, 0.2539127469062805, 0.18461503088474274, -0.1550832986831665, 0.04471754655241966, 0.01308754738420248, 0.12819872796535492, 0.05968925356864929, 0.07723335921764374, 0.15382860600948334, 0.037567686289548874, -0.02239610068500042, 0.03730948641896248, 0.5681200623512268, -0.097052201628685, -0.1206890270113945, -0.15196821093559265, -0.24440109729766846, 0.22493918240070343, -0.11586213111877441, 0.03404947742819786, 0.02605559676885605, -0.26108741760253906, 0.11918773502111435, 0.17384213209152222, 0.22403058409690857, 0.10049037635326385, -0.290835440158844, -0.10199383646249771, -0.2316942662000656, 0.07817769795656204, 0.24105943739414215, -0.07362610101699829, 0.05070139467716217, 0.0517631471157074, -0.4293825924396515, 0.05950291082262993, -0.042205195873975754, 0.11824263632297516, -0.01721852831542492, -0.14460217952728271, 0.1392197459936142, -0.20025284588336945, -0.21012702584266663, -0.10764829069375992, -0.1664673089981079, 0.24719396233558655, -0.21933391690254211, 0.10586744546890259, -0.23126381635665894, 0.047293052077293396, 0.07503257691860199, 0.19468729197978973, -0.05381585285067558, 0.05033169314265251, -0.0843597948551178, 0.1333160251379013, 0.10179508477449417, 0.026029517874121666, -0.15744376182556152, -0.05704817175865173, 0.014818308874964714, -0.24650433659553528, 0.2910975217819214, -0.010657954961061478, 0.3013547360897064, -0.08891483396291733, 0.11827924847602844, -0.18688121438026428, -0.023891350254416466, -0.05585632100701332, -0.21347273886203766, 0.012122208252549171, -0.05740414187312126, -0.23094569146633148, 0.10159586369991302, -0.05301318317651749, 0.05816705897450447, 0.020121771842241287, 0.19573169946670532, -0.13067401945590973, 0.08001882582902908, 0.11979641765356064, -0.30249708890914917, 0.12927620112895966, 0.0015266041737049818, 0.06024178862571716, 0.2051910012960434, -0.11980052292346954, -0.0014448774745687842, 0.1334020048379898, -0.017514601349830627, 0.23229500651359558, -0.053133297711610794, -0.020854569971561432, -0.131243035197258, -0.09876129776239395, -0.1413409560918808, -0.08637924492359161, -0.256305068731308, 0.04162721335887909, -0.03163696080446243, -0.029539890587329865, 0.019278693944215775, 0.1902308464050293, -0.047417737543582916, 0.23448872566223145, 0.012010296806693077, -0.02356320060789585, 0.09064742177724838, -0.09732667356729507, 0.0615043118596077, 0.15949974954128265, -0.008014664985239506, -0.2701524794101715, -0.06723213940858841, 0.029511217027902603, -0.06914420425891876, 0.049815427511930466, -0.07916871458292007, -0.17893336713314056, -0.0674942135810852, -0.1803976595401764, 0.10610027611255646, 0.07054755091667175, -0.6025586128234863, -0.22505280375480652, 0.027613166719675064, -0.21221747994422913, 0.25079426169395447, 0.17445780336856842, -0.2837400436401367, 0.14872917532920837, -0.05892905965447426, -0.09768757224082947, -0.30747437477111816, 0.02408890426158905, -0.07923754304647446, 0.16229471564292908, -0.04498184472322464, -0.11826149374246597, -0.06260306388139725, 0.10673753172159195, 0.019059792160987854, 0.34221339225769043, 0.07425028830766678, 0.1699126660823822, 0.0041494425386190414, -0.0016046685632318258, 0.0172848142683506, 0.008968068286776543, -0.08816663175821304, 0.32068562507629395, 0.06760967522859573, 0.18589073419570923, 0.2480742335319519, 0.04213440418243408, 0.09678550064563751, 0.10920685529708862, -0.07923316210508347, 0.18042203783988953, 0.19728755950927734, 0.3109223544597626, -0.08652792125940323, 0.22195221483707428, 0.02157263457775116, 0.022876989096403122, 0.32336556911468506, 0.08602407574653625, 0.08073867112398148, -0.040735874325037, 0.0460549034178257, -0.10149550437927246, -0.17354926466941833, 0.4388852119445801, 0.12761197984218597, 0.015919728204607964, -0.03308696672320366, -0.028161432594060898, 0.02973879687488079, 0.18510128557682037, 0.2016042172908783, 0.035689886659383774, -0.4604923725128174, -0.09661977738142014, -0.08333319425582886, 0.21301980316638947, 0.21390743553638458, 0.1277153640985489, 0.3842443823814392, 0.19302842020988464, 0.2553725242614746, -0.07351242005825043, -0.07654499262571335, 0.02731989696621895, 0.32488757371902466, 0.019552983343601227, 0.08241880685091019, -0.09941580891609192, -0.045117177069187164, -0.060458987951278687, 0.06768494844436646, 0.2868591845035553, 0.19663631916046143, -0.06257466971874237, -0.021370070055127144, 0.05284973978996277, -0.20527753233909607, 0.09555961191654205, -0.13499945402145386, 0.1890372633934021, 0.21864527463912964, -0.03215567395091057, -0.1342800259590149, 0.03244923800230026, 0.2450421303510666, 0.16825167834758759, -0.00868881493806839, 0.19908422231674194, 0.015315329656004906, -0.012308615259826183, -0.09812545031309128, -0.05326928198337555, 0.09914816170930862, -0.07727129757404327, 0.033123619854450226, 0.0756678581237793, -0.42373770475387573, 0.18825215101242065, 0.3934275805950165, -0.20627735555171967, 0.21269623935222626, -0.2056407928466797, 0.08010998368263245, -0.037136260420084, -0.05240519717335701, -0.14906181395053864, -0.1916181743144989, 0.027515040710568428, -0.14348329603672028, 0.05779113993048668, 0.14785102009773254, 0.1163816824555397, 0.0660921186208725, -0.07596394419670105, -0.3372371196746826, 0.035507455468177795, 0.03150143474340439, 0.265015184879303, 0.28777655959129333, 0.07866568118333817, -0.26235654950141907, 0.003882503602653742, 0.17624743282794952, -0.21739649772644043, 0.10995666682720184, -0.12607139348983765, 0.4028928577899933, 0.1170300841331482, 0.09526265412569046, -0.16154678165912628, 0.16222481429576874, -0.15106579661369324, -0.3422612249851227, 0.10123135894536972, 0.07969944924116135, -0.1105438843369484, 0.15363697707653046, 0.053958311676979065, 0.25359368324279785, 0.2375154197216034, 0.12392620742321014, -0.220625638961792, -0.5201665759086609, 0.29895469546318054, -0.36050572991371155, -0.23905806243419647, 0.05017378181219101, 0.09491933882236481, -0.21712961792945862, -0.1566765457391739, 0.5894164443016052, 0.08097703009843826, -0.05603206902742386, 0.2173938751220703, 0.10503134876489639, 0.13687342405319214, -0.20460471510887146, -0.43439966440200806, -0.12652555108070374, 0.0895584300160408, 0.3200453519821167, 0.08184049278497696, -0.44453197717666626, -0.5224104523658752, -0.1960097700357437, -0.017354898154735565, -0.07095373421907425, -0.06286852061748505, -0.30967849493026733, -0.45807570219039917, 0.22098077833652496, -0.67738938331604, 0.19276277720928192, -0.18247438967227936, -0.3967905044555664, -0.2468823492527008, 0.15863868594169617, -0.39150598645210266, -0.266107439994812, -0.08044219017028809, -0.2530256509780884, 0.01307124923914671, 0.22815801203250885, -0.10704462230205536, 0.1634962260723114, -0.10021855682134628, -0.003178898710757494, -0.12369655817747116, -0.07637499272823334, 0.14602772891521454, 0.0853348970413208, -0.19506677985191345, 0.4283462464809418, 0.037356697022914886, -0.13183265924453735, -0.4562176465988159, -0.22089222073554993, 0.10024116188287735, 0.024375777691602707, 0.08458516746759415, 0.3174187242984772, 0.23477888107299805, 0.09225215017795563, -0.260450541973114, 0.3137839734554291, 0.2726917564868927, -0.1161336675286293, 0.0215862188488245, -0.06732892245054245, -0.2128797471523285, -0.08223585784435272, 0.10166550427675247, -0.006467590574175119, -0.34856659173965454, 0.027813047170639038, 0.04433467984199524, 0.13795974850654602, -0.09309051930904388, 0.06254211813211441, 0.058977238833904266, -0.02884555235505104, 0.003619272029027343, -0.03240847587585449, 0.048010267317295074, -0.05505681037902832, -0.10794414579868317, 0.0991075411438942, -0.03271077945828438, -0.09135869145393372, 0.056092843413352966, 0.11792273819446564, 0.2884679436683655, 0.04350140690803528, -0.178934246301651, 0.05785786360502243, -0.08154399693012238, -0.17737802863121033, 0.1805940866470337, -0.06646093726158142, -0.11621366441249847, 0.5837844014167786, 0.06146854907274246, -0.1934092491865158, 0.004650760907679796, 0.17381460964679718, 0.05603019520640373, -0.306674599647522, -0.04945136606693268, 0.11748161166906357, 0.17116588354110718, -0.03634484112262726, -0.042755648493766785, -0.08637364953756332, 0.06345799565315247, -0.20347483456134796, -0.189784973859787, -0.05701082572340965, -0.09216377139091492, 0.3955939710140228, 0.10829536616802216, -0.11452268064022064, -0.3190009593963623, -0.025747371837496758, -0.08035175502300262, 0.053799986839294434, -0.01917918026447296, -0.005531298462301493, 0.15779900550842285, -0.108307383954525, 0.05489524081349373, 0.11337012052536011, -0.009836369194090366, -0.0063788495026528835, 0.3053603768348694, -0.0056095183826982975, -0.11292390525341034, 0.016617972403764725, -0.17748911678791046, -0.11534300446510315, 0.2898451089859009, -0.09110971540212631, -0.0668686032295227, 0.00905315950512886, 0.25543728470802307, 0.07264463603496552, 0.0028431001119315624, 0.035995397716760635, 0.0876942053437233, -0.40359556674957275, -0.044788431376218796, 0.09129989892244339, -0.022329190745949745, 0.06557367742061615, -0.08566389232873917, 0.3470836877822876, -0.018500028178095818, -0.10976097732782364, -0.20925754308700562, -0.020394518971443176, 0.09929441660642624, -0.018485158681869507, -0.019427824765443802, -0.30630698800086975, 0.07187554985284805, -0.15795433521270752, 0.20588955283164978, -0.15811772644519806, 0.005264980718493462, -0.3484202027320862, 0.006183783523738384, 0.18081723153591156, -0.16747061908245087, -0.08402981609106064, -0.08058492094278336, 0.13509148359298706, -0.11976301670074463, 0.09126503020524979, -0.18860019743442535, -0.3657425343990326, 0.3307996392250061, -0.2058042287826538, -0.2342064380645752, 0.010910913348197937, -0.06143593043088913, -0.3354855179786682, 0.008615904487669468, 0.033343564718961716, -0.10935211181640625, 0.17059269547462463, 0.06420079618692398, -0.14194926619529724, 0.07074196636676788, 0.06401202827692032, 0.2473805546760559, 0.09340494126081467, -0.16117823123931885, -0.2034563571214676, 0.08452948927879333, 0.23485901951789856, 0.14731234312057495, -0.0031247942242771387, 0.13384313881397247, 0.18500296771526337, -0.04760018736124039, 0.05074240639805794, 0.6714923977851868, -0.034791067242622375, 0.6491140127182007, -1.0417048931121826, -0.45619478821754456, 0.19439958035945892, 0.3429451882839203, -0.06300138682126999, 0.12664823234081268, 0.2166936695575714, -0.8964100480079651, 0.41041821241378784, 0.04925943538546562, -0.7264976501464844, -0.06680713593959808, -0.4811534881591797, -0.1751338690519333, -0.321401447057724, 0.30736303329467773, -0.32412436604499817, 0.21688342094421387, 0.38350120186805725, 0.054081130772829056, -0.3832848370075226, -0.38667547702789307, 0.17500075697898865, -0.2973114252090454, -0.10595284402370453, -0.01262019295245409, 0.11026685684919357, 0.12542977929115295, -0.17666415870189667, -0.3291788697242737, 0.030119694769382477, 0.032582201063632965, 0.018091803416609764, 0.011260614730417728, 0.09686269611120224, -0.16412508487701416, -0.09465233981609344, -0.3297233581542969, -0.24949777126312256, -0.23707221448421478, -0.026724813506007195, -0.1081964373588562, 0.13291606307029724, 0.3323369026184082, 0.12369736284017563, 0.051303911954164505, 0.27584564685821533, -0.31306183338165283, 0.1265954077243805, -0.15330614149570465, -0.22179368138313293, -0.4253130853176117, 0.28203916549682617, 0.2255849689245224, -0.19920527935028076, -0.06460712105035782, -0.12489909678697586, 0.07914764434099197, 0.008029353804886341, 0.10787263512611389, 0.17790016531944275, -0.2452411651611328, -0.05435624718666077, -0.2251194268465042, 0.3691933751106262, 0.11915537714958191, 0.3507158160209656, 0.18173833191394806, -0.0004991252208128572, -0.2468155026435852, -0.04417392238974571, 0.12174505740404129, -0.19324930012226105, 0.13249759376049042, 0.2552257478237152, -0.012070818804204464, -0.22589659690856934, 0.39416608214378357, 0.05732853710651398, -0.16097021102905273, 0.01932363025844097, -0.0856177881360054, -0.2886161208152771, 0.13955338299274445, -0.020180877298116684, 0.29477256536483765, 0.15087367594242096, 0.11448132991790771, 0.24516774713993073, -0.12078844010829926, -0.2723836898803711, -0.22365817427635193, 0.1174129769206047, -0.2890370190143585, 0.07510790973901749, -0.16249114274978638, -0.09634187072515488, -0.3631836771965027, 0.11775267869234085, 0.04362020269036293, 0.07618026435375214, 0.20314329862594604, 0.035087112337350845, -0.255471795797348, 0.2560940980911255, 0.07121772319078445, 0.20534425973892212, -0.24163445830345154, 0.3119310736656189, -0.02703808806836605, -0.16272011399269104, -0.06051790714263916, 0.12315850704908371, -0.1345948725938797, -0.07289890199899673, 0.21678122878074646, 0.19524414837360382, -0.11577999591827393, -0.18696051836013794, 0.17391882836818695, 0.014363979920744896, 0.37199416756629944, 0.11714338511228561, 0.1831323653459549, 0.39496809244155884, 0.050594862550497055, 0.21570362150669098, -0.26205891370773315, -0.10979054868221283, 0.34405943751335144, -0.2576812505722046, 0.18715374171733856, 0.023696294054389, 0.1840197741985321, 0.14840161800384521, -0.07332181185483932, -0.023659544065594673, -0.13243864476680756, -0.023778999224305153, 0.20971637964248657, -0.04999682679772377, -0.23942598700523376, -0.11236804723739624, 0.08100063353776932, -0.12029260396957397, 0.3004421889781952, 0.24008587002754211, -0.20506711304187775, -0.2540896534919739, -0.042391687631607056, 0.20628520846366882, 0.07411208003759384, -0.18257437646389008, 0.1690165251493454, 0.4118816554546356, 0.0929611474275589, -0.025683114305138588, 0.1735130101442337, 0.32779181003570557, 0.10550457239151001, -0.08205471187829971, -0.2772137224674225, 0.08367162942886353, -0.43107280135154724, 0.2006646692752838, -0.438291996717453, -0.1713535189628601, 0.2147851586341858, -0.13243228197097778, 0.07189888507127762, -0.09756860136985779, 0.2036782056093216, 0.1204560324549675, -0.1426812708377838, 0.21009263396263123, -0.09907527267932892, 0.030708827078342438, -0.024270324036478996, -0.021074600517749786, 0.05067816004157066, -0.20965418219566345, 0.16785651445388794, 0.3417954742908478, -0.06563804298639297, -0.0031486337538808584, -0.17683561146259308, 0.1672651469707489, -0.09009934961795807, -0.04681302234530449, -0.014282098971307278, 0.20098678767681122, -0.1668158322572708, -0.3513677418231964, 0.03214402124285698, -0.10269398987293243, 0.6013283133506775, -0.22889934480190277, -0.20145079493522644, 0.19218555092811584, 0.38519906997680664, 0.08904170989990234, -0.21207484602928162, 0.11053360253572464, -0.14937326312065125, -0.18760627508163452, 0.03608943149447441, 0.4505358040332794, 0.25302717089653015, -0.07445000857114792, -0.2073342353105545, 0.4120866060256958, -0.07334127277135849, -0.18606577813625336, 0.01260390691459179, -0.13675637543201447, -0.2152230590581894, -0.46483108401298523, -0.2666245996952057, -0.14334140717983246, 0.24982978403568268, -0.6197345852851868, 0.15123535692691803, 0.11125819385051727, 0.15317964553833008, 0.6874842643737793, 0.08730011433362961, -0.11240894347429276, -0.2901986241340637, 0.08673001825809479, 0.2597503364086151, 0.48741045594215393, 0.22135603427886963, 0.007808016613125801, -0.1616697907447815, -0.3790607452392578, -0.3435381352901459, 0.20262913405895233, 0.325945109128952, 0.03724631667137146, 0.21840517222881317, -0.013858012855052948, -0.271275132894516, -0.4069381654262543, -0.004885050002485514, 0.27062156796455383, -0.007850724272429943, -0.00023245740158017725, -0.21716488897800446, 0.12418436259031296, 0.13329944014549255, -0.08442334085702896, -0.03301750123500824, 0.21682627499103546, -0.24179241061210632, 0.27511873841285706, -0.20236270129680634, -0.04004240408539772, -0.13892711699008942, -0.24593091011047363, 0.25768980383872986, -0.09644249081611633, -0.1290363073348999, 0.07741772383451462, -0.17054542899131775, -0.18733108043670654, 0.1200462058186531, -0.0012550862738862634, 0.2932758331298828, 0.09785085916519165, -0.2059280276298523, 0.03425789251923561, 0.11658832430839539, -0.12059486657381058, 0.0573689229786396, 0.057587478309869766, 0.012003096751868725, -0.0005968885379843414, -0.2928179204463959, 0.1954461634159088, -0.07007301598787308, 0.004979508463293314, 0.1708219349384308, -0.22198957204818726, 0.1718667894601822, 0.11645861715078354, 0.07179045677185059, 0.05267361178994179, -0.4111798405647278, -0.07749366015195847, 0.15918883681297302, -0.14755798876285553, -0.014743099920451641, 0.0335976779460907, 0.26654160022735596, 0.07290082424879074, -0.04709014669060707, -0.19387833774089813, -0.010569358244538307, -0.009225079789757729, -0.004523697309195995, 0.11636117845773697, -0.1928442418575287, 0.30783021450042725, -0.002079485449939966, 0.12033262103796005, -0.00501165259629488, 0.1256946474313736, -0.11996980756521225, -0.3002995550632477, 0.1859135776758194, -0.02941606193780899, -0.01583307608962059, -0.026271698996424675, -0.010095401667058468, 0.21143534779548645, 0.17425884306430817, 0.07914372533559799, 0.014776493422687054, 0.13909240067005157, 0.08488799631595612, -0.27554410696029663, -0.13574355840682983, -0.042134273797273636, 0.01848781108856201, -0.02688739076256752, 0.038967423141002655, -0.0021064761094748974, 0.06858213245868683, -0.02035483904182911, 0.2527233064174652, 0.015526287257671356, -0.031399328261613846, -0.03860781714320183, -0.20864814519882202, -0.06416051089763641, 0.5434088706970215, 0.12240836024284363, -0.2875705361366272, 0.2500501275062561, -0.11760622262954712, -0.07879235595464706, -0.07791773229837418, 0.03005291521549225, 0.12181979417800903, 0.24356257915496826, 0.06998351216316223, 0.07548067718744278, -0.21788188815116882, -0.04272157698869705, 0.009010960347950459, -0.0886186882853508, -0.14927756786346436, -0.18687765300273895, -0.08303850889205933, -0.2926480174064636, -0.3828282654285431, -0.5438452959060669, -0.10160314291715622, -0.023365234956145287, 0.24646885693073273, -0.12070608139038086, 0.10285411030054092, 0.03755388781428337, 0.10134486109018326, -0.37581416964530945, 0.10992231965065002, -0.28936609625816345, -0.2989559769630432, -0.034637462347745895, 0.12365475296974182, -0.1176982969045639, 0.27886274456977844, 0.019093070179224014, -0.15643411874771118, -0.031237581744790077, -0.012779139913618565, 0.035315901041030884, -0.3473811745643616, -0.15996624529361725, -0.03137759864330292, -0.14912374317646027, -0.15906457602977753, -0.06034812331199646, 0.06417176872491837, 0.13801194727420807, 0.2857849597930908, 0.12869839370250702, 0.17132768034934998, 0.20075221359729767, -0.056565508246421814, 0.06738118827342987, 0.08386129140853882, -0.15977321565151215, -0.10918630659580231, -0.1682223081588745, -0.07297836989164352, -0.08133504539728165, 0.11710561811923981, 0.21264266967773438, 0.08042874932289124, -0.02278800867497921, 0.007867780514061451, -0.002383600454777479, -0.30743101239204407, -0.0210325438529253, 0.08829459547996521, -0.17843174934387207, -0.08488114923238754, 0.1816796213388443, 0.013279149308800697, 0.18266978859901428, 0.1404750794172287, 0.13257341086864471, 0.09053409099578857, -0.23068445920944214, 0.14036925137043, 0.2964121103286743, 0.11208584159612656, -0.11776556074619293, 0.1780708283185959, 0.09093250334262848, -0.11357514560222626, -0.07089072465896606, 0.03865668177604675, 0.07800038903951645, 0.14080651104450226, -0.04186907783150673, -0.304768443107605, 0.16116592288017273, 0.22181983292102814, -0.02873113937675953, 0.2434040606021881, 0.035938482731580734, -0.05572013929486275, -0.16315120458602905, 0.16920307278633118, 0.05087816342711449, -0.006296094506978989, 0.1534503698348999, -0.33498355746269226, 0.01482334453612566, -0.019108444452285767, 0.18425673246383667, -0.030789662152528763, 0.02316412702202797, 0.1580824851989746, 0.361532986164093, 0.25033190846443176, -0.6976742744445801, 0.13822220265865326, -0.4264291822910309, 0.4040978252887726, -0.1193588450551033, 0.15037287771701813, -0.16974522173404694, 0.05220118910074234, -0.3595464825630188, -0.11594243347644806, 0.1291593611240387, 0.1688409000635147, 0.1677299290895462, 0.013595398515462875, 0.2434317171573639, 0.09449850767850876, 0.34602728486061096, -0.08632972091436386, 0.025359630584716797, 0.023774614557623863, -0.08967407047748566, 0.04050860553979874, -0.5243239402770996, 0.1896391361951828, 0.0027675372548401356, 0.1720089614391327, 0.20701009035110474, 0.004463165998458862, 0.2857781946659088, 0.043971892446279526, 0.2870681881904602, -0.0203052069991827, 0.07014459371566772, 0.3078638017177582, 0.11672613769769669, 0.3312532305717468, -0.12607643008232117, 0.27733170986175537, -0.11077673733234406, 0.187700554728508, 0.11238706111907959, 0.006111638154834509, -0.12023082375526428, 0.039369940757751465, 0.10117044299840927, -0.28360629081726074, -0.18041567504405975, -0.11609342694282532, 0.10949153453111649, -0.1501190960407257, 0.044422492384910583, 0.030778370797634125, -0.2101055085659027, 0.031282875686883926, 0.09945226460695267, 0.129102885723114, 0.39167147874832153, 0.21094046533107758, 0.49541687965393066, -0.07983095943927765, 0.26644304394721985, -0.027659041807055473, -0.0521061010658741, 0.300158828496933, -0.48707491159439087, -0.1673610508441925, 0.19734925031661987, -0.013783304020762444, 0.052487194538116455, 0.40919339656829834, 0.1312204748392105, 0.025046680122613907, -0.13746464252471924, 0.11148487776517868, -0.03332309052348137, -0.18124157190322876, 0.0935031995177269, -0.054176852107048035, 0.13400119543075562, -0.33322879672050476, -0.11623875796794891, -0.041791316121816635, 0.14855650067329407, -0.029659360647201538, -0.05514823645353317, -0.0887555405497551, -0.19445161521434784, 0.014153363183140755, 0.2111251950263977, -0.1315501630306244, 0.11381225287914276, -0.07395368069410324, -0.00710288155823946, -0.11500171571969986, -0.1421244740486145, 0.007032038643956184, -0.09732533246278763, -0.04487282410264015, 0.10448646545410156, 0.21201539039611816, -0.4648241698741913, -0.06046527251601219, -0.09664998203516006, 0.05680018663406372, -0.008611203171312809, -0.04975808784365654, -0.10754092037677765, 0.05271518602967262, 0.07301130890846252, 0.04265974834561348, 0.08500081300735474, 0.15043425559997559, -0.15298676490783691, 0.02713010460138321, -0.07083296775817871, -0.3814053237438202, -0.24680128693580627, 0.004205038771033287, 0.20361165702342987, -0.023773193359375, 0.02192527987062931, -0.12328515946865082, 0.14506185054779053, 0.030910145491361618, -0.08700507879257202, 0.02421940490603447, -0.07258736342191696, 0.29050496220588684, 0.03903266414999962, -0.12895992398262024, 0.02359601855278015, 0.024284373968839645, -0.06377676129341125, -0.21804437041282654, -0.23599907755851746, -0.023719612509012222, 0.1607644408941269, 0.04594440758228302, 0.23205362260341644, -0.09108034521341324, 0.09354985505342484, 0.22185376286506653, -0.16253848373889923, -0.044417012482881546, 0.0001203790889121592, -0.40194064378738403, -0.006855810061097145, 0.0236689280718565, 0.3953826129436493, -0.137121319770813, -0.021813420578837395, 0.22759968042373657, 0.2033270299434662, 0.05875002220273018, -0.13447584211826324, -0.06968771666288376, -0.0380978062748909, 0.12902294099330902, -0.02799772284924984, -0.15980742871761322, 0.11827508360147476, 0.08568145334720612, 0.18973949551582336, 0.4850947856903076, -0.1200452372431755, -0.1395505666732788, 0.060142554342746735, -0.08996403217315674, -0.17067721486091614,